{"learner":{"attributes":{},"feature_names":[],"feature_types":[],"gradient_booster":{"model":{"gbtree_model_param":{"num_parallel_tree":"1","num_trees":"1500"},"iteration_indptr":[0,2,4,6,8,10,12,14,16,18,20,22,24,26,28,30,32,34,36,38,40,42,44,46,48,50,52,54,56,58,60,62,64,66,68,70,72,74,76,78,80,82,84,86,88,90,92,94,96,98,100,102,104,106,108,110,112,114,116,118,120,122,124,126,128,130,132,134,136,138,140,142,144,146,148,150,152,154,156,158,160,162,164,166,168,170,172,174,176,178,180,182,184,186,188,190,192,194,196,198,200,202,204,206,208,210,212,214,216,218,220,222,224,226,228,230,232,234,236,238,240,242,244,246,248,250,252,254,256,258,260,262,264,266,268,270,272,274,276,278,280,282,284,286,288,290,292,294,296,298,300,302,304,306,308,310,312,314,316,318,320,322,324,326,328,330,332,334,336,338,340,342,344,346,348,350,352,354,356,358,360,362,364,366,368,370,372,374,376,378,380,382,384,386,388,390,392,394,396,398,400,402,404,406,408,410,412,414,416,418,420,422,424,426,428,430,432,434,436,438,440,442,444,446,448,450,452,454,456,458,460,462,464,466,468,470,472,474,476,478,480,482,484,486,488,490,492,494,496,498,500,502,504,506,508,510,512,514,516,518,520,522,524,526,528,530,532,534,536,538,540,542,544,546,548,550,552,554,556,558,560,562,564,566,568,570,572,574,576,578,580,582,584,586,588,590,592,594,596,598,600,602,604,606,608,610,612,614,616,618,620,622,624,626,628,630,632,634,636,638,640,642,644,646,648,650,652,654,656,658,660,662,664,666,668,670,672,674,676,678,680,682,684,686,688,690,692,694,696,698,700,702,704,706,708,710,712,714,716,718,720,722,724,726,728,730,732,734,736,738,740,742,744,746,748,750,752,754,756,758,760,762,764,766,768,770,772,774,776,778,780,782,784,786,788,790,792,794,796,798,800,802,804,806,808,810,812,814,816,818,820,822,824,826,828,830,832,834,836,838,840,842,844,846,848,850,852,854,856,858,860,862,864,866,868,870,872,874,876,878,880,882,884,886,888,890,892,894,896,898,900,902,904,906,908,910,912,914,916,918,920,922,924,926,928,930,932,934,936,938,940,942,944,946,948,950,952,954,956,958,960,962,964,966,968,970,972,974,976,978,980,982,984,986,988,990,992,994,996,998,1000,1002,1004,1006,1008,1010,1012,1014,1016,1018,1020,1022,1024,1026,1028,1030,1032,1034,1036,1038,1040,1042,1044,1046,1048,1050,1052,1054,1056,1058,1060,1062,1064,1066,1068,1070,1072,1074,1076,1078,1080,1082,1084,1086,1088,1090,1092,1094,1096,1098,1100,1102,1104,1106,1108,1110,1112,1114,1116,1118,1120,1122,1124,1126,1128,1130,1132,1134,1136,1138,1140,1142,1144,1146,1148,1150,1152,1154,1156,1158,1160,1162,1164,1166,1168,1170,1172,1174,1176,1178,1180,1182,1184,1186,1188,1190,1192,1194,1196,1198,1200,1202,1204,1206,1208,1210,1212,1214,1216,1218,1220,1222,1224,1226,1228,1230,1232,1234,1236,1238,1240,1242,1244,1246,1248,1250,1252,1254,1256,1258,1260,1262,1264,1266,1268,1270,1272,1274,1276,1278,1280,1282,1284,1286,1288,1290,1292,1294,1296,1298,1300,1302,1304,1306,1308,1310,1312,1314,1316,1318,1320,1322,1324,1326,1328,1330,1332,1334,1336,1338,1340,1342,1344,1346,1348,1350,1352,1354,1356,1358,1360,1362,1364,1366,1368,1370,1372,1374,1376,1378,1380,1382,1384,1386,1388,1390,1392,1394,1396,1398,1400,1402,1404,1406,1408,1410,1412,1414,1416,1418,1420,1422,1424,1426,1428,1430,1432,1434,1436,1438,1440,1442,1444,1446,1448,1450,1452,1454,1456,1458,1460,1462,1464,1466,1468,1470,1472,1474,1476,1478,1480,1482,1484,1486,1488,1490,1492,1494,1496,1498,1500],"tree_info":[0,1,0,1,0,1,0,1,0,1,0,1,0,1,0,1,0,1,0,1,0,1,0,1,0,1,0,1,0,1,0,1,0,1,0,1,0,1,0,1,0,1,0,1,0,1,0,1,0,1,0,1,0,1,0,1,0,1,0,1,0,1,0,1,0,1,0,1,0,1,0,1,0,1,0,1,0,1,0,1,0,1,0,1,0,1,0,1,0,1,0,1,0,1,0,1,0,1,0,1,0,1,0,1,0,1,0,1,0,1,0,1,0,1,0,1,0,1,0,1,0,1,0,1,0,1,0,1,0,1,0,1,0,1,0,1,0,1,0,1,0,1,0,1,0,1,0,1,0,1,0,1,0,1,0,1,0,1,0,1,0,1,0,1,0,1,0,1,0,1,0,1,0,1,0,1,0,1,0,1,0,1,0,1,0,1,0,1,0,1,0,1,0,1,0,1,0,1,0,1,0,1,0,1,0,1,0,1,0,1,0,1,0,1,0,1,0,1,0,1,0,1,0,1,0,1,0,1,0,1,0,1,0,1,0,1,0,1,0,1,0,1,0,1,0,1,0,1,0,1,0,1,0,1,0,1,0,1,0,1,0,1,0,1,0,1,0,1,0,1,0,1,0,1,0,1,0,1,0,1,0,1,0,1,0,1,0,1,0,1,0,1,0,1,0,1,0,1,0,1,0,1,0,1,0,1,0,1,0,1,0,1,0,1,0,1,0,1,0,1,0,1,0,1,0,1,0,1,0,1,0,1,0,1,0,1,0,1,0,1,0,1,0,1,0,1,0,1,0,1,0,1,0,1,0,1,0,1,0,1,0,1,0,1,0,1,0,1,0,1,0,1,0,1,0,1,0,1,0,1,0,1,0,1,0,1,0,1,0,1,0,1,0,1,0,1,0,1,0,1,0,1,0,1,0,1,0,1,0,1,0,1,0,1,0,1,0,1,0,1,0,1,0,1,0,1,0,1,0,1,0,1,0,1,0,1,0,1,0,1,0,1,0,1,0,1,0,1,0,1,0,1,0,1,0,1,0,1,0,1,0,1,0,1,0,1,0,1,0,1,0,1,0,1,0,1,0,1,0,1,0,1,0,1,0,1,0,1,0,1,0,1,0,1,0,1,0,1,0,1,0,1,0,1,0,1,0,1,0,1,0,1,0,1,0,1,0,1,0,1,0,1,0,1,0,1,0,1,0,1,0,1,0,1,0,1,0,1,0,1,0,1,0,1,0,1,0,1,0,1,0,1,0,1,0,1,0,1,0,1,0,1,0,1,0,1,0,1,0,1,0,1,0,1,0,1,0,1,0,1,0,1,0,1,0,1,0,1,0,1,0,1,0,1,0,1,0,1,0,1,0,1,0,1,0,1,0,1,0,1,0,1,0,1,0,1,0,1,0,1,0,1,0,1,0,1,0,1,0,1,0,1,0,1,0,1,0,1,0,1,0,1,0,1,0,1,0,1,0,1,0,1,0,1,0,1,0,1,0,1,0,1,0,1,0,1,0,1,0,1,0,1,0,1,0,1,0,1,0,1,0,1,0,1,0,1,0,1,0,1,0,1,0,1,0,1,0,1,0,1,0,1,0,1,0,1,0,1,0,1,0,1,0,1,0,1,0,1,0,1,0,1,0,1,0,1,0,1,0,1,0,1,0,1,0,1,0,1,0,1,0,1,0,1,0,1,0,1,0,1,0,1,0,1,0,1,0,1,0,1,0,1,0,1,0,1,0,1,0,1,0,1,0,1,0,1,0,1,0,1,0,1,0,1,0,1,0,1,0,1,0,1,0,1,0,1,0,1,0,1,0,1,0,1,0,1,0,1,0,1,0,1,0,1,0,1,0,1,0,1,0,1,0,1,0,1,0,1,0,1,0,1,0,1,0,1,0,1,0,1,0,1,0,1,0,1,0,1,0,1,0,1,0,1,0,1,0,1,0,1,0,1,0,1,0,1,0,1,0,1,0,1,0,1,0,1,0,1,0,1,0,1,0,1,0,1,0,1,0,1,0,1,0,1,0,1,0,1,0,1,0,1,0,1,0,1,0,1,0,1,0,1,0,1,0,1,0,1,0,1,0,1,0,1,0,1,0,1,0,1,0,1,0,1,0,1,0,1,0,1,0,1,0,1,0,1,0,1,0,1,0,1,0,1,0,1,0,1,0,1,0,1,0,1,0,1,0,1,0,1,0,1,0,1,0,1,0,1,0,1,0,1,0,1,0,1,0,1,0,1,0,1,0,1,0,1,0,1,0,1,0,1,0,1,0,1,0,1,0,1,0,1,0,1,0,1,0,1,0,1,0,1,0,1,0,1,0,1,0,1,0,1,0,1,0,1,0,1,0,1,0,1,0,1,0,1,0,1,0,1,0,1,0,1,0,1,0,1,0,1,0,1,0,1,0,1,0,1,0,1,0,1,0,1,0,1,0,1,0,1,0,1,0,1,0,1,0,1,0,1,0,1,0,1,0,1,0,1,0,1,0,1,0,1,0,1,0,1,0,1,0,1,0,1,0,1,0,1,0,1,0,1,0,1,0,1,0,1,0,1,0,1,0,1,0,1,0,1,0,1,0,1,0,1,0,1,0,1,0,1,0,1,0,1,0,1,0,1,0,1,0,1,0,1,0,1,0,1,0,1,0,1,0,1,0,1,0,1,0,1,0,1,0,1,0,1,0,1,0,1,0,1,0,1,0,1,0,1,0,1,0,1,0,1,0,1,0,1,0,1,0,1,0,1,0,1,0,1,0,1,0,1,0,1,0,1,0,1,0,1,0,1,0,1,0,1,0,1,0,1,0,1,0,1,0,1,0,1,0,1,0,1,0,1,0,1,0,1,0,1,0,1,0,1,0,1,0,1,0,1,0,1,0,1,0,1,0,1,0,1,0,1,0,1,0,1,0,1,0,1,0,1,0,1,0,1,0,1,0,1,0,1,0,1,0,1,0,1,0,1,0,1,0,1,0,1,0,1,0,1,0,1,0,1,0,1,0,1,0,1,0,1,0,1,0,1,0,1,0,1,0,1,0,1,0,1,0,1,0,1,0,1,0,1,0,1,0,1,0,1,0,1,0,1,0,1,0,1,0,1,0,1,0,1,0,1,0,1,0,1,0,1,0,1,0,1,0,1,0,1,0,1,0,1,0,1,0,1,0,1,0,1,0,1,0,1,0,1,0,1,0,1,0,1,0,1,0,1,0,1,0,1,0,1,0,1,0,1,0,1,0,1,0,1,0,1,0,1,0,1,0,1,0,1,0,1,0,1,0,1,0,1,0,1,0,1,0,1,0,1,0,1,0,1,0,1,0,1,0,1,0,1,0,1,0,1,0,1,0,1,0,1,0,1,0,1,0,1,0,1,0,1,0,1,0,1,0,1,0,1],"trees":[{"base_weights":[-1.4884233E-1,-2.8401807E-1,1.6577017E-1,-1.2524772E-1,-4.6300024E-1,-9.247649E-2,2.8267047E-1,-2.8329897E-3,2.0968357E-4,-3.5965932E-3,-6.0359407E-3,6.291834E-4,-3.1073445E-3,4.4072396E-3,1.8038529E-3],"categories":[],"categories_nodes":[],"categories_segments":[],"categories_sizes":[],"default_left":[0,0,0,0,0,0,0,0,0,0,0,0,0,0,0],"id":0,"left_children":[1,3,5,7,9,11,13,-1,-1,-1,-1,-1,-1,-1,-1],"loss_changes":[2.8934363E2,1.3516458E2,6.1762867E1,5.8311543E1,3.2277252E1,2.1658062E1,2.2682983E1,0E0,0E0,0E0,0E0,0E0,0E0,0E0,0E0],"parents":[2147483647,0,0,1,1,2,2,3,3,4,4,5,5,6,6],"right_children":[2,4,6,8,10,12,14,-1,-1,-1,-1,-1,-1,-1,-1],"split_conditions":[2E1,1.4E1,-2E0,1E1,2.3E1,-4.1E0,-6.2E0,-2.8329897E-3,2.0968357E-4,-3.5965932E-3,-6.0359407E-3,6.291834E-4,-3.1073445E-3,4.4072396E-3,1.8038529E-3],"split_indices":[28,80,77,51,80,25,25,0,0,0,0,0,0,0,0],"split_type":[0,0,0,0,0,0,0,0,0,0,0,0,0,0,0],"sum_hessian":[6.8015E3,4.7575E3,2.044E3,2.522E3,2.2355E3,6.37E2,1.407E3,1.2115E3,1.3105E3,1.2905E3,9.45E2,3.725E2,2.645E2,5.515E2,8.555E2],"tree_param":{"num_deleted":"0","num_feature":"106","num_nodes":"15","size_leaf_vector":"1"}},{"base_weights":[1.4884233E-1,2.8401807E-1,-1.6577017E-1,1.2524772E-1,4.6300024E-1,9.247649E-2,-2.8267047E-1,2.8329897E-3,-2.0968357E-4,3.5965932E-3,6.0359407E-3,-6.291834E-4,3.1073445E-3,-4.4072396E-3,-1.8038529E-3],"categories":[],"categories_nodes":[],"categories_segments":[],"categories_sizes":[],"default_left":[0,0,0,0,0,0,0,0,0,0,0,0,0,0,0],"id":1,"left_children":[1,3,5,7,9,11,13,-1,-1,-1,-1,-1,-1,-1,-1],"loss_changes":[2.8934363E2,1.3516458E2,6.1762867E1,5.8311543E1,3.2277252E1,2.1658062E1,2.2682983E1,0E0,0E0,0E0,0E0,0E0,0E0,0E0,0E0],"parents":[2147483647,0,0,1,1,2,2,3,3,4,4,5,5,6,6],"right_children":[2,4,6,8,10,12,14,-1,-1,-1,-1,-1,-1,-1,-1],"split_conditions":[2E1,1.4E1,-2E0,1E1,2.3E1,-4.1E0,-6.2E0,2.8329897E-3,-2.0968357E-4,3.5965932E-3,6.0359407E-3,-6.291834E-4,3.1073445E-3,-4.4072396E-3,-1.8038529E-3],"split_indices":[28,80,77,51,80,25,25,0,0,0,0,0,0,0,0],"split_type":[0,0,0,0,0,0,0,0,0,0,0,0,0,0,0],"sum_hessian":[6.8015E3,4.7575E3,2.044E3,2.522E3,2.2355E3,6.37E2,1.407E3,1.2115E3,1.3105E3,1.2905E3,9.45E2,3.725E2,2.645E2,5.515E2,8.555E2],"tree_param":{"num_deleted":"0","num_feature":"106","num_nodes":"15","size_leaf_vector":"1"}},{"base_weights":[-1.4735687E-1,-2.811841E-1,1.6411561E-1,-1.239968E-1,-4.5838508E-1,-9.155601E-2,2.7985087E-1,-2.8047063E-3,2.0758828E-4,-3.5607012E-3,-5.975864E-3,7.0901355E-4,-2.9624626E-3,4.3633324E-3,1.785841E-3],"categories":[],"categories_nodes":[],"categories_segments":[],"categories_sizes":[],"default_left":[0,0,0,0,0,0,0,0,0,0,0,0,0,0,0],"id":2,"left_children":[1,3,5,7,9,11,13,-1,-1,-1,-1,-1,-1,-1,-1],"loss_changes":[2.8359497E2,1.3248352E2,6.0537148E1,5.7152725E1,3.1639526E1,2.123661E1,2.2233673E1,0E0,0E0,0E0,0E0,0E0,0E0,0E0,0E0],"parents":[2147483647,0,0,1,1,2,2,3,3,4,4,5,5,6,6],"right_children":[2,4,6,8,10,12,14,-1,-1,-1,-1,-1,-1,-1,-1],"split_conditions":[2E1,1.4E1,-2E0,1E1,2.3E1,-4.3E0,-6.2E0,-2.8047063E-3,2.0758828E-4,-3.5607012E-3,-5.975864E-3,7.0901355E-4,-2.9624626E-3,4.3633324E-3,1.785841E-3],"split_indices":[28,80,77,51,80,25,25,0,0,0,0,0,0,0,0],"split_type":[0,0,0,0,0,0,0,0,0,0,0,0,0,0,0],"sum_hessian":[6.801423E3,4.757439E3,2.0439838E3,2.52199E3,2.2354487E3,6.369973E2,1.4069865E3,1.2114902E3,1.3104999E3,1.2904833E3,9.449655E2,3.5549985E2,2.8149744E2,5.5148926E2,8.554972E2],"tree_param":{"num_deleted":"0","num_feature":"106","num_nodes":"15","size_leaf_vector":"1"}},{"base_weights":[1.4735684E-1,2.8118408E-1,-1.6411561E-1,1.2399676E-1,4.5838505E-1,9.155601E-2,-2.7985087E-1,2.8047054E-3,-2.0758828E-4,3.5607016E-3,5.9758625E-3,-7.0901355E-4,2.9624626E-3,-4.3633324E-3,-1.7858412E-3],"categories":[],"categories_nodes":[],"categories_segments":[],"categories_sizes":[],"default_left":[0,0,0,0,0,0,0,0,0,0,0,0,0,0,0],"id":3,"left_children":[1,3,5,7,9,11,13,-1,-1,-1,-1,-1,-1,-1,-1],"loss_changes":[2.8359497E2,1.3248343E2,6.0537148E1,5.71527E1,3.1639587E1,2.123661E1,2.223368E1,0E0,0E0,0E0,0E0,0E0,0E0,0E0,0E0],"parents":[2147483647,0,0,1,1,2,2,3,3,4,4,5,5,6,6],"right_children":[2,4,6,8,10,12,14,-1,-1,-1,-1,-1,-1,-1,-1],"split_conditions":[2E1,1.4E1,-2E0,1E1,2.3E1,-4.3E0,-6.2E0,2.8047054E-3,-2.0758828E-4,3.5607016E-3,5.9758625E-3,-7.0901355E-4,2.9624626E-3,-4.3633324E-3,-1.7858412E-3],"split_indices":[28,80,77,51,80,25,25,0,0,0,0,0,0,0,0],"split_type":[0,0,0,0,0,0,0,0,0,0,0,0,0,0,0],"sum_hessian":[6.801423E3,4.757439E3,2.0439838E3,2.5219902E3,2.235449E3,6.369973E2,1.4069866E3,1.2114902E3,1.3104999E3,1.2904833E3,9.449656E2,3.5549985E2,2.8149744E2,5.5148926E2,8.5549725E2],"tree_param":{"num_deleted":"0","num_feature":"106","num_nodes":"15","size_leaf_vector":"1"}},{"base_weights":[-1.4588943E-1,-2.783854E-1,1.6248013E-1,-5.150083E-1,-1.6260523E-1,-9.0645134E-2,2.7706456E-1,-3.8595928E-3,-6.0866494E-3,-3.5997634E-3,-4.6622075E-4,6.175091E-4,-3.0469883E-3,4.3200264E-3,1.7680201E-3],"categories":[],"categories_nodes":[],"categories_segments":[],"categories_sizes":[],"default_left":[0,0,0,0,0,0,0,0,0,0,0,0,0,0,0],"id":4,"left_children":[1,3,5,7,9,11,13,-1,-1,-1,-1,-1,-1,-1,-1],"loss_changes":[2.7796747E2,1.3027463E2,5.9336887E1,1.8654022E1,7.3154785E1,2.0830631E1,2.1795357E1,0E0,0E0,0E0,0E0,0E0,0E0,0E0,0E0],"parents":[2147483647,0,0,1,1,2,2,3,3,4,4,5,5,6,6],"right_children":[2,4,6,8,10,12,14,-1,-1,-1,-1,-1,-1,-1,-1],"split_conditions":[2E1,-1.4E0,-2E0,2.3E1,8E0,-4.1E0,-6.2E0,-3.8595928E-3,-6.0866494E-3,-3.5997634E-3,-4.6622075E-4,6.175091E-4,-3.0469883E-3,4.3200264E-3,1.7680201E-3],"split_indices":[28,77,77,80,51,25,25,0,0,0,0,0,0,0,0],"split_type":[0,0,0,0,0,0,0,0,0,0,0,0,0,0,0],"sum_hessian":[6.8011953E3,4.757259E3,2.043936E3,1.5618395E3,3.1954197E3,6.369895E2,1.4069465E3,6.5896967E2,9.028698E2,1.1819557E3,2.0134639E3,3.7249927E2,2.6449023E2,5.514576E2,8.55489E2],"tree_param":{"num_deleted":"0","num_feature":"106","num_nodes":"15","size_leaf_vector":"1"}},{"base_weights":[1.4588942E-1,2.7838543E-1,-1.6248019E-1,5.1500833E-1,1.6260524E-1,9.0645075E-2,-2.7706465E-1,3.8595928E-3,6.0866503E-3,3.5997634E-3,4.662209E-4,-6.1750936E-4,3.0469873E-3,-4.3200264E-3,-1.7680213E-3],"categories":[],"categories_nodes":[],"categories_segments":[],"categories_sizes":[],"default_left":[0,0,0,0,0,0,0,0,0,0,0,0,0,0,0],"id":5,"left_children":[1,3,5,7,9,11,13,-1,-1,-1,-1,-1,-1,-1,-1],"loss_changes":[2.7796756E2,1.3027466E2,5.933689E1,1.8654053E1,7.315478E1,2.0830624E1,2.1795334E1,0E0,0E0,0E0,0E0,0E0,0E0,0E0,0E0],"parents":[2147483647,0,0,1,1,2,2,3,3,4,4,5,5,6,6],"right_children":[2,4,6,8,10,12,14,-1,-1,-1,-1,-1,-1,-1,-1],"split_conditions":[2E1,-1.4E0,-2E0,2.3E1,8E0,-4.1E0,-6.2E0,3.8595928E-3,6.0866503E-3,3.5997634E-3,4.662209E-4,-6.1750936E-4,3.0469873E-3,-4.3200264E-3,-1.7680213E-3],"split_indices":[28,77,77,80,51,25,25,0,0,0,0,0,0,0,0],"split_type":[0,0,0,0,0,0,0,0,0,0,0,0,0,0,0],"sum_hessian":[6.801195E3,4.757259E3,2.0439362E3,1.5618394E3,3.1954194E3,6.3698956E2,1.4069465E3,6.589696E2,9.0286975E2,1.1819556E3,2.0134639E3,3.724993E2,2.6449026E2,5.514576E2,8.55489E2],"tree_param":{"num_deleted":"0","num_feature":"106","num_nodes":"15","size_leaf_vector":"1"}},{"base_weights":[-1.4443977E-1,1.1864248E-1,-2.9685608E-1,-1.3328618E-1,2.354894E-1,-5.398365E-1,-1.8135816E-1,6.7782204E-4,-3.0466476E-3,8.499604E-4,3.394229E-3,-3.0330156E-3,-5.82598E-3,-3.5786591E-3,-6.1529345E-4],"categories":[],"categories_nodes":[],"categories_segments":[],"categories_sizes":[],"default_left":[0,0,0,0,0,0,0,0,0,0,0,0,0,0,0],"id":6,"left_children":[1,3,5,7,9,11,13,-1,-1,-1,-1,-1,-1,-1,-1],"loss_changes":[2.727754E2,7.350091E1,1.20773224E2,2.729274E1,2.6645447E1,1.3853912E1,6.1756058E1,0E0,0E0,0E0,0E0,0E0,0E0,0E0,0E0],"parents":[2147483647,0,0,1,1,2,2,3,3,4,4,5,5,6,6],"right_children":[2,4,6,8,10,12,14,-1,-1,-1,-1,-1,-1,-1,-1],"split_conditions":[4.58E-1,-2E0,-1.4E0,-4.8E0,2.4E1,8E0,8E0,6.7782204E-4,-3.0466476E-3,8.499604E-4,3.394229E-3,-3.0330156E-3,-5.82598E-3,-3.5786591E-3,-6.1529345E-4],"split_indices":[3,77,77,25,51,54,51,0,0,0,0,0,0,0,0],"split_type":[0,0,0,0,0,0,0,0,0,0,0,0,0,0,0],"sum_hessian":[6.8008364E3,2.494815E3,4.3060215E3,7.904401E2,1.704375E3,1.3861704E3,2.9198508E3,3.6399304E2,4.2644708E2,6.9698065E2,1.0073943E3,2.1346767E2,1.1727028E3,1.1798889E3,1.739962E3],"tree_param":{"num_deleted":"0","num_feature":"106","num_nodes":"15","size_leaf_vector":"1"}},{"base_weights":[1.4443974E-1,-1.1864253E-1,2.9685605E-1,1.332862E-1,-2.3548947E-1,5.398365E-1,1.8135811E-1,-6.778224E-4,3.046648E-3,-8.499613E-4,-3.3942296E-3,3.0330154E-3,5.8259796E-3,3.5786591E-3,6.1529264E-4],"categories":[],"categories_nodes":[],"categories_segments":[],"categories_sizes":[],"default_left":[0,0,0,0,0,0,0,0,0,0,0,0,0,0,0],"id":7,"left_children":[1,3,5,7,9,11,13,-1,-1,-1,-1,-1,-1,-1,-1],"loss_changes":[2.7277545E2,7.3500946E1,1.2077319E2,2.7292755E1,2.6645424E1,1.3853973E1,6.1756104E1,0E0,0E0,0E0,0E0,0E0,0E0,0E0,0E0],"parents":[2147483647,0,0,1,1,2,2,3,3,4,4,5,5,6,6],"right_children":[2,4,6,8,10,12,14,-1,-1,-1,-1,-1,-1,-1,-1],"split_conditions":[4.58E-1,-2E0,-1.4E0,-4.8E0,2.4E1,8E0,8E0,-6.778224E-4,3.046648E-3,-8.499613E-4,-3.3942296E-3,3.0330154E-3,5.8259796E-3,3.5786591E-3,6.1529264E-4],"split_indices":[3,77,77,25,51,54,51,0,0,0,0,0,0,0,0],"split_type":[0,0,0,0,0,0,0,0,0,0,0,0,0,0,0],"sum_hessian":[6.8008364E3,2.4948152E3,4.3060215E3,7.904401E2,1.704375E3,1.3861705E3,2.9198508E3,3.6399307E2,4.2644708E2,6.9698065E2,1.00739435E3,2.1346768E2,1.1727028E3,1.1798889E3,1.739962E3],"tree_param":{"num_deleted":"0","num_feature":"106","num_nodes":"15","size_leaf_vector":"1"}},{"base_weights":[-1.430072E-1,-3.4535113E-1,5.186106E-2,-2.0259169E-1,-5.093993E-1,-2.1511717E-1,1.764751E-1,-2.743955E-3,-1.9151182E-4,-4.054032E-3,-6.53603E-3,5.713833E-4,-3.6141218E-3,5.7103584E-4,3.3005956E-3],"categories":[],"categories_nodes":[],"categories_segments":[],"categories_sizes":[],"default_left":[0,0,0,0,0,0,0,0,0,0,0,0,0,0,0],"id":8,"left_children":[1,3,5,7,9,11,13,-1,-1,-1,-1,-1,-1,-1,-1],"loss_changes":[2.6819818E2,7.804291E1,1.15334145E2,2.3517227E1,2.300943E1,4.3963543E1,4.3308563E1,0E0,0E0,0E0,0E0,0E0,0E0,0E0,0E0],"parents":[2147483647,0,0,1,1,2,2,3,3,4,4,5,5,6,6],"right_children":[2,4,6,8,10,12,14,-1,-1,-1,-1,-1,-1,-1,-1],"split_conditions":[1.5E1,1.4E1,-1.9E0,6E0,2.3E1,-4.8E0,2.4E1,-2.743955E-3,-1.9151182E-4,-4.054032E-3,-6.53603E-3,5.713833E-4,-3.6141218E-3,5.7103584E-4,3.3005956E-3],"split_indices":[51,80,77,77,80,25,51,0,0,0,0,0,0,0,0],"split_type":[0,0,0,0,0,0,0,0,0,0,0,0,0,0,0],"sum_hessian":[6.8003564E3,3.335807E3,3.4645496E3,1.7848307E3,1.5509762E3,1.1022715E3,2.362278E3,1.2823763E3,5.0245428E2,9.0332916E2,6.4764703E2,3.854875E2,7.16784E2,1.3299578E3,1.0323204E3],"tree_param":{"num_deleted":"0","num_feature":"106","num_nodes":"15","size_leaf_vector":"1"}},{"base_weights":[1.430072E-1,3.4535116E-1,-5.186108E-2,2.0259175E-1,5.093993E-1,2.1511714E-1,-1.7647511E-1,2.7439555E-3,1.9151239E-4,4.054032E-3,6.5360293E-3,-5.7138357E-4,3.6141216E-3,-5.710358E-4,-3.3005958E-3],"categories":[],"categories_nodes":[],"categories_segments":[],"categories_sizes":[],"default_left":[0,0,0,0,0,0,0,0,0,0,0,0,0,0,0],"id":9,"left_children":[1,3,5,7,9,11,13,-1,-1,-1,-1,-1,-1,-1,-1],"loss_changes":[2.6819824E2,7.804285E1,1.1533414E2,2.351722E1,2.300943E1,4.396354E1,4.330857E1,0E0,0E0,0E0,0E0,0E0,0E0,0E0,0E0],"parents":[2147483647,0,0,1,1,2,2,3,3,4,4,5,5,6,6],"right_children":[2,4,6,8,10,12,14,-1,-1,-1,-1,-1,-1,-1,-1],"split_conditions":[1.5E1,1.4E1,-1.9E0,6E0,2.3E1,-4.8E0,2.4E1,2.7439555E-3,1.9151239E-4,4.054032E-3,6.5360293E-3,-5.7138357E-4,3.6141216E-3,-5.710358E-4,-3.3005958E-3],"split_indices":[51,80,77,77,80,25,51,0,0,0,0,0,0,0,0],"split_type":[0,0,0,0,0,0,0,0,0,0,0,0,0,0,0],"sum_hessian":[6.8003564E3,3.335807E3,3.4645496E3,1.7848307E3,1.5509762E3,1.1022715E3,2.362278E3,1.2823763E3,5.0245428E2,9.0332916E2,6.4764703E2,3.8548752E2,7.16784E2,1.3299578E3,1.0323204E3],"tree_param":{"num_deleted":"0","num_feature":"106","num_nodes":"15","size_leaf_vector":"1"}},{"base_weights":[-1.4159144E-1,-2.7049285E-1,1.5838502E-1,-1.1831244E-1,-4.42117E-1,-8.711386E-2,2.6952443E-1,-2.6984727E-3,2.1848289E-4,-3.4401813E-3,-5.756494E-3,6.073703E-4,-2.9482993E-3,4.212106E-3,1.7139111E-3],"categories":[],"categories_nodes":[],"categories_segments":[],"categories_sizes":[],"default_left":[0,0,0,0,0,0,0,0,0,0,0,0,0,0,0],"id":10,"left_children":[1,3,5,7,9,11,13,-1,-1,-1,-1,-1,-1,-1,-1],"loss_changes":[2.6301068E2,1.241936E2,5.581052E1,5.3587345E1,2.9083984E1,1.9609276E1,2.088221E1,0E0,0E0,0E0,0E0,0E0,0E0,0E0,0E0],"parents":[2147483647,0,0,1,1,2,2,3,3,4,4,5,5,6,6],"right_children":[2,4,6,8,10,12,14,-1,-1,-1,-1,-1,-1,-1,-1],"split_conditions":[2E1,1.4E1,-2E0,1E1,2.3E1,-4.1E0,-6.2E0,-2.6984727E-3,2.1848289E-4,-3.4401813E-3,-5.756494E-3,6.073703E-4,-2.9482993E-3,4.212106E-3,1.7139111E-3],"split_indices":[28,80,77,51,80,25,25,0,0,0,0,0,0,0,0],"split_type":[0,0,0,0,0,0,0,0,0,0,0,0,0,0,0],"sum_hessian":[6.7997656E3,4.756131E3,2.0436351E3,2.5217585E3,2.2343723E3,6.3692664E2,1.4067085E3,1.2112692E3,1.3104894E3,1.2901482E3,9.442241E2,3.724949E2,2.644317E2,5.512855E2,8.55423E2],"tree_param":{"num_deleted":"0","num_feature":"106","num_nodes":"15","size_leaf_vector":"1"}},{"base_weights":[1.4159144E-1,2.7049282E-1,-1.5838498E-1,1.18312426E-1,4.42117E-1,8.711381E-2,-2.6952434E-1,2.6984725E-3,-2.1848308E-4,3.4401813E-3,5.756494E-3,-6.0737116E-4,2.9482993E-3,-4.2121047E-3,-1.7139106E-3],"categories":[],"categories_nodes":[],"categories_segments":[],"categories_sizes":[],"default_left":[0,0,0,0,0,0,0,0,0,0,0,0,0,0,0],"id":11,"left_children":[1,3,5,7,9,11,13,-1,-1,-1,-1,-1,-1,-1,-1],"loss_changes":[2.6301062E2,1.24193665E2,5.5810497E1,5.358735E1,2.9083984E1,1.9609283E1,2.0882187E1,0E0,0E0,0E0,0E0,0E0,0E0,0E0,0E0],"parents":[2147483647,0,0,1,1,2,2,3,3,4,4,5,5,6,6],"right_children":[2,4,6,8,10,12,14,-1,-1,-1,-1,-1,-1,-1,-1],"split_conditions":[2E1,1.4E1,-2E0,1E1,2.3E1,-4.1E0,-6.2E0,2.6984725E-3,-2.1848308E-4,3.4401813E-3,5.756494E-3,-6.0737116E-4,2.9482993E-3,-4.2121047E-3,-1.7139106E-3],"split_indices":[28,80,77,51,80,25,25,0,0,0,0,0,0,0,0],"split_type":[0,0,0,0,0,0,0,0,0,0,0,0,0,0,0],"sum_hessian":[6.7997656E3,4.756131E3,2.0436351E3,2.5217585E3,2.2343723E3,6.369266E2,1.4067085E3,1.2112692E3,1.3104894E3,1.2901482E3,9.4422406E2,3.7249487E2,2.644317E2,5.512855E2,8.55423E2],"tree_param":{"num_deleted":"0","num_feature":"106","num_nodes":"15","size_leaf_vector":"1"}},{"base_weights":[-1.4019236E-1,-3.3903623E-1,5.1282357E-2,-1.9884239E-1,-5.0019354E-1,-2.1061756E-1,1.7351213E-1,-2.8308677E-3,-4.5330374E-4,-3.980868E-3,-6.4184302E-3,5.638757E-4,-3.5413445E-3,5.656917E-4,3.2399863E-3],"categories":[],"categories_nodes":[],"categories_segments":[],"categories_sizes":[],"default_left":[0,0,0,0,0,0,0,0,0,0,0,0,0,0,0],"id":12,"left_children":[1,3,5,7,9,11,13,-1,-1,-1,-1,-1,-1,-1,-1],"loss_changes":[2.5891827E2,7.527045E1,1.10960175E2,2.3080338E1,2.2181213E1,4.2287937E1,4.156714E1,0E0,0E0,0E0,0E0,0E0,0E0,0E0,0E0],"parents":[2147483647,0,0,1,1,2,2,3,3,4,4,5,5,6,6],"right_children":[2,4,6,8,10,12,14,-1,-1,-1,-1,-1,-1,-1,-1],"split_conditions":[1.5E1,1.4E1,-1.9E0,5.1E0,2.3E1,-4.8E0,2.4E1,-2.8308677E-3,-4.5330374E-4,-3.980868E-3,-6.4184302E-3,5.638757E-4,-3.5413445E-3,5.656917E-4,3.2399863E-3],"split_indices":[51,80,77,77,80,25,51,0,0,0,0,0,0,0,0],"split_type":[0,0,0,0,0,0,0,0,0,0,0,0,0,0,0],"sum_hessian":[6.799015E3,3.334947E3,3.4640679E3,1.7846656E3,1.5502814E3,1.1020337E3,2.3620342E3,1.1517589E3,6.3290674E2,9.0310046E2,6.4718097E2,3.854789E2,7.1655475E2,1.3299257E3,1.0321085E3],"tree_param":{"num_deleted":"0","num_feature":"106","num_nodes":"15","size_leaf_vector":"1"}},{"base_weights":[1.4019237E-1,3.3903626E-1,-5.128234E-2,1.988424E-1,5.0019354E-1,2.1061757E-1,-1.7351212E-1,2.8308674E-3,4.5330444E-4,3.9808685E-3,6.4184302E-3,-5.638749E-4,3.5413445E-3,-5.656917E-4,-3.2399856E-3],"categories":[],"categories_nodes":[],"categories_segments":[],"categories_sizes":[],"default_left":[0,0,0,0,0,0,0,0,0,0,0,0,0,0,0],"id":13,"left_children":[1,3,5,7,9,11,13,-1,-1,-1,-1,-1,-1,-1,-1],"loss_changes":[2.5891824E2,7.527048E1,1.1096018E2,2.3080315E1,2.2181244E1,4.228793E1,4.1567123E1,0E0,0E0,0E0,0E0,0E0,0E0,0E0,0E0],"parents":[2147483647,0,0,1,1,2,2,3,3,4,4,5,5,6,6],"right_children":[2,4,6,8,10,12,14,-1,-1,-1,-1,-1,-1,-1,-1],"split_conditions":[1.5E1,1.4E1,-1.9E0,5.1E0,2.3E1,-4.8E0,2.4E1,2.8308674E-3,4.5330444E-4,3.9808685E-3,6.4184302E-3,-5.638749E-4,3.5413445E-3,-5.656917E-4,-3.2399856E-3],"split_indices":[51,80,77,77,80,25,51,0,0,0,0,0,0,0,0],"split_type":[0,0,0,0,0,0,0,0,0,0,0,0,0,0,0],"sum_hessian":[6.7990146E3,3.334947E3,3.4640679E3,1.7846656E3,1.5502814E3,1.1020337E3,2.3620342E3,1.1517589E3,6.3290674E2,9.031004E2,6.4718097E2,3.854789E2,7.165547E2,1.3299257E3,1.0321085E3],"tree_param":{"num_deleted":"0","num_feature":"106","num_nodes":"15","size_leaf_vector":"1"}},{"base_weights":[-1.3880979E-1,1.0475545E-1,-2.921107E-1,-1.3800742E-1,2.163989E-1,-5.2426267E-1,-1.813596E-1,6.5625727E-4,-2.9860262E-3,7.404706E-4,3.2641562E-3,-2.8934868E-3,-5.6783706E-3,-3.470554E-3,-6.259951E-4],"categories":[],"categories_nodes":[],"categories_segments":[],"categories_sizes":[],"default_left":[0,0,0,0,0,0,0,0,0,0,0,0,0,0,0],"id":14,"left_children":[1,3,5,7,9,11,13,-1,-1,-1,-1,-1,-1,-1,-1],"loss_changes":[2.5390332E2,7.123213E1,1.0719885E2,2.710352E1,2.816452E1,1.3626862E1,5.5603607E1,0E0,0E0,0E0,0E0,0E0,0E0,0E0,0E0],"parents":[2147483647,0,0,1,1,2,2,3,3,4,4,5,5,6,6],"right_children":[2,4,6,8,10,12,14,-1,-1,-1,-1,-1,-1,-1,-1],"split_conditions":[4.68E-1,-2E0,-1.4E0,-4.8E0,2.4E1,8E0,8E0,6.5625727E-4,-2.9860262E-3,7.404706E-4,3.2641562E-3,-2.8934868E-3,-5.6783706E-3,-3.470554E-3,-6.259951E-4],"split_indices":[3,77,77,25,51,54,51,0,0,0,0,0,0,0,0],"split_type":[0,0,0,0,0,0,0,0,0,0,0,0,0,0,0],"sum_hessian":[6.7981704E3,2.6261106E3,4.17206E3,8.271909E2,1.7989196E3,1.3462897E3,2.8257703E3,3.64985E2,4.6220593E2,7.8494446E2,1.01397516E3,2.1184631E2,1.1344434E3,1.178954E3,1.6468163E3],"tree_param":{"num_deleted":"0","num_feature":"106","num_nodes":"15","size_leaf_vector":"1"}},{"base_weights":[1.3880979E-1,-1.0475544E-1,2.921107E-1,1.3800745E-1,-2.1639891E-1,5.2426255E-1,1.813596E-1,-6.5625634E-4,2.9860262E-3,-7.404704E-4,-3.2641564E-3,2.8934865E-3,5.6783697E-3,3.4705538E-3,6.259954E-4],"categories":[],"categories_nodes":[],"categories_segments":[],"categories_sizes":[],"default_left":[0,0,0,0,0,0,0,0,0,0,0,0,0,0,0],"id":15,"left_children":[1,3,5,7,9,11,13,-1,-1,-1,-1,-1,-1,-1,-1],"loss_changes":[2.5390329E2,7.123215E1,1.0719879E2,2.7103504E1,2.8164528E1,1.3626862E1,5.5603592E1,0E0,0E0,0E0,0E0,0E0,0E0,0E0,0E0],"parents":[2147483647,0,0,1,1,2,2,3,3,4,4,5,5,6,6],"right_children":[2,4,6,8,10,12,14,-1,-1,-1,-1,-1,-1,-1,-1],"split_conditions":[4.68E-1,-2E0,-1.4E0,-4.8E0,2.4E1,8E0,8E0,-6.5625634E-4,2.9860262E-3,-7.404704E-4,-3.2641564E-3,2.8934865E-3,5.6783697E-3,3.4705538E-3,6.259954E-4],"split_indices":[3,77,77,25,51,54,51,0,0,0,0,0,0,0,0],"split_type":[0,0,0,0,0,0,0,0,0,0,0,0,0,0,0],"sum_hessian":[6.7981704E3,2.6261104E3,4.17206E3,8.271909E2,1.7989196E3,1.3462897E3,2.8257703E3,3.64985E2,4.6220593E2,7.849444E2,1.0139751E3,2.1184631E2,1.1344434E3,1.178954E3,1.6468162E3],"tree_param":{"num_deleted":"0","num_feature":"106","num_nodes":"15","size_leaf_vector":"1"}},{"base_weights":[-1.3744321E-1,-3.3274683E-1,5.0587345E-2,-1.9478093E-1,-4.9141997E-1,-2.062576E-1,1.7043987E-1,-2.652436E-3,-1.4801355E-4,-3.910203E-3,-6.3078557E-3,5.5242557E-4,-3.468729E-3,5.603315E-4,3.1770119E-3],"categories":[],"categories_nodes":[],"categories_segments":[],"categories_sizes":[],"default_left":[0,0,0,0,0,0,0,0,0,0,0,0,0,0,0],"id":16,"left_children":[1,3,5,7,9,11,13,-1,-1,-1,-1,-1,-1,-1,-1],"loss_changes":[2.496674E2,7.290665E1,1.0668337E2,2.2638474E1,2.14458E1,4.0567467E1,3.978875E1,0E0,0E0,0E0,0E0,0E0,0E0,0E0,0E0],"parents":[2147483647,0,0,1,1,2,2,3,3,4,4,5,5,6,6],"right_children":[2,4,6,8,10,12,14,-1,-1,-1,-1,-1,-1,-1,-1],"split_conditions":[1.5E1,1.4E1,-1.9E0,6E0,2.3E1,-4.8E0,2.4E1,-2.652436E-3,-1.4801355E-4,-3.910203E-3,-6.3078557E-3,5.5242557E-4,-3.468729E-3,5.603315E-4,3.1770119E-3],"split_indices":[51,80,77,77,80,25,51,0,0,0,0,0,0,0,0],"split_type":[0,0,0,0,0,0,0,0,0,0,0,0,0,0,0],"sum_hessian":[6.7971978E3,3.333739E3,3.4634585E3,1.7844188E3,1.5493202E3,1.1017273E3,2.3617312E3,1.2820269E3,5.02392E2,9.027675E2,6.4655273E2,3.8547412E2,7.162531E2,1.32991E3,1.0318213E3],"tree_param":{"num_deleted":"0","num_feature":"106","num_nodes":"15","size_leaf_vector":"1"}},{"base_weights":[1.374432E-1,3.3274683E-1,-5.0587352E-2,1.9478093E-1,4.9141997E-1,2.062576E-1,-1.7043988E-1,2.6524356E-3,1.4801414E-4,3.9102025E-3,6.3078552E-3,-5.524253E-4,3.4687289E-3,-5.6033203E-4,-3.1770116E-3],"categories":[],"categories_nodes":[],"categories_segments":[],"categories_sizes":[],"default_left":[0,0,0,0,0,0,0,0,0,0,0,0,0,0,0],"id":17,"left_children":[1,3,5,7,9,11,13,-1,-1,-1,-1,-1,-1,-1,-1],"loss_changes":[2.4966739E2,7.290668E1,1.0668338E2,2.2638466E1,2.144577E1,4.0567467E1,3.978871E1,0E0,0E0,0E0,0E0,0E0,0E0,0E0,0E0],"parents":[2147483647,0,0,1,1,2,2,3,3,4,4,5,5,6,6],"right_children":[2,4,6,8,10,12,14,-1,-1,-1,-1,-1,-1,-1,-1],"split_conditions":[1.5E1,1.4E1,-1.9E0,6E0,2.3E1,-4.8E0,2.4E1,2.6524356E-3,1.4801414E-4,3.9102025E-3,6.3078552E-3,-5.524253E-4,3.4687289E-3,-5.6033203E-4,-3.1770116E-3],"split_indices":[51,80,77,77,80,25,51,0,0,0,0,0,0,0,0],"split_type":[0,0,0,0,0,0,0,0,0,0,0,0,0,0,0],"sum_hessian":[6.7971978E3,3.333739E3,3.4634585E3,1.784419E3,1.5493202E3,1.1017272E3,2.3617312E3,1.2820269E3,5.02392E2,9.027675E2,6.4655273E2,3.854741E2,7.162531E2,1.32991E3,1.0318213E3],"tree_param":{"num_deleted":"0","num_feature":"106","num_nodes":"15","size_leaf_vector":"1"}},{"base_weights":[-1.3609257E-1,-2.6049718E-1,1.5335147E-1,-1.1335137E-1,-4.2658946E-1,-1.5789238E-1,2.357252E-1,-2.6043728E-3,2.2648863E-4,-3.3207326E-3,-5.5538593E-3,-2.6932254E-3,9.851524E-4,3.5792196E-3,1.1261989E-3],"categories":[],"categories_nodes":[],"categories_segments":[],"categories_sizes":[],"default_left":[0,0,0,0,0,0,0,0,0,0,0,0,0,0,0],"id":18,"left_children":[1,3,5,7,9,11,13,-1,-1,-1,-1,-1,-1,-1,-1],"loss_changes":[2.447915E2,1.1614435E2,5.2438587E1,5.0460575E1,2.6998352E1,1.22644825E1,2.427745E1,0E0,0E0,0E0,0E0,0E0,0E0,0E0,0E0],"parents":[2147483647,0,0,1,1,2,2,3,3,4,4,5,5,6,6],"right_children":[2,4,6,8,10,12,14,-1,-1,-1,-1,-1,-1,-1,-1],"split_conditions":[2E1,1.4E1,3.59E-1,1E1,2.3E1,2.7E1,-5.1E0,-2.6043728E-3,2.2648863E-4,-3.3207326E-3,-5.5538593E-3,-2.6932254E-3,9.851524E-4,3.5792196E-3,1.1261989E-3],"split_indices":[28,80,55,51,80,28,25,0,0,0,0,0,0,0,0],"split_type":[0,0,0,0,0,0,0,0,0,0,0,0,0,0,0],"sum_hessian":[6.796112E3,4.7532427E3,2.0428694E3,2.5212654E3,2.2319773E3,4.2732657E2,1.6155428E3,1.2108267E3,1.3104387E3,1.2893655E3,9.426118E2,2.978402E2,1.2948637E2,8.0980597E2,8.057369E2],"tree_param":{"num_deleted":"0","num_feature":"106","num_nodes":"15","size_leaf_vector":"1"}},{"base_weights":[1.360926E-1,2.604972E-1,-1.5335146E-1,1.1335141E-1,4.265895E-1,1.578924E-1,-2.3572518E-1,2.6043733E-3,-2.2648842E-4,3.3207329E-3,5.5538593E-3,2.6932256E-3,-9.851524E-4,-3.5792196E-3,-1.1261986E-3],"categories":[],"categories_nodes":[],"categories_segments":[],"categories_sizes":[],"default_left":[0,0,0,0,0,0,0,0,0,0,0,0,0,0,0],"id":19,"left_children":[1,3,5,7,9,11,13,-1,-1,-1,-1,-1,-1,-1,-1],"loss_changes":[2.4479156E2,1.1614429E2,5.243859E1,5.0460594E1,2.6998352E1,1.2264486E1,2.4277458E1,0E0,0E0,0E0,0E0,0E0,0E0,0E0,0E0],"parents":[2147483647,0,0,1,1,2,2,3,3,4,4,5,5,6,6],"right_children":[2,4,6,8,10,12,14,-1,-1,-1,-1,-1,-1,-1,-1],"split_conditions":[2E1,1.4E1,3.59E-1,1E1,2.3E1,2.7E1,-5.1E0,2.6043733E-3,-2.2648842E-4,3.3207329E-3,5.5538593E-3,2.6932256E-3,-9.851524E-4,-3.5792196E-3,-1.1261986E-3],"split_indices":[28,80,55,51,80,28,25,0,0,0,0,0,0,0,0],"split_type":[0,0,0,0,0,0,0,0,0,0,0,0,0,0,0],"sum_hessian":[6.796112E3,4.7532427E3,2.0428694E3,2.5212654E3,2.2319773E3,4.2732657E2,1.6155428E3,1.2108267E3,1.3104387E3,1.2893655E3,9.426118E2,2.9784018E2,1.2948637E2,8.098059E2,8.057369E2],"tree_param":{"num_deleted":"0","num_feature":"106","num_nodes":"15","size_leaf_vector":"1"}},{"base_weights":[-1.3475631E-1,-3.2672623E-1,5.002185E-2,-1.9118376E-1,-4.827104E-1,-2.0231394E-1,1.6774978E-1,-2.738182E-3,-4.0642684E-4,-3.840469E-3,-6.1977557E-3,5.427495E-4,-3.4035179E-3,5.567711E-4,3.1205036E-3],"categories":[],"categories_nodes":[],"categories_segments":[],"categories_sizes":[],"default_left":[0,0,0,0,0,0,0,0,0,0,0,0,0,0,0],"id":20,"left_children":[1,3,5,7,9,11,13,-1,-1,-1,-1,-1,-1,-1,-1],"loss_changes":[2.4108102E2,7.038068E1,1.0293005E2,2.2195778E1,2.0710999E1,3.9062817E1,3.8186844E1,0E0,0E0,0E0,0E0,0E0,0E0,0E0,0E0],"parents":[2147483647,0,0,1,1,2,2,3,3,4,4,5,5,6,6],"right_children":[2,4,6,8,10,12,14,-1,-1,-1,-1,-1,-1,-1,-1],"split_conditions":[1.5E1,1.4E1,-1.9E0,5.1E0,2.3E1,-4.8E0,2.4E1,-2.738182E-3,-4.0642684E-4,-3.840469E-3,-6.1977557E-3,5.427495E-4,-3.4035179E-3,5.567711E-4,3.1205036E-3],"split_indices":[51,80,77,77,80,25,51,0,0,0,0,0,0,0,0],"split_type":[0,0,0,0,0,0,0,0,0,0,0,0,0,0,0],"sum_hessian":[6.794943E3,3.3322402E3,3.4627026E3,1.7841387E3,1.5481016E3,1.1013568E3,2.361346E3,1.1513339E3,6.328048E2,9.023592E2,6.4574243E2,3.8545963E2,7.158972E2,1.329872E3,1.031474E3],"tree_param":{"num_deleted":"0","num_feature":"106","num_nodes":"15","size_leaf_vector":"1"}},{"base_weights":[1.3475633E-1,3.2672623E-1,-5.0021842E-2,1.9118378E-1,4.8271045E-1,2.0231396E-1,-1.6774976E-1,2.7381822E-3,4.0642684E-4,3.8404695E-3,6.1977557E-3,-5.427491E-4,3.4035174E-3,-5.5677094E-4,-3.1205036E-3],"categories":[],"categories_nodes":[],"categories_segments":[],"categories_sizes":[],"default_left":[0,0,0,0,0,0,0,0,0,0,0,0,0,0,0],"id":21,"left_children":[1,3,5,7,9,11,13,-1,-1,-1,-1,-1,-1,-1,-1],"loss_changes":[2.4108102E2,7.038068E1,1.0293004E2,2.2195786E1,2.0710968E1,3.906281E1,3.8186844E1,0E0,0E0,0E0,0E0,0E0,0E0,0E0,0E0],"parents":[2147483647,0,0,1,1,2,2,3,3,4,4,5,5,6,6],"right_children":[2,4,6,8,10,12,14,-1,-1,-1,-1,-1,-1,-1,-1],"split_conditions":[1.5E1,1.4E1,-1.9E0,5.1E0,2.3E1,-4.8E0,2.4E1,2.7381822E-3,4.0642684E-4,3.8404695E-3,6.1977557E-3,-5.427491E-4,3.4035174E-3,-5.5677094E-4,-3.1205036E-3],"split_indices":[51,80,77,77,80,25,51,0,0,0,0,0,0,0,0],"split_type":[0,0,0,0,0,0,0,0,0,0,0,0,0,0,0],"sum_hessian":[6.794943E3,3.3322402E3,3.462703E3,1.7841387E3,1.5481016E3,1.1013568E3,2.361346E3,1.1513339E3,6.328048E2,9.023592E2,6.4574243E2,3.8545963E2,7.158972E2,1.329872E3,1.031474E3],"tree_param":{"num_deleted":"0","num_feature":"106","num_nodes":"15","size_leaf_vector":"1"}},{"base_weights":[-1.3343658E-1,-3.2355163E-1,4.952761E-2,-1.892903E-1,-4.78123E-1,-2.0032886E-1,1.6608858E-1,-2.5847736E-3,-1.2612974E-4,-3.8031875E-3,-6.140607E-3,5.3733814E-4,-3.3704357E-3,5.512088E-4,3.0899458E-3],"categories":[],"categories_nodes":[],"categories_segments":[],"categories_sizes":[],"default_left":[0,0,0,0,0,0,0,0,0,0,0,0,0,0,0],"id":22,"left_children":[1,3,5,7,9,11,13,-1,-1,-1,-1,-1,-1,-1,-1],"loss_changes":[2.3636227E2,6.906528E1,1.00896774E2,2.181599E1,2.0352173E1,3.830077E1,3.7441643E1,0E0,0E0,0E0,0E0,0E0,0E0,0E0,0E0],"parents":[2147483647,0,0,1,1,2,2,3,3,4,4,5,5,6,6],"right_children":[2,4,6,8,10,12,14,-1,-1,-1,-1,-1,-1,-1,-1],"split_conditions":[1.5E1,1.4E1,-1.9E0,6E0,2.3E1,-4.8E0,2.4E1,-2.5847736E-3,-1.2612974E-4,-3.8031875E-3,-6.140607E-3,5.3733814E-4,-3.3704357E-3,5.512088E-4,3.0899458E-3],"split_indices":[51,80,77,77,80,25,51,0,0,0,0,0,0,0,0],"split_type":[0,0,0,0,0,0,0,0,0,0,0,0,0,0,0],"sum_hessian":[6.793635E3,3.3313333E3,3.4623015E3,1.7839832E3,1.5473502E3,1.1011633E3,2.3611382E3,1.2816316E3,5.0235156E2,9.021038E2,6.4524646E2,3.8545786E2,7.1570544E2,1.3298694E3,1.0312688E3],"tree_param":{"num_deleted":"0","num_feature":"106","num_nodes":"15","size_leaf_vector":"1"}},{"base_weights":[1.3343658E-1,3.235516E-1,-4.95276E-2,1.8929031E-1,4.7812295E-1,2.0032886E-1,-1.6608857E-1,2.5847738E-3,1.2612982E-4,3.8031873E-3,6.1406055E-3,-5.373382E-4,3.3704357E-3,-5.512085E-4,-3.0899462E-3],"categories":[],"categories_nodes":[],"categories_segments":[],"categories_sizes":[],"default_left":[0,0,0,0,0,0,0,0,0,0,0,0,0,0,0],"id":23,"left_children":[1,3,5,7,9,11,13,-1,-1,-1,-1,-1,-1,-1,-1],"loss_changes":[2.3636221E2,6.9065216E1,1.0089676E2,2.1816002E1,2.0352234E1,3.8300766E1,3.7441666E1,0E0,0E0,0E0,0E0,0E0,0E0,0E0,0E0],"parents":[2147483647,0,0,1,1,2,2,3,3,4,4,5,5,6,6],"right_children":[2,4,6,8,10,12,14,-1,-1,-1,-1,-1,-1,-1,-1],"split_conditions":[1.5E1,1.4E1,-1.9E0,6E0,2.3E1,-4.8E0,2.4E1,2.5847738E-3,1.2612982E-4,3.8031873E-3,6.1406055E-3,-5.373382E-4,3.3704357E-3,-5.512085E-4,-3.0899462E-3],"split_indices":[51,80,77,77,80,25,51,0,0,0,0,0,0,0,0],"split_type":[0,0,0,0,0,0,0,0,0,0,0,0,0,0,0],"sum_hessian":[6.793635E3,3.3313335E3,3.4623015E3,1.7839832E3,1.5473503E3,1.1011633E3,2.3611382E3,1.2816316E3,5.0235156E2,9.021038E2,6.4524646E2,3.8545786E2,7.157055E2,1.3298694E3,1.0312687E3],"tree_param":{"num_deleted":"0","num_feature":"106","num_nodes":"15","size_leaf_vector":"1"}},{"base_weights":[-1.32132E-1,1.0092255E-1,-2.7889058E-1,-1.16976224E-1,2.1398719E-1,-5.018909E-1,-1.7270257E-1,7.9731405E-4,-2.7378076E-3,8.2427054E-4,3.157382E-3,-2.7274112E-3,-5.4445625E-3,-3.3383507E-3,-5.728102E-4],"categories":[],"categories_nodes":[],"categories_segments":[],"categories_sizes":[],"default_left":[0,0,0,0,0,0,0,0,0,0,0,0,0,0,0],"id":24,"left_children":[1,3,5,7,9,11,13,-1,-1,-1,-1,-1,-1,-1,-1],"loss_changes":[2.3237466E2,6.471124E1,9.862564E1,2.7708443E1,2.3118965E1,1.2962219E1,5.252883E1,0E0,0E0,0E0,0E0,0E0,0E0,0E0,0E0],"parents":[2147483647,0,0,1,1,2,2,3,3,4,4,5,5,6,6],"right_children":[2,4,6,8,10,12,14,-1,-1,-1,-1,-1,-1,-1,-1],"split_conditions":[4.68E-1,-1.6E0,-1.4E0,-4.8E0,2.4E1,8E0,8E0,7.9731405E-4,-2.7378076E-3,8.2427054E-4,3.157382E-3,-2.7274112E-3,-5.4445625E-3,-3.3383507E-3,-5.728102E-4],"split_indices":[3,77,77,25,51,54,51,0,0,0,0,0,0,0,0],"split_type":[0,0,0,0,0,0,0,0,0,0,0,0,0,0,0],"sum_hessian":[6.7922114E3,2.6246096E3,4.167602E3,8.966146E2,1.727995E3,1.3431631E3,2.824439E3,3.9792215E2,4.986925E2,7.5439777E2,9.7359717E2,2.1157272E2,1.1315905E3,1.1780074E3,1.6464314E3],"tree_param":{"num_deleted":"0","num_feature":"106","num_nodes":"15","size_leaf_vector":"1"}},{"base_weights":[1.32132E-1,-1.0092256E-1,2.7889058E-1,1.1697619E-1,-2.139872E-1,5.018909E-1,1.727026E-1,-7.973144E-4,2.7378073E-3,-8.242711E-4,-3.1573817E-3,2.7274117E-3,5.4445625E-3,3.3383511E-3,5.728102E-4],"categories":[],"categories_nodes":[],"categories_segments":[],"categories_sizes":[],"default_left":[0,0,0,0,0,0,0,0,0,0,0,0,0,0,0],"id":25,"left_children":[1,3,5,7,9,11,13,-1,-1,-1,-1,-1,-1,-1,-1],"loss_changes":[2.3237474E2,6.4711235E1,9.862561E1,2.7708439E1,2.3118942E1,1.296225E1,5.2528862E1,0E0,0E0,0E0,0E0,0E0,0E0,0E0,0E0],"parents":[2147483647,0,0,1,1,2,2,3,3,4,4,5,5,6,6],"right_children":[2,4,6,8,10,12,14,-1,-1,-1,-1,-1,-1,-1,-1],"split_conditions":[4.68E-1,-1.6E0,-1.4E0,-4.8E0,2.4E1,8E0,8E0,-7.973144E-4,2.7378073E-3,-8.242711E-4,-3.1573817E-3,2.7274117E-3,5.4445625E-3,3.3383511E-3,5.728102E-4],"split_indices":[3,77,77,25,51,54,51,0,0,0,0,0,0,0,0],"split_type":[0,0,0,0,0,0,0,0,0,0,0,0,0,0,0],"sum_hessian":[6.7922114E3,2.6246096E3,4.167602E3,8.966146E2,1.727995E3,1.3431631E3,2.824439E3,3.9792215E2,4.986925E2,7.5439777E2,9.735972E2,2.1157272E2,1.1315903E3,1.1780074E3,1.6464315E3],"tree_param":{"num_deleted":"0","num_feature":"106","num_nodes":"15","size_leaf_vector":"1"}},{"base_weights":[-1.3084145E-1,-3.1761912E-1,4.8854325E-2,-1.8543606E-1,-4.699197E-1,-1.9625908E-1,1.6317698E-1,-2.5392813E-3,-1.0569003E-4,-3.7365328E-3,-6.038515E-3,5.252461E-4,-3.3021728E-3,5.458309E-4,3.0308552E-3],"categories":[],"categories_nodes":[],"categories_segments":[],"categories_sizes":[],"default_left":[0,0,0,0,0,0,0,0,0,0,0,0,0,0,0],"id":26,"left_children":[1,3,5,7,9,11,13,-1,-1,-1,-1,-1,-1,-1,-1],"loss_changes":[2.2796667E2,6.695831E1,9.705388E1,2.137135E1,1.9717133E1,3.6732994E1,3.586455E1,0E0,0E0,0E0,0E0,0E0,0E0,0E0,0E0],"parents":[2147483647,0,0,1,1,2,2,3,3,4,4,5,5,6,6],"right_children":[2,4,6,8,10,12,14,-1,-1,-1,-1,-1,-1,-1,-1],"split_conditions":[1.5E1,1.4E1,-1.9E0,6E0,2.3E1,-4.8E0,2.4E1,-2.5392813E-3,-1.0569003E-4,-3.7365328E-3,-6.038515E-3,5.252461E-4,-3.3021728E-3,5.458309E-4,3.0308552E-3],"split_indices":[51,80,77,77,80,25,51,0,0,0,0,0,0,0,0],"split_type":[0,0,0,0,0,0,0,0,0,0,0,0,0,0,0],"sum_hessian":[6.7907085E3,3.3293647E3,3.461344E3,1.783589E3,1.5457756E3,1.1006912E3,2.3606528E3,1.2812828E3,5.0230615E2,9.015539E2,6.4422174E2,3.8545047E2,7.1524066E2,1.3298462E3,1.0308066E3],"tree_param":{"num_deleted":"0","num_feature":"106","num_nodes":"15","size_leaf_vector":"1"}},{"base_weights":[1.3084145E-1,3.1761912E-1,-4.8854318E-2,1.8543604E-1,4.6991968E-1,1.9625908E-1,-1.6317697E-1,2.5392813E-3,1.0569031E-4,3.7365328E-3,6.0385144E-3,-5.252461E-4,3.302173E-3,-5.45831E-4,-3.0308552E-3],"categories":[],"categories_nodes":[],"categories_segments":[],"categories_sizes":[],"default_left":[0,0,0,0,0,0,0,0,0,0,0,0,0,0,0],"id":27,"left_children":[1,3,5,7,9,11,13,-1,-1,-1,-1,-1,-1,-1,-1],"loss_changes":[2.2796669E2,6.695825E1,9.705388E1,2.1371342E1,1.9717133E1,3.673299E1,3.586454E1,0E0,0E0,0E0,0E0,0E0,0E0,0E0,0E0],"parents":[2147483647,0,0,1,1,2,2,3,3,4,4,5,5,6,6],"right_children":[2,4,6,8,10,12,14,-1,-1,-1,-1,-1,-1,-1,-1],"split_conditions":[1.5E1,1.4E1,-1.9E0,6E0,2.3E1,-4.8E0,2.4E1,2.5392813E-3,1.0569031E-4,3.7365328E-3,6.0385144E-3,-5.252461E-4,3.302173E-3,-5.45831E-4,-3.0308552E-3],"split_indices":[51,80,77,77,80,25,51,0,0,0,0,0,0,0,0],"split_type":[0,0,0,0,0,0,0,0,0,0,0,0,0,0,0],"sum_hessian":[6.7907085E3,3.3293645E3,3.461344E3,1.783589E3,1.5457756E3,1.1006912E3,2.3606528E3,1.2812828E3,5.0230615E2,9.0155383E2,6.442218E2,3.8545047E2,7.1524066E2,1.3298462E3,1.0308066E3],"tree_param":{"num_deleted":"0","num_feature":"106","num_nodes":"15","size_leaf_vector":"1"}},{"base_weights":[-1.2956625E-1,-2.4870625E-1,1.4749545E-1,-1.07545555E-1,-4.0831572E-1,-1.5167668E-1,2.2668843E-1,-2.495765E-3,2.370493E-4,-3.1795183E-3,-5.317126E-3,-2.5924395E-3,9.5683447E-4,3.6707427E-3,1.2765911E-3],"categories":[],"categories_nodes":[],"categories_segments":[],"categories_sizes":[],"default_left":[0,0,0,0,0,0,0,0,0,0,0,0,0,0,0],"id":28,"left_children":[1,3,5,7,9,11,13,-1,-1,-1,-1,-1,-1,-1,-1],"loss_changes":[2.2417123E2,1.0694562E2,4.842457E1,4.700731E1,2.4678162E1,1.1415319E1,2.2410286E1,0E0,0E0,0E0,0E0,0E0,0E0,0E0,0E0],"parents":[2147483647,0,0,1,1,2,2,3,3,4,4,5,5,6,6],"right_children":[2,4,6,8,10,12,14,-1,-1,-1,-1,-1,-1,-1,-1],"split_conditions":[2E1,1.4E1,3.59E-1,1E1,2.3E1,2.7E1,-6E0,-2.495765E-3,2.370493E-4,-3.1795183E-3,-5.317126E-3,-2.5924395E-3,9.5683447E-4,3.6707427E-3,1.2765911E-3],"split_indices":[28,80,55,51,80,28,25,0,0,0,0,0,0,0,0],"split_type":[0,0,0,0,0,0,0,0,0,0,0,0,0,0,0],"sum_hessian":[6.7890776E3,4.7476367E3,2.0414409E3,2.520313E3,2.227324E3,4.270883E2,1.6143527E3,1.2100126E3,1.3103003E3,1.2878239E3,9.395002E2,2.9761783E2,1.2947044E2,6.6662524E2,9.4772736E2],"tree_param":{"num_deleted":"0","num_feature":"106","num_nodes":"15","size_leaf_vector":"1"}},{"base_weights":[1.2956625E-1,2.4870624E-1,-1.4749543E-1,1.0754557E-1,4.0831566E-1,1.5167668E-1,-2.266884E-1,2.4957652E-3,-2.3704929E-4,3.1795178E-3,5.317125E-3,2.5924393E-3,-9.568334E-4,-3.6707418E-3,-1.276591E-3],"categories":[],"categories_nodes":[],"categories_segments":[],"categories_sizes":[],"default_left":[0,0,0,0,0,0,0,0,0,0,0,0,0,0,0],"id":29,"left_children":[1,3,5,7,9,11,13,-1,-1,-1,-1,-1,-1,-1,-1],"loss_changes":[2.241712E2,1.0694562E2,4.8424564E1,4.700731E1,2.4678131E1,1.1415306E1,2.2410263E1,0E0,0E0,0E0,0E0,0E0,0E0,0E0,0E0],"parents":[2147483647,0,0,1,1,2,2,3,3,4,4,5,5,6,6],"right_children":[2,4,6,8,10,12,14,-1,-1,-1,-1,-1,-1,-1,-1],"split_conditions":[2E1,1.4E1,3.59E-1,1E1,2.3E1,2.7E1,-6E0,2.4957652E-3,-2.3704929E-4,3.1795178E-3,5.317125E-3,2.5924393E-3,-9.568334E-4,-3.6707418E-3,-1.276591E-3],"split_indices":[28,80,55,51,80,28,25,0,0,0,0,0,0,0,0],"split_type":[0,0,0,0,0,0,0,0,0,0,0,0,0,0,0],"sum_hessian":[6.789078E3,4.747637E3,2.0414409E3,2.520313E3,2.227324E3,4.270883E2,1.6143527E3,1.2100126E3,1.3103003E3,1.2878239E3,9.395002E2,2.9761783E2,1.2947044E2,6.666253E2,9.4772736E2],"tree_param":{"num_deleted":"0","num_feature":"106","num_nodes":"15","size_leaf_vector":"1"}},{"base_weights":[-1.2830326E-1,-3.1193843E-1,4.8306722E-2,-1.0665158E-1,-4.0705174E-1,-1.9676867E-1,1.5867756E-1,-3.4381635E-4,-2.5400924E-3,-3.331129E-3,-5.9366976E-3,2.8198777E-4,-3.4578703E-3,5.221776E-4,2.9609795E-3],"categories":[],"categories_nodes":[],"categories_segments":[],"categories_sizes":[],"default_left":[0,0,0,0,0,0,0,0,0,0,0,0,0,0,0],"id":30,"left_children":[1,3,5,7,9,11,13,-1,-1,-1,-1,-1,-1,-1,-1],"loss_changes":[2.2017596E2,6.494052E1,9.3655716E1,1.1227826E1,3.1180084E1,3.6055637E1,3.4906513E1,0E0,0E0,0E0,0E0,0E0,0E0,0E0,0E0],"parents":[2147483647,0,0,1,1,2,2,3,3,4,4,5,5,6,6],"right_children":[2,4,6,8,10,12,14,-1,-1,-1,-1,-1,-1,-1,-1],"split_conditions":[1.5E1,9E0,-2E0,5.5E0,2.3E1,-4.1E0,2.4E1,-3.4381635E-4,-2.5400924E-3,-3.331129E-3,-5.9366976E-3,2.8198777E-4,-3.4578703E-3,5.221776E-4,2.9609795E-3],"split_indices":[51,103,77,25,80,25,51,0,0,0,0,0,0,0,0],"split_type":[0,0,0,0,0,0,0,0,0,0,0,0,0,0,0],"sum_hessian":[6.787426E3,3.327156E3,3.4602695E3,1.0541226E3,2.2730334E3,1.0742173E3,2.3860522E3,7.080839E2,3.4603867E2,1.6300042E3,6.4302936E2,4.2835562E2,6.4586163E2,1.3452584E3,1.040794E3],"tree_param":{"num_deleted":"0","num_feature":"106","num_nodes":"15","size_leaf_vector":"1"}},{"base_weights":[1.2830327E-1,3.119384E-1,-4.8306696E-2,1.0665157E-1,4.070517E-1,1.9676869E-1,-1.5867753E-1,3.438161E-4,2.5400924E-3,3.331129E-3,5.9366976E-3,-2.8198768E-4,3.4578708E-3,-5.2217726E-4,-2.9609792E-3],"categories":[],"categories_nodes":[],"categories_segments":[],"categories_sizes":[],"default_left":[0,0,0,0,0,0,0,0,0,0,0,0,0,0,0],"id":31,"left_children":[1,3,5,7,9,11,13,-1,-1,-1,-1,-1,-1,-1,-1],"loss_changes":[2.201759E2,6.494058E1,9.3655716E1,1.1227834E1,3.1180054E1,3.6055645E1,3.4906513E1,0E0,0E0,0E0,0E0,0E0,0E0,0E0,0E0],"parents":[2147483647,0,0,1,1,2,2,3,3,4,4,5,5,6,6],"right_children":[2,4,6,8,10,12,14,-1,-1,-1,-1,-1,-1,-1,-1],"split_conditions":[1.5E1,9E0,-2E0,5.5E0,2.3E1,-4.1E0,2.4E1,3.438161E-4,2.5400924E-3,3.331129E-3,5.9366976E-3,-2.8198768E-4,3.4578708E-3,-5.2217726E-4,-2.9609792E-3],"split_indices":[51,103,77,25,80,25,51,0,0,0,0,0,0,0,0],"split_type":[0,0,0,0,0,0,0,0,0,0,0,0,0,0,0],"sum_hessian":[6.787426E3,3.3271562E3,3.4602695E3,1.0541227E3,2.2730334E3,1.0742173E3,2.3860522E3,7.08084E2,3.4603867E2,1.6300042E3,6.4302936E2,4.2835562E2,6.458616E2,1.3452583E3,1.040794E3],"tree_param":{"num_deleted":"0","num_feature":"106","num_nodes":"15","size_leaf_vector":"1"}},{"base_weights":[-1.2705626E-1,9.7883604E-2,-2.6878542E-1,-1.1209203E-1,2.0683315E-1,-7.747717E-2,-3.8493806E-1,7.7169505E-4,-2.631042E-3,8.077281E-4,3.044206E-3,-2.1677401E-3,4.7419866E-4,-3.1011167E-3,-5.428836E-3],"categories":[],"categories_nodes":[],"categories_segments":[],"categories_sizes":[],"default_left":[0,0,0,0,0,0,0,0,0,0,0,0,0,0,0],"id":32,"left_children":[1,3,5,7,9,11,13,-1,-1,-1,-1,-1,-1,-1,-1],"loss_changes":[2.1638733E2,6.0051216E1,9.2490326E1,2.565834E1,2.1232346E1,2.7397728E1,3.0446869E1,0E0,0E0,0E0,0E0,0E0,0E0,0E0,0E0],"parents":[2147483647,0,0,1,1,2,2,3,3,4,4,5,5,6,6],"right_children":[2,4,6,8,10,12,14,-1,-1,-1,-1,-1,-1,-1,-1],"split_conditions":[4.68E-1,-1.6E0,1.1E1,-4.8E0,2.4E1,9E0,2.3E1,7.7169505E-4,-2.631042E-3,8.077281E-4,3.044206E-3,-2.1677401E-3,4.7419866E-4,-3.1011167E-3,-5.428836E-3],"split_indices":[3,77,103,25,51,51,80,0,0,0,0,0,0,0,0],"split_type":[0,0,0,0,0,0,0,0,0,0,0,0,0,0,0],"sum_hessian":[6.7856177E3,2.6229753E3,4.1626426E3,8.960372E2,1.726938E3,1.5731938E3,2.5894487E3,3.9787488E2,4.9816232E2,7.5433704E2,9.72601E2,7.43376E2,8.298179E2,1.7590609E3,8.303879E2],"tree_param":{"num_deleted":"0","num_feature":"106","num_nodes":"15","size_leaf_vector":"1"}},{"base_weights":[1.2705626E-1,-9.788358E-2,2.6878542E-1,1.1209203E-1,-2.0683312E-1,7.747716E-2,3.8493806E-1,-7.716952E-4,2.6310422E-3,-8.077276E-4,-3.0442055E-3,2.16774E-3,-4.7419898E-4,3.1011163E-3,5.4288367E-3],"categories":[],"categories_nodes":[],"categories_segments":[],"categories_sizes":[],"default_left":[0,0,0,0,0,0,0,0,0,0,0,0,0,0,0],"id":33,"left_children":[1,3,5,7,9,11,13,-1,-1,-1,-1,-1,-1,-1,-1],"loss_changes":[2.1638728E2,6.0051197E1,9.2490326E1,2.5658348E1,2.1232346E1,2.7397736E1,3.0446838E1,0E0,0E0,0E0,0E0,0E0,0E0,0E0,0E0],"parents":[2147483647,0,0,1,1,2,2,3,3,4,4,5,5,6,6],"right_children":[2,4,6,8,10,12,14,-1,-1,-1,-1,-1,-1,-1,-1],"split_conditions":[4.68E-1,-1.6E0,1.1E1,-4.8E0,2.4E1,9E0,2.3E1,-7.716952E-4,2.6310422E-3,-8.077276E-4,-3.0442055E-3,2.16774E-3,-4.7419898E-4,3.1011163E-3,5.4288367E-3],"split_indices":[3,77,103,25,51,51,80,0,0,0,0,0,0,0,0],"split_type":[0,0,0,0,0,0,0,0,0,0,0,0,0,0,0],"sum_hessian":[6.7856177E3,2.622975E3,4.1626426E3,8.960372E2,1.726938E3,1.5731938E3,2.5894487E3,3.9787488E2,4.981623E2,7.5433704E2,9.7260095E2,7.43376E2,8.298178E2,1.7590609E3,8.303879E2],"tree_param":{"num_deleted":"0","num_feature":"106","num_nodes":"15","size_leaf_vector":"1"}},{"base_weights":[-1.2582184E-1,-3.0635366E-1,4.7734585E-2,-3.914739E-1,-8.3896846E-2,-1.9289489E-1,1.560741E-1,-3.2120948E-3,-5.8365385E-3,-1.1352973E-4,-2.269867E-3,2.770333E-4,-3.3913725E-3,5.198906E-4,2.9049914E-3],"categories":[],"categories_nodes":[],"categories_segments":[],"categories_sizes":[],"default_left":[0,0,0,0,0,0,0,0,0,0,0,0,0,0,0],"id":34,"left_children":[1,3,5,7,9,11,13,-1,-1,-1,-1,-1,-1,-1,-1],"loss_changes":[2.125977E2,6.2940887E1,9.0233055E1,3.228888E1,9.564287E0,3.467838E1,3.3374886E1,0E0,0E0,0E0,0E0,0E0,0E0,0E0,0E0],"parents":[2147483647,0,0,1,1,2,2,3,3,4,4,5,5,6,6],"right_children":[2,4,6,8,10,12,14,-1,-1,-1,-1,-1,-1,-1,-1],"split_conditions":[1.5E1,3.8E0,-2E0,2.3E1,5.5E0,-4.1E0,2.4E1,-3.2120948E-3,-5.8365385E-3,-1.1352973E-4,-2.269867E-3,2.770333E-4,-3.3913725E-3,5.198906E-4,2.9049914E-3],"split_indices":[51,77,77,80,25,25,51,0,0,0,0,0,0,0,0],"split_type":[0,0,0,0,0,0,0,0,0,0,0,0,0,0,0],"sum_hessian":[6.7837554E3,3.324684E3,3.459071E3,2.4040469E3,9.206373E2,1.0736472E3,2.385424E3,1.7623661E3,6.416807E2,6.1163116E2,3.0900616E2,4.2833655E2,6.453106E2,1.345214E3,1.04021E3],"tree_param":{"num_deleted":"0","num_feature":"106","num_nodes":"15","size_leaf_vector":"1"}},{"base_weights":[1.2582186E-1,3.0635366E-1,-4.7734573E-2,3.914739E-1,8.389684E-2,1.9289489E-1,-1.560741E-1,3.2120948E-3,5.836539E-3,1.1352964E-4,2.269867E-3,-2.7703305E-4,3.3913723E-3,-5.198906E-4,-2.9049912E-3],"categories":[],"categories_nodes":[],"categories_segments":[],"categories_sizes":[],"default_left":[0,0,0,0,0,0,0,0,0,0,0,0,0,0,0],"id":35,"left_children":[1,3,5,7,9,11,13,-1,-1,-1,-1,-1,-1,-1,-1],"loss_changes":[2.1259769E2,6.2940887E1,9.023306E1,3.228891E1,9.564289E0,3.4678375E1,3.3374878E1,0E0,0E0,0E0,0E0,0E0,0E0,0E0,0E0],"parents":[2147483647,0,0,1,1,2,2,3,3,4,4,5,5,6,6],"right_children":[2,4,6,8,10,12,14,-1,-1,-1,-1,-1,-1,-1,-1],"split_conditions":[1.5E1,3.8E0,-2E0,2.3E1,5.5E0,-4.1E0,2.4E1,3.2120948E-3,5.836539E-3,1.1352964E-4,2.269867E-3,-2.7703305E-4,3.3913723E-3,-5.198906E-4,-2.9049912E-3],"split_indices":[51,77,77,80,25,25,51,0,0,0,0,0,0,0,0],"split_type":[0,0,0,0,0,0,0,0,0,0,0,0,0,0,0],"sum_hessian":[6.7837554E3,3.324684E3,3.459071E3,2.4040469E3,9.206373E2,1.0736472E3,2.385424E3,1.7623661E3,6.416807E2,6.1163116E2,3.0900616E2,4.2833655E2,6.453106E2,1.345214E3,1.04021E3],"tree_param":{"num_deleted":"0","num_feature":"106","num_nodes":"15","size_leaf_vector":"1"}},{"base_weights":[-1.24602325E-1,-2.396657E-1,1.4284039E-1,-1.0293631E-1,-3.9453453E-1,-8.7640336E-4,2.9802433E-1,-2.4052337E-3,2.4124497E-4,-3.0764758E-3,-5.1346454E-3,1.5303389E-3,-1.6580331E-3,4.2927116E-3,2.1681678E-3],"categories":[],"categories_nodes":[],"categories_segments":[],"categories_sizes":[],"default_left":[0,0,0,0,0,0,0,0,0,0,0,0,0,0,0],"id":36,"left_children":[1,3,5,7,9,11,13,-1,-1,-1,-1,-1,-1,-1,-1],"loss_changes":[2.0875928E2,1.0038837E2,4.5519302E1,4.4064823E1,2.2818756E1,2.6948544E1,1.0366295E1,0E0,0E0,0E0,0E0,0E0,0E0,0E0,0E0],"parents":[2147483647,0,0,1,1,2,2,3,3,4,4,5,5,6,6],"right_children":[2,4,6,8,10,12,14,-1,-1,-1,-1,-1,-1,-1,-1],"split_conditions":[2E1,1.4E1,5.14E-1,1E1,2.3E1,-5E0,-6.2E0,-2.4052337E-3,2.4124497E-4,-3.0764758E-3,-5.1346454E-3,1.5303389E-3,-1.6580331E-3,4.2927116E-3,2.1681678E-3],"split_indices":[28,80,55,51,80,25,25,0,0,0,0,0,0,0,0],"split_type":[0,0,0,0,0,0,0,0,0,0,0,0,0,0,0],"sum_hessian":[6.781763E3,4.741783E3,2.03998E3,2.5192617E3,2.2225215E3,1.0596376E3,9.803424E2,1.209101E3,1.3101609E3,1.2863425E3,9.361789E2,5.4816266E2,5.1147495E2,3.7308304E2,6.072594E2],"tree_param":{"num_deleted":"0","num_feature":"106","num_nodes":"15","size_leaf_vector":"1"}},{"base_weights":[1.2460232E-1,2.3966569E-1,-1.4284039E-1,1.0293631E-1,3.9453453E-1,8.764104E-4,-2.9802436E-1,2.4052337E-3,-2.4124497E-4,3.0764758E-3,5.1346454E-3,-1.5303391E-3,1.6580332E-3,-4.2927125E-3,-2.1681674E-3],"categories":[],"categories_nodes":[],"categories_segments":[],"categories_sizes":[],"default_left":[0,0,0,0,0,0,0,0,0,0,0,0,0,0,0],"id":37,"left_children":[1,3,5,7,9,11,13,-1,-1,-1,-1,-1,-1,-1,-1],"loss_changes":[2.0875925E2,1.003884E2,4.5519302E1,4.4064816E1,2.2818756E1,2.694855E1,1.0366318E1,0E0,0E0,0E0,0E0,0E0,0E0,0E0,0E0],"parents":[2147483647,0,0,1,1,2,2,3,3,4,4,5,5,6,6],"right_children":[2,4,6,8,10,12,14,-1,-1,-1,-1,-1,-1,-1,-1],"split_conditions":[2E1,1.4E1,5.14E-1,1E1,2.3E1,-5E0,-6.2E0,2.4052337E-3,-2.4124497E-4,3.0764758E-3,5.1346454E-3,-1.5303391E-3,1.6580332E-3,-4.2927125E-3,-2.1681674E-3],"split_indices":[28,80,55,51,80,25,25,0,0,0,0,0,0,0,0],"split_type":[0,0,0,0,0,0,0,0,0,0,0,0,0,0,0],"sum_hessian":[6.781763E3,4.741783E3,2.03998E3,2.5192617E3,2.2225215E3,1.0596376E3,9.803424E2,1.209101E3,1.3101609E3,1.2863425E3,9.361789E2,5.4816266E2,5.1147498E2,3.7308304E2,6.072594E2],"tree_param":{"num_deleted":"0","num_feature":"106","num_nodes":"15","size_leaf_vector":"1"}},{"base_weights":[-1.23393685E-1,-3.0091152E-1,4.719089E-2,-3.8491198E-1,-8.15719E-2,-1.893598E-1,1.5366155E-1,-3.1586909E-3,-5.7406533E-3,-1.01872865E-4,-2.2242118E-3,2.687043E-4,-3.328279E-3,5.162858E-4,2.8550588E-3],"categories":[],"categories_nodes":[],"categories_segments":[],"categories_sizes":[],"default_left":[0,0,0,0,0,0,0,0,0,0,0,0,0,0,0],"id":38,"left_children":[1,3,5,7,9,11,13,-1,-1,-1,-1,-1,-1,-1,-1],"loss_changes":[2.0534799E2,6.119345E1,8.714076E1,3.1194916E1,9.26259E0,3.332733E1,3.207955E1,0E0,0E0,0E0,0E0,0E0,0E0,0E0,0E0],"parents":[2147483647,0,0,1,1,2,2,3,3,4,4,5,5,6,6],"right_children":[2,4,6,8,10,12,14,-1,-1,-1,-1,-1,-1,-1,-1],"split_conditions":[1.5E1,3.8E0,-2E0,2.3E1,5.5E0,-4.1E0,2.4E1,-3.1586909E-3,-5.7406533E-3,-1.01872865E-4,-2.2242118E-3,2.687043E-4,-3.328279E-3,5.162858E-4,2.8550588E-3],"split_indices":[51,77,77,80,25,25,51,0,0,0,0,0,0,0,0],"split_type":[0,0,0,0,0,0,0,0,0,0,0,0,0,0,0],"sum_hessian":[6.7797646E3,3.3219905E3,3.457774E3,2.4015242E3,9.2046625E2,1.0730194E3,2.3847546E3,1.7613014E3,6.402229E2,6.115802E2,3.0888605E2,4.2830518E2,6.4471423E2,1.3451492E3,1.0396053E3],"tree_param":{"num_deleted":"0","num_feature":"106","num_nodes":"15","size_leaf_vector":"1"}},{"base_weights":[1.2339368E-1,3.009115E-1,-4.7190882E-2,3.8491195E-1,8.1571884E-2,1.893598E-1,-1.5366153E-1,3.1586906E-3,5.7406533E-3,1.0187285E-4,2.2242116E-3,-2.6870403E-4,3.3282787E-3,-5.162858E-4,-2.8550583E-3],"categories":[],"categories_nodes":[],"categories_segments":[],"categories_sizes":[],"default_left":[0,0,0,0,0,0,0,0,0,0,0,0,0,0,0],"id":39,"left_children":[1,3,5,7,9,11,13,-1,-1,-1,-1,-1,-1,-1,-1],"loss_changes":[2.0534795E2,6.119348E1,8.7140755E1,3.1194885E1,9.2625885E0,3.332731E1,3.2079536E1,0E0,0E0,0E0,0E0,0E0,0E0,0E0,0E0],"parents":[2147483647,0,0,1,1,2,2,3,3,4,4,5,5,6,6],"right_children":[2,4,6,8,10,12,14,-1,-1,-1,-1,-1,-1,-1,-1],"split_conditions":[1.5E1,3.8E0,-2E0,2.3E1,5.5E0,-4.1E0,2.4E1,3.1586906E-3,5.7406533E-3,1.0187285E-4,2.2242116E-3,-2.6870403E-4,3.3282787E-3,-5.162858E-4,-2.8550583E-3],"split_indices":[51,77,77,80,25,25,51,0,0,0,0,0,0,0,0],"split_type":[0,0,0,0,0,0,0,0,0,0,0,0,0,0,0],"sum_hessian":[6.7797646E3,3.3219905E3,3.457774E3,2.4015242E3,9.2046625E2,1.0730194E3,2.3847546E3,1.7613014E3,6.4022284E2,6.115802E2,3.0888605E2,4.2830518E2,6.4471423E2,1.3451492E3,1.0396053E3],"tree_param":{"num_deleted":"0","num_feature":"106","num_nodes":"15","size_leaf_vector":"1"}},{"base_weights":[-1.2220081E-1,9.493297E-2,-2.5910702E-1,-1.07499875E-1,1.9996552E-1,-7.346118E-2,-3.7201613E-1,7.435315E-4,-2.527689E-3,7.914725E-4,2.9360005E-3,-1.5110568E-3,1.3812721E-3,-3.0001095E-3,-5.2445834E-3],"categories":[],"categories_nodes":[],"categories_segments":[],"categories_sizes":[],"default_left":[0,0,0,0,0,0,0,0,0,0,0,0,0,0,0],"id":40,"left_children":[1,3,5,7,9,11,13,-1,-1,-1,-1,-1,-1,-1,-1],"loss_changes":[2.0153195E2,5.5770515E1,8.71207E1,2.369809E1,1.9509972E1,2.5872894E1,2.8217377E1,0E0,0E0,0E0,0E0,0E0,0E0,0E0,0E0],"parents":[2147483647,0,0,1,1,2,2,3,3,4,4,5,5,6,6],"right_children":[2,4,6,8,10,12,14,-1,-1,-1,-1,-1,-1,-1,-1],"split_conditions":[4.68E-1,-1.6E0,1.1E1,-4.8E0,2.4E1,1.4E1,2.3E1,7.435315E-4,-2.527689E-3,7.914725E-4,2.9360005E-3,-1.5110568E-3,1.3812721E-3,-3.0001095E-3,-5.2445834E-3],"split_indices":[3,77,103,25,51,51,80,0,0,0,0,0,0,0,0],"split_type":[0,0,0,0,0,0,0,0,0,0,0,0,0,0,0],"sum_hessian":[6.7776035E3,2.6209978E3,4.1566055E3,8.9534503E2,1.7256527E3,1.5725914E3,2.5840142E3,3.9782343E2,4.975216E2,7.542614E2,9.7139136E2,1.1506388E3,4.219527E2,1.7570503E3,8.269639E2],"tree_param":{"num_deleted":"0","num_feature":"106","num_nodes":"15","size_leaf_vector":"1"}},{"base_weights":[1.2220081E-1,-9.493298E-2,2.5910705E-1,1.0749988E-1,-1.9996554E-1,7.34612E-2,3.7201613E-1,-7.435318E-4,2.5276893E-3,-7.91473E-4,-2.9360005E-3,1.5110568E-3,-1.3812718E-3,3.0001095E-3,5.2445848E-3],"categories":[],"categories_nodes":[],"categories_segments":[],"categories_sizes":[],"default_left":[0,0,0,0,0,0,0,0,0,0,0,0,0,0,0],"id":41,"left_children":[1,3,5,7,9,11,13,-1,-1,-1,-1,-1,-1,-1,-1],"loss_changes":[2.0153197E2,5.5770523E1,8.712067E1,2.3698101E1,1.9509964E1,2.5872887E1,2.8217438E1,0E0,0E0,0E0,0E0,0E0,0E0,0E0,0E0],"parents":[2147483647,0,0,1,1,2,2,3,3,4,4,5,5,6,6],"right_children":[2,4,6,8,10,12,14,-1,-1,-1,-1,-1,-1,-1,-1],"split_conditions":[4.68E-1,-1.6E0,1.1E1,-4.8E0,2.4E1,1.4E1,2.3E1,-7.435318E-4,2.5276893E-3,-7.91473E-4,-2.9360005E-3,1.5110568E-3,-1.3812718E-3,3.0001095E-3,5.2445848E-3],"split_indices":[3,77,103,25,51,51,80,0,0,0,0,0,0,0,0],"split_type":[0,0,0,0,0,0,0,0,0,0,0,0,0,0,0],"sum_hessian":[6.7776035E3,2.6209978E3,4.1566055E3,8.9534503E2,1.7256528E3,1.5725914E3,2.5840142E3,3.9782343E2,4.975216E2,7.542614E2,9.7139136E2,1.1506388E3,4.2195267E2,1.7570503E3,8.269639E2],"tree_param":{"num_deleted":"0","num_feature":"106","num_nodes":"15","size_leaf_vector":"1"}},{"base_weights":[-1.21019274E-1,-2.9547116E-1,4.6540096E-2,-3.7826827E-1,-7.949082E-2,-1.8564872E-1,1.5101494E-1,-3.103738E-3,-5.646159E-3,-8.927715E-5,-2.1876134E-3,2.6395716E-4,-3.2647394E-3,5.116005E-4,2.8012441E-3],"categories":[],"categories_nodes":[],"categories_segments":[],"categories_sizes":[],"default_left":[0,0,0,0,0,0,0,0,0,0,0,0,0,0,0],"id":42,"left_children":[1,3,5,7,9,11,13,-1,-1,-1,-1,-1,-1,-1,-1],"loss_changes":[1.9809547E2,5.9341095E1,8.389614E1,3.0186218E1,9.052193E0,3.2060116E1,3.0733665E1,0E0,0E0,0E0,0E0,0E0,0E0,0E0,0E0],"parents":[2147483647,0,0,1,1,2,2,3,3,4,4,5,5,6,6],"right_children":[2,4,6,8,10,12,14,-1,-1,-1,-1,-1,-1,-1,-1],"split_conditions":[1.5E1,3.8E0,-2E0,2.3E1,5.5E0,-4.1E0,2.4E1,-3.103738E-3,-5.646159E-3,-8.927715E-5,-2.1876134E-3,2.6395716E-4,-3.2647394E-3,5.116005E-4,2.8012441E-3],"split_indices":[51,77,77,80,25,25,51,0,0,0,0,0,0,0,0],"split_type":[0,0,0,0,0,0,0,0,0,0,0,0,0,0,0],"sum_hessian":[6.775415E3,3.3190613E3,3.456354E3,2.398741E3,9.203203E2,1.0723489E3,2.3840051E3,1.7601191E3,6.386218E2,6.1154016E2,3.0878015E2,4.2828336E2,6.440654E2,1.3450911E3,1.0389141E3],"tree_param":{"num_deleted":"0","num_feature":"106","num_nodes":"15","size_leaf_vector":"1"}},{"base_weights":[1.21019274E-1,2.9547116E-1,-4.6540093E-2,3.7826827E-1,7.949083E-2,1.8564871E-1,-1.5101494E-1,3.103738E-3,5.646159E-3,8.927709E-5,2.1876139E-3,-2.6395687E-4,3.2647392E-3,-5.1160046E-4,-2.801244E-3],"categories":[],"categories_nodes":[],"categories_segments":[],"categories_sizes":[],"default_left":[0,0,0,0,0,0,0,0,0,0,0,0,0,0,0],"id":43,"left_children":[1,3,5,7,9,11,13,-1,-1,-1,-1,-1,-1,-1,-1],"loss_changes":[1.9809546E2,5.9341095E1,8.389613E1,3.0186188E1,9.052197E0,3.2060104E1,3.0733658E1,0E0,0E0,0E0,0E0,0E0,0E0,0E0,0E0],"parents":[2147483647,0,0,1,1,2,2,3,3,4,4,5,5,6,6],"right_children":[2,4,6,8,10,12,14,-1,-1,-1,-1,-1,-1,-1,-1],"split_conditions":[1.5E1,3.8E0,-2E0,2.3E1,5.5E0,-4.1E0,2.4E1,3.103738E-3,5.646159E-3,8.927709E-5,2.1876139E-3,-2.6395687E-4,3.2647392E-3,-5.1160046E-4,-2.801244E-3],"split_indices":[51,77,77,80,25,25,51,0,0,0,0,0,0,0,0],"split_type":[0,0,0,0,0,0,0,0,0,0,0,0,0,0,0],"sum_hessian":[6.775415E3,3.3190613E3,3.456354E3,2.398741E3,9.203203E2,1.0723488E3,2.3840051E3,1.7601193E3,6.386218E2,6.1154016E2,3.0878015E2,4.2828336E2,6.440654E2,1.3450911E3,1.0389141E3],"tree_param":{"num_deleted":"0","num_feature":"106","num_nodes":"15","size_leaf_vector":"1"}},{"base_weights":[-1.1985231E-1,-2.310124E-1,1.3835858E-1,-9.8513916E-2,-3.813979E-1,-1.4409362E-1,2.13162E-1,1.9952557E-4,-2.374899E-3,-5.326565E-3,-3.1626683E-3,-2.465631E-3,9.12295E-4,3.516967E-3,1.2305031E-3],"categories":[],"categories_nodes":[],"categories_segments":[],"categories_sizes":[],"default_left":[0,0,0,0,0,0,0,0,0,0,0,0,0,0,0],"id":44,"left_children":[1,3,5,7,9,11,13,-1,-1,-1,-1,-1,-1,-1,-1],"loss_changes":[1.9446695E2,9.432811E1,4.311677E1,4.1477463E1,2.1680908E1,1.0332964E1,2.0088623E1,0E0,0E0,0E0,0E0,0E0,0E0,0E0,0E0],"parents":[2147483647,0,0,1,1,2,2,3,3,4,4,5,5,6,6],"right_children":[2,4,6,8,10,12,14,-1,-1,-1,-1,-1,-1,-1,-1],"split_conditions":[2E1,1.4E1,3.59E-1,2.9E0,7E0,2.7E1,-6.2E0,1.9952557E-4,-2.374899E-3,-5.326565E-3,-3.1626683E-3,-2.465631E-3,9.12295E-4,3.516967E-3,1.2305031E-3],"split_indices":[28,80,55,25,51,28,25,0,0,0,0,0,0,0,0],"split_type":[0,0,0,0,0,0,0,0,0,0,0,0,0,0,0],"sum_hessian":[6.7730903E3,4.7348413E3,2.0382493E3,2.5179946E3,2.2168464E3,4.2658182E2,1.6116675E3,1.3597594E3,1.1582351E3,6.6508746E2,1.5517592E3,2.971448E2,1.2943701E2,6.340293E2,9.776382E2],"tree_param":{"num_deleted":"0","num_feature":"106","num_nodes":"15","size_leaf_vector":"1"}},{"base_weights":[1.1985231E-1,2.3101239E-1,-1.3835856E-1,9.85139E-2,3.813979E-1,1.4409363E-1,-2.13162E-1,-1.9952546E-4,2.3748986E-3,5.3265644E-3,3.1626683E-3,2.4656313E-3,-9.1229496E-4,-3.5169667E-3,-1.230503E-3],"categories":[],"categories_nodes":[],"categories_segments":[],"categories_sizes":[],"default_left":[0,0,0,0,0,0,0,0,0,0,0,0,0,0,0],"id":45,"left_children":[1,3,5,7,9,11,13,-1,-1,-1,-1,-1,-1,-1,-1],"loss_changes":[1.9446692E2,9.4328094E1,4.311677E1,4.1477448E1,2.1680939E1,1.0332964E1,2.0088623E1,0E0,0E0,0E0,0E0,0E0,0E0,0E0,0E0],"parents":[2147483647,0,0,1,1,2,2,3,3,4,4,5,5,6,6],"right_children":[2,4,6,8,10,12,14,-1,-1,-1,-1,-1,-1,-1,-1],"split_conditions":[2E1,1.4E1,3.59E-1,2.9E0,7E0,2.7E1,-6.2E0,-1.9952546E-4,2.3748986E-3,5.3265644E-3,3.1626683E-3,2.4656313E-3,-9.1229496E-4,-3.5169667E-3,-1.230503E-3],"split_indices":[28,80,55,25,51,28,25,0,0,0,0,0,0,0,0],"split_type":[0,0,0,0,0,0,0,0,0,0,0,0,0,0,0],"sum_hessian":[6.7730903E3,4.7348413E3,2.0382493E3,2.5179946E3,2.2168467E3,4.2658182E2,1.6116675E3,1.3597595E3,1.1582351E3,6.6508746E2,1.5517592E3,2.971448E2,1.2943701E2,6.340293E2,9.776382E2],"tree_param":{"num_deleted":"0","num_feature":"106","num_nodes":"15","size_leaf_vector":"1"}},{"base_weights":[-1.1869406E-1,-2.9013976E-1,4.5888674E-2,-3.7185034E-1,-7.7212095E-2,-1.6626513E-1,1.5665603E-1,-3.04772E-3,-5.562627E-3,-7.786299E-5,-2.1429227E-3,5.8877317E-4,-2.8966474E-3,5.905894E-4,2.8370183E-3],"categories":[],"categories_nodes":[],"categories_segments":[],"categories_sizes":[],"default_left":[0,0,0,0,0,0,0,0,0,0,0,0,0,0,0],"id":46,"left_children":[1,3,5,7,9,11,13,-1,-1,-1,-1,-1,-1,-1,-1],"loss_changes":[1.9109549E2,5.7680573E1,8.124007E1,2.9479004E1,8.764612E0,3.296533E1,2.8142319E1,0E0,0E0,0E0,0E0,0E0,0E0,0E0,0E0],"parents":[2147483647,0,0,1,1,2,2,3,3,4,4,5,5,6,6],"right_children":[2,4,6,8,10,12,14,-1,-1,-1,-1,-1,-1,-1,-1],"split_conditions":[1.5E1,3.8E0,-1.5E0,2.3E1,5.5E0,-4.8E0,2.4E1,-3.04772E-3,-5.562627E-3,-7.786299E-5,-2.1429227E-3,5.8877317E-4,-2.8966474E-3,5.905894E-4,2.8370183E-3],"split_indices":[51,77,77,80,25,25,51,0,0,0,0,0,0,0,0],"split_type":[0,0,0,0,0,0,0,0,0,0,0,0,0,0,0],"sum_hessian":[6.77088E3,3.3159229E3,3.4549573E3,2.395795E3,9.201278E2,1.1849363E3,2.270021E3,1.7587268E3,6.370681E2,6.114891E2,3.0863873E2,4.19706E2,7.652302E2,1.284629E3,9.853921E2],"tree_param":{"num_deleted":"0","num_feature":"106","num_nodes":"15","size_leaf_vector":"1"}},{"base_weights":[1.1869405E-1,2.9013976E-1,-4.5888666E-2,3.718503E-1,7.721209E-2,1.6626513E-1,-1.5665601E-1,3.04772E-3,5.5626268E-3,7.786304E-5,2.1429223E-3,-5.887733E-4,2.8966474E-3,-5.9058936E-4,-2.837018E-3],"categories":[],"categories_nodes":[],"categories_segments":[],"categories_sizes":[],"default_left":[0,0,0,0,0,0,0,0,0,0,0,0,0,0,0],"id":47,"left_children":[1,3,5,7,9,11,13,-1,-1,-1,-1,-1,-1,-1,-1],"loss_changes":[1.9109543E2,5.7680573E1,8.124006E1,2.9479004E1,8.764608E0,3.2965317E1,2.8142319E1,0E0,0E0,0E0,0E0,0E0,0E0,0E0,0E0],"parents":[2147483647,0,0,1,1,2,2,3,3,4,4,5,5,6,6],"right_children":[2,4,6,8,10,12,14,-1,-1,-1,-1,-1,-1,-1,-1],"split_conditions":[1.5E1,3.8E0,-1.5E0,2.3E1,5.5E0,-4.8E0,2.4E1,3.04772E-3,5.5626268E-3,7.786304E-5,2.1429223E-3,-5.887733E-4,2.8966474E-3,-5.9058936E-4,-2.837018E-3],"split_indices":[51,77,77,80,25,25,51,0,0,0,0,0,0,0,0],"split_type":[0,0,0,0,0,0,0,0,0,0,0,0,0,0,0],"sum_hessian":[6.77088E3,3.3159229E3,3.4549573E3,2.395795E3,9.201278E2,1.1849363E3,2.270021E3,1.7587268E3,6.370681E2,6.114891E2,3.0863873E2,4.19706E2,7.652303E2,1.284629E3,9.853921E2],"tree_param":{"num_deleted":"0","num_feature":"106","num_nodes":"15","size_leaf_vector":"1"}},{"base_weights":[-1.17551915E-1,9.203061E-2,-2.4980485E-1,-2.9457083E-2,2.5804603E-1,-4.5485118E-1,-1.5286455E-1,1.4764561E-3,-1.6446252E-3,-6.9630373E-4,2.830546E-3,-2.3487299E-3,-4.9591754E-3,-3.0344576E-3,-4.5254073E-4],"categories":[],"categories_nodes":[],"categories_segments":[],"categories_sizes":[],"default_left":[0,0,0,0,0,0,0,0,0,0,0,0,0,0,0],"id":48,"left_children":[1,3,5,7,9,11,13,-1,-1,-1,-1,-1,-1,-1,-1],"loss_changes":[1.8765694E2,5.284496E1,8.2434204E1,3.621526E1,9.09214E0,1.1915436E1,4.567813E1,0E0,0E0,0E0,0E0,0E0,0E0,0E0,0E0],"parents":[2147483647,0,0,1,1,2,2,3,3,4,4,5,5,6,6],"right_children":[2,4,6,8,10,12,14,-1,-1,-1,-1,-1,-1,-1,-1],"split_conditions":[4.68E-1,5.45E-1,-1.4E0,-5E0,5E0,8E0,8E0,1.4764561E-3,-1.6446252E-3,-6.9630373E-4,2.830546E-3,-2.3487299E-3,-4.9591754E-3,-3.0344576E-3,-4.5254073E-4],"split_indices":[3,55,77,25,53,54,51,0,0,0,0,0,0,0,0],"split_type":[0,0,0,0,0,0,0,0,0,0,0,0,0,0,0],"sum_hessian":[6.7684136E3,2.6187534E3,4.14966E3,1.5126445E3,1.1061089E3,1.3308914E3,2.8187688E3,6.542688E2,8.5837573E2,7.830661E1,1.0278024E3,2.1042702E2,1.1204644E3,1.1740626E3,1.6447063E3],"tree_param":{"num_deleted":"0","num_feature":"106","num_nodes":"15","size_leaf_vector":"1"}},{"base_weights":[1.175519E-1,-9.203063E-2,2.4980484E-1,2.945706E-2,-2.5804603E-1,4.5485115E-1,1.5286455E-1,-1.476456E-3,1.6446249E-3,6.9630344E-4,-2.830546E-3,2.3487299E-3,4.9591754E-3,3.034457E-3,4.5254087E-4],"categories":[],"categories_nodes":[],"categories_segments":[],"categories_sizes":[],"default_left":[0,0,0,0,0,0,0,0,0,0,0,0,0,0,0],"id":49,"left_children":[1,3,5,7,9,11,13,-1,-1,-1,-1,-1,-1,-1,-1],"loss_changes":[1.8765697E2,5.2844963E1,8.243417E1,3.6215252E1,9.09214E0,1.1915436E1,4.5678116E1,0E0,0E0,0E0,0E0,0E0,0E0,0E0,0E0],"parents":[2147483647,0,0,1,1,2,2,3,3,4,4,5,5,6,6],"right_children":[2,4,6,8,10,12,14,-1,-1,-1,-1,-1,-1,-1,-1],"split_conditions":[4.68E-1,5.45E-1,-1.4E0,-5E0,5E0,8E0,8E0,-1.476456E-3,1.6446249E-3,6.9630344E-4,-2.830546E-3,2.3487299E-3,4.9591754E-3,3.034457E-3,4.5254087E-4],"split_indices":[3,55,77,25,53,54,51,0,0,0,0,0,0,0,0],"split_type":[0,0,0,0,0,0,0,0,0,0,0,0,0,0,0],"sum_hessian":[6.768414E3,2.6187534E3,4.14966E3,1.5126445E3,1.1061089E3,1.3308914E3,2.818769E3,6.542688E2,8.5837573E2,7.83066E1,1.0278024E3,2.1042702E2,1.1204644E3,1.1740626E3,1.6447063E3],"tree_param":{"num_deleted":"0","num_feature":"106","num_nodes":"15","size_leaf_vector":"1"}},{"base_weights":[-1.164185E-1,-2.8494734E-1,4.5267742E-2,-3.656664E-1,-7.4828275E-2,-1.7965758E-1,1.4641418E-1,-2.9959742E-3,-5.476581E-3,-6.74871E-5,-2.0931682E-3,2.496658E-4,-3.1579204E-3,5.015525E-4,2.7102253E-3],"categories":[],"categories_nodes":[],"categories_segments":[],"categories_sizes":[],"default_left":[0,0,0,0,0,0,0,0,0,0,0,0,0,0,0],"id":50,"left_children":[1,3,5,7,9,11,13,-1,-1,-1,-1,-1,-1,-1,-1],"loss_changes":[1.8440747E2,5.617267E1,7.86178E1,2.861734E1,8.430287E0,2.9870724E1,2.8575497E1,0E0,0E0,0E0,0E0,0E0,0E0,0E0,0E0],"parents":[2147483647,0,0,1,1,2,2,3,3,4,4,5,5,6,6],"right_children":[2,4,6,8,10,12,14,-1,-1,-1,-1,-1,-1,-1,-1],"split_conditions":[1.5E1,3.8E0,-2E0,2.3E1,5.5E0,-4.1E0,2.4E1,-2.9959742E-3,-5.476581E-3,-6.74871E-5,-2.0931682E-3,2.496658E-4,-3.1579204E-3,5.015525E-4,2.7102253E-3],"split_indices":[51,77,77,80,25,25,51,0,0,0,0,0,0,0,0],"split_type":[0,0,0,0,0,0,0,0,0,0,0,0,0,0,0],"sum_hessian":[6.7660728E3,3.312561E3,3.4535115E3,2.3926597E3,9.1990137E2,1.0710276E3,2.382484E3,1.7573352E3,6.3532446E2,6.1143604E2,3.0846536E2,4.282062E2,6.428214E2,1.344935E3,1.0375488E3],"tree_param":{"num_deleted":"0","num_feature":"106","num_nodes":"15","size_leaf_vector":"1"}},{"base_weights":[1.16418496E-1,2.849473E-1,-4.5267742E-2,3.6566636E-1,7.482826E-2,1.7965756E-1,-1.4641416E-1,2.9959737E-3,5.47658E-3,6.748723E-5,2.0931677E-3,-2.4966602E-4,3.1579204E-3,-5.015524E-4,-2.7102253E-3],"categories":[],"categories_nodes":[],"categories_segments":[],"categories_sizes":[],"default_left":[0,0,0,0,0,0,0,0,0,0,0,0,0,0,0],"id":51,"left_children":[1,3,5,7,9,11,13,-1,-1,-1,-1,-1,-1,-1,-1],"loss_changes":[1.8440746E2,5.617267E1,7.861779E1,2.861731E1,8.430283E0,2.9870728E1,2.85755E1,0E0,0E0,0E0,0E0,0E0,0E0,0E0,0E0],"parents":[2147483647,0,0,1,1,2,2,3,3,4,4,5,5,6,6],"right_children":[2,4,6,8,10,12,14,-1,-1,-1,-1,-1,-1,-1,-1],"split_conditions":[1.5E1,3.8E0,-2E0,2.3E1,5.5E0,-4.1E0,2.4E1,2.9959737E-3,5.47658E-3,6.748723E-5,2.0931677E-3,-2.4966602E-4,3.1579204E-3,-5.015524E-4,-2.7102253E-3],"split_indices":[51,77,77,80,25,25,51,0,0,0,0,0,0,0,0],"split_type":[0,0,0,0,0,0,0,0,0,0,0,0,0,0,0],"sum_hessian":[6.7660728E3,3.312561E3,3.4535115E3,2.3926597E3,9.1990137E2,1.0710276E3,2.382484E3,1.7573353E3,6.3532446E2,6.1143604E2,3.0846533E2,4.282062E2,6.428214E2,1.344935E3,1.0375488E3],"tree_param":{"num_deleted":"0","num_feature":"106","num_nodes":"15","size_leaf_vector":"1"}},{"base_weights":[-1.15300834E-1,-2.2274993E-1,1.341032E-1,-9.421381E-2,-3.6896867E-1,-2.159621E-3,2.813458E-1,-2.2362308E-3,2.5099432E-4,-5.172223E-3,-3.0522963E-3,1.4169383E-3,-1.5636353E-3,4.066814E-3,2.0397878E-3],"categories":[],"categories_nodes":[],"categories_segments":[],"categories_sizes":[],"default_left":[0,0,0,0,0,0,0,0,0,0,0,0,0,0,0],"id":52,"left_children":[1,3,5,7,9,11,13,-1,-1,-1,-1,-1,-1,-1,-1],"loss_changes":[1.8130566E2,8.8826004E1,4.087871E1,3.8876587E1,2.0740204E1,2.351712E1,9.412804E0,0E0,0E0,0E0,0E0,0E0,0E0,0E0,0E0],"parents":[2147483647,0,0,1,1,2,2,3,3,4,4,5,5,6,6],"right_children":[2,4,6,8,10,12,14,-1,-1,-1,-1,-1,-1,-1,-1],"split_conditions":[2E1,1.4E1,5.14E-1,1E1,7E0,-5E0,-6.2E0,-2.2362308E-3,2.5099432E-4,-5.172223E-3,-3.0522963E-3,1.4169383E-3,-1.5636353E-3,4.066814E-3,2.0397878E-3],"split_indices":[28,80,55,51,51,25,25,0,0,0,0,0,0,0,0],"split_type":[0,0,0,0,0,0,0,0,0,0,0,0,0,0,0],"sum_hessian":[6.7634663E3,4.7270493E3,2.0364166E3,2.516511E3,2.2105386E3,1.0581539E3,9.782627E2,1.2067616E3,1.3097493E3,6.62495E2,1.5480435E3,5.474919E2,5.1066208E2,3.717563E2,6.065064E2],"tree_param":{"num_deleted":"0","num_feature":"106","num_nodes":"15","size_leaf_vector":"1"}},{"base_weights":[1.15300834E-1,2.2274993E-1,-1.341032E-1,9.4213806E-2,3.6896867E-1,2.1596053E-3,-2.8134578E-1,2.2362308E-3,-2.509945E-4,5.172223E-3,3.0522963E-3,-1.4169386E-3,1.5636353E-3,-4.0668133E-3,-2.0397878E-3],"categories":[],"categories_nodes":[],"categories_segments":[],"categories_sizes":[],"default_left":[0,0,0,0,0,0,0,0,0,0,0,0,0,0,0],"id":53,"left_children":[1,3,5,7,9,11,13,-1,-1,-1,-1,-1,-1,-1,-1],"loss_changes":[1.8130566E2,8.8826004E1,4.0878696E1,3.8876587E1,2.0740204E1,2.3517124E1,9.412796E0,0E0,0E0,0E0,0E0,0E0,0E0,0E0,0E0],"parents":[2147483647,0,0,1,1,2,2,3,3,4,4,5,5,6,6],"right_children":[2,4,6,8,10,12,14,-1,-1,-1,-1,-1,-1,-1,-1],"split_conditions":[2E1,1.4E1,5.14E-1,1E1,7E0,-5E0,-6.2E0,2.2362308E-3,-2.509945E-4,5.172223E-3,3.0522963E-3,-1.4169386E-3,1.5636353E-3,-4.0668133E-3,-2.0397878E-3],"split_indices":[28,80,55,51,51,25,25,0,0,0,0,0,0,0,0],"split_type":[0,0,0,0,0,0,0,0,0,0,0,0,0,0,0],"sum_hessian":[6.7634663E3,4.7270493E3,2.0364167E3,2.5165107E3,2.2105386E3,1.058154E3,9.782627E2,1.2067616E3,1.3097493E3,6.62495E2,1.5480435E3,5.474919E2,5.106621E2,3.7175632E2,6.065064E2],"tree_param":{"num_deleted":"0","num_feature":"106","num_nodes":"15","size_leaf_vector":"1"}},{"base_weights":[-1.14191055E-1,-2.7981853E-1,4.4613607E-2,-3.5947534E-1,-7.270469E-2,-1.7679985E-1,1.4415264E-1,-2.941586E-3,-5.3972485E-3,-5.7144112E-5,-2.0510016E-3,2.4126092E-4,-3.1059887E-3,4.9793994E-4,2.663845E-3],"categories":[],"categories_nodes":[],"categories_segments":[],"categories_sizes":[],"default_left":[0,0,0,0,0,0,0,0,0,0,0,0,0,0,0],"id":54,"left_children":[1,3,5,7,9,11,13,-1,-1,-1,-1,-1,-1,-1,-1],"loss_changes":[1.7786862E2,5.4582672E1,7.612603E1,2.7983398E1,8.164568E0,2.8808922E1,2.746695E1,0E0,0E0,0E0,0E0,0E0,0E0,0E0,0E0],"parents":[2147483647,0,0,1,1,2,2,3,3,4,4,5,5,6,6],"right_children":[2,4,6,8,10,12,14,-1,-1,-1,-1,-1,-1,-1,-1],"split_conditions":[1.5E1,3.8E0,-2E0,2.3E1,5.5E0,-4.1E0,2.4E1,-2.941586E-3,-5.3972485E-3,-5.7144112E-5,-2.0510016E-3,2.4126092E-4,-3.1059887E-3,4.9793994E-4,2.663845E-3],"split_indices":[51,77,77,80,25,25,51,0,0,0,0,0,0,0,0],"split_type":[0,0,0,0,0,0,0,0,0,0,0,0,0,0,0],"sum_hessian":[6.76097E3,3.3090205E3,3.45195E3,2.3893364E3,9.196841E2,1.0703345E3,2.3816155E3,1.7557426E3,6.335938E2,6.113783E2,3.083058E2,4.2817056E2,6.421639E2,1.3448481E3,1.0367675E3],"tree_param":{"num_deleted":"0","num_feature":"106","num_nodes":"15","size_leaf_vector":"1"}},{"base_weights":[1.1419104E-1,2.798185E-1,-4.4613607E-2,3.5947534E-1,7.270467E-2,1.7679985E-1,-1.4415264E-1,2.9415856E-3,5.3972485E-3,5.7143894E-5,2.0510016E-3,-2.4126079E-4,3.1059887E-3,-4.9793976E-4,-2.6638454E-3],"categories":[],"categories_nodes":[],"categories_segments":[],"categories_sizes":[],"default_left":[0,0,0,0,0,0,0,0,0,0,0,0,0,0,0],"id":55,"left_children":[1,3,5,7,9,11,13,-1,-1,-1,-1,-1,-1,-1,-1],"loss_changes":[1.778686E2,5.4582672E1,7.612602E1,2.7983429E1,8.16457E0,2.8808922E1,2.7466969E1,0E0,0E0,0E0,0E0,0E0,0E0,0E0,0E0],"parents":[2147483647,0,0,1,1,2,2,3,3,4,4,5,5,6,6],"right_children":[2,4,6,8,10,12,14,-1,-1,-1,-1,-1,-1,-1,-1],"split_conditions":[1.5E1,3.8E0,-2E0,2.3E1,5.5E0,-4.1E0,2.4E1,2.9415856E-3,5.3972485E-3,5.7143894E-5,2.0510016E-3,-2.4126079E-4,3.1059887E-3,-4.9793976E-4,-2.6638454E-3],"split_indices":[51,77,77,80,25,25,51,0,0,0,0,0,0,0,0],"split_type":[0,0,0,0,0,0,0,0,0,0,0,0,0,0,0],"sum_hessian":[6.76097E3,3.3090205E3,3.45195E3,2.3893364E3,9.196841E2,1.0703345E3,2.3816155E3,1.7557426E3,6.335938E2,6.113783E2,3.083058E2,4.2817056E2,6.421639E2,1.3448481E3,1.0367675E3],"tree_param":{"num_deleted":"0","num_feature":"106","num_nodes":"15","size_leaf_vector":"1"}},{"base_weights":[-1.1309699E-1,-2.1868537E-1,1.318955E-1,-1.2829165E-1,-4.2095676E-1,-1.394036E-1,2.0377824E-1,-1.3675254E-4,-2.6380036E-3,-4.735859E-3,-2.8252732E-3,-2.381321E-3,8.707651E-4,3.3699514E-3,1.1725796E-3],"categories":[],"categories_nodes":[],"categories_segments":[],"categories_sizes":[],"default_left":[0,0,0,0,0,0,0,0,0,0,0,0,0,0,0],"id":56,"left_children":[1,3,5,7,9,11,13,-1,-1,-1,-1,-1,-1,-1,-1],"loss_changes":[1.7487918E2,8.631731E1,3.9741306E1,5.072645E1,1.0492645E1,9.571445E0,1.8520119E1,0E0,0E0,0E0,0E0,0E0,0E0,0E0,0E0],"parents":[2147483647,0,0,1,1,2,2,3,3,4,4,5,5,6,6],"right_children":[2,4,6,8,10,12,14,-1,-1,-1,-1,-1,-1,-1,-1],"split_conditions":[2E1,1.9E1,3.59E-1,2.9E0,-2.5E0,2.7E1,-6.2E0,-1.3675254E-4,-2.6380036E-3,-4.735859E-3,-2.8252732E-3,-2.381321E-3,8.707651E-4,3.3699514E-3,1.1725796E-3],"split_indices":[28,80,55,25,77,28,25,0,0,0,0,0,0,0,0],"split_type":[0,0,0,0,0,0,0,0,0,0,0,0,0,0,0],"sum_hessian":[6.758236E3,4.722857E3,2.0353788E3,3.2652659E3,1.4575912E3,4.2613293E2,1.6092458E3,1.769599E3,1.4956669E3,1.0543276E3,4.0326358E2,2.9672946E2,1.2940344E2,6.324915E2,9.7675433E2],"tree_param":{"num_deleted":"0","num_feature":"106","num_nodes":"15","size_leaf_vector":"1"}},{"base_weights":[1.1309697E-1,2.1868536E-1,-1.3189554E-1,1.2829164E-1,4.2095673E-1,1.3940364E-1,-2.037783E-1,1.3675253E-4,2.638003E-3,4.735859E-3,2.8252732E-3,2.3813215E-3,-8.707651E-4,-3.3699523E-3,-1.1725802E-3],"categories":[],"categories_nodes":[],"categories_segments":[],"categories_sizes":[],"default_left":[0,0,0,0,0,0,0,0,0,0,0,0,0,0,0],"id":57,"left_children":[1,3,5,7,9,11,13,-1,-1,-1,-1,-1,-1,-1,-1],"loss_changes":[1.7487921E2,8.631729E1,3.9741325E1,5.072644E1,1.0492676E1,9.571449E0,1.8520134E1,0E0,0E0,0E0,0E0,0E0,0E0,0E0,0E0],"parents":[2147483647,0,0,1,1,2,2,3,3,4,4,5,5,6,6],"right_children":[2,4,6,8,10,12,14,-1,-1,-1,-1,-1,-1,-1,-1],"split_conditions":[2E1,1.9E1,3.59E-1,2.9E0,-2.5E0,2.7E1,-6.2E0,1.3675253E-4,2.638003E-3,4.735859E-3,2.8252732E-3,2.3813215E-3,-8.707651E-4,-3.3699523E-3,-1.1725802E-3],"split_indices":[28,80,55,25,77,28,25,0,0,0,0,0,0,0,0],"split_type":[0,0,0,0,0,0,0,0,0,0,0,0,0,0,0],"sum_hessian":[6.758236E3,4.722857E3,2.0353788E3,3.2652659E3,1.4575912E3,4.2613293E2,1.6092458E3,1.769599E3,1.4956669E3,1.0543276E3,4.0326358E2,2.9672946E2,1.2940344E2,6.324915E2,9.7675433E2],"tree_param":{"num_deleted":"0","num_feature":"106","num_nodes":"15","size_leaf_vector":"1"}},{"base_weights":[-1.12011105E-1,-2.7486554E-1,4.4038393E-2,-3.536588E-1,-7.023514E-2,-8.194279E-2,2.144632E-1,-2.8937182E-3,-5.314584E-3,-2.9647164E-4,-2.8598153E-3,1.2465058E-3,-1.9508807E-3,1.0890753E-3,2.9448732E-3],"categories":[],"categories_nodes":[],"categories_segments":[],"categories_sizes":[],"default_left":[0,0,0,0,0,0,0,0,0,0,0,0,0,0,0],"id":58,"left_children":[1,3,5,7,9,11,13,-1,-1,-1,-1,-1,-1,-1,-1],"loss_changes":[1.7172025E2,5.3285156E1,7.4117134E1,2.7129272E1,8.051479E0,4.6426052E1,1.2361038E1,0E0,0E0,0E0,0E0,0E0,0E0,0E0,0E0],"parents":[2147483647,0,0,1,1,2,2,3,3,4,4,5,5,6,6],"right_children":[2,4,6,8,10,12,14,-1,-1,-1,-1,-1,-1,-1,-1],"split_conditions":[1.5E1,3.8E0,5.45E-1,2.3E1,1.17E1,-4.7E0,2E1,-2.8937182E-3,-5.314584E-3,-2.9647164E-4,-2.8598153E-3,1.2465058E-3,-1.9508807E-3,1.0890753E-3,2.9448732E-3],"split_indices":[51,77,55,80,66,25,28,0,0,0,0,0,0,0,0],"split_type":[0,0,0,0,0,0,0,0,0,0,0,0,0,0,0],"sum_hessian":[6.755612E3,3.3053562E3,3.4502559E3,2.385924E3,9.194322E2,1.9840951E3,1.4661606E3,1.7542627E3,6.316612E2,7.7480664E2,1.4462555E2,7.0207184E2,1.2820232E3,6.332433E2,8.329174E2],"tree_param":{"num_deleted":"0","num_feature":"106","num_nodes":"15","size_leaf_vector":"1"}},{"base_weights":[1.1201111E-1,2.7486554E-1,-4.403839E-2,3.5365883E-1,7.023513E-2,8.1942804E-2,-2.1446322E-1,2.8937182E-3,5.314584E-3,2.9647158E-4,2.859815E-3,-1.2465055E-3,1.9508809E-3,-1.0890752E-3,-2.9448734E-3],"categories":[],"categories_nodes":[],"categories_segments":[],"categories_sizes":[],"default_left":[0,0,0,0,0,0,0,0,0,0,0,0,0,0,0],"id":59,"left_children":[1,3,5,7,9,11,13,-1,-1,-1,-1,-1,-1,-1,-1],"loss_changes":[1.7172025E2,5.3285202E1,7.411714E1,2.7129211E1,8.051479E0,4.642604E1,1.2361038E1,0E0,0E0,0E0,0E0,0E0,0E0,0E0,0E0],"parents":[2147483647,0,0,1,1,2,2,3,3,4,4,5,5,6,6],"right_children":[2,4,6,8,10,12,14,-1,-1,-1,-1,-1,-1,-1,-1],"split_conditions":[1.5E1,3.8E0,5.45E-1,2.3E1,1.17E1,-4.7E0,2E1,2.8937182E-3,5.314584E-3,2.9647158E-4,2.859815E-3,-1.2465055E-3,1.9508809E-3,-1.0890752E-3,-2.9448734E-3],"split_indices":[51,77,55,80,66,25,28,0,0,0,0,0,0,0,0],"split_type":[0,0,0,0,0,0,0,0,0,0,0,0,0,0,0],"sum_hessian":[6.755612E3,3.3053562E3,3.4502556E3,2.3859238E3,9.194322E2,1.9840951E3,1.4661606E3,1.7542627E3,6.316612E2,7.7480664E2,1.4462555E2,7.0207184E2,1.2820232E3,6.332433E2,8.329174E2],"tree_param":{"num_deleted":"0","num_feature":"106","num_nodes":"15","size_leaf_vector":"1"}},{"base_weights":[-1.1093673E-1,8.7878324E-2,-2.3658293E-1,-2.8234368E-2,2.4660891E-1,-6.289957E-2,-3.4277493E-1,1.395207E-3,-1.5615363E-3,-7.6102314E-4,2.7126449E-3,-1.3577171E-3,1.3536172E-3,-2.7617228E-3,-4.8497114E-3],"categories":[],"categories_nodes":[],"categories_segments":[],"categories_sizes":[],"default_left":[0,0,0,0,0,0,0,0,0,0,0,0,0,0,0],"id":60,"left_children":[1,3,5,7,9,11,13,-1,-1,-1,-1,-1,-1,-1,-1],"loss_changes":[1.6873645E2,4.8224457E1,7.6313065E1,3.246391E1,8.815506E0,2.2724174E1,2.4188477E1,0E0,0E0,0E0,0E0,0E0,0E0,0E0,0E0],"parents":[2147483647,0,0,1,1,2,2,3,3,4,4,5,5,6,6],"right_children":[2,4,6,8,10,12,14,-1,-1,-1,-1,-1,-1,-1,-1],"split_conditions":[4.68E-1,5.45E-1,1.1E1,-5E0,5E0,1.4E1,2.3E1,1.395207E-3,-1.5615363E-3,-7.6102314E-4,2.7126449E-3,-1.3577171E-3,1.3536172E-3,-2.7617228E-3,-4.8497114E-3],"split_indices":[3,55,103,25,53,51,80,0,0,0,0,0,0,0,0],"split_type":[0,0,0,0,0,0,0,0,0,0,0,0,0,0,0],"sum_hessian":[6.752933E3,2.6151602E3,4.137773E3,1.5108115E3,1.1043486E3,1.570583E3,2.5671902E3,6.5359174E2,8.572198E2,7.823697E1,1.0261117E3,1.1486902E3,4.2189288E2,1.7503115E3,8.1687854E2],"tree_param":{"num_deleted":"0","num_feature":"106","num_nodes":"15","size_leaf_vector":"1"}},{"base_weights":[1.1093673E-1,-8.787834E-2,2.3658293E-1,2.823436E-2,-2.4660893E-1,6.289956E-2,3.4277496E-1,-1.395207E-3,1.5615361E-3,7.610229E-4,-2.712645E-3,1.3577169E-3,-1.3536172E-3,2.7617228E-3,4.8497114E-3],"categories":[],"categories_nodes":[],"categories_segments":[],"categories_sizes":[],"default_left":[0,0,0,0,0,0,0,0,0,0,0,0,0,0,0],"id":61,"left_children":[1,3,5,7,9,11,13,-1,-1,-1,-1,-1,-1,-1,-1],"loss_changes":[1.6873648E2,4.8224464E1,7.631308E1,3.2463905E1,8.815498E0,2.272417E1,2.4188477E1,0E0,0E0,0E0,0E0,0E0,0E0,0E0,0E0],"parents":[2147483647,0,0,1,1,2,2,3,3,4,4,5,5,6,6],"right_children":[2,4,6,8,10,12,14,-1,-1,-1,-1,-1,-1,-1,-1],"split_conditions":[4.68E-1,5.45E-1,1.1E1,-5E0,5E0,1.4E1,2.3E1,-1.395207E-3,1.5615361E-3,7.610229E-4,-2.712645E-3,1.3577169E-3,-1.3536172E-3,2.7617228E-3,4.8497114E-3],"split_indices":[3,55,103,25,53,51,80,0,0,0,0,0,0,0,0],"split_type":[0,0,0,0,0,0,0,0,0,0,0,0,0,0,0],"sum_hessian":[6.752933E3,2.6151602E3,4.137773E3,1.5108115E3,1.1043486E3,1.570583E3,2.56719E3,6.5359174E2,8.572198E2,7.823697E1,1.0261117E3,1.1486902E3,4.2189288E2,1.7503115E3,8.1687854E2],"tree_param":{"num_deleted":"0","num_feature":"106","num_nodes":"15","size_leaf_vector":"1"}},{"base_weights":[-1.09872594E-1,-2.699777E-1,4.343324E-2,-3.4767592E-1,-6.84677E-2,-1.7156759E-1,1.4002408E-1,-2.8437932E-3,-5.231536E-3,-2.8289075E-4,-2.8209898E-3,2.209671E-4,-3.0078152E-3,4.8711235E-4,2.5845722E-3],"categories":[],"categories_nodes":[],"categories_segments":[],"categories_sizes":[],"default_left":[0,0,0,0,0,0,0,0,0,0,0,0,0,0,0],"id":62,"left_children":[1,3,5,7,9,11,13,-1,-1,-1,-1,-1,-1,-1,-1],"loss_changes":[1.6572122E2,5.1683746E1,7.166461E1,2.6322357E1,7.8911138E0,2.6778257E1,2.5735367E1,0E0,0E0,0E0,0E0,0E0,0E0,0E0,0E0],"parents":[2147483647,0,0,1,1,2,2,3,3,4,4,5,5,6,6],"right_children":[2,4,6,8,10,12,14,-1,-1,-1,-1,-1,-1,-1,-1],"split_conditions":[1.5E1,3.8E0,-2E0,2.3E1,1.17E1,-4.1E0,2.4E1,-2.8437932E-3,-5.231536E-3,-2.8289075E-4,-2.8209898E-3,2.209671E-4,-3.0078152E-3,4.8711235E-4,2.5845722E-3],"split_indices":[51,77,77,80,66,25,51,0,0,0,0,0,0,0,0],"split_type":[0,0,0,0,0,0,0,0,0,0,0,0,0,0,0],"sum_hessian":[6.75024E3,3.3015266E3,3.4487134E3,2.3822524E3,9.192743E2,1.068832E3,2.3798813E3,1.7526678E3,6.295845E2,7.7470447E2,1.4456982E2,4.2807193E2,6.4076013E2,1.3445977E3,1.0352838E3],"tree_param":{"num_deleted":"0","num_feature":"106","num_nodes":"15","size_leaf_vector":"1"}},{"base_weights":[1.09872594E-1,2.699777E-1,-4.3433238E-2,3.4767592E-1,6.8467684E-2,1.7156757E-1,-1.4002408E-1,2.8437932E-3,5.231536E-3,2.8289048E-4,2.82099E-3,-2.209671E-4,3.0078148E-3,-4.8711232E-4,-2.5845717E-3],"categories":[],"categories_nodes":[],"categories_segments":[],"categories_sizes":[],"default_left":[0,0,0,0,0,0,0,0,0,0,0,0,0,0,0],"id":63,"left_children":[1,3,5,7,9,11,13,-1,-1,-1,-1,-1,-1,-1,-1],"loss_changes":[1.6572122E2,5.1683746E1,7.1664604E1,2.6322388E1,7.8911157E0,2.6778246E1,2.573536E1,0E0,0E0,0E0,0E0,0E0,0E0,0E0,0E0],"parents":[2147483647,0,0,1,1,2,2,3,3,4,4,5,5,6,6],"right_children":[2,4,6,8,10,12,14,-1,-1,-1,-1,-1,-1,-1,-1],"split_conditions":[1.5E1,3.8E0,-2E0,2.3E1,1.17E1,-4.1E0,2.4E1,2.8437932E-3,5.231536E-3,2.8289048E-4,2.82099E-3,-2.209671E-4,3.0078148E-3,-4.8711232E-4,-2.5845717E-3],"split_indices":[51,77,77,80,66,25,51,0,0,0,0,0,0,0,0],"split_type":[0,0,0,0,0,0,0,0,0,0,0,0,0,0,0],"sum_hessian":[6.75024E3,3.3015266E3,3.4487134E3,2.3822524E3,9.192743E2,1.068832E3,2.3798813E3,1.7526678E3,6.295845E2,7.7470447E2,1.4456982E2,4.2807193E2,6.4076013E2,1.3445977E3,1.0352838E3],"tree_param":{"num_deleted":"0","num_feature":"106","num_nodes":"15","size_leaf_vector":"1"}},{"base_weights":[-1.08823374E-1,-2.1087131E-1,1.2774463E-1,-8.800643E-2,-3.511784E-1,-1.3661522E-1,1.9781162E-1,2.190457E-4,-2.1723805E-3,-4.9643014E-3,-2.8888043E-3,-2.3278543E-3,8.383282E-4,3.2791346E-3,1.1340813E-3],"categories":[],"categories_nodes":[],"categories_segments":[],"categories_sizes":[],"default_left":[0,0,0,0,0,0,0,0,0,0,0,0,0,0,0],"id":64,"left_children":[1,3,5,7,9,11,13,-1,-1,-1,-1,-1,-1,-1,-1],"loss_changes":[1.629397E2,8.1249466E1,3.7708984E1,3.5728638E1,1.9772278E1,9.068212E0,1.7626163E1,0E0,0E0,0E0,0E0,0E0,0E0,0E0,0E0],"parents":[2147483647,0,0,1,1,2,2,3,3,4,4,5,5,6,6],"right_children":[2,4,6,8,10,12,14,-1,-1,-1,-1,-1,-1,-1,-1],"split_conditions":[2E1,1.4E1,3.59E-1,2.9E0,7E0,2.7E1,-6.2E0,2.190457E-4,-2.1723805E-3,-4.9643014E-3,-2.8888043E-3,-2.3278543E-3,8.383282E-4,3.2791346E-3,1.1340813E-3],"split_indices":[28,80,55,25,51,28,25,0,0,0,0,0,0,0,0],"split_type":[0,0,0,0,0,0,0,0,0,0,0,0,0,0,0],"sum_hessian":[6.747307E3,4.713962E3,2.0333451E3,2.514062E3,2.1999001E3,4.2581454E2,1.6075306E3,1.3590367E3,1.1550253E3,6.582287E2,1.5416714E3,2.9643787E2,1.2937668E2,6.313954E2,9.7613525E2],"tree_param":{"num_deleted":"0","num_feature":"106","num_nodes":"15","size_leaf_vector":"1"}},{"base_weights":[1.08823396E-1,2.1087132E-1,-1.2774459E-1,8.800644E-2,3.5117844E-1,1.3661528E-1,-1.9781159E-1,-2.1904544E-4,2.1723802E-3,4.964302E-3,2.8888043E-3,2.327855E-3,-8.383274E-4,-3.2791342E-3,-1.1340809E-3],"categories":[],"categories_nodes":[],"categories_segments":[],"categories_sizes":[],"default_left":[0,0,0,0,0,0,0,0,0,0,0,0,0,0,0],"id":65,"left_children":[1,3,5,7,9,11,13,-1,-1,-1,-1,-1,-1,-1,-1],"loss_changes":[1.6293967E2,8.124945E1,3.7709E1,3.5728622E1,1.9772278E1,9.0682125E0,1.762616E1,0E0,0E0,0E0,0E0,0E0,0E0,0E0,0E0],"parents":[2147483647,0,0,1,1,2,2,3,3,4,4,5,5,6,6],"right_children":[2,4,6,8,10,12,14,-1,-1,-1,-1,-1,-1,-1,-1],"split_conditions":[2E1,1.4E1,3.59E-1,2.9E0,7E0,2.7E1,-6.2E0,-2.1904544E-4,2.1723802E-3,4.964302E-3,2.8888043E-3,2.327855E-3,-8.383274E-4,-3.2791342E-3,-1.1340809E-3],"split_indices":[28,80,55,25,51,28,25,0,0,0,0,0,0,0,0],"split_type":[0,0,0,0,0,0,0,0,0,0,0,0,0,0,0],"sum_hessian":[6.747307E3,4.713962E3,2.0333452E3,2.514062E3,2.1999001E3,4.2581454E2,1.6075306E3,1.3590367E3,1.1550253E3,6.582287E2,1.5416714E3,2.9643787E2,1.2937668E2,6.313954E2,9.7613525E2],"tree_param":{"num_deleted":"0","num_feature":"106","num_nodes":"15","size_leaf_vector":"1"}},{"base_weights":[-1.0778131E-1,-2.651686E-1,4.2816553E-2,-8.461497E-2,-3.4965748E-1,-7.936778E-2,2.0808603E-1,-2.0040532E-4,-2.1671655E-3,-2.8494394E-3,-5.1578013E-3,1.1982227E-3,-1.8850919E-3,1.0603655E-3,2.8555482E-3],"categories":[],"categories_nodes":[],"categories_segments":[],"categories_sizes":[],"default_left":[0,0,0,0,0,0,0,0,0,0,0,0,0,0,0],"id":66,"left_children":[1,3,5,7,9,11,13,-1,-1,-1,-1,-1,-1,-1,-1],"loss_changes":[1.5989478E2,5.0288956E1,6.9642525E1,8.976547E0,2.4006256E1,4.3135136E1,1.1558296E1,0E0,0E0,0E0,0E0,0E0,0E0,0E0,0E0],"parents":[2147483647,0,0,1,1,2,2,3,3,4,4,5,5,6,6],"right_children":[2,4,6,8,10,12,14,-1,-1,-1,-1,-1,-1,-1,-1],"split_conditions":[1.5E1,9E0,5.45E-1,5.5E0,2.3E1,-4.7E0,2E1,-2.0040532E-4,-2.1671655E-3,-2.8494394E-3,-5.1578013E-3,1.1982227E-3,-1.8850919E-3,1.0603655E-3,2.8555482E-3],"split_indices":[51,103,55,25,80,25,28,0,0,0,0,0,0,0,0],"split_type":[0,0,0,0,0,0,0,0,0,0,0,0,0,0,0],"sum_hessian":[6.7445127E3,3.2975442E3,3.4469685E3,1.051812E3,2.2457322E3,1.9821083E3,1.4648602E3,7.0724524E2,3.4456677E2,1.618109E3,6.2762317E2,7.0158075E2,1.2805276E3,6.3316376E2,8.316965E2],"tree_param":{"num_deleted":"0","num_feature":"106","num_nodes":"15","size_leaf_vector":"1"}},{"base_weights":[1.0778133E-1,2.651686E-1,-4.2816542E-2,8.461499E-2,3.4965748E-1,7.93678E-2,-2.0808604E-1,2.0040556E-4,2.1671657E-3,2.8494396E-3,5.157802E-3,-1.1982225E-3,1.8850921E-3,-1.0603652E-3,-2.8555484E-3],"categories":[],"categories_nodes":[],"categories_segments":[],"categories_sizes":[],"default_left":[0,0,0,0,0,0,0,0,0,0,0,0,0,0,0],"id":67,"left_children":[1,3,5,7,9,11,13,-1,-1,-1,-1,-1,-1,-1,-1],"loss_changes":[1.5989478E2,5.0288956E1,6.964253E1,8.976551E0,2.4006226E1,4.313513E1,1.1558311E1,0E0,0E0,0E0,0E0,0E0,0E0,0E0,0E0],"parents":[2147483647,0,0,1,1,2,2,3,3,4,4,5,5,6,6],"right_children":[2,4,6,8,10,12,14,-1,-1,-1,-1,-1,-1,-1,-1],"split_conditions":[1.5E1,9E0,5.45E-1,5.5E0,2.3E1,-4.7E0,2E1,2.0040556E-4,2.1671657E-3,2.8494396E-3,5.157802E-3,-1.1982225E-3,1.8850921E-3,-1.0603652E-3,-2.8555484E-3],"split_indices":[51,103,55,25,80,25,28,0,0,0,0,0,0,0,0],"split_type":[0,0,0,0,0,0,0,0,0,0,0,0,0,0,0],"sum_hessian":[6.7445127E3,3.2975442E3,3.4469685E3,1.051812E3,2.2457322E3,1.9821083E3,1.4648602E3,7.0724524E2,3.4456677E2,1.618109E3,6.2762317E2,7.0158075E2,1.2805276E3,6.331637E2,8.316965E2],"tree_param":{"num_deleted":"0","num_feature":"106","num_nodes":"15","size_leaf_vector":"1"}},{"base_weights":[-1.0675145E-1,8.5141174E-2,-2.2816138E-1,-2.7413229E-2,2.3906194E-1,-4.2103726E-1,-1.3770734E-1,1.343462E-3,-1.5078067E-3,-7.9613295E-4,2.6343071E-3,-2.071208E-3,-4.611902E-3,-2.8024921E-3,-3.6133957E-4],"categories":[],"categories_nodes":[],"categories_segments":[],"categories_sizes":[],"default_left":[0,0,0,0,0,0,0,0,0,0,0,0,0,0,0],"id":68,"left_children":[1,3,5,7,9,11,13,-1,-1,-1,-1,-1,-1,-1,-1],"loss_changes":[1.5710602E2,4.5285637E1,7.1995575E1,3.0164654E1,8.594616E0,1.122554E1,4.0717285E1,0E0,0E0,0E0,0E0,0E0,0E0,0E0,0E0],"parents":[2147483647,0,0,1,1,2,2,3,3,4,4,5,5,6,6],"right_children":[2,4,6,8,10,12,14,-1,-1,-1,-1,-1,-1,-1,-1],"split_conditions":[4.68E-1,5.45E-1,-1.4E0,-5E0,5E0,8E0,8E0,1.343462E-3,-1.5078067E-3,-7.9613295E-4,2.6343071E-3,-2.071208E-3,-4.611902E-3,-2.8024921E-3,-3.6133957E-4],"split_indices":[3,55,77,25,53,54,51,0,0,0,0,0,0,0,0],"split_type":[0,0,0,0,0,0,0,0,0,0,0,0,0,0,0],"sum_hessian":[6.741588E3,2.6125928E3,4.128995E3,1.5095544E3,1.1030382E3,1.317029E3,2.811966E3,6.531089E2,8.564456E2,7.81953E1,1.024843E3,2.0911566E2,1.1079133E3,1.1692928E3,1.6426733E3],"tree_param":{"num_deleted":"0","num_feature":"106","num_nodes":"15","size_leaf_vector":"1"}},{"base_weights":[1.0675146E-1,-8.5141174E-2,2.281614E-1,2.7413223E-2,-2.3906194E-1,4.2103726E-1,1.3770734E-1,-1.343462E-3,1.5078066E-3,7.961327E-4,-2.634307E-3,2.071208E-3,4.611902E-3,2.8024924E-3,3.6133957E-4],"categories":[],"categories_nodes":[],"categories_segments":[],"categories_sizes":[],"default_left":[0,0,0,0,0,0,0,0,0,0,0,0,0,0,0],"id":69,"left_children":[1,3,5,7,9,11,13,-1,-1,-1,-1,-1,-1,-1,-1],"loss_changes":[1.5710603E2,4.5285637E1,7.199556E1,3.016465E1,8.594616E0,1.1225555E1,4.0717293E1,0E0,0E0,0E0,0E0,0E0,0E0,0E0,0E0],"parents":[2147483647,0,0,1,1,2,2,3,3,4,4,5,5,6,6],"right_children":[2,4,6,8,10,12,14,-1,-1,-1,-1,-1,-1,-1,-1],"split_conditions":[4.68E-1,5.45E-1,-1.4E0,-5E0,5E0,8E0,8E0,-1.343462E-3,1.5078066E-3,7.961327E-4,-2.634307E-3,2.071208E-3,4.611902E-3,2.8024924E-3,3.6133957E-4],"split_indices":[3,55,77,25,53,54,51,0,0,0,0,0,0,0,0],"split_type":[0,0,0,0,0,0,0,0,0,0,0,0,0,0,0],"sum_hessian":[6.741588E3,2.6125928E3,4.128995E3,1.5095544E3,1.1030382E3,1.3170292E3,2.811966E3,6.531089E2,8.564456E2,7.81953E1,1.024843E3,2.0911566E2,1.1079135E3,1.1692928E3,1.6426733E3],"tree_param":{"num_deleted":"0","num_feature":"106","num_nodes":"15","size_leaf_vector":"1"}},{"base_weights":[-1.0573127E-1,-2.604855E-1,4.2230908E-2,-3.3642232E-1,-6.406988E-2,-1.6685782E-1,1.3610864E-1,-2.747582E-3,-5.0815106E-3,-2.4296161E-4,-2.7564603E-3,2.009649E-4,-2.918346E-3,4.779843E-4,2.5079784E-3],"categories":[],"categories_nodes":[],"categories_segments":[],"categories_sizes":[],"default_left":[0,0,0,0,0,0,0,0,0,0,0,0,0,0,0],"id":70,"left_children":[1,3,5,7,9,11,13,-1,-1,-1,-1,-1,-1,-1,-1],"loss_changes":[1.5433481E2,4.9114594E1,6.76696E1,2.5016876E1,7.733292E0,2.4967337E1,2.408289E1,0E0,0E0,0E0,0E0,0E0,0E0,0E0,0E0],"parents":[2147483647,0,0,1,1,2,2,3,3,4,4,5,5,6,6],"right_children":[2,4,6,8,10,12,14,-1,-1,-1,-1,-1,-1,-1,-1],"split_conditions":[1.5E1,3.8E0,-2E0,2.3E1,1.17E1,-4.1E0,2.4E1,-2.747582E-3,-5.0815106E-3,-2.4296161E-4,-2.7564603E-3,2.009649E-4,-2.918346E-3,4.779843E-4,2.5079784E-3],"split_indices":[51,77,77,80,66,25,51,0,0,0,0,0,0,0,0],"split_type":[0,0,0,0,0,0,0,0,0,0,0,0,0,0,0],"sum_hessian":[6.7386855E3,3.293373E3,3.4453125E3,2.3746067E3,9.187663E2,1.0673297E3,2.3779827E3,1.7491312E3,6.254755E2,7.7431866E2,1.4444757E2,4.2796732E2,6.393624E2,1.3442966E3,1.033686E3],"tree_param":{"num_deleted":"0","num_feature":"106","num_nodes":"15","size_leaf_vector":"1"}},{"base_weights":[1.0573128E-1,2.6048553E-1,-4.2230915E-2,3.3642232E-1,6.406987E-2,1.6685781E-1,-1.3610864E-1,2.747582E-3,5.0815106E-3,2.429614E-4,2.7564606E-3,-2.0096538E-4,2.9183459E-3,-4.779845E-4,-2.5079781E-3],"categories":[],"categories_nodes":[],"categories_segments":[],"categories_sizes":[],"default_left":[0,0,0,0,0,0,0,0,0,0,0,0,0,0,0],"id":71,"left_children":[1,3,5,7,9,11,13,-1,-1,-1,-1,-1,-1,-1,-1],"loss_changes":[1.5433481E2,4.911461E1,6.766959E1,2.5016876E1,7.7332964E0,2.496734E1,2.408287E1,0E0,0E0,0E0,0E0,0E0,0E0,0E0,0E0],"parents":[2147483647,0,0,1,1,2,2,3,3,4,4,5,5,6,6],"right_children":[2,4,6,8,10,12,14,-1,-1,-1,-1,-1,-1,-1,-1],"split_conditions":[1.5E1,3.8E0,-2E0,2.3E1,1.17E1,-4.1E0,2.4E1,2.747582E-3,5.0815106E-3,2.429614E-4,2.7564606E-3,-2.0096538E-4,2.9183459E-3,-4.779845E-4,-2.5079781E-3],"split_indices":[51,77,77,80,66,25,51,0,0,0,0,0,0,0,0],"split_type":[0,0,0,0,0,0,0,0,0,0,0,0,0,0,0],"sum_hessian":[6.7386855E3,3.293373E3,3.4453123E3,2.3746067E3,9.1876624E2,1.0673297E3,2.3779827E3,1.7491312E3,6.254755E2,7.7431866E2,1.4444757E2,4.2796732E2,6.393624E2,1.3442966E3,1.033686E3],"tree_param":{"num_deleted":"0","num_feature":"106","num_nodes":"15","size_leaf_vector":"1"}},{"base_weights":[-1.0472472E-1,-2.03365E-1,1.2372732E-1,-1.18139304E-1,-3.9534923E-1,-1.3390298E-1,1.9203538E-1,-2.7376558E-3,-2.8115703E-4,-3.4055086E-3,-5.2324287E-3,-2.276079E-3,8.072431E-4,3.1915195E-3,1.0966577E-3],"categories":[],"categories_nodes":[],"categories_segments":[],"categories_sizes":[],"default_left":[0,0,0,0,0,0,0,0,0,0,0,0,0,0,0],"id":72,"left_children":[1,3,5,7,9,11,13,-1,-1,-1,-1,-1,-1,-1,-1],"loss_changes":[1.5183067E2,7.694321E1,3.5787895E1,4.5667873E1,9.957382E0,8.595451E0,1.6787743E1,0E0,0E0,0E0,0E0,0E0,0E0,0E0,0E0],"parents":[2147483647,0,0,1,1,2,2,3,3,4,4,5,5,6,6],"right_children":[2,4,6,8,10,12,14,-1,-1,-1,-1,-1,-1,-1,-1],"split_conditions":[2E1,1.9E1,3.59E-1,8E0,3.7E1,2.7E1,-6.2E0,-2.7376558E-3,-2.8115703E-4,-3.4055086E-3,-5.2324287E-3,-2.276079E-3,8.072431E-4,3.1915195E-3,1.0966577E-3],"split_indices":[28,80,55,51,54,28,25,0,0,0,0,0,0,0,0],"split_type":[0,0,0,0,0,0,0,0,0,0,0,0,0,0,0],"sum_hessian":[6.735561E3,4.704414E3,2.0311469E3,3.2592034E3,1.4452109E3,4.254734E2,1.6056735E3,1.1936561E3,2.065547E3,1.014285E3,4.30926E2,2.961261E2,1.2934727E2,6.3021765E2,9.7545575E2],"tree_param":{"num_deleted":"0","num_feature":"106","num_nodes":"15","size_leaf_vector":"1"}},{"base_weights":[1.0472473E-1,2.03365E-1,-1.23727314E-1,1.1813931E-1,3.9534923E-1,1.3390304E-1,-1.9203538E-1,2.7376558E-3,2.8115703E-4,3.4055088E-3,5.2324287E-3,2.2760795E-3,-8.0724235E-4,-3.1915195E-3,-1.0966578E-3],"categories":[],"categories_nodes":[],"categories_segments":[],"categories_sizes":[],"default_left":[0,0,0,0,0,0,0,0,0,0,0,0,0,0,0],"id":73,"left_children":[1,3,5,7,9,11,13,-1,-1,-1,-1,-1,-1,-1,-1],"loss_changes":[1.5183069E2,7.694324E1,3.5787907E1,4.566788E1,9.957367E0,8.595449E0,1.6787739E1,0E0,0E0,0E0,0E0,0E0,0E0,0E0,0E0],"parents":[2147483647,0,0,1,1,2,2,3,3,4,4,5,5,6,6],"right_children":[2,4,6,8,10,12,14,-1,-1,-1,-1,-1,-1,-1,-1],"split_conditions":[2E1,1.9E1,3.59E-1,8E0,3.7E1,2.7E1,-6.2E0,2.7376558E-3,2.8115703E-4,3.4055088E-3,5.2324287E-3,2.2760795E-3,-8.0724235E-4,-3.1915195E-3,-1.0966578E-3],"split_indices":[28,80,55,51,54,28,25,0,0,0,0,0,0,0,0],"split_type":[0,0,0,0,0,0,0,0,0,0,0,0,0,0,0],"sum_hessian":[6.735561E3,4.704414E3,2.0311467E3,3.2592034E3,1.4452109E3,4.254734E2,1.6056733E3,1.1936561E3,2.065547E3,1.014285E3,4.30926E2,2.961261E2,1.2934727E2,6.3021765E2,9.7545575E2],"tree_param":{"num_deleted":"0","num_feature":"106","num_nodes":"15","size_leaf_vector":"1"}},{"base_weights":[-1.03725076E-1,-2.5596237E-1,4.1726716E-2,-3.3107194E-1,-6.195613E-2,-7.7018596E-2,2.0232016E-1,-2.7027538E-3,-5.0080395E-3,-2.2559907E-4,-2.7160053E-3,1.1510481E-3,-1.8234638E-3,1.0417867E-3,2.7693093E-3],"categories":[],"categories_nodes":[],"categories_segments":[],"categories_sizes":[],"default_left":[0,0,0,0,0,0,0,0,0,0,0,0,0,0,0],"id":74,"left_children":[1,3,5,7,9,11,13,-1,-1,-1,-1,-1,-1,-1,-1],"loss_changes":[1.4911389E2,4.792328E1,6.5699295E1,2.4338257E1,7.588333E0,4.0106937E1,1.0694599E1,0E0,0E0,0E0,0E0,0E0,0E0,0E0,0E0],"parents":[2147483647,0,0,1,1,2,2,3,3,4,4,5,5,6,6],"right_children":[2,4,6,8,10,12,14,-1,-1,-1,-1,-1,-1,-1,-1],"split_conditions":[1.5E1,3.8E0,5.45E-1,2.3E1,1.17E1,-4.7E0,2E1,-2.7027538E-3,-5.0080395E-3,-2.2559907E-4,-2.7160053E-3,1.1510481E-3,-1.8234638E-3,1.0417867E-3,2.7693093E-3],"split_indices":[51,77,55,80,66,25,28,0,0,0,0,0,0,0,0],"split_type":[0,0,0,0,0,0,0,0,0,0,0,0,0,0,0],"sum_hessian":[6.732593E3,3.2891938E3,3.4433987E3,2.3706785E3,9.185154E2,1.9799287E3,1.46347E3,1.7473757E3,6.233028E2,7.7414606E2,1.4436932E2,7.01062E2,1.2788667E3,6.330997E2,8.303703E2],"tree_param":{"num_deleted":"0","num_feature":"106","num_nodes":"15","size_leaf_vector":"1"}},{"base_weights":[1.03725076E-1,2.5596237E-1,-4.1726716E-2,3.3107194E-1,6.1956167E-2,7.70186E-2,-2.0232017E-1,2.7027538E-3,5.0080386E-3,2.2559943E-4,2.716006E-3,-1.151048E-3,1.8234638E-3,-1.0417867E-3,-2.7693093E-3],"categories":[],"categories_nodes":[],"categories_segments":[],"categories_sizes":[],"default_left":[0,0,0,0,0,0,0,0,0,0,0,0,0,0,0],"id":75,"left_children":[1,3,5,7,9,11,13,-1,-1,-1,-1,-1,-1,-1,-1],"loss_changes":[1.4911389E2,4.792328E1,6.56993E1,2.4338257E1,7.588332E0,4.010693E1,1.0694603E1,0E0,0E0,0E0,0E0,0E0,0E0,0E0,0E0],"parents":[2147483647,0,0,1,1,2,2,3,3,4,4,5,5,6,6],"right_children":[2,4,6,8,10,12,14,-1,-1,-1,-1,-1,-1,-1,-1],"split_conditions":[1.5E1,3.8E0,5.45E-1,2.3E1,1.17E1,-4.7E0,2E1,2.7027538E-3,5.0080386E-3,2.2559943E-4,2.716006E-3,-1.151048E-3,1.8234638E-3,-1.0417867E-3,-2.7693093E-3],"split_indices":[51,77,55,80,66,25,28,0,0,0,0,0,0,0,0],"split_type":[0,0,0,0,0,0,0,0,0,0,0,0,0,0,0],"sum_hessian":[6.732593E3,3.2891938E3,3.4433987E3,2.3706785E3,9.185153E2,1.9799287E3,1.46347E3,1.7473757E3,6.233028E2,7.74146E2,1.4436932E2,7.01062E2,1.2788667E3,6.330997E2,8.303703E2],"tree_param":{"num_deleted":"0","num_feature":"106","num_nodes":"15","size_leaf_vector":"1"}},{"base_weights":[-1.027366E-1,-1.9964525E-1,1.2159879E-1,-1.1575307E-1,-3.8898176E-1,-1.3229632E-1,1.8893054E-1,-8.4039035E-5,-2.4303906E-3,-3.3463072E-3,-5.159562E-3,-2.245714E-3,7.897201E-4,3.1432435E-3,1.0774061E-3],"categories":[],"categories_nodes":[],"categories_segments":[],"categories_sizes":[],"default_left":[0,0,0,0,0,0,0,0,0,0,0,0,0,0,0],"id":76,"left_children":[1,3,5,7,9,11,13,-1,-1,-1,-1,-1,-1,-1,-1],"loss_changes":[1.463458E2,7.4617294E1,3.474522E1,4.452488E1,9.784531E0,8.328379E0,1.6313232E1,0E0,0E0,0E0,0E0,0E0,0E0,0E0,0E0],"parents":[2147483647,0,0,1,1,2,2,3,3,4,4,5,5,6,6],"right_children":[2,4,6,8,10,12,14,-1,-1,-1,-1,-1,-1,-1,-1],"split_conditions":[2E1,1.9E1,3.59E-1,2.9E0,3.7E1,2.7E1,-6.2E0,-8.4039035E-5,-2.4303906E-3,-3.3463072E-3,-5.159562E-3,-2.245714E-3,7.897201E-4,3.1432435E-3,1.0774061E-3],"split_indices":[28,80,55,25,54,28,25,0,0,0,0,0,0,0,0],"split_type":[0,0,0,0,0,0,0,0,0,0,0,0,0,0,0],"sum_hessian":[6.7295083E3,4.699516E3,2.0299921E3,3.2576926E3,1.4418235E3,4.253006E2,1.6046915E3,1.7678268E3,1.4898658E3,1.0121929E3,4.2963068E2,2.9596835E2,1.2933224E2,6.2953485E2,9.751567E2],"tree_param":{"num_deleted":"0","num_feature":"106","num_nodes":"15","size_leaf_vector":"1"}},{"base_weights":[1.0273661E-1,1.9964525E-1,-1.2159876E-1,1.1575306E-1,3.8898176E-1,1.3229635E-1,-1.8893051E-1,8.4039064E-5,2.4303903E-3,3.3463072E-3,5.159562E-3,2.2457144E-3,-7.8971987E-4,-3.143243E-3,-1.0774059E-3],"categories":[],"categories_nodes":[],"categories_segments":[],"categories_sizes":[],"default_left":[0,0,0,0,0,0,0,0,0,0,0,0,0,0,0],"id":77,"left_children":[1,3,5,7,9,11,13,-1,-1,-1,-1,-1,-1,-1,-1],"loss_changes":[1.4634576E2,7.4617294E1,3.4745216E1,4.452487E1,9.784531E0,8.328381E0,1.6313217E1,0E0,0E0,0E0,0E0,0E0,0E0,0E0,0E0],"parents":[2147483647,0,0,1,1,2,2,3,3,4,4,5,5,6,6],"right_children":[2,4,6,8,10,12,14,-1,-1,-1,-1,-1,-1,