{"learner":{"attributes":{},"feature_names":[],"feature_types":[],"gradient_booster":{"model":{"gbtree_model_param":{"num_parallel_tree":"1","num_trees":"1500"},"iteration_indptr":[0,2,4,6,8,10,12,14,16,18,20,22,24,26,28,30,32,34,36,38,40,42,44,46,48,50,52,54,56,58,60,62,64,66,68,70,72,74,76,78,80,82,84,86,88,90,92,94,96,98,100,102,104,106,108,110,112,114,116,118,120,122,124,126,128,130,132,134,136,138,140,142,144,146,148,150,152,154,156,158,160,162,164,166,168,170,172,174,176,178,180,182,184,186,188,190,192,194,196,198,200,202,204,206,208,210,212,214,216,218,220,222,224,226,228,230,232,234,236,238,240,242,244,246,248,250,252,254,256,258,260,262,264,266,268,270,272,274,276,278,280,282,284,286,288,290,292,294,296,298,300,302,304,306,308,310,312,314,316,318,320,322,324,326,328,330,332,334,336,338,340,342,344,346,348,350,352,354,356,358,360,362,364,366,368,370,372,374,376,378,380,382,384,386,388,390,392,394,396,398,400,402,404,406,408,410,412,414,416,418,420,422,424,426,428,430,432,434,436,438,440,442,444,446,448,450,452,454,456,458,460,462,464,466,468,470,472,474,476,478,480,482,484,486,488,490,492,494,496,498,500,502,504,506,508,510,512,514,516,518,520,522,524,526,528,530,532,534,536,538,540,542,544,546,548,550,552,554,556,558,560,562,564,566,568,570,572,574,576,578,580,582,584,586,588,590,592,594,596,598,600,602,604,606,608,610,612,614,616,618,620,622,624,626,628,630,632,634,636,638,640,642,644,646,648,650,652,654,656,658,660,662,664,666,668,670,672,674,676,678,680,682,684,686,688,690,692,694,696,698,700,702,704,706,708,710,712,714,716,718,720,722,724,726,728,730,732,734,736,738,740,742,744,746,748,750,752,754,756,758,760,762,764,766,768,770,772,774,776,778,780,782,784,786,788,790,792,794,796,798,800,802,804,806,808,810,812,814,816,818,820,822,824,826,828,830,832,834,836,838,840,842,844,846,848,850,852,854,856,858,860,862,864,866,868,870,872,874,876,878,880,882,884,886,888,890,892,894,896,898,900,902,904,906,908,910,912,914,916,918,920,922,924,926,928,930,932,934,936,938,940,942,944,946,948,950,952,954,956,958,960,962,964,966,968,970,972,974,976,978,980,982,984,986,988,990,992,994,996,998,1000,1002,1004,1006,1008,1010,1012,1014,1016,1018,1020,1022,1024,1026,1028,1030,1032,1034,1036,1038,1040,1042,1044,1046,1048,1050,1052,1054,1056,1058,1060,1062,1064,1066,1068,1070,1072,1074,1076,1078,1080,1082,1084,1086,1088,1090,1092,1094,1096,1098,1100,1102,1104,1106,1108,1110,1112,1114,1116,1118,1120,1122,1124,1126,1128,1130,1132,1134,1136,1138,1140,1142,1144,1146,1148,1150,1152,1154,1156,1158,1160,1162,1164,1166,1168,1170,1172,1174,1176,1178,1180,1182,1184,1186,1188,1190,1192,1194,1196,1198,1200,1202,1204,1206,1208,1210,1212,1214,1216,1218,1220,1222,1224,1226,1228,1230,1232,1234,1236,1238,1240,1242,1244,1246,1248,1250,1252,1254,1256,1258,1260,1262,1264,1266,1268,1270,1272,1274,1276,1278,1280,1282,1284,1286,1288,1290,1292,1294,1296,1298,1300,1302,1304,1306,1308,1310,1312,1314,1316,1318,1320,1322,1324,1326,1328,1330,1332,1334,1336,1338,1340,1342,1344,1346,1348,1350,1352,1354,1356,1358,1360,1362,1364,1366,1368,1370,1372,1374,1376,1378,1380,1382,1384,1386,1388,1390,1392,1394,1396,1398,1400,1402,1404,1406,1408,1410,1412,1414,1416,1418,1420,1422,1424,1426,1428,1430,1432,1434,1436,1438,1440,1442,1444,1446,1448,1450,1452,1454,1456,1458,1460,1462,1464,1466,1468,1470,1472,1474,1476,1478,1480,1482,1484,1486,1488,1490,1492,1494,1496,1498,1500],"tree_info":[0,1,0,1,0,1,0,1,0,1,0,1,0,1,0,1,0,1,0,1,0,1,0,1,0,1,0,1,0,1,0,1,0,1,0,1,0,1,0,1,0,1,0,1,0,1,0,1,0,1,0,1,0,1,0,1,0,1,0,1,0,1,0,1,0,1,0,1,0,1,0,1,0,1,0,1,0,1,0,1,0,1,0,1,0,1,0,1,0,1,0,1,0,1,0,1,0,1,0,1,0,1,0,1,0,1,0,1,0,1,0,1,0,1,0,1,0,1,0,1,0,1,0,1,0,1,0,1,0,1,0,1,0,1,0,1,0,1,0,1,0,1,0,1,0,1,0,1,0,1,0,1,0,1,0,1,0,1,0,1,0,1,0,1,0,1,0,1,0,1,0,1,0,1,0,1,0,1,0,1,0,1,0,1,0,1,0,1,0,1,0,1,0,1,0,1,0,1,0,1,0,1,0,1,0,1,0,1,0,1,0,1,0,1,0,1,0,1,0,1,0,1,0,1,0,1,0,1,0,1,0,1,0,1,0,1,0,1,0,1,0,1,0,1,0,1,0,1,0,1,0,1,0,1,0,1,0,1,0,1,0,1,0,1,0,1,0,1,0,1,0,1,0,1,0,1,0,1,0,1,0,1,0,1,0,1,0,1,0,1,0,1,0,1,0,1,0,1,0,1,0,1,0,1,0,1,0,1,0,1,0,1,0,1,0,1,0,1,0,1,0,1,0,1,0,1,0,1,0,1,0,1,0,1,0,1,0,1,0,1,0,1,0,1,0,1,0,1,0,1,0,1,0,1,0,1,0,1,0,1,0,1,0,1,0,1,0,1,0,1,0,1,0,1,0,1,0,1,0,1,0,1,0,1,0,1,0,1,0,1,0,1,0,1,0,1,0,1,0,1,0,1,0,1,0,1,0,1,0,1,0,1,0,1,0,1,0,1,0,1,0,1,0,1,0,1,0,1,0,1,0,1,0,1,0,1,0,1,0,1,0,1,0,1,0,1,0,1,0,1,0,1,0,1,0,1,0,1,0,1,0,1,0,1,0,1,0,1,0,1,0,1,0,1,0,1,0,1,0,1,0,1,0,1,0,1,0,1,0,1,0,1,0,1,0,1,0,1,0,1,0,1,0,1,0,1,0,1,0,1,0,1,0,1,0,1,0,1,0,1,0,1,0,1,0,1,0,1,0,1,0,1,0,1,0,1,0,1,0,1,0,1,0,1,0,1,0,1,0,1,0,1,0,1,0,1,0,1,0,1,0,1,0,1,0,1,0,1,0,1,0,1,0,1,0,1,0,1,0,1,0,1,0,1,0,1,0,1,0,1,0,1,0,1,0,1,0,1,0,1,0,1,0,1,0,1,0,1,0,1,0,1,0,1,0,1,0,1,0,1,0,1,0,1,0,1,0,1,0,1,0,1,0,1,0,1,0,1,0,1,0,1,0,1,0,1,0,1,0,1,0,1,0,1,0,1,0,1,0,1,0,1,0,1,0,1,0,1,0,1,0,1,0,1,0,1,0,1,0,1,0,1,0,1,0,1,0,1,0,1,0,1,0,1,0,1,0,1,0,1,0,1,0,1,0,1,0,1,0,1,0,1,0,1,0,1,0,1,0,1,0,1,0,1,0,1,0,1,0,1,0,1,0,1,0,1,0,1,0,1,0,1,0,1,0,1,0,1,0,1,0,1,0,1,0,1,0,1,0,1,0,1,0,1,0,1,0,1,0,1,0,1,0,1,0,1,0,1,0,1,0,1,0,1,0,1,0,1,0,1,0,1,0,1,0,1,0,1,0,1,0,1,0,1,0,1,0,1,0,1,0,1,0,1,0,1,0,1,0,1,0,1,0,1,0,1,0,1,0,1,0,1,0,1,0,1,0,1,0,1,0,1,0,1,0,1,0,1,0,1,0,1,0,1,0,1,0,1,0,1,0,1,0,1,0,1,0,1,0,1,0,1,0,1,0,1,0,1,0,1,0,1,0,1,0,1,0,1,0,1,0,1,0,1,0,1,0,1,0,1,0,1,0,1,0,1,0,1,0,1,0,1,0,1,0,1,0,1,0,1,0,1,0,1,0,1,0,1,0,1,0,1,0,1,0,1,0,1,0,1,0,1,0,1,0,1,0,1,0,1,0,1,0,1,0,1,0,1,0,1,0,1,0,1,0,1,0,1,0,1,0,1,0,1,0,1,0,1,0,1,0,1,0,1,0,1,0,1,0,1,0,1,0,1,0,1,0,1,0,1,0,1,0,1,0,1,0,1,0,1,0,1,0,1,0,1,0,1,0,1,0,1,0,1,0,1,0,1,0,1,0,1,0,1,0,1,0,1,0,1,0,1,0,1,0,1,0,1,0,1,0,1,0,1,0,1,0,1,0,1,0,1,0,1,0,1,0,1,0,1,0,1,0,1,0,1,0,1,0,1,0,1,0,1,0,1,0,1,0,1,0,1,0,1,0,1,0,1,0,1,0,1,0,1,0,1,0,1,0,1,0,1,0,1,0,1,0,1,0,1,0,1,0,1,0,1,0,1,0,1,0,1,0,1,0,1,0,1,0,1,0,1,0,1,0,1,0,1,0,1,0,1,0,1,0,1,0,1,0,1,0,1,0,1,0,1,0,1,0,1,0,1,0,1,0,1,0,1,0,1,0,1,0,1,0,1,0,1,0,1,0,1,0,1,0,1,0,1,0,1,0,1,0,1,0,1,0,1,0,1,0,1,0,1,0,1,0,1,0,1,0,1,0,1,0,1,0,1,0,1,0,1,0,1,0,1,0,1,0,1,0,1,0,1,0,1,0,1,0,1,0,1,0,1,0,1,0,1,0,1,0,1,0,1,0,1,0,1,0,1,0,1,0,1,0,1,0,1,0,1,0,1,0,1,0,1,0,1,0,1,0,1,0,1,0,1,0,1,0,1,0,1,0,1,0,1,0,1,0,1,0,1,0,1,0,1,0,1,0,1,0,1,0,1,0,1,0,1,0,1,0,1,0,1,0,1,0,1,0,1,0,1,0,1,0,1,0,1,0,1,0,1,0,1,0,1,0,1,0,1,0,1,0,1,0,1,0,1,0,1,0,1,0,1,0,1,0,1,0,1,0,1,0,1,0,1,0,1,0,1,0,1,0,1,0,1,0,1,0,1,0,1,0,1,0,1,0,1,0,1,0,1,0,1,0,1,0,1,0,1,0,1,0,1,0,1,0,1,0,1,0,1,0,1,0,1,0,1,0,1,0,1,0,1,0,1,0,1,0,1,0,1,0,1,0,1,0,1,0,1,0,1,0,1,0,1,0,1,0,1,0,1,0,1,0,1,0,1,0,1,0,1,0,1,0,1,0,1,0,1,0,1,0,1,0,1,0,1,0,1],"trees":[{"base_weights":[-1.4340316E-1,1.4632107E-1,-3.004647E-1,-1.1198946E-1,2.6621786E-1,-5.5813134E-1,-1.7765139E-1,7.949791E-4,-2.8268988E-3,1.1128527E-3,3.6509528E-3,-4.229935E-3,-6.2221065E-3,-3.6766566E-3,-5.2893936E-4],"categories":[],"categories_nodes":[],"categories_segments":[],"categories_sizes":[],"default_left":[0,0,0,0,0,0,0,0,0,0,0,0,0,0,0],"id":0,"left_children":[1,3,5,7,9,11,13,-1,-1,-1,-1,-1,-1,-1,-1],"loss_changes":[3.0958856E2,7.4111496E1,1.3950229E2,2.483189E1,2.4991173E1,1.206369E1,7.08369E1,0E0,0E0,0E0,0E0,0E0,0E0,0E0,0E0],"parents":[2147483647,0,0,1,1,2,2,3,3,4,4,5,5,6,6],"right_children":[2,4,6,8,10,12,14,-1,-1,-1,-1,-1,-1,-1,-1],"split_conditions":[4.5E-1,-2E0,-1.4E0,-4.7E0,2.4E1,2.2E1,8E0,7.949791E-4,-2.8268988E-3,1.1128527E-3,3.6509528E-3,-4.229935E-3,-6.2221065E-3,-3.6766566E-3,-5.2893936E-4],"split_indices":[3,77,77,25,51,80,51,0,0,0,0,0,0,0,0],"split_type":[0,0,0,0,0,0,0,0,0,0,0,0,0,0,0],"sum_hessian":[6.8015E3,2.391E3,4.4105E3,7.58E2,1.633E3,1.4225E3,2.988E3,3.575E2,4.005E2,6.37E2,9.96E2,4.6E2,9.625E2,1.1835E3,1.8045E3],"tree_param":{"num_deleted":"0","num_feature":"106","num_nodes":"15","size_leaf_vector":"1"}},{"base_weights":[1.4340316E-1,-1.4632107E-1,3.004647E-1,1.1198946E-1,-2.6621786E-1,5.5813134E-1,1.7765139E-1,-7.949791E-4,2.8268988E-3,-1.1128527E-3,-3.6509528E-3,4.229935E-3,6.2221065E-3,3.6766566E-3,5.2893936E-4],"categories":[],"categories_nodes":[],"categories_segments":[],"categories_sizes":[],"default_left":[0,0,0,0,0,0,0,0,0,0,0,0,0,0,0],"id":1,"left_children":[1,3,5,7,9,11,13,-1,-1,-1,-1,-1,-1,-1,-1],"loss_changes":[3.0958856E2,7.4111496E1,1.3950229E2,2.483189E1,2.4991173E1,1.206369E1,7.08369E1,0E0,0E0,0E0,0E0,0E0,0E0,0E0,0E0],"parents":[2147483647,0,0,1,1,2,2,3,3,4,4,5,5,6,6],"right_children":[2,4,6,8,10,12,14,-1,-1,-1,-1,-1,-1,-1,-1],"split_conditions":[4.5E-1,-2E0,-1.4E0,-4.7E0,2.4E1,2.2E1,8E0,-7.949791E-4,2.8268988E-3,-1.1128527E-3,-3.6509528E-3,4.229935E-3,6.2221065E-3,3.6766566E-3,5.2893936E-4],"split_indices":[3,77,77,25,51,80,51,0,0,0,0,0,0,0,0],"split_type":[0,0,0,0,0,0,0,0,0,0,0,0,0,0,0],"sum_hessian":[6.8015E3,2.391E3,4.4105E3,7.58E2,1.633E3,1.4225E3,2.988E3,3.575E2,4.005E2,6.37E2,9.96E2,4.6E2,9.625E2,1.1835E3,1.8045E3],"tree_param":{"num_deleted":"0","num_feature":"106","num_nodes":"15","size_leaf_vector":"1"}},{"base_weights":[-1.4197256E-1,1.4486009E-1,-2.974676E-1,-1.1087276E-1,2.6356092E-1,-5.525751E-1,-1.7587726E-1,7.870517E-4,-2.7987226E-3,1.1017433E-3,3.6145288E-3,-2.8501274E-3,-5.844544E-3,-3.6399704E-3,-5.236531E-4],"categories":[],"categories_nodes":[],"categories_segments":[],"categories_sizes":[],"default_left":[0,0,0,0,0,0,0,0,0,0,0,0,0,0,0],"id":2,"left_children":[1,3,5,7,9,11,13,-1,-1,-1,-1,-1,-1,-1,-1],"loss_changes":[3.0343817E2,7.263953E1,1.367395E2,2.43392E1,2.4494995E1,1.1975037E1,6.94301E1,0E0,0E0,0E0,0E0,0E0,0E0,0E0,0E0],"parents":[2147483647,0,0,1,1,2,2,3,3,4,4,5,5,6,6],"right_children":[2,4,6,8,10,12,14,-1,-1,-1,-1,-1,-1,-1,-1],"split_conditions":[4.5E-1,-2E0,-1.4E0,-4.7E0,2.4E1,9E0,8E0,7.870517E-4,-2.7987226E-3,1.1017433E-3,3.6145288E-3,-2.8501274E-3,-5.844544E-3,-3.6399704E-3,-5.236531E-4],"split_indices":[3,77,77,25,51,52,51,0,0,0,0,0,0,0,0],"split_type":[0,0,0,0,0,0,0,0,0,0,0,0,0,0,0],"sum_hessian":[6.8014204E3,2.3909824E3,4.410438E3,7.579966E2,1.632986E3,1.4224545E3,2.9879834E3,3.5749976E2,4.0049683E2,6.369992E2,9.959867E2,1.5249615E2,1.2699584E3,1.183484E3,1.8044995E3],"tree_param":{"num_deleted":"0","num_feature":"106","num_nodes":"15","size_leaf_vector":"1"}},{"base_weights":[1.4197257E-1,-1.4486006E-1,2.974676E-1,1.1087274E-1,-2.6356086E-1,5.525751E-1,1.7587726E-1,-7.870517E-4,2.7987226E-3,-1.1017424E-3,-3.6145283E-3,2.8501274E-3,5.844544E-3,3.6399704E-3,5.236531E-4],"categories":[],"categories_nodes":[],"categories_segments":[],"categories_sizes":[],"default_left":[0,0,0,0,0,0,0,0,0,0,0,0,0,0,0],"id":3,"left_children":[1,3,5,7,9,11,13,-1,-1,-1,-1,-1,-1,-1,-1],"loss_changes":[3.034381E2,7.263951E1,1.367395E2,2.4339195E1,2.4494995E1,1.1975037E1,6.94301E1,0E0,0E0,0E0,0E0,0E0,0E0,0E0,0E0],"parents":[2147483647,0,0,1,1,2,2,3,3,4,4,5,5,6,6],"right_children":[2,4,6,8,10,12,14,-1,-1,-1,-1,-1,-1,-1,-1],"split_conditions":[4.5E-1,-2E0,-1.4E0,-4.7E0,2.4E1,9E0,8E0,-7.870517E-4,2.7987226E-3,-1.1017424E-3,-3.6145283E-3,2.8501274E-3,5.844544E-3,3.6399704E-3,5.236531E-4],"split_indices":[3,77,77,25,51,52,51,0,0,0,0,0,0,0,0],"split_type":[0,0,0,0,0,0,0,0,0,0,0,0,0,0,0],"sum_hessian":[6.8014204E3,2.3909824E3,4.410438E3,7.579966E2,1.6329858E3,1.4224545E3,2.9879834E3,3.5749976E2,4.004968E2,6.3699927E2,9.9598663E2,1.5249615E2,1.2699584E3,1.183484E3,1.8044995E3],"tree_param":{"num_deleted":"0","num_feature":"106","num_nodes":"15","size_leaf_vector":"1"}},{"base_weights":[-1.405592E-1,1.3137591E-1,-3.0136973E-1,-1.3140266E-1,2.5318575E-1,-1.3793701E-1,-4.841022E-1,7.625725E-4,-3.000558E-3,1.0362816E-3,3.599148E-3,-3.0882147E-3,-1.7930458E-4,-5.7702404E-3,-3.4945875E-3],"categories":[],"categories_nodes":[],"categories_segments":[],"categories_sizes":[],"default_left":[0,0,0,0,0,0,0,0,0,0,0,0,0,0,0],"id":4,"left_children":[1,3,5,7,9,11,13,-1,-1,-1,-1,-1,-1,-1,-1],"loss_changes":[2.974994E2,8.096564E1,1.2759677E2,2.8092731E1,2.7544373E1,4.6298725E1,2.5043915E1,0E0,0E0,0E0,0E0,0E0,0E0,0E0,0E0],"parents":[2147483647,0,0,1,1,2,2,3,3,4,4,5,5,6,6],"right_children":[2,4,6,8,10,12,14,-1,-1,-1,-1,-1,-1,-1,-1],"split_conditions":[4.62E-1,-2E0,1.4E1,-4.7E0,2.4E1,8E0,-1.9E0,7.625725E-4,-3.000558E-3,1.0362816E-3,3.599148E-3,-3.0882147E-3,-1.7930458E-4,-5.7702404E-3,-3.4945875E-3],"split_indices":[3,77,80,25,51,51,77,0,0,0,0,0,0,0,0],"split_type":[0,0,0,0,0,0,0,0,0,0,0,0,0,0,0],"sum_hessian":[6.801187E3,2.5274243E3,4.2737627E3,8.004806E2,1.7269437E3,2.2569453E3,2.0168174E3,3.589989E2,4.414817E2,7.1999634E2,1.0069474E3,9.304495E2,1.3264957E3,1.1913452E3,8.2547217E2],"tree_param":{"num_deleted":"0","num_feature":"106","num_nodes":"15","size_leaf_vector":"1"}},{"base_weights":[1.4055923E-1,-1.3137592E-1,3.013698E-1,1.3140264E-1,-2.5318578E-1,1.3793711E-1,4.8410216E-1,-7.625715E-4,3.000557E-3,-1.0362808E-3,-3.5991492E-3,3.0882156E-3,1.7930575E-4,5.7702395E-3,3.4945884E-3],"categories":[],"categories_nodes":[],"categories_segments":[],"categories_sizes":[],"default_left":[0,0,0,0,0,0,0,0,0,0,0,0,0,0,0],"id":5,"left_children":[1,3,5,7,9,11,13,-1,-1,-1,-1,-1,-1,-1,-1],"loss_changes":[2.974995E2,8.0965645E1,1.2759665E2,2.8092701E1,2.7544426E1,4.629871E1,2.5043884E1,0E0,0E0,0E0,0E0,0E0,0E0,0E0,0E0],"parents":[2147483647,0,0,1,1,2,2,3,3,4,4,5,5,6,6],"right_children":[2,4,6,8,10,12,14,-1,-1,-1,-1,-1,-1,-1,-1],"split_conditions":[4.62E-1,-2E0,1.4E1,-4.7E0,2.4E1,8E0,-1.9E0,-7.625715E-4,3.000557E-3,-1.0362808E-3,-3.5991492E-3,3.0882156E-3,1.7930575E-4,5.7702395E-3,3.4945884E-3],"split_indices":[3,77,80,25,51,51,77,0,0,0,0,0,0,0,0],"split_type":[0,0,0,0,0,0,0,0,0,0,0,0,0,0,0],"sum_hessian":[6.801187E3,2.5274243E3,4.2737627E3,8.0048065E2,1.7269438E3,2.256945E3,2.0168174E3,3.589989E2,4.4148172E2,7.199964E2,1.0069474E3,9.3044946E2,1.3264957E3,1.1913452E3,8.2547217E2],"tree_param":{"num_deleted":"0","num_feature":"106","num_nodes":"15","size_leaf_vector":"1"}},{"base_weights":[-1.391628E-1,1.4203478E-1,-2.9161033E-1,-1.0854669E-1,2.5834802E-1,-1.2778872E-1,-4.7429124E-1,7.716026E-4,-2.7410574E-3,3.1253307E-3,-8.788048E-5,-3.057535E-3,-9.002842E-5,-5.6988476E-3,-3.353923E-3],"categories":[],"categories_nodes":[],"categories_segments":[],"categories_sizes":[],"default_left":[0,0,0,0,0,0,0,0,0,0,0,0,0,0,0],"id":6,"left_children":[1,3,5,7,9,11,13,-1,-1,-1,-1,-1,-1,-1,-1],"loss_changes":[2.9162082E2,6.974057E1,1.3194684E2,2.3355984E1,2.3652748E1,4.9187088E1,2.7494171E1,0E0,0E0,0E0,0E0,0E0,0E0,0E0,0E0],"parents":[2147483647,0,0,1,1,2,2,3,3,4,4,5,5,6,6],"right_children":[2,4,6,8,10,12,14,-1,-1,-1,-1,-1,-1,-1,-1],"split_conditions":[4.5E-1,-2E0,1.4E1,-4.7E0,-1.6E0,8E0,-1.9E0,7.716026E-4,-2.7410574E-3,3.1253307E-3,-8.788048E-5,-3.057535E-3,-9.002842E-5,-5.6988476E-3,-3.353923E-3],"split_indices":[3,77,80,25,25,51,77,0,0,0,0,0,0,0,0],"split_type":[0,0,0,0,0,0,0,0,0,0,0,0,0,0,0],"sum_hessian":[6.8008145E3,2.390844E3,4.40997E3,7.5796826E2,1.6328757E3,2.3258933E3,2.0840771E3,3.5749805E2,4.004702E2,1.3573792E3,2.754966E2,9.303983E2,1.395495E3,1.2326411E3,8.5143604E2],"tree_param":{"num_deleted":"0","num_feature":"106","num_nodes":"15","size_leaf_vector":"1"}},{"base_weights":[1.3916282E-1,-1.4203472E-1,2.9161033E-1,1.0854671E-1,-2.5834793E-1,1.2778871E-1,4.7429124E-1,-7.716023E-4,2.7410574E-3,-3.1253297E-3,8.78808E-5,3.057535E-3,9.00281E-5,5.6988476E-3,3.353923E-3],"categories":[],"categories_nodes":[],"categories_segments":[],"categories_sizes":[],"default_left":[0,0,0,0,0,0,0,0,0,0,0,0,0,0,0],"id":7,"left_children":[1,3,5,7,9,11,13,-1,-1,-1,-1,-1,-1,-1,-1],"loss_changes":[2.9162067E2,6.9740555E1,1.3194684E2,2.335598E1,2.3652725E1,4.9187096E1,2.7494202E1,0E0,0E0,0E0,0E0,0E0,0E0,0E0,0E0],"parents":[2147483647,0,0,1,1,2,2,3,3,4,4,5,5,6,6],"right_children":[2,4,6,8,10,12,14,-1,-1,-1,-1,-1,-1,-1,-1],"split_conditions":[4.5E-1,-2E0,1.4E1,-4.7E0,-1.6E0,8E0,-1.9E0,-7.716023E-4,2.7410574E-3,-3.1253297E-3,8.78808E-5,3.057535E-3,9.00281E-5,5.6988476E-3,3.353923E-3],"split_indices":[3,77,80,25,25,51,77,0,0,0,0,0,0,0,0],"split_type":[0,0,0,0,0,0,0,0,0,0,0,0,0,0,0],"sum_hessian":[6.8008145E3,2.390844E3,4.40997E3,7.579682E2,1.6328757E3,2.325893E3,2.0840771E3,3.5749802E2,4.004702E2,1.3573792E3,2.7549658E2,9.303983E2,1.3954949E3,1.2326411E3,8.5143604E2],"tree_param":{"num_deleted":"0","num_feature":"106","num_nodes":"15","size_leaf_vector":"1"}},{"base_weights":[-1.3778335E-1,1.2886113E-1,-2.9547706E-1,-1.287795E-1,2.4829218E-1,-1.352537E-1,-4.7466087E-1,7.475482E-4,-2.9409954E-3,1.0115865E-3,3.5330476E-3,-3.027215E-3,-1.7661467E-4,-5.657876E-3,-3.4265583E-3],"categories":[],"categories_nodes":[],"categories_segments":[],"categories_sizes":[],"default_left":[0,0,0,0,0,0,0,0,0,0,0,0,0,0,0],"id":8,"left_children":[1,3,5,7,9,11,13,-1,-1,-1,-1,-1,-1,-1,-1],"loss_changes":[2.860202E2,7.782587E1,1.22642426E2,2.6988663E1,2.666008E1,4.44578E1,2.4072174E1,0E0,0E0,0E0,0E0,0E0,0E0,0E0,0E0],"parents":[2147483647,0,0,1,1,2,2,3,3,4,4,5,5,6,6],"right_children":[2,4,6,8,10,12,14,-1,-1,-1,-1,-1,-1,-1,-1],"split_conditions":[4.62E-1,-2E0,1.4E1,-4.7E0,2.4E1,8E0,-1.9E0,7.475482E-4,-2.9409954E-3,1.0115865E-3,3.5330476E-3,-3.027215E-3,-1.7661467E-4,-5.657876E-3,-3.4265583E-3],"split_indices":[3,77,80,25,51,51,77,0,0,0,0,0,0,0,0],"split_type":[0,0,0,0,0,0,0,0,0,0,0,0,0,0,0],"sum_hessian":[6.800302E3,2.5272144E3,4.2730874E3,8.004275E2,1.726787E3,2.256825E3,2.0162625E3,3.589961E2,4.4143143E2,7.199815E2,1.0068054E3,9.303302E2,1.3264946E3,1.1908794E3,8.2538306E2],"tree_param":{"num_deleted":"0","num_feature":"106","num_nodes":"15","size_leaf_vector":"1"}},{"base_weights":[1.3778332E-1,-1.2886117E-1,2.95477E-1,1.2877947E-1,-2.4829224E-1,1.3525365E-1,4.7466087E-1,-7.4754906E-4,2.9409954E-3,-1.0115865E-3,-3.5330486E-3,3.027215E-3,1.7661382E-4,5.6578754E-3,3.4265586E-3],"categories":[],"categories_nodes":[],"categories_segments":[],"categories_sizes":[],"default_left":[0,0,0,0,0,0,0,0,0,0,0,0,0,0,0],"id":9,"left_children":[1,3,5,7,9,11,13,-1,-1,-1,-1,-1,-1,-1,-1],"loss_changes":[2.8602026E2,7.782588E1,1.22642426E2,2.6988674E1,2.6660088E1,4.445782E1,2.4072144E1,0E0,0E0,0E0,0E0,0E0,0E0,0E0,0E0],"parents":[2147483647,0,0,1,1,2,2,3,3,4,4,5,5,6,6],"right_children":[2,4,6,8,10,12,14,-1,-1,-1,-1,-1,-1,-1,-1],"split_conditions":[4.62E-1,-2E0,1.4E1,-4.7E0,2.4E1,8E0,-1.9E0,-7.4754906E-4,2.9409954E-3,-1.0115865E-3,-3.5330486E-3,3.027215E-3,1.7661382E-4,5.6578754E-3,3.4265586E-3],"split_indices":[3,77,80,25,51,51,77,0,0,0,0,0,0,0,0],"split_type":[0,0,0,0,0,0,0,0,0,0,0,0,0,0,0],"sum_hessian":[6.800302E3,2.5272144E3,4.2730874E3,8.004275E2,1.7267869E3,2.256825E3,2.0162625E3,3.5899606E2,4.4143143E2,7.199815E2,1.00680536E3,9.303302E2,1.3264948E3,1.1908794E3,8.2538306E2],"tree_param":{"num_deleted":"0","num_feature":"106","num_nodes":"15","size_leaf_vector":"1"}},{"base_weights":[-1.3642037E-1,1.2758133E-1,-2.9255995E-1,-1.2750043E-1,2.4582879E-1,-1.3390769E-1,-4.7001693E-1,7.40097E-4,-2.911886E-3,1.0014945E-3,3.4981396E-3,-2.9972494E-3,-1.7484945E-4,-5.6029754E-3,-3.392639E-3],"categories":[],"categories_nodes":[],"categories_segments":[],"categories_sizes":[],"default_left":[0,0,0,0,0,0,0,0,0,0,0,0,0,0,0],"id":10,"left_children":[1,3,5,7,9,11,13,-1,-1,-1,-1,-1,-1,-1,-1],"loss_changes":[2.8036737E2,7.628461E1,1.2025531E2,2.6455265E1,2.6136543E1,4.358018E1,2.3617645E1,0E0,0E0,0E0,0E0,0E0,0E0,0E0,0E0],"parents":[2147483647,0,0,1,1,2,2,3,3,4,4,5,5,6,6],"right_children":[2,4,6,8,10,12,14,-1,-1,-1,-1,-1,-1,-1,-1],"split_conditions":[4.62E-1,-2E0,1.4E1,-4.7E0,2.4E1,8E0,-1.9E0,7.40097E-4,-2.911886E-3,1.0014945E-3,3.4981396E-3,-2.9972494E-3,-1.7484945E-4,-5.6029754E-3,-3.392639E-3],"split_indices":[3,77,80,25,51,51,77,0,0,0,0,0,0,0,0],"split_type":[0,0,0,0,0,0,0,0,0,0,0,0,0,0,0],"sum_hessian":[6.799642E3,2.527059E3,4.272583E3,8.0039026E2,1.726669E3,2.2567395E3,2.0158436E3,3.5899426E2,4.4139597E2,7.199746E2,1.00669434E3,9.302456E2,1.3264938E3,1.1905342E3,8.253094E2],"tree_param":{"num_deleted":"0","num_feature":"106","num_nodes":"15","size_leaf_vector":"1"}},{"base_weights":[1.3642032E-1,-1.2758137E-1,2.925599E-1,1.2750041E-1,-2.4582884E-1,1.3390766E-1,4.7001684E-1,-7.400972E-4,2.911886E-3,-1.0014945E-3,-3.4981403E-3,2.9972482E-3,1.7484972E-4,5.602974E-3,3.392638E-3],"categories":[],"categories_nodes":[],"categories_segments":[],"categories_sizes":[],"default_left":[0,0,0,0,0,0,0,0,0,0,0,0,0,0,0],"id":11,"left_children":[1,3,5,7,9,11,13,-1,-1,-1,-1,-1,-1,-1,-1],"loss_changes":[2.8036737E2,7.628462E1,1.2025528E2,2.6455273E1,2.6136559E1,4.3580147E1,2.3617676E1,0E0,0E0,0E0,0E0,0E0,0E0,0E0,0E0],"parents":[2147483647,0,0,1,1,2,2,3,3,4,4,5,5,6,6],"right_children":[2,4,6,8,10,12,14,-1,-1,-1,-1,-1,-1,-1,-1],"split_conditions":[4.62E-1,-2E0,1.4E1,-4.7E0,2.4E1,8E0,-1.9E0,-7.400972E-4,2.911886E-3,-1.0014945E-3,-3.4981403E-3,2.9972482E-3,1.7484972E-4,5.602974E-3,3.392638E-3],"split_indices":[3,77,80,25,51,51,77,0,0,0,0,0,0,0,0],"split_type":[0,0,0,0,0,0,0,0,0,0,0,0,0,0,0],"sum_hessian":[6.799642E3,2.527059E3,4.272583E3,8.0039026E2,1.726669E3,2.2567395E3,2.0158436E3,3.589943E2,4.4139597E2,7.199746E2,1.00669434E3,9.302456E2,1.3264939E3,1.1905342E3,8.253094E2],"tree_param":{"num_deleted":"0","num_feature":"106","num_nodes":"15","size_leaf_vector":"1"}},{"base_weights":[-1.3507362E-1,1.379348E-1,-2.8310537E-1,-2.1498047E-2,3.1335455E-1,-5.268082E-1,-1.6704786E-1,1.6107282E-3,-1.9496456E-3,4.5760726E-3,2.3602198E-3,-2.652992E-3,-5.5798823E-3,-3.479858E-3,-4.8291075E-4],"categories":[],"categories_nodes":[],"categories_segments":[],"categories_sizes":[],"default_left":[0,0,0,0,0,0,0,0,0,0,0,0,0,0,0],"id":12,"left_children":[1,3,5,7,9,11,13,-1,-1,-1,-1,-1,-1,-1,-1],"loss_changes":[2.7484738E2,6.688866E1,1.2462668E2,3.9736717E1,1.2594444E1,1.1446808E1,6.4197525E1,0E0,0E0,0E0,0E0,0E0,0E0,0E0,0E0],"parents":[2147483647,0,0,1,1,2,2,3,3,4,4,5,5,6,6],"right_children":[2,4,6,8,10,12,14,-1,-1,-1,-1,-1,-1,-1,-1],"split_conditions":[4.5E-1,5.17E-1,-1.4E0,-4.7E0,-6.2E0,9E0,8E0,1.6107282E-3,-1.9496456E-3,4.5760726E-3,2.3602198E-3,-2.652992E-3,-5.5798823E-3,-3.479858E-3,-4.8291075E-4],"split_indices":[3,55,77,25,25,52,51,0,0,0,0,0,0,0,0],"split_type":[0,0,0,0,0,0,0,0,0,0,0,0,0,0,0],"sum_hessian":[6.7988447E3,2.3904011E3,4.4084434E3,1.2527229E3,1.1376783E3,1.4210076E3,2.9874355E3,6.1037933E2,6.4234357E2,3.9533008E2,7.4234827E2,1.5239223E2,1.2686154E3,1.1830338E3,1.8044019E3],"tree_param":{"num_deleted":"0","num_feature":"106","num_nodes":"15","size_leaf_vector":"1"}},{"base_weights":[1.3507362E-1,-1.3793479E-1,2.8310537E-1,2.1498058E-2,-3.1335455E-1,5.268082E-1,1.6704786E-1,-1.6107282E-3,1.9496457E-3,-4.5760726E-3,-2.3602198E-3,2.652992E-3,5.5798823E-3,3.4798582E-3,4.8291066E-4],"categories":[],"categories_nodes":[],"categories_segments":[],"categories_sizes":[],"default_left":[0,0,0,0,0,0,0,0,0,0,0,0,0,0,0],"id":13,"left_children":[1,3,5,7,9,11,13,-1,-1,-1,-1,-1,-1,-1,-1],"loss_changes":[2.7484735E2,6.6888664E1,1.2462668E2,3.9736725E1,1.2594444E1,1.1446808E1,6.419754E1,0E0,0E0,0E0,0E0,0E0,0E0,0E0,0E0],"parents":[2147483647,0,0,1,1,2,2,3,3,4,4,5,5,6,6],"right_children":[2,4,6,8,10,12,14,-1,-1,-1,-1,-1,-1,-1,-1],"split_conditions":[4.5E-1,5.17E-1,-1.4E0,-4.7E0,-6.2E0,9E0,8E0,-1.6107282E-3,1.9496457E-3,-4.5760726E-3,-2.3602198E-3,2.652992E-3,5.5798823E-3,3.4798582E-3,4.8291066E-4],"split_indices":[3,55,77,25,25,52,51,0,0,0,0,0,0,0,0],"split_type":[0,0,0,0,0,0,0,0,0,0,0,0,0,0,0],"sum_hessian":[6.7988447E3,2.3904014E3,4.4084434E3,1.2527229E3,1.1376783E3,1.4210076E3,2.9874355E3,6.1037933E2,6.4234357E2,3.9533008E2,7.4234827E2,1.5239223E2,1.2686154E3,1.1830338E3,1.8044019E3],"tree_param":{"num_deleted":"0","num_feature":"106","num_nodes":"15","size_leaf_vector":"1"}},{"base_weights":[-1.3374127E-1,1.2514287E-1,-2.8687835E-1,-1.2575409E-1,2.4145615E-1,-1.3079861E-1,-4.6153107E-1,7.164164E-4,-2.8612432E-3,9.821003E-4,3.437278E-3,-2.9330915E-3,-1.672661E-4,-5.4979012E-3,-3.3377074E-3],"categories":[],"categories_nodes":[],"categories_segments":[],"categories_sizes":[],"default_left":[0,0,0,0,0,0,0,0,0,0,0,0,0,0,0],"id":14,"left_children":[1,3,5,7,9,11,13,-1,-1,-1,-1,-1,-1,-1,-1],"loss_changes":[2.6957916E2,7.379492E1,1.1640082E2,2.5386707E1,2.5272507E1,4.1844284E1,2.2546478E1,0E0,0E0,0E0,0E0,0E0,0E0,0E0,0E0],"parents":[2147483647,0,0,1,1,2,2,3,3,4,4,5,5,6,6],"right_children":[2,4,6,8,10,12,14,-1,-1,-1,-1,-1,-1,-1,-1],"split_conditions":[4.62E-1,-2E0,1.4E1,-4.7E0,2.4E1,8E0,-1.9E0,7.164164E-4,-2.8612432E-3,9.821003E-4,3.437278E-3,-2.9330915E-3,-1.672661E-4,-5.4979012E-3,-3.3377074E-3],"split_indices":[3,77,80,25,51,51,77,0,0,0,0,0,0,0,0],"split_type":[0,0,0,0,0,0,0,0,0,0,0,0,0,0,0],"sum_hessian":[6.7979624E3,2.5266853E3,4.271277E3,8.00298E2,1.7263875E3,2.2564934E3,2.0147836E3,3.5898523E2,4.4131277E2,7.1995184E2,1.00643555E3,9.3000616E2,1.3264872E3,1.1896497E3,8.251339E2],"tree_param":{"num_deleted":"0","num_feature":"106","num_nodes":"15","size_leaf_vector":"1"}},{"base_weights":[1.3374126E-1,-1.2514286E-1,2.8687832E-1,1.2575413E-1,-2.4145615E-1,1.3079856E-1,4.6153104E-1,-7.1641547E-4,2.8612432E-3,-9.821E-4,-3.437278E-3,2.9330906E-3,1.6726609E-4,5.497901E-3,3.3377071E-3],"categories":[],"categories_nodes":[],"categories_segments":[],"categories_sizes":[],"default_left":[0,0,0,0,0,0,0,0,0,0,0,0,0,0,0],"id":15,"left_children":[1,3,5,7,9,11,13,-1,-1,-1,-1,-1,-1,-1,-1],"loss_changes":[2.695791E2,7.379493E1,1.1640079E2,2.5386696E1,2.5272507E1,4.184426E1,2.2546509E1,0E0,0E0,0E0,0E0,0E0,0E0,0E0,0E0],"parents":[2147483647,0,0,1,1,2,2,3,3,4,4,5,5,6,6],"right_children":[2,4,6,8,10,12,14,-1,-1,-1,-1,-1,-1,-1,-1],"split_conditions":[4.62E-1,-2E0,1.4E1,-4.7E0,2.4E1,8E0,-1.9E0,-7.1641547E-4,2.8612432E-3,-9.821E-4,-3.437278E-3,2.9330906E-3,1.6726609E-4,5.497901E-3,3.3377071E-3],"split_indices":[3,77,80,25,51,51,77,0,0,0,0,0,0,0,0],"split_type":[0,0,0,0,0,0,0,0,0,0,0,0,0,0,0],"sum_hessian":[6.7979624E3,2.5266853E3,4.271277E3,8.0029803E2,1.7263875E3,2.2564934E3,2.0147836E3,3.5898523E2,4.4131277E2,7.1995184E2,1.00643555E3,9.300062E2,1.3264872E3,1.1896497E3,8.251339E2],"tree_param":{"num_deleted":"0","num_feature":"106","num_nodes":"15","size_leaf_vector":"1"}},{"base_weights":[-1.3242602E-1,1.2390436E-1,-2.8406647E-1,-1.2450837E-1,2.3907001E-1,-1.2949988E-1,-4.5707327E-1,7.092781E-4,-2.8330474E-3,9.723073E-4,3.4035328E-3,-2.904211E-3,-1.6559586E-4,-5.4454994E-3,-3.3048575E-3],"categories":[],"categories_nodes":[],"categories_segments":[],"categories_sizes":[],"default_left":[0,0,0,0,0,0,0,0,0,0,0,0,0,0,0],"id":16,"left_children":[1,3,5,7,9,11,13,-1,-1,-1,-1,-1,-1,-1,-1],"loss_changes":[2.6427036E2,7.2336365E1,1.1416449E2,2.4886227E1,2.47798E1,4.1021526E1,2.2134277E1,0E0,0E0,0E0,0E0,0E0,0E0,0E0,0E0],"parents":[2147483647,0,0,1,1,2,2,3,3,4,4,5,5,6,6],"right_children":[2,4,6,8,10,12,14,-1,-1,-1,-1,-1,-1,-1,-1],"split_conditions":[4.62E-1,-2E0,1.4E1,-4.7E0,2.4E1,8E0,-1.9E0,7.092781E-4,-2.8330474E-3,9.723073E-4,3.4035328E-3,-2.904211E-3,-1.6559586E-4,-5.4454994E-3,-3.3048575E-3],"split_indices":[3,77,80,25,51,51,77,0,0,0,0,0,0,0,0],"split_type":[0,0,0,0,0,0,0,0,0,0,0,0,0,0,0],"sum_hessian":[6.796912E3,2.5264417E3,4.2704707E3,8.002399E2,1.7262017E3,2.2563586E3,2.0141119E3,3.5898187E2,4.4125803E2,7.19941E2,1.00626074E3,9.2987256E2,1.326486E3,1.1890991E3,8.250129E2],"tree_param":{"num_deleted":"0","num_feature":"106","num_nodes":"15","size_leaf_vector":"1"}},{"base_weights":[1.3242598E-1,-1.2390437E-1,2.8406638E-1,1.2450838E-1,-2.3907001E-1,1.2949978E-1,4.5707324E-1,-7.0927903E-4,2.8330483E-3,-9.723074E-4,-3.4035328E-3,2.9042098E-3,1.65595E-4,5.445498E-3,3.3048573E-3],"categories":[],"categories_nodes":[],"categories_segments":[],"categories_sizes":[],"default_left":[0,0,0,0,0,0,0,0,0,0,0,0,0,0,0],"id":17,"left_children":[1,3,5,7,9,11,13,-1,-1,-1,-1,-1,-1,-1,-1],"loss_changes":[2.642703E2,7.2336365E1,1.1416455E2,2.4886246E1,2.4779793E1,4.1021534E1,2.2134247E1,0E0,0E0,0E0,0E0,0E0,0E0,0E0,0E0],"parents":[2147483647,0,0,1,1,2,2,3,3,4,4,5,5,6,6],"right_children":[2,4,6,8,10,12,14,-1,-1,-1,-1,-1,-1,-1,-1],"split_conditions":[4.62E-1,-2E0,1.4E1,-4.7E0,2.4E1,8E0,-1.9E0,-7.0927903E-4,2.8330483E-3,-9.723074E-4,-3.4035328E-3,2.9042098E-3,1.65595E-4,5.445498E-3,3.3048573E-3],"split_indices":[3,77,80,25,51,51,77,0,0,0,0,0,0,0,0],"split_type":[0,0,0,0,0,0,0,0,0,0,0,0,0,0,0],"sum_hessian":[6.796912E3,2.5264417E3,4.2704707E3,8.0023987E2,1.7262017E3,2.2563586E3,2.0141119E3,3.5898184E2,4.4125803E2,7.19941E2,1.00626074E3,9.2987256E2,1.3264861E3,1.1890991E3,8.250129E2],"tree_param":{"num_deleted":"0","num_feature":"106","num_nodes":"15","size_leaf_vector":"1"}},{"base_weights":[-1.311261E-1,1.3396841E-1,-2.7490586E-1,-2.1961343E-2,3.0555966E-1,-1.198144E-1,-4.4807318E-1,1.5580691E-3,-1.9086675E-3,4.466441E-3,2.29954E-3,-2.5356156E-3,2.2730314E-4,-5.3826547E-3,-3.1722263E-3],"categories":[],"categories_nodes":[],"categories_segments":[],"categories_sizes":[],"default_left":[0,0,0,0,0,0,0,0,0,0,0,0,0,0,0],"id":18,"left_children":[1,3,5,7,9,11,13,-1,-1,-1,-1,-1,-1,-1,-1],"loss_changes":[2.5909595E2,6.397352E1,1.1830423E2,3.7666096E1,1.2038986E1,4.4354755E1,2.4398071E1,0E0,0E0,0E0,0E0,0E0,0E0,0E0,0E0],"parents":[2147483647,0,0,1,1,2,2,3,3,4,4,5,5,6,6],"right_children":[2,4,6,8,10,12,14,-1,-1,-1,-1,-1,-1,-1,-1],"split_conditions":[4.5E-1,5.17E-1,1.4E1,-4.7E0,-6.2E0,1E1,-1.9E0,1.5580691E-3,-1.9086675E-3,4.466441E-3,2.29954E-3,-2.5356156E-3,2.2730314E-4,-5.3826547E-3,-3.1722263E-3],"split_indices":[3,55,80,25,25,51,77,0,0,0,0,0,0,0,0],"split_type":[0,0,0,0,0,0,0,0,0,0,0,0,0,0,0],"sum_hessian":[6.7957354E3,2.3897297E3,4.406006E3,1.2524581E3,1.1372716E3,2.3252056E3,2.0808003E3,6.102571E2,6.4220105E2,3.950948E2,7.421768E2,1.1992201E3,1.1259855E3,1.2299264E3,8.5087384E2],"tree_param":{"num_deleted":"0","num_feature":"106","num_nodes":"15","size_leaf_vector":"1"}},{"base_weights":[1.311261E-1,-1.339684E-1,2.7490586E-1,2.1961322E-2,-3.055596E-1,1.1981442E-1,4.4807312E-1,-1.5580691E-3,1.908667E-3,-4.46644E-3,-2.2995397E-3,2.5356156E-3,-2.2730314E-4,5.382654E-3,3.1722258E-3],"categories":[],"categories_nodes":[],"categories_segments":[],"categories_sizes":[],"default_left":[0,0,0,0,0,0,0,0,0,0,0,0,0,0,0],"id":19,"left_children":[1,3,5,7,9,11,13,-1,-1,-1,-1,-1,-1,-1,-1],"loss_changes":[2.590959E2,6.3973488E1,1.183042E2,3.766609E1,1.2038971E1,4.4354755E1,2.439804E1,0E0,0E0,0E0,0E0,0E0,0E0,0E0,0E0],"parents":[2147483647,0,0,1,1,2,2,3,3,4,4,5,5,6,6],"right_children":[2,4,6,8,10,12,14,-1,-1,-1,-1,-1,-1,-1,-1],"split_conditions":[4.5E-1,5.17E-1,1.4E1,-4.7E0,-6.2E0,1E1,-1.9E0,-1.5580691E-3,1.908667E-3,-4.46644E-3,-2.2995397E-3,2.5356156E-3,-2.2730314E-4,5.382654E-3,3.1722258E-3],"split_indices":[3,55,80,25,25,51,77,0,0,0,0,0,0,0,0],"split_type":[0,0,0,0,0,0,0,0,0,0,0,0,0,0,0],"sum_hessian":[6.795736E3,2.3897297E3,4.406006E3,1.2524581E3,1.1372716E3,2.3252056E3,2.0808003E3,6.10257E2,6.4220105E2,3.950948E2,7.421768E2,1.1992202E3,1.1259855E3,1.2299265E3,8.508738E2],"tree_param":{"num_deleted":"0","num_feature":"106","num_nodes":"15","size_leaf_vector":"1"}},{"base_weights":[-1.2983945E-1,1.21544056E-1,-2.7858695E-1,-1.0838337E-1,2.4203654E-1,-1.2698416E-1,-4.4838732E-1,8.2058675E-4,-2.644653E-3,1.0437785E-3,3.406069E-3,-2.8507668E-3,-1.6063415E-4,-5.3431713E-3,-3.2413027E-3],"categories":[],"categories_nodes":[],"categories_segments":[],"categories_sizes":[],"default_left":[0,0,0,0,0,0,0,0,0,0,0,0,0,0,0],"id":20,"left_children":[1,3,5,7,9,11,13,-1,-1,-1,-1,-1,-1,-1,-1],"loss_changes":[2.5413557E2,7.003284E1,1.0985187E2,2.5869293E1,2.2466461E1,3.9574688E1,2.132605E1,0E0,0E0,0E0,0E0,0E0,0E0,0E0,0E0],"parents":[2147483647,0,0,1,1,2,2,3,3,4,4,5,5,6,6],"right_children":[2,4,6,8,10,12,14,-1,-1,-1,-1,-1,-1,-1,-1],"split_conditions":[4.62E-1,-1.6E0,1.4E1,-4.7E0,2.4E1,8E0,-1.9E0,8.2058675E-4,-2.644653E-3,1.0437785E-3,3.406069E-3,-2.8507668E-3,-1.6063415E-4,-5.3431713E-3,-3.2413027E-3],"split_indices":[3,77,80,25,51,51,77,0,0,0,0,0,0,0,0],"split_type":[0,0,0,0,0,0,0,0,0,0,0,0,0,0,0],"sum_hessian":[6.794496E3,2.5259016E3,4.2685947E3,8.685701E2,1.6573314E3,2.256063E3,2.0125317E3,3.914365E2,4.7713364E2,6.924072E2,9.6492426E2,9.295825E2,1.3264803E3,1.1878059E3,8.2472577E2],"tree_param":{"num_deleted":"0","num_feature":"106","num_nodes":"15","size_leaf_vector":"1"}},{"base_weights":[1.2983947E-1,-1.21544026E-1,2.7858695E-1,1.08383425E-1,-2.4203652E-1,1.2698421E-1,4.4838732E-1,-8.2058564E-4,2.644653E-3,-1.0437786E-3,-3.4060685E-3,2.8507668E-3,1.6063485E-4,5.3431713E-3,3.2413027E-3],"categories":[],"categories_nodes":[],"categories_segments":[],"categories_sizes":[],"default_left":[0,0,0,0,0,0,0,0,0,0,0,0,0,0,0],"id":21,"left_children":[1,3,5,7,9,11,13,-1,-1,-1,-1,-1,-1,-1,-1],"loss_changes":[2.5413559E2,7.003285E1,1.0985184E2,2.5869278E1,2.2466454E1,3.9574657E1,2.132605E1,0E0,0E0,0E0,0E0,0E0,0E0,0E0,0E0],"parents":[2147483647,0,0,1,1,2,2,3,3,4,4,5,5,6,6],"right_children":[2,4,6,8,10,12,14,-1,-1,-1,-1,-1,-1,-1,-1],"split_conditions":[4.62E-1,-1.6E0,1.4E1,-4.7E0,2.4E1,8E0,-1.9E0,-8.2058564E-4,2.644653E-3,-1.0437786E-3,-3.4060685E-3,2.8507668E-3,1.6063485E-4,5.3431713E-3,3.2413027E-3],"split_indices":[3,77,80,25,51,51,77,0,0,0,0,0,0,0,0],"split_type":[0,0,0,0,0,0,0,0,0,0,0,0,0,0,0],"sum_hessian":[6.794496E3,2.5259016E3,4.2685947E3,8.685701E2,1.6573314E3,2.2560627E3,2.0125316E3,3.914365E2,4.7713364E2,6.9240717E2,9.649242E2,9.295825E2,1.3264803E3,1.1878059E3,8.247257E2],"tree_param":{"num_deleted":"0","num_feature":"106","num_nodes":"15","size_leaf_vector":"1"}},{"base_weights":[-1.2856928E-1,1.4500763E-1,-2.626748E-1,-8.886875E-2,2.7399424E-1,-1.14368565E-1,-4.2821774E-1,7.2720676E-4,-2.6303479E-3,4.1876873E-4,3.3392673E-3,-2.497177E-3,2.1125666E-4,-5.8766548E-3,-3.5409713E-3],"categories":[],"categories_nodes":[],"categories_segments":[],"categories_sizes":[],"default_left":[0,0,0,0,0,0,0,0,0,0,0,0,0,0,0],"id":22,"left_children":[1,3,5,7,9,11,13,-1,-1,-1,-1,-1,-1,-1,-1],"loss_changes":[2.4930096E2,6.746353E1,1.11892944E2,2.2404903E1,2.003392E1,4.4135395E1,2.525116E1,0E0,0E0,0E0,0E0,0E0,0E0,0E0,0E0],"parents":[2147483647,0,0,1,1,2,2,3,3,4,4,5,5,6,6],"right_children":[2,4,6,8,10,12,14,-1,-1,-1,-1,-1,-1,-1,-1],"split_conditions":[-1.6E0,-1.5E0,1.4E1,-4.7E0,2E1,1E1,7E0,7.2720676E-4,-2.6303479E-3,4.1876873E-4,3.3392673E-3,-2.497177E-3,2.1125666E-4,-5.8766548E-3,-3.5409713E-3],"split_indices":[25,77,80,25,28,51,51,0,0,0,0,0,0,0,0],"split_type":[0,0,0,0,0,0,0,0,0,0,0,0,0,0,0],"sum_hessian":[6.7930923E3,2.2345342E3,4.558558E3,7.944186E2,1.4401157E3,2.4053499E3,2.1532085E3,4.1238995E2,3.8202863E2,2.9587943E2,1.1442363E3,1.2028973E3,1.2024524E3,6.811007E2,1.4721077E3],"tree_param":{"num_deleted":"0","num_feature":"106","num_nodes":"15","size_leaf_vector":"1"}},{"base_weights":[1.2856925E-1,-1.4500767E-1,2.6267478E-1,8.886869E-2,-2.7399427E-1,1.1436854E-1,4.2821774E-1,-7.272078E-4,2.6303479E-3,-4.1876914E-4,-3.3392676E-3,2.4971773E-3,-2.1125731E-4,5.8766548E-3,3.5409713E-3],"categories":[],"categories_nodes":[],"categories_segments":[],"categories_sizes":[],"default_left":[0,0,0,0,0,0,0,0,0,0,0,0,0,0,0],"id":23,"left_children":[1,3,5,7,9,11,13,-1,-1,-1,-1,-1,-1,-1,-1],"loss_changes":[2.49301E2,6.746352E1,1.11892944E2,2.2404915E1,2.0033928E1,4.413542E1,2.525116E1,0E0,0E0,0E0,0E0,0E0,0E0,0E0,0E0],"parents":[2147483647,0,0,1,1,2,2,3,3,4,4,5,5,6,6],"right_children":[2,4,6,8,10,12,14,-1,-1,-1,-1,-1,-1,-1,-1],"split_conditions":[-1.6E0,-1.5E0,1.4E1,-4.7E0,2E1,1E1,7E0,-7.272078E-4,2.6303479E-3,-4.1876914E-4,-3.3392676E-3,2.4971773E-3,-2.1125731E-4,5.8766548E-3,3.5409713E-3],"split_indices":[25,77,80,25,28,51,51,0,0,0,0,0,0,0,0],"split_type":[0,0,0,0,0,0,0,0,0,0,0,0,0,0,0],"sum_hessian":[6.7930923E3,2.2345342E3,4.558558E3,7.944186E2,1.4401156E3,2.4053499E3,2.1532085E3,4.1238995E2,3.820286E2,2.9587943E2,1.1442362E3,1.2028973E3,1.2024524E3,6.811007E2,1.4721077E3],"tree_param":{"num_deleted":"0","num_feature":"106","num_nodes":"15","size_leaf_vector":"1"}},{"base_weights":[-1.2731177E-1,1.19355135E-1,-2.733036E-1,-1.2047788E-1,2.3056123E-1,-1.245169E-1,-4.4007352E-1,6.7102426E-4,-2.7297088E-3,9.366137E-4,3.2838786E-3,-2.7983726E-3,-1.5580139E-4,-5.2534128E-3,-3.1685883E-3],"categories":[],"categories_nodes":[],"categories_segments":[],"categories_sizes":[],"default_left":[0,0,0,0,0,0,0,0,0,0,0,0,0,0,0],"id":24,"left_children":[1,3,5,7,9,11,13,-1,-1,-1,-1,-1,-1,-1,-1],"loss_changes":[2.4464622E2,6.740477E1,1.0583386E2,2.292914E1,2.3088516E1,3.817946E1,2.0969269E1,0E0,0E0,0E0,0E0,0E0,0E0,0E0,0E0],"parents":[2147483647,0,0,1,1,2,2,3,3,4,4,5,5,6,6],"right_children":[2,4,6,8,10,12,14,-1,-1,-1,-1,-1,-1,-1,-1],"split_conditions":[4.62E-1,-2E0,1.4E1,-4.7E0,2.4E1,8E0,-1.9E0,6.7102426E-4,-2.7297088E-3,9.366137E-4,3.2838786E-3,-2.7983726E-3,-1.5580139E-4,-5.2534128E-3,-3.1685883E-3],"split_indices":[3,77,80,25,51,51,77,0,0,0,0,0,0,0,0],"split_type":[0,0,0,0,0,0,0,0,0,0,0,0,0,0,0],"sum_hessian":[6.79168E3,2.5252373E3,4.266443E3,7.999465E2,1.7252908E3,2.2557144E3,2.0107285E3,3.5895682E2,4.4098965E2,7.1986285E2,1.005428E3,9.292439E2,1.3264706E3,1.1864268E3,8.2430176E2],"tree_param":{"num_deleted":"0","num_feature":"106","num_nodes":"15","size_leaf_vector":"1"}},{"base_weights":[1.2731175E-1,-1.1935514E-1,2.733036E-1,1.2047786E-1,-2.3056123E-1,1.2451691E-1,4.400735E-1,-6.7102426E-4,2.7297086E-3,-9.366138E-4,-3.2838786E-3,2.7983724E-3,1.5580181E-4,5.2534128E-3,3.1685876E-3],"categories":[],"categories_nodes":[],"categories_segments":[],"categories_sizes":[],"default_left":[0,0,0,0,0,0,0,0,0,0,0,0,0,0,0],"id":25,"left_children":[1,3,5,7,9,11,13,-1,-1,-1,-1,-1,-1,-1,-1],"loss_changes":[2.4464621E2,6.7404785E1,1.0583383E2,2.292913E1,2.3088509E1,3.8179455E1,2.0969269E1,0E0,0E0,0E0,0E0,0E0,0E0,0E0,0E0],"parents":[2147483647,0,0,1,1,2,2,3,3,4,4,5,5,6,6],"right_children":[2,4,6,8,10,12,14,-1,-1,-1,-1,-1,-1,-1,-1],"split_conditions":[4.62E-1,-2E0,1.4E1,-4.7E0,2.4E1,8E0,-1.9E0,-6.7102426E-4,2.7297086E-3,-9.366138E-4,-3.2838786E-3,2.7983724E-3,1.5580181E-4,5.2534128E-3,3.1685876E-3],"split_indices":[3,77,80,25,51,51,77,0,0,0,0,0,0,0,0],"split_type":[0,0,0,0,0,0,0,0,0,0,0,0,0,0,0],"sum_hessian":[6.79168E3,2.5252373E3,4.266443E3,7.999465E2,1.7252908E3,2.2557144E3,2.0107285E3,3.5895682E2,4.409897E2,7.1986285E2,1.0054279E3,9.2924384E2,1.3264706E3,1.1864268E3,8.2430176E2],"tree_param":{"num_deleted":"0","num_feature":"106","num_nodes":"15","size_leaf_vector":"1"}},{"base_weights":[-1.2607054E-1,1.4241308E-1,-2.5770453E-1,-8.713445E-2,2.6902944E-1,-1.121809E-1,-4.2026243E-1,7.119302E-4,-2.578434E-3,4.0757164E-4,3.2799065E-3,-2.451071E-3,2.0847301E-4,-3.2665022E-3,-5.448535E-3],"categories":[],"categories_nodes":[],"categories_segments":[],"categories_sizes":[],"default_left":[0,0,0,0,0,0,0,0,0,0,0,0,0,0,0],"id":26,"left_children":[1,3,5,7,9,11,13,-1,-1,-1,-1,-1,-1,-1,-1],"loss_changes":[2.4004324E2,6.497735E1,1.0775888E2,2.1511902E1,1.9375793E1,4.254969E1,2.4924408E1,0E0,0E0,0E0,0E0,0E0,0E0,0E0,0E0],"parents":[2147483647,0,0,1,1,2,2,3,3,4,4,5,5,6,6],"right_children":[2,4,6,8,10,12,14,-1,-1,-1,-1,-1,-1,-1,-1],"split_conditions":[-1.6E0,-1.5E0,1.4E1,-4.7E0,2E1,1E1,2.3E1,7.119302E-4,-2.578434E-3,4.0757164E-4,3.2799065E-3,-2.451071E-3,2.0847301E-4,-3.2665022E-3,-5.448535E-3],"split_indices":[25,77,80,25,28,51,80,0,0,0,0,0,0,0,0],"split_type":[0,0,0,0,0,0,0,0,0,0,0,0,0,0,0],"sum_hessian":[6.790055E3,2.2338215E3,4.556234E3,7.94235E2,1.4395864E3,2.404969E3,2.1512646E3,4.1236328E2,3.8187167E2,2.9585498E2,1.1437314E3,1.2025243E3,1.2024447E3,1.2304106E3,9.208541E2],"tree_param":{"num_deleted":"0","num_feature":"106","num_nodes":"15","size_leaf_vector":"1"}},{"base_weights":[1.2607053E-1,-1.4241311E-1,2.5770456E-1,8.7134376E-2,-2.6902944E-1,1.1218095E-1,4.2026243E-1,-7.11931E-4,2.5784334E-3,-4.0757196E-4,-3.2799065E-3,2.451071E-3,-2.0847234E-4,3.266502E-3,5.448535E-3],"categories":[],"categories_nodes":[],"categories_segments":[],"categories_sizes":[],"default_left":[0,0,0,0,0,0,0,0,0,0,0,0,0,0,0],"id":27,"left_children":[1,3,5,7,9,11,13,-1,-1,-1,-1,-1,-1,-1,-1],"loss_changes":[2.4004332E2,6.4977325E1,1.0775879E2,2.1511904E1,1.9375793E1,4.254967E1,2.4924438E1,0E0,0E0,0E0,0E0,0E0,0E0,0E0,0E0],"parents":[2147483647,0,0,1,1,2,2,3,3,4,4,5,5,6,6],"right_children":[2,4,6,8,10,12,14,-1,-1,-1,-1,-1,-1,-1,-1],"split_conditions":[-1.6E0,-1.5E0,1.4E1,-4.7E0,2E1,1E1,2.3E1,-7.11931E-4,2.5784334E-3,-4.0757196E-4,-3.2799065E-3,2.451071E-3,-2.0847234E-4,3.266502E-3,5.448535E-3],"split_indices":[25,77,80,25,28,51,80,0,0,0,0,0,0,0,0],"split_type":[0,0,0,0,0,0,0,0,0,0,0,0,0,0,0],"sum_hessian":[6.790055E3,2.2338215E3,4.5562334E3,7.94235E2,1.4395864E3,2.4049688E3,2.1512646E3,4.1236328E2,3.818717E2,2.9585498E2,1.1437314E3,1.2025243E3,1.2024446E3,1.2304105E3,9.2085406E2],"tree_param":{"num_deleted":"0","num_feature":"106","num_nodes":"15","size_leaf_vector":"1"}},{"base_weights":[-1.2484181E-1,1.1728218E-1,-2.6818314E-1,-1.17832586E-1,2.2630917E-1,-1.22099616E-1,-4.3206394E-1,6.572535E-4,-2.671172E-3,9.1945066E-4,3.2236772E-3,-2.7470791E-3,-1.5108247E-4,-5.1620496E-3,-3.1058367E-3],"categories":[],"categories_nodes":[],"categories_segments":[],"categories_sizes":[],"default_left":[0,0,0,0,0,0,0,0,0,0,0,0,0,0,0],"id":28,"left_children":[1,3,5,7,9,11,13,-1,-1,-1,-1,-1,-1,-1,-1],"loss_changes":[2.356672E2,6.476352E1,1.0205167E2,2.1959717E1,2.2243729E1,3.6836483E1,2.0381256E1,0E0,0E0,0E0,0E0,0E0,0E0,0E0,0E0],"parents":[2147483647,0,0,1,1,2,2,3,3,4,4,5,5,6,6],"right_children":[2,4,6,8,10,12,14,-1,-1,-1,-1,-1,-1,-1,-1],"split_conditions":[4.62E-1,-2E0,1.4E1,-4.7E0,2.4E1,8E0,-1.9E0,6.572535E-4,-2.671172E-3,9.1945066E-4,3.2236772E-3,-2.7470791E-3,-1.5108247E-4,-5.1620496E-3,-3.1058367E-3],"split_indices":[3,77,80,25,51,51,77,0,0,0,0,0,0,0,0],"split_type":[0,0,0,0,0,0,0,0,0,0,0,0,0,0,0],"sum_hessian":[6.7884077E3,2.5244436E3,4.263964E3,7.997393E2,1.7247045E3,2.2553171E3,2.0086471E3,3.589455E2,4.407938E2,7.198104E2,1.004894E3,9.288599E2,1.326457E3,1.1847812E3,8.238657E2],"tree_param":{"num_deleted":"0","num_feature":"106","num_nodes":"15","size_leaf_vector":"1"}},{"base_weights":[1.248418E-1,-1.1728218E-1,2.6818314E-1,1.17832564E-1,-2.2630917E-1,1.22099616E-1,4.3206394E-1,-6.572538E-4,2.671172E-3,-9.194505E-4,-3.2236772E-3,2.7470791E-3,1.5108248E-4,5.1620496E-3,3.1058365E-3],"categories":[],"categories_nodes":[],"categories_segments":[],"categories_sizes":[],"default_left":[0,0,0,0,0,0,0,0,0,0,0,0,0,0,0],"id":29,"left_children":[1,3,5,7,9,11,13,-1,-1,-1,-1,-1,-1,-1,-1],"loss_changes":[2.3566714E2,6.476351E1,1.020517E2,2.1959723E1,2.2243729E1,3.683648E1,2.0381287E1,0E0,0E0,0E0,0E0,0E0,0E0,0E0,0E0],"parents":[2147483647,0,0,1,1,2,2,3,3,4,4,5,5,6,6],"right_children":[2,4,6,8,10,12,14,-1,-1,-1,-1,-1,-1,-1,-1],"split_conditions":[4.62E-1,-2E0,1.4E1,-4.7E0,2.4E1,8E0,-1.9E0,-6.572538E-4,2.671172E-3,-9.194505E-4,-3.2236772E-3,2.7470791E-3,1.5108248E-4,5.1620496E-3,3.1058365E-3],"split_indices":[3,77,80,25,51,51,77,0,0,0,0,0,0,0,0],"split_type":[0,0,0,0,0,0,0,0,0,0,0,0,0,0,0],"sum_hessian":[6.7884077E3,2.5244436E3,4.2639644E3,7.997393E2,1.7247043E3,2.2553171E3,2.0086471E3,3.589455E2,4.407938E2,7.198104E2,1.004894E3,9.288599E2,1.3264572E3,1.1847812E3,8.238657E2],"tree_param":{"num_deleted":"0","num_feature":"106","num_nodes":"15","size_leaf_vector":"1"}},{"base_weights":[-1.2362842E-1,1.3987105E-1,-2.528474E-1,-8.54379E-2,2.6416954E-1,-1.01573355E-1,-4.0372732E-1,6.969718E-4,-2.5277003E-3,3.966085E-4,3.2218322E-3,-2.3086315E-3,2.74391E-4,-5.64789E-3,-3.2850795E-3],"categories":[],"categories_nodes":[],"categories_segments":[],"categories_sizes":[],"default_left":[0,0,0,0,0,0,0,0,0,0,0,0,0,0,0],"id":30,"left_children":[1,3,5,7,9,11,13,-1,-1,-1,-1,-1,-1,-1,-1],"loss_changes":[2.3114653E2,6.2587265E1,1.0391342E2,2.0655851E1,1.8742348E1,3.7964165E1,2.7435577E1,0E0,0E0,0E0,0E0,0E0,0E0,0E0,0E0],"parents":[2147483647,0,0,1,1,2,2,3,3,4,4,5,5,6,6],"right_children":[2,4,6,8,10,12,14,-1,-1,-1,-1,-1,-1,-1,-1],"split_conditions":[-1.6E0,-1.5E0,1.3E1,-4.7E0,2E1,1E1,7E0,6.969718E-4,-2.5277003E-3,3.966085E-4,3.2218322E-3,-2.3086315E-3,2.74391E-4,-5.64789E-3,-3.2850795E-3],"split_indices":[25,77,80,25,28,51,51,0,0,0,0,0,0,0,0],"split_type":[0,0,0,0,0,0,0,0,0,0,0,0,0,0,0],"sum_hessian":[6.786578E3,2.2330095E3,4.5535684E3,7.9402936E2,1.4389801E3,2.2746497E3,2.2789187E3,4.1233417E2,3.8169516E2,2.9582867E2,1.1431515E3,1.1357094E3,1.1389404E3,7.234148E2,1.5555039E3],"tree_param":{"num_deleted":"0","num_feature":"106","num_nodes":"15","size_leaf_vector":"1"}},{"base_weights":[1.2362843E-1,-1.3987105E-1,2.528474E-1,8.543792E-2,-2.6416954E-1,1.0157336E-1,4.037273E-1,-6.9697155E-4,2.5277003E-3,-3.966084E-4,-3.2218322E-3,2.3086315E-3,-2.7439086E-4,5.6478893E-3,3.2850797E-3],"categories":[],"categories_nodes":[],"categories_segments":[],"categories_sizes":[],"default_left":[0,0,0,0,0,0,0,0,0,0,0,0,0,0,0],"id":31,"left_children":[1,3,5,7,9,11,13,-1,-1,-1,-1,-1,-1,-1,-1],"loss_changes":[2.3114651E2,6.2587273E1,1.0391342E2,2.0655846E1,1.8742355E1,3.7964157E1,2.7435577E1,0E0,0E0,0E0,0E0,0E0,0E0,0E0,0E0],"parents":[2147483647,0,0,1,1,2,2,3,3,4,4,5,5,6,6],"right_children":[2,4,6,8,10,12,14,-1,-1,-1,-1,-1,-1,-1,-1],"split_conditions":[-1.6E0,-1.5E0,1.3E1,-4.7E0,2E1,1E1,7E0,-6.9697155E-4,2.5277003E-3,-3.966084E-4,-3.2218322E-3,2.3086315E-3,-2.7439086E-4,5.6478893E-3,3.2850797E-3],"split_indices":[25,77,80,25,28,51,51,0,0,0,0,0,0,0,0],"split_type":[0,0,0,0,0,0,0,0,0,0,0,0,0,0,0],"sum_hessian":[6.786578E3,2.2330095E3,4.5535684E3,7.940293E2,1.4389801E3,2.2746497E3,2.2789187E3,4.1233414E2,3.8169516E2,2.9582867E2,1.1431515E3,1.1357094E3,1.1389404E3,7.234148E2,1.5555039E3],"tree_param":{"num_deleted":"0","num_feature":"106","num_nodes":"15","size_leaf_vector":"1"}},{"base_weights":[-1.2242634E-1,1.1518426E-1,-2.6313755E-1,-1.15489185E-1,2.2216392E-1,-1.1966304E-1,-4.2424405E-1,6.4377155E-4,-2.6183373E-3,9.0302824E-4,3.164812E-3,-2.696205E-3,-1.4577837E-4,-3.3765836E-3,-5.413894E-3],"categories":[],"categories_nodes":[],"categories_segments":[],"categories_sizes":[],"default_left":[0,0,0,0,0,0,0,0,0,0,0,0,0,0,0],"id":32,"left_children":[1,3,5,7,9,11,13,-1,-1,-1,-1,-1,-1,-1,-1],"loss_changes":[2.2690921E2,6.232527E1,9.846887E1,2.1088602E1,2.1425385E1,3.5544716E1,2.0177917E1,0E0,0E0,0E0,0E0,0E0,0E0,0E0,0E0],"parents":[2147483647,0,0,1,1,2,2,3,3,4,4,5,5,6,6],"right_children":[2,4,6,8,10,12,14,-1,-1,-1,-1,-1,-1,-1,-1],"split_conditions":[4.62E-1,-2E0,1.4E1,-4.7E0,2.4E1,8E0,2.3E1,6.4377155E-4,-2.6183373E-3,9.0302824E-4,3.164812E-3,-2.696205E-3,-1.4577837E-4,-3.3765836E-3,-5.413894E-3],"split_indices":[3,77,80,25,51,51,80,0,0,0,0,0,0,0,0],"split_type":[0,0,0,0,0,0,0,0,0,0,0,0,0,0,0],"sum_hessian":[6.7847764E3,2.5235652E3,4.2612114E3,7.9952356E2,1.7240416E3,2.2548667E3,2.0063448E3,3.5893307E2,4.4059048E2,7.197485E2,1.0042931E3,9.2842725E2,1.3264393E3,1.1558809E3,8.504639E2],"tree_param":{"num_deleted":"0","num_feature":"106","num_nodes":"15","size_leaf_vector":"1"}},{"base_weights":[1.2242634E-1,-1.1518426E-1,2.6313758E-1,1.1548919E-1,-2.2216392E-1,1.1966303E-1,4.2424408E-1,-6.4377155E-4,2.6183373E-3,-9.0302835E-4,-3.164812E-3,2.6962047E-3,1.457785E-4,3.3765843E-3,5.413893E-3],"categories":[],"categories_nodes":[],"categories_segments":[],"categories_sizes":[],"default_left":[0,0,0,0,0,0,0,0,0,0,0,0,0,0,0],"id":33,"left_children":[1,3,5,7,9,11,13,-1,-1,-1,-1,-1,-1,-1,-1],"loss_changes":[2.2690924E2,6.232527E1,9.846884E1,2.1088604E1,2.1425385E1,3.55447E1,2.0177917E1,0E0,0E0,0E0,0E0,0E0,0E0,0E0,0E0],"parents":[2147483647,0,0,1,1,2,2,3,3,4,4,5,5,6,6],"right_children":[2,4,6,8,10,12,14,-1,-1,-1,-1,-1,-1,-1,-1],"split_conditions":[4.62E-1,-2E0,1.4E1,-4.7E0,2.4E1,8E0,2.3E1,-6.4377155E-4,2.6183373E-3,-9.0302835E-4,-3.164812E-3,2.6962047E-3,1.457785E-4,3.3765843E-3,5.413893E-3],"split_indices":[3,77,80,25,51,51,80,0,0,0,0,0,0,0,0],"split_type":[0,0,0,0,0,0,0,0,0,0,0,0,0,0,0],"sum_hessian":[6.7847764E3,2.5235652E3,4.2612114E3,7.9952356E2,1.7240416E3,2.2548665E3,2.0063448E3,3.5893307E2,4.4059048E2,7.197485E2,1.0042931E3,9.2842725E2,1.3264393E3,1.1558809E3,8.504639E2],"tree_param":{"num_deleted":"0","num_feature":"106","num_nodes":"15","size_leaf_vector":"1"}},{"base_weights":[-1.21239595E-1,1.3737312E-1,-2.4809168E-1,-8.381325E-2,2.5942078E-1,-9.955594E-2,-3.963719E-1,6.8217E-4,-2.4786605E-3,3.8628225E-4,3.165014E-3,-2.2653118E-3,2.7099825E-4,-5.558452E-3,-3.2193745E-3],"categories":[],"categories_nodes":[],"categories_segments":[],"categories_sizes":[],"default_left":[0,0,0,0,0,0,0,0,0,0,0,0,0,0,0],"id":34,"left_children":[1,3,5,7,9,11,13,-1,-1,-1,-1,-1,-1,-1,-1],"loss_changes":[2.2257974E2,6.0305115E1,1.0021069E2,1.9840199E1,1.8127235E1,3.6596416E1,2.6855194E1,0E0,0E0,0E0,0E0,0E0,0E0,0E0,0E0],"parents":[2147483647,0,0,1,1,2,2,3,3,4,4,5,5,6,6],"right_children":[2,4,6,8,10,12,14,-1,-1,-1,-1,-1,-1,-1,-1],"split_conditions":[-1.6E0,-1.5E0,1.3E1,-4.7E0,2E1,1E1,7E0,6.8217E-4,-2.4786605E-3,3.8628225E-4,3.165014E-3,-2.2653118E-3,2.7099825E-4,-5.558452E-3,-3.2193745E-3],"split_indices":[25,77,80,25,28,51,51,0,0,0,0,0,0,0,0],"split_type":[0,0,0,0,0,0,0,0,0,0,0,0,0,0,0],"sum_hessian":[6.7827783E3,2.232108E3,4.5506704E3,7.938076E2,1.4383004E3,2.2742112E3,2.276459E3,4.1230365E2,3.8150394E2,2.9579965E2,1.1425007E3,1.1352795E3,1.1389318E3,7.223598E2,1.5540992E3],"tree_param":{"num_deleted":"0","num_feature":"106","num_nodes":"15","size_leaf_vector":"1"}},{"base_weights":[1.212396E-1,-1.3737313E-1,2.480917E-1,8.381326E-2,-2.5942078E-1,9.955598E-2,3.963719E-1,-6.8217E-4,2.4786605E-3,-3.86282E-4,-3.165014E-3,2.2653118E-3,-2.7099755E-4,5.558452E-3,3.2193745E-3],"categories":[],"categories_nodes":[],"categories_segments":[],"categories_sizes":[],"default_left":[0,0,0,0,0,0,0,0,0,0,0,0,0,0,0],"id":35,"left_children":[1,3,5,7,9,11,13,-1,-1,-1,-1,-1,-1,-1,-1],"loss_changes":[2.2257977E2,6.0305115E1,1.0021066E2,1.9840197E1,1.8127243E1,3.6596405E1,2.6855133E1,0E0,0E0,0E0,0E0,0E0,0E0,0E0,0E0],"parents":[2147483647,0,0,1,1,2,2,3,3,4,4,5,5,6,6],"right_children":[2,4,6,8,10,12,14,-1,-1,-1,-1,-1,-1,-1,-1],"split_conditions":[-1.6E0,-1.5E0,1.3E1,-4.7E0,2E1,1E1,7E0,-6.8217E-4,2.4786605E-3,-3.86282E-4,-3.165014E-3,2.2653118E-3,-2.7099755E-4,5.558452E-3,3.2193745E-3],"split_indices":[25,77,80,25,28,51,51,0,0,0,0,0,0,0,0],"split_type":[0,0,0,0,0,0,0,0,0,0,0,0,0,0,0],"sum_hessian":[6.7827783E3,2.232108E3,4.5506704E3,7.938076E2,1.4383004E3,2.2742112E3,2.276459E3,4.1230365E2,3.8150394E2,2.9579965E2,1.1425007E3,1.1352795E3,1.1389318E3,7.223598E2,1.5540992E3],"tree_param":{"num_deleted":"0","num_feature":"106","num_nodes":"15","size_leaf_vector":"1"}},{"base_weights":[-1.2006411E-1,-2.4922068E-1,1.2938973E-1,-1.06330045E-1,-4.0941653E-1,2.099427E-1,-1.7675874E-1,-2.6534796E-3,-3.4268767E-5,-5.559812E-3,-3.3955583E-3,3.3823103E-3,1.0339878E-3,-2.8055157E-3,9.696731E-4],"categories":[],"categories_nodes":[],"categories_segments":[],"categories_sizes":[],"default_left":[0,0,0,0,0,0,0,0,0,0,0,0,0,0,0],"id":36,"left_children":[1,3,5,7,9,11,13,-1,-1,-1,-1,-1,-1,-1,-1],"loss_changes":[2.1853206E2,1.0224579E2,5.7106792E1,3.8669876E1,2.1378815E1,2.5012985E1,1.3738231E1,0E0,0E0,0E0,0E0,0E0,0E0,0E0,0E0],"parents":[2147483647,0,0,1,1,2,2,3,3,4,4,5,5,6,6],"right_children":[2,4,6,8,10,12,14,-1,-1,-1,-1,-1,-1,-1,-1],"split_conditions":[1.9E1,1.4E1,2.4E1,8E0,7E0,-5.1E0,2.7E1,-2.6534796E-3,-3.4268767E-5,-5.559812E-3,-3.3955583E-3,3.3823103E-3,1.0339878E-3,-2.8055157E-3,9.696731E-4],"split_indices":[27,80,81,51,51,25,28,0,0,0,0,0,0,0,0],"split_type":[0,0,0,0,0,0,0,0,0,0,0,0,0,0,0],"sum_hessian":[6.78079E3,4.467638E3,2.3131519E3,2.3622422E3,2.1053962E3,1.8315529E3,4.8159897E2,9.2745404E2,1.4347881E3,6.77362E2,1.4280343E3,8.29993E2,1.0015599E3,3.4917288E2,1.3242609E2],"tree_param":{"num_deleted":"0","num_feature":"106","num_nodes":"15","size_leaf_vector":"1"}},{"base_weights":[1.200641E-1,2.4922068E-1,-1.2938978E-1,1.0633007E-1,4.094165E-1,-2.0994273E-1,1.7675869E-1,2.6534796E-3,3.4268967E-5,5.5598114E-3,3.3955583E-3,-3.3823105E-3,-1.0339881E-3,2.8055154E-3,-9.6967415E-4],"categories":[],"categories_nodes":[],"categories_segments":[],"categories_sizes":[],"default_left":[0,0,0,0,0,0,0,0,0,0,0,0,0,0,0],"id":37,"left_children":[1,3,5,7,9,11,13,-1,-1,-1,-1,-1,-1,-1,-1],"loss_changes":[2.1853207E2,1.0224579E2,5.710678E1,3.8669872E1,2.1378784E1,2.5012985E1,1.37382345E1,0E0,0E0,0E0,0E0,0E0,0E0,0E0,0E0],"parents":[2147483647,0,0,1,1,2,2,3,3,4,4,5,5,6,6],"right_children":[2,4,6,8,10,12,14,-1,-1,-1,-1,-1,-1,-1,-1],"split_conditions":[1.9E1,1.4E1,2.4E1,8E0,7E0,-5.1E0,2.7E1,2.6534796E-3,3.4268967E-5,5.5598114E-3,3.3955583E-3,-3.3823105E-3,-1.0339881E-3,2.8055154E-3,-9.6967415E-4],"split_indices":[27,80,81,51,51,25,28,0,0,0,0,0,0,0,0],"split_type":[0,0,0,0,0,0,0,0,0,0,0,0,0,0,0],"sum_hessian":[6.78079E3,4.4676387E3,2.3131519E3,2.3622422E3,2.1053962E3,1.8315529E3,4.8159897E2,9.274541E2,1.4347881E3,6.77362E2,1.4280343E3,8.29993E2,1.0015599E3,3.4917285E2,1.3242609E2],"tree_param":{"num_deleted":"0","num_feature":"106","num_nodes":"15","size_leaf_vector":"1"}},{"base_weights":[-1.1890072E-1,-3.0140218E-1,5.47989E-2,-1.6429484E-1,-4.4170964E-1,-8.52507E-2,2.4362858E-1,-2.5079772E-3,-1.5749868E-4,-3.5241498E-3,-5.793156E-3,1.4969452E-3,-2.100132E-3,4.2214743E-3,1.8469851E-3],"categories":[],"categories_nodes":[],"categories_segments":[],"categories_sizes":[],"default_left":[0,0,0,0,0,0,0,0,0,0,0,0,0,0,0],"id":38,"left_children":[1,3,5,7,9,11,13,-1,-1,-1,-1,-1,-1,-1,-1],"loss_changes":[2.1493805E2,6.353076E1,9.190558E1,2.1503624E1,1.9867126E1,5.852894E1,1.5490074E1,0E0,0E0,0E0,0E0,0E0,0E0,0E0,0E0],"parents":[2147483647,0,0,1,1,2,2,3,3,4,4,5,5,6,6],"right_children":[2,4,6,8,10,12,14,-1,-1,-1,-1,-1,-1,-1,-1],"split_conditions":[1.5E1,1.3E1,5.45E-1,5.1E0,2.3E1,-4.7E0,-6.1E0,-2.5079772E-3,-1.5749868E-4,-3.5241498E-3,-5.793156E-3,1.4969452E-3,-2.100132E-3,4.2214743E-3,1.8469851E-3],"split_indices":[51,80,55,77,80,25,25,0,0,0,0,0,0,0,0],"split_type":[0,0,0,0,0,0,0,0,0,0,0,0,0,0,0],"sum_hessian":[6.7787666E3,3.305272E3,3.4734944E3,1.6727981E3,1.632474E3,1.9946602E3,1.4788342E3,1.056736E3,6.160622E2,9.921885E2,6.4028546E2,6.9176685E2,1.3028933E3,3.6548737E2,1.1133468E3],"tree_param":{"num_deleted":"0","num_feature":"106","num_nodes":"15","size_leaf_vector":"1"}},{"base_weights":[1.1890072E-1,3.0140218E-1,-5.4798912E-2,1.6429484E-1,4.4170964E-1,8.525069E-2,-2.4362859E-1,2.5079772E-3,1.5749868E-4,3.5241498E-3,5.793156E-3,-1.4969454E-3,2.1001322E-3,-4.221475E-3,-1.8469851E-3],"categories":[],"categories_nodes":[],"categories_segments":[],"categories_sizes":[],"default_left":[0,0,0,0,0,0,0,0,0,0,0,0,0,0,0],"id":39,"left_children":[1,3,5,7,9,11,13,-1,-1,-1,-1,-1,-1,-1,-1],"loss_changes":[2.1493806E2,6.353076E1,9.190559E1,2.1503624E1,1.9867157E1,5.852894E1,1.5490089E1,0E0,0E0,0E0,0E0,0E0,0E0,0E0,0E0],"parents":[2147483647,0,0,1,1,2,2,3,3,4,4,5,5,6,6],"right_children":[2,4,6,8,10,12,14,-1,-1,-1,-1,-1,-1,-1,-1],"split_conditions":[1.5E1,1.3E1,5.45E-1,5.1E0,2.3E1,-4.7E0,-6.1E0,2.5079772E-3,1.5749868E-4,3.5241498E-3,5.793156E-3,-1.4969454E-3,2.1001322E-3,-4.221475E-3,-1.8469851E-3],"split_indices":[51,80,55,77,80,25,25,0,0,0,0,0,0,0,0],"split_type":[0,0,0,0,0,0,0,0,0,0,0,0,0,0,0],"sum_hessian":[6.7787666E3,3.305272E3,3.4734944E3,1.6727981E3,1.632474E3,1.9946602E3,1.4788342E3,1.056736E3,6.160622E2,9.921885E2,6.4028546E2,6.9176685E2,1.3028933E3,3.6548737E2,1.1133468E3],"tree_param":{"num_deleted":"0","num_feature":"106","num_nodes":"15","size_leaf_vector":"1"}},{"base_weights":[-1.17748134E-1,1.11452535E-1,-2.535768E-1,-3.3696957E-2,2.7154443E-1,-4.6909449E-1,-1.5182061E-1,1.3782167E-3,-1.8109578E-3,4.1214013E-3,2.0185383E-3,-4.165679E-3,-6.253428E-3,-3.0804514E-3,-4.430414E-4],"categories":[],"categories_nodes":[],"categories_segments":[],"categories_sizes":[],"default_left":[0,0,0,0,0,0,0,0,0,0,0,0,0,0,0],"id":40,"left_children":[1,3,5,7,9,11,13,-1,-1,-1,-1,-1,-1,-1,-1],"loss_changes":[2.110333E2,5.8630207E1,9.326465E1,3.349775E1,1.1671928E1,1.09383545E1,4.8571075E1,0E0,0E0,0E0,0E0,0E0,0E0,0E0,0E0],"parents":[2147483647,0,0,1,1,2,2,3,3,4,4,5,5,6,6],"right_children":[2,4,6,8,10,12,14,-1,-1,-1,-1,-1,-1,-1,-1],"split_conditions":[4.62E-1,5.17E-1,-1.4E0,-4.7E0,-6.2E0,2.8E1,8E0,1.3782167E-3,-1.8109578E-3,4.1214013E-3,2.0185383E-3,-4.165679E-3,-6.253428E-3,-3.0804514E-3,-4.430414E-4],"split_indices":[3,55,77,25,25,81,51,0,0,0,0,0,0,0,0],"split_type":[0,0,0,0,0,0,0,0,0,0,0,0,0,0,0],"sum_hessian":[6.77675E3,2.5217185E3,4.2550317E3,1.3229957E3,1.1987227E3,1.3635171E3,2.8915144E3,6.1149866E2,7.1149713E2,3.9563788E2,8.030847E2,1.0232075E3,3.4030954E2,1.1779924E3,1.7135221E3],"tree_param":{"num_deleted":"0","num_feature":"106","num_nodes":"15","size_leaf_vector":"1"}},{"base_weights":[1.1774811E-1,-1.1145256E-1,2.5357676E-1,3.369694E-2,-2.7154446E-1,4.6909449E-1,1.5182057E-1,-1.378217E-3,1.8109576E-3,-4.1214013E-3,-2.0185388E-3,4.1656788E-3,6.253427E-3,3.080451E-3,4.4304112E-4],"categories":[],"categories_nodes":[],"categories_segments":[],"categories_sizes":[],"default_left":[0,0,0,0,0,0,0,0,0,0,0,0,0,0,0],"id":41,"left_children":[1,3,5,7,9,11,13,-1,-1,-1,-1,-1,-1,-1,-1],"loss_changes":[2.1103323E2,5.8630196E1,9.326465E1,3.349775E1,1.1671928E1,1.09383545E1,4.8571068E1,0E0,0E0,0E0,0E0,0E0,0E0,0E0,0E0],"parents":[2147483647,0,0,1,1,2,2,3,3,4,4,5,5,6,6],"right_children":[2,4,6,8,10,12,14,-1,-1,-1,-1,-1,-1,-1,-1],"split_conditions":[4.62E-1,5.17E-1,-1.4E0,-4.7E0,-6.2E0,2.8E1,8E0,-1.378217E-3,1.8109576E-3,-4.1214013E-3,-2.0185388E-3,4.1656788E-3,6.253427E-3,3.080451E-3,4.4304112E-4],"split_indices":[3,55,77,25,25,81,51,0,0,0,0,0,0,0,0],"split_type":[0,0,0,0,0,0,0,0,0,0,0,0,0,0,0],"sum_hessian":[6.77675E3,2.5217183E3,4.2550317E3,1.3229957E3,1.1987227E3,1.3635171E3,2.8915144E3,6.1149866E2,7.1149713E2,3.9563788E2,8.030847E2,1.0232075E3,3.4030954E2,1.1779924E3,1.7135221E3],"tree_param":{"num_deleted":"0","num_feature":"106","num_nodes":"15","size_leaf_vector":"1"}},{"base_weights":[-1.1661065E-1,-2.9597726E-1,5.4024816E-2,-1.6086507E-1,-4.34401E-1,-1.6368942E-1,1.7186545E-1,-2.464553E-3,-1.391788E-4,-3.4652539E-3,-5.6998706E-3,6.926335E-4,-2.872368E-3,6.734789E-4,3.1143352E-3],"categories":[],"categories_nodes":[],"categories_segments":[],"categories_sizes":[],"default_left":[0,0,0,0,0,0,0,0,0,0,0,0,0,0,0],"id":42,"left_children":[1,3,5,7,9,11,13,-1,-1,-1,-1,-1,-1,-1,-1],"loss_changes":[2.0738976E2,6.171283E1,8.913301E1,2.1041904E1,1.9236786E1,3.5138313E1,3.2857544E1,0E0,0E0,0E0,0E0,0E0,0E0,0E0,0E0],"parents":[2147483647,0,0,1,1,2,2,3,3,4,4,5,5,6,6],"right_children":[2,4,6,8,10,12,14,-1,-1,-1,-1,-1,-1,-1,-1],"split_conditions":[1.5E1,1.3E1,-1.4E0,5.1E0,2.3E1,-4.7E0,2.4E1,-2.464553E-3,-1.391788E-4,-3.4652539E-3,-5.6998706E-3,6.926335E-4,-2.872368E-3,6.734789E-4,3.1143352E-3],"split_indices":[51,80,77,77,80,25,51,0,0,0,0,0,0,0,0],"split_type":[0,0,0,0,0,0,0,0,0,0,0,0,0,0,0],"sum_hessian":[6.7745234E3,3.302405E3,3.4721187E3,1.6722867E3,1.6301183E3,1.2192068E3,2.2529116E3,1.0563389E3,6.159479E2,9.912367E2,6.388816E2,4.2267615E2,7.965307E2,1.2890619E3,9.6384985E2],"tree_param":{"num_deleted":"0","num_feature":"106","num_nodes":"15","size_leaf_vector":"1"}},{"base_weights":[1.1661063E-1,2.9597723E-1,-5.402483E-2,1.6086502E-1,4.3440098E-1,1.636894E-1,-1.7186545E-1,2.4645524E-3,1.3917865E-4,3.4652536E-3,5.6998697E-3,-6.926337E-4,2.872368E-3,-6.734788E-4,-3.1143355E-3],"categories":[],"categories_nodes":[],"categories_segments":[],"categories_sizes":[],"default_left":[0,0,0,0,0,0,0,0,0,0,0,0,0,0,0],"id":43,"left_children":[1,3,5,7,9,11,13,-1,-1,-1,-1,-1,-1,-1,-1],"loss_changes":[2.0738972E2,6.171283E1,8.9132996E1,2.10419E1,1.9236816E1,3.5138306E1,3.285756E1,0E0,0E0,0E0,0E0,0E0,0E0,0E0,0E0],"parents":[2147483647,0,0,1,1,2,2,3,3,4,4,5,5,6,6],"right_children":[2,4,6,8,10,12,14,-1,-1,-1,-1,-1,-1,-1,-1],"split_conditions":[1.5E1,1.3E1,-1.4E0,5.1E0,2.3E1,-4.7E0,2.4E1,2.4645524E-3,1.3917865E-4,3.4652536E-3,5.6998697E-3,-6.926337E-4,2.872368E-3,-6.734788E-4,-3.1143355E-3],"split_indices":[51,80,77,77,80,25,51,0,0,0,0,0,0,0,0],"split_type":[0,0,0,0,0,0,0,0,0,0,0,0,0,0,0],"sum_hessian":[6.774524E3,3.302405E3,3.4721187E3,1.6722869E3,1.6301183E3,1.2192068E3,2.2529119E3,1.056339E3,6.159479E2,9.912367E2,6.388816E2,4.2267615E2,7.965307E2,1.2890619E3,9.6384985E2],"tree_param":{"num_deleted":"0","num_feature":"106","num_nodes":"15","size_leaf_vector":"1"}},{"base_weights":[-1.1548516E-1,-2.4967386E-1,1.0873184E-1,-1.1056996E-1,-4.0681428E-1,1.9798662E-1,-1.5411605E-1,-2.5595059E-3,-8.641932E-5,-3.2352125E-3,-5.2271984E-3,3.3371344E-3,1.0027144E-3,3.017892E-4,-2.906406E-3],"categories":[],"categories_nodes":[],"categories_segments":[],"categories_sizes":[],"default_left":[0,0,0,0,0,0,0,0,0,0,0,0,0,0,0],"id":44,"left_children":[1,3,5,7,9,11,13,-1,-1,-1,-1,-1,-1,-1,-1],"loss_changes":[2.0381668E2,9.25845E1,5.954103E1,3.332704E1,1.903717E1,2.5086609E1,1.620164E1,0E0,0E0,0E0,0E0,0E0,0E0,0E0,0E0],"parents":[2147483647,0,0,1,1,2,2,3,3,4,4,5,5,6,6],"right_children":[2,4,6,8,10,12,14,-1,-1,-1,-1,-1,-1,-1,-1],"split_conditions":[1.8E1,1.4E1,2.2E1,8E0,2.3E1,-5.1E0,-4.6E0,-2.5595059E-3,-8.641932E-5,-3.2352125E-3,-5.2271984E-3,3.3371344E-3,1.0027144E-3,3.017892E-4,-2.906406E-3],"split_indices":[27,80,80,51,80,25,25,0,0,0,0,0,0,0,0],"split_type":[0,0,0,0,0,0,0,0,0,0,0,0,0,0,0],"sum_hessian":[6.7722554E3,4.2366216E3,2.5356335E3,2.2481858E3,1.9884359E3,1.8930581E3,6.425755E2,9.259648E2,1.322221E3,1.159196E3,8.292399E2,7.913937E2,1.1016644E3,2.737791E2,3.687964E2],"tree_param":{"num_deleted":"0","num_feature":"106","num_nodes":"15","size_leaf_vector":"1"}},{"base_weights":[1.15485184E-1,2.4967389E-1,-1.08731836E-1,1.10570006E-1,4.068143E-1,-1.9798662E-1,1.5411605E-1,2.5595066E-3,8.6419794E-5,3.2352125E-3,5.2271984E-3,-3.3371341E-3,-1.0027143E-3,-3.0178917E-4,2.906406E-3],"categories":[],"categories_nodes":[],"categories_segments":[],"categories_sizes":[],"default_left":[0,0,0,0,0,0,0,0,0,0,0,0,0,0,0],"id":45,"left_children":[1,3,5,7,9,11,13,-1,-1,-1,-1,-1,-1,-1,-1],"loss_changes":[2.0381671E2,9.25845E1,5.954103E1,3.3327034E1,1.90372E1,2.5086609E1,1.620164E1,0E0,0E0,0E0,0E0,0E0,0E0,0E0,0E0],"parents":[2147483647,0,0,1,1,2,2,3,3,4,4,5,5,6,6],"right_children":[2,4,6,8,10,12,14,-1,-1,-1,-1,-1,-1,-1,-1],"split_conditions":[1.8E1,1.4E1,2.2E1,8E0,2.3E1,-5.1E0,-4.6E0,2.5595066E-3,8.6419794E-5,3.2352125E-3,5.2271984E-3,-3.3371341E-3,-1.0027143E-3,-3.0178917E-4,2.906406E-3],"split_indices":[27,80,80,51,80,25,25,0,0,0,0,0,0,0,0],"split_type":[0,0,0,0,0,0,0,0,0,0,0,0,0,0,0],"sum_hessian":[6.7722554E3,4.2366216E3,2.5356335E3,2.2481858E3,1.9884359E3,1.8930581E3,6.425755E2,9.259648E2,1.322221E3,1.159196E3,8.292399E2,7.913937E2,1.1016644E3,2.737791E2,3.687964E2],"tree_param":{"num_deleted":"0","num_feature":"106","num_nodes":"15","size_leaf_vector":"1"}},{"base_weights":[-1.1437252E-1,-2.9075852E-1,5.3347778E-2,-1.579644E-1,-4.2698425E-1,-8.261279E-2,2.3663911E-1,-2.4270546E-3,-1.2506972E-4,-3.4052338E-3,-5.605767E-3,1.4353291E-3,-2.0275728E-3,4.0861005E-3,1.7996505E-3],"categories":[],"categories_nodes":[],"categories_segments":[],"categories_sizes":[],"default_left":[0,0,0,0,0,0,0,0,0,0,0,0,0,0,0],"id":46,"left_children":[1,3,5,7,9,11,13,-1,-1,-1,-1,-1,-1,-1,-1],"loss_changes":[2.003216E2,5.9635498E1,8.653157E1,2.0616302E1,1.8619476E1,5.420221E1,1.4338203E1,0E0,0E0,0E0,0E0,0E0,0E0,0E0,0E0],"parents":[2147483647,0,0,1,1,2,2,3,3,4,4,5,5,6,6],"right_children":[2,4,6,8,10,12,14,-1,-1,-1,-1,-1,-1,-1,-1],"split_conditions":[1.5E1,1.3E1,5.45E-1,5.1E0,2.3E1,-4.7E0,-6.1E0,-2.4270546E-3,-1.2506972E-4,-3.4052338E-3,-5.605767E-3,1.4353291E-3,-2.0275728E-3,4.0861005E-3,1.7996505E-3],"split_indices":[51,80,55,77,80,25,25,0,0,0,0,0,0,0,0],"split_type":[0,0,0,0,0,0,0,0,0,0,0,0,0,0,0],"sum_hessian":[6.769868E3,3.299333E3,3.4705352E3,1.6718032E3,1.6275299E3,1.9928453E3,1.4776897E3,1.0559536E3,6.158496E2,9.9021387E2,6.3731604E2,6.9134503E2,1.3015004E3,3.6473453E2,1.1129552E3],"tree_param":{"num_deleted":"0","num_feature":"106","num_nodes":"15","size_leaf_vector":"1"}},{"base_weights":[1.1437254E-1,2.9075855E-1,-5.3347766E-2,1.5796441E-1,4.2698428E-1,8.26128E-2,-2.3663908E-1,2.4270548E-3,1.2506972E-4,3.405234E-3,5.605768E-3,-1.435329E-3,2.0275728E-3,-4.0860996E-3,-1.7996505E-3],"categories":[],"categories_nodes":[],"categories_segments":[],"categories_sizes":[],"default_left":[0,0,0,0,0,0,0,0,0,0,0,0,0,0,0],"id":47,"left_children":[1,3,5,7,9,11,13,-1,-1,-1,-1,-1,-1,-1,-1],"loss_changes":[2.0032162E2,5.9635498E1,8.6531555E1,2.0616306E1,1.8619476E1,5.4202194E1,1.4338203E1,0E0,0E0,0E0,0E0,0E0,0E0,0E0,0E0],"parents":[2147483647,0,0,1,1,2,2,3,3,4,4,5,5,6,6],"right_children":[2,4,6,8,10,12,14,-1,-1,-1,-1,-1,-1,-1,-1],"split_conditions":[1.5E1,1.3E1,5.45E-1,5.1E0,2.3E1,-4.7E0,-6.1E0,2.4270548E-3,1.2506972E-4,3.405234E-3,5.605768E-3,-1.435329E-3,2.0275728E-3,-4.0860996E-3,-1.7996505E-3],"split_indices":[51,80,55,77,80,25,25,0,0,0,0,0,0,0,0],"split_type":[0,0,0,0,0,0,0,0,0,0,0,0,0,0,0],"sum_hessian":[6.769868E3,3.299333E3,3.4705352E3,1.6718032E3,1.6275299E3,1.9928453E3,1.4776897E3,1.0559536E3,6.158496E2,9.9021387E2,6.37316E2,6.9134503E2,1.3015004E3,3.6473456E2,1.1129552E3],"tree_param":{"num_deleted":"0","num_feature":"106","num_nodes":"15","size_leaf_vector":"1"}},{"base_weights":[-1.1326925E-1,-2.256741E-1,1.4567405E-1,-1.2920679E-1,-4.415393E-1,-1.5184854E-1,2.2568421E-1,-2.994245E-3,-3.1967263E-4,-3.772938E-3,-5.5509233E-3,-2.4077531E-3,5.5424636E-4,3.7089451E-3,1.3390727E-3],"categories":[],"categories_nodes":[],"categories_segments":[],"categories_sizes":[],"default_left":[0,0,0,0,0,0,0,0,0,0,0,0,0,0,0],"id":48,"left_children":[1,3,5,7,9,11,13,-1,-1,-1,-1,-1,-1,-1,-1],"loss_changes":[1.9704108E2,9.8234695E1,4.8819965E1,5.401052E1,1.0423065E1,8.029955E0,2.1479713E1,0E0,0E0,0E0,0E0,0E0,0E0,0E0,0E0],"parents":[2147483647,0,0,1,1,2,2,3,3,4,4,5,5,6,6],"right_children":[2,4,6,8,10,12,14,-1,-1,-1,-1,-1,-1,-1,-1],"split_conditions":[2E1,1.9E1,3.6E-1,7E0,2.7E1,2.7E1,-6.2E0,-2.994245E-3,-3.1967263E-4,-3.772938E-3,-5.5509233E-3,-2.4077531E-3,5.5424636E-4,3.7089451E-3,1.3390727E-3],"split_indices":[28,80,55,27,103,28,25,0,0,0,0,0,0,0,0],"split_type":[0,0,0,0,0,0,0,0,0,0,0,0,0,0,0],"sum_hessian":[6.767535E3,4.719133E3,2.0484026E3,3.262682E3,1.4564507E3,4.3392572E2,1.6144767E3,1.1854586E3,2.0772234E3,9.329393E2,5.235114E2,3.0353705E2,1.3038867E2,6.240531E2,9.9042365E2],"tree_param":{"num_deleted":"0","num_feature":"106","num_nodes":"15","size_leaf_vector":"1"}},{"base_weights":[1.1326925E-1,2.256741E-1,-1.4567403E-1,1.292068E-1,4.415393E-1,1.5184855E-1,-2.256842E-1,2.994245E-3,3.1967275E-4,3.7729375E-3,5.5509233E-3,2.4077534E-3,-5.5424625E-4,-3.708945E-3,-1.3390726E-3],"categories":[],"categories_nodes":[],"categories_segments":[],"categories_sizes":[],"default_left":[0,0,0,0,0,0,0,0,0,0,0,0,0,0,0],"id":49,"left_children":[1,3,5,7,9,11,13,-1,-1,-1,-1,-1,-1,-1,-1],"loss_changes":[1.970411E2,9.8234665E1,4.881995E1,5.401053E1,1.0423065E1,8.029954E0,2.1479729E1,0E0,0E0,0E0,0E0,0E0,0E0,0E0,0E0],"parents":[2147483647,0,0,1,1,2,2,3,3,4,4,5,5,6,6],"right_children":[2,4,6,8,10,12,14,-1,-1,-1,-1,-1,-1,-1,-1],"split_conditions":[2E1,1.9E1,3.6E-1,7E0,2.7E1,2.7E1,-6.2E0,2.994245E-3,3.1967275E-4,3.7729375E-3,5.5509233E-3,2.4077534E-3,-5.5424625E-4,-3.708945E-3,-1.3390726E-3],"split_indices":[28,80,55,27,103,28,25,0,0,0,0,0,0,0,0],"split_type":[0,0,0,0,0,0,0,0,0,0,0,0,0,0,0],"sum_hessian":[6.767535E3,4.719133E3,2.0484026E3,3.2626821E3,1.4564507E3,4.3392572E2,1.6144768E3,1.1854586E3,2.0772234E3,9.329392E2,5.235114E2,3.0353708E2,1.3038867E2,6.240531E2,9.9042365E2],"tree_param":{"num_deleted":"0","num_feature":"106","num_nodes":"15","size_leaf_vector":"1"}},{"base_weights":[-1.1217772E-1,-2.8566572E-1,5.270133E-2,-1.5476875E-1,-4.201214E-1,-8.12414E-2,2.3326421E-1,-2.387053E-3,-1.0727762E-4,-3.3508157E-3,-5.517179E-3,1.407469E-3,-1.992022E-3,4.0173223E-3,1.7780231E-3],"categories":[],"categories_nodes":[],"categories_segments":[],"categories_sizes":[],"default_left":[0,0,0,0,0,0,0,0,0,0,0,0,0,0,0],"id":50,"left_children":[1,3,5,7,9,11,13,-1,-1,-1,-1,-1,-1,-1,-1],"loss_changes":[1.9355807E2,5.796457E1,8.394123E1,2.0215752E1,1.8010345E1,5.221466E1,1.3739044E1,0E0,0E0,0E0,0E0,0E0,0E0,0E0,0E0],"parents":[2147483647,0,0,1,1,2,2,3,3,4,4,5,5,6,6],"right_children":[2,4,6,8,10,12,14,-1,-1,-1,-1,-1,-1,-1,-1],"split_conditions":[1.5E1,1.3E1,5.45E-1,5.1E0,2.3E1,-4.7E0,-6.1E0,-2.387053E-3,-1.0727762E-4,-3.3508157E-3,-5.517179E-3,1.407469E-3,-1.992022E-3,4.0173223E-3,1.7780231E-3],"split_indices":[51,80,55,77,80,25,25,0,0,0,0,0,0,0,0],"split_type":[0,0,0,0,0,0,0,0,0,0,0,0,0,0,0],"sum_hessian":[6.765165E3,3.2961638E3,3.4690012E3,1.6712748E3,1.6248889E3,1.9919269E3,1.4770743E3,1.0555311E3,6.1574365E2,9.891987E2,6.3569025E2,6.911225E2,1.3008043E3,3.6428842E2,1.1127859E3],"tree_param":{"num_deleted":"0","num_feature":"106","num_nodes":"15","size_leaf_vector":"1"}},{"base_weights":[1.1217774E-1,2.8566572E-1,-5.2701317E-2,1.5476876E-1,4.2012143E-1,8.1241414E-2,-2.3326421E-1,2.3870533E-3,1.0727777E-4,3.3508157E-3,5.517179E-3,-1.407469E-3,1.9920222E-3,-4.0173223E-3,-1.7780229E-3],"categories":[],"categories_nodes":[],"categories_segments":[],"categories_sizes":[],"default_left":[0,0,0,0,0,0,0,0,0,0,0,0,0,0,0],"id":51,"left_children":[1,3,5,7,9,11,13,-1,-1,-1,-1,-1,-1,-1,-1],"loss_changes":[1.9355809E2,5.796454E1,8.394123E1,2.0215755E1,1.8010345E1,5.2214664E1,1.3739044E1,0E0,0E0,0E0,0E0,0E0,0E0,0E0,0E0],"parents":[2147483647,0,0,1,1,2,2,3,3,4,4,5,5,6,6],"right_children":[2,4,6,8,10,12,14,-1,-1,-1,-1,-1,-1,-1,-1],"split_conditions":[1.5E1,1.3E1,5.45E-1,5.1E0,2.3E1,-4.7E0,-6.1E0,2.3870533E-3,1.0727777E-4,3.3508157E-3,5.517179E-3,-1.407469E-3,1.9920222E-3,-4.0173223E-3,-1.7780229E-3],"split_indices":[51,80,55,77,80,25,25,0,0,0,0,0,0,0,0],"split_type":[0,0,0,0,0,0,0,0,0,0,0,0,0,0,0],"sum_hessian":[6.765165E3,3.2961638E3,3.4690012E3,1.6712748E3,1.6248889E3,1.9919269E3,1.4770743E3,1.0555311E3,6.1574365E2,9.891987E2,6.3569025E2,6.9112256E2,1.3008043E3,3.6428842E2,1.1127859E3],"tree_param":{"num_deleted":"0","num_feature":"106","num_nodes":"15","size_leaf_vector":"1"}},{"base_weights":[-1.1109797E-1,-2.409302E-1,1.0565697E-1,-1.0625812E-1,-3.934538E-1,1.8269324E-1,-1.8233113E-1,-2.4778927E-3,-7.131338E-5,-3.1273866E-3,-5.0606416E-3,3.168831E-3,8.5857394E-4,-2.720126E-3,9.0040115E-4],"categories":[],"categories_nodes":[],"categories_segments":[],"categories_sizes":[],"default_left":[0,0,0,0,0,0,0,0,0,0,0,0,0,0,0],"id":52,"left_children":[1,3,5,7,9,11,13,-1,-1,-1,-1,-1,-1,-1,-1],"loss_changes":[1.903677E2,8.68515E1,5.626004E1,3.1536552E1,1.7868744E1,2.5961815E1,1.3101738E1,0E0,0E0,0E0,0E0,0E0,0E0,0E0,0E0],"parents":[2147483647,0,0,1,1,2,2,3,3,4,4,5,5,6,6],"right_children":[2,4,6,8,10,12,14,-1,-1,-1,-1,-1,-1,-1,-1],"split_conditions":[1.8E1,1.4E1,2.4E1,8E0,2.3E1,-5.1E0,2.7E1,-2.4778927E-3,-7.131338E-5,-3.1273866E-3,-5.0606416E-3,3.168831E-3,8.5857394E-4,-2.720126E-3,9.0040115E-4],"split_indices":[27,80,81,51,80,25,28,0,0,0,0,0,0,0,0],"split_type":[0,0,0,0,0,0,0,0,0,0,0,0,0,0,0],"sum_hessian":[6.7626904E3,4.2293037E3,2.5333867E3,2.2469956E3,1.982308E3,1.9990186E3,5.343681E2,9.2491766E2,1.322078E3,1.1568768E3,8.254312E2,8.369484E2,1.1620702E3,4.0200467E2,1.3236346E2],"tree_param":{"num_deleted":"0","num_feature":"106","num_nodes":"15","size_leaf_vector":"1"}},{"base_weights":[1.1109799E-1,2.4093023E-1,-1.0565696E-1,1.0625815E-1,3.9345384E-1,-1.8269324E-1,1.8233116E-1,2.4778931E-3,7.131371E-5,3.1273868E-3,5.060642E-3,-3.168831E-3,-8.585739E-4,2.7201262E-3,-9.00401E-4],"categories":[],"categories_nodes":[],"categories_segments":[],"categories_sizes":[],"default_left":[0,0,0,0,0,0,0,0,0,0,0,0,0,0,0],"id":53,"left_children":[1,3,5,7,9,11,13,-1,-1,-1,-1,-1,-1,-1,-1],"loss_changes":[1.903677E2,8.685149E1,5.6260036E1,3.1536547E1,1.7868744E1,2.5961807E1,1.3101742E1,0E0,0E0,0E0,0E0,0E0,0E0,0E0,0E0],"parents":[2147483647,0,0,1,1,2,2,3,3,4,4,5,5,6,6],"right_children":[2,4,6,8,10,12,14,-1,-1,-1,-1,-1,-1,-1,-1],"split_conditions":[1.8E1,1.4E1,2.4E1,8E0,2.3E1,-5.1E0,2.7E1,2.4778931E-3,7.131371E-5,3.1273868E-3,5.060642E-3,-3.168831E-3,-8.585739E-4,2.7201262E-3,-9.00401E-4],"split_indices":[27,80,81,51,80,25,28,0,0,0,0,0,0,0,0],"split_type":[0,0,0,0,0,0,0,0,0,0,0,0,0,0,0],"sum_hessian":[6.7626904E3,4.2293037E3,2.5333867E3,2.2469956E3,1.982308E3,1.9990186E3,5.343681E2,9.2491766E2,1.322078E3,1.1568768E3,8.254312E2,8.369484E2,1.1620701E3,4.0200464E2,1.3236345E2],"tree_param":{"num_deleted":"0","num_feature":"106","num_nodes":"15","size_leaf_vector":"1"}},{"base_weights":[-1.1003148E-1,-2.8066203E-1,5.2038476E-2,-3.457285E-1,-1.8269556E-2,-1.7727365E-1,1.5478365E-1,-2.8315352E-3,-5.428179E-3,-4.420957E-3,1.2431649E-4,1.7392084E-4,-3.2008858E-3,5.669953E-4,2.8413674E-3],"categories":[],"categories_nodes":[],"categories_segments":[],"categories_sizes":[],"default_left":[0,0,0,0,0,0,0,0,0,0,0,0,0,0,0],"id":54,"left_children":[1,3,5,7,9,11,13,-1,-1,-1,-1,-1,-1,-1,-1],"loss_changes":[1.8698575E2,5.622699E1,8.174449E1,3.239505E1,8.53509E0,2.9854202E1,3.037947E1,0E0,0E0,0E0,0E0,0E0,0E0,0E0,0E0],"parents":[2147483647,0,0,1,1,2,2,3,3,4,4,5,5,6,6],"right_children":[2,4,6,8,10,12,14,-1,-1,-1,-1,-1,-1,-1,-1],"split_conditions":[1.5E1,4.9E0,-2E0,2.3E1,2E0,-3.7E0,2.4E1,-2.8315352E-3,-5.428179E-3,-4.420957E-3,1.2431649E-4,1.7392084E-4,-3.2008858E-3,5.669953E-4,2.8413674E-3],"split_indices":[51,77,77,80,51,25,51,0,0,0,0,0,0,0,0],"split_type":[0,0,0,0,0,0,0,0,0,0,0,0,0,0,0],"sum_hessian":[6.760068E3,3.2927068E3,3.4673608E3,2.638188E3,6.545189E2,1.0726465E3,2.3947144E3,2.0042765E3,6.339114E2,4.33046E1,6.112143E2,4.542938E2,6.1835266E2,1.3627927E3,1.0319218E3],"tree_param":{"num_deleted":"0","num_feature":"106","num_nodes":"15","size_leaf_vector":"1"}},{"base_weights":[1.1003147E-1,2.8066203E-1,-5.2038472E-2,3.4572846E-1,1.8269544E-2,1.7727365E-1,-1.5478365E-1,2.831535E-3,5.428179E-3,4.4209566E-3,-1.2431659E-4,-1.7392072E-4,3.2008858E-3,-5.6699535E-4,-2.8413674E-3],"categories":[],"categories_nodes":[],"categories_segments":[],"categories_sizes":[],"default_left":[0,0,0,0,0,0,0,0,0,0,0,0,0,0,0],"id":55,"left_children":[1,3,5,7,9,11,13,-1,-1,-1,-1,-1,-1,-1,-1],"loss_changes":[1.8698575E2,5.622696E1,8.174449E1,3.239505E1,8.5350895E0,2.9854202E1,3.037947E1,0E0,0E0,0E0,0E0,0E0,0E0,0E0,0E0],"parents":[2147483647,0,0,1,1,2,2,3,3,4,4,5,5,6,6],"right_children":[2,4,6,8,10,12,14,-1,-1,-1,-1,-1,-1,-1,-1],"split_conditions":[1.5E1,4.9E0,-2E0,2.3E1,2E0,-3.7E0,2.4E1,2.831535E-3,5.428179E-3,4.4209566E-3,-1.2431659E-4,-1.7392072E-4,3.2008858E-3,-5.6699535E-4,-2.8413674E-3],"split_indices":[51,77,77,80,51,25,51,0,0,0,0,0,0,0,0],"split_type":[0,0,0,0,0,0,0,0,0,0,0,0,0,0,0],"sum_hessian":[6.760068E3,3.2927068E3,3.4673608E3,2.638188E3,6.545189E2,1.0726465E3,2.3947144E3,2.0042766E3,6.339114E2,4.3304596E1,6.112143E2,4.542938E2,6.1835266E2,1.3627927E3,1.0319218E3],"tree_param":{"num_deleted":"0","num_feature":"106","num_nodes":"15","size_leaf_vector":"1"}},{"base_weights":[-1.0897603E-1,-2.1768323E-1,1.412708E-1,-1.2429292E-1,-4.273029E-1,-1.4770943E-1,2.1901356E-1,-2.905265E-3,-2.9422235E-4,-3.6433197E-3,-5.3880205E-3,-2.3361181E-3,5.2378175E-4,3.5968563E-3,1.3022658E-3],"categories":[],"categories_nodes":[],"categories_segments":[],"categories_sizes":[],"default_left":[0,0,0,0,0,0,0,0,0,0,0,0,0,0,0],"id":56,"left_children":[1,3,5,7,9,11,13,-1,-1,-1,-1,-1,-1,-1,-1],"loss_changes":[1.8388458E2,9.219252E1,4.6028564E1,5.1422546E1,9.997711E0,7.482542E0,2.0108475E1,0E0,0E0,0E0,0E0,0E0,0E0,0E0,0E0],"parents":[2147483647,0,0,1,1,2,2,3,3,4,4,5,5,6,6],"right_children":[2,4,6,8,10,12,14,-1,-1,-1,-1,-1,-1,-1,-1],"split_conditions":[2E1,1.9E1,3.6E-1,7E0,2.7E1,2.7E1,-6.2E0,-2.905265E-3,-2.9422235E-4,-3.6433197E-3,-5.3880205E-3,-2.3361181E-3,5.2378175E-4,3.5968563E-3,1.3022658E-3],"split_indices":[28,80,55,27,103,28,25,0,0,0,0,0,0,0,0],"split_type":[0,0,0,0,0,0,0,0,0,0,0,0,0,0,0],"sum_hessian":[6.7574307E3,4.711072E3,2.0463589E3,3.2601807E3,1.4508911E3,4.336233E2,1.6127356E3,1.1838179E3,2.0763628E3,9.299532E2,5.209379E2,3.0325928E2,1.3036401E2,6.22852E2,9.898836E2],"tree_param":{"num_deleted":"0","num_feature":"106","num_nodes":"15","size_leaf_vector":"1"}},{"base_weights":[1.0897602E-1,2.1768321E-1,-1.412708E-1,1.2429292E-1,4.273029E-1,1.4770941E-1,-2.1901356E-1,2.9052657E-3,2.942221E-4,3.6433195E-3,5.3880205E-3,2.336118E-3,-5.237817E-4,-3.596856E-3,-1.3022659E-3],"categories":[],"categories_nodes":[],"categories_segments":[],"categories_sizes":[],"default_left":[0,0,0,0,0,0,0,0,0,0,0,0,0,0,0],"id":57,"left_children":[1,3,5,7,9,11,13,-1,-1,-1,-1,-1,-1,-1,-1],"loss_changes":[1.8388458E2,9.219249E1,4.6028557E1,5.142257E1,9.997742E0,7.482541E0,2.010846E1,0E0,0E0,0E0,0E0,0E0,0E0,0E0,0E0],"parents":[2147483647,0,0,1,1,2,2,3,3,4,4,5,5,6,6],"right_children":[2,4,6,8,10,12,14,-1,-1,-1,-1,-1,-1,-1,-1],"split_conditions":[2E1,1.9E1,3.6E-1,7E0,2.7E1,2.7E1,-6.2E0,2.9052657E-3,2.942221E-4,3.6433195E-3,5.3880205E-3,2.336118E-3,-5.237817E-4,-3.596856E-3,-1.3022659E-3],"split_indices":[28,80,55,27,103,28,25,0,0,0,0,0,0,0,0],"split_type":[0,0,0,0,0,0,0,0,0,0,0,0,0,0,0],"sum_hessian":[6.7574307E3,4.711072E3,2.0463589E3,3.2601807E3,1.4508911E3,4.336233E2,1.6127356E3,1.1838179E3,2.0763628E3,9.299532E2,5.209379E2,3.0325928E2,1.3036401E2,6.2285205E2,9.898836E2],"tree_param":{"num_deleted":"0","num_feature":"106","num_nodes":"15","size_leaf_vector":"1"}},{"base_weights":[-1.0793007E-1,-2.7577356E-1,5.1404435E-2,-3.401345E-1,-1.6504651E-2,-7.912301E-2,2.273263E-1,-2.7858182E-3,-5.344125E-3,-4.3540616E-3,1.3811345E-4,1.3522196E-3,-1.9307121E-3,3.897388E-3,1.7396531E-3],"categories":[],"categories_nodes":[],"categories_segments":[],"categories_sizes":[],"default_left":[0,0,0,0,0,0,0,0,0,0,0,0,0,0,0],"id":58,"left_children":[1,3,5,7,9,11,13,-1,-1,-1,-1,-1,-1,-1,-1],"loss_changes":[1.806864E2,5.4897415E1,7.9620125E1,3.1371246E1,8.328981E0,4.8649685E1,1.2730896E1,0E0,0E0,0E0,0E0,0E0,0E0,0E0,0E0],"parents":[2147483647,0,0,1,1,2,2,3,3,4,4,5,5,6,6],"right_children":[2,4,6,8,10,12,14,-1,-1,-1,-1,-1,-1,-1,-1],"split_conditions":[1.5E1,4.9E0,5.45E-1,2.3E1,2E0,-4.7E0,-6.1E0,-2.7858182E-3,-5.344125E-3,-4.3540616E-3,1.3811345E-4,1.3522196E-3,-1.9307121E-3,3.897388E-3,1.7396531E-3],"split_indices":[51,77,55,80,51,25,25,0,0,0,0,0,0,0,0],"split_type":[0,0,0,0,0,0,0,0,0,0,0,0,0,0,0],"sum_hessian":[6.7548047E3,3.28921E3,3.465595E3,2.6348281E3,6.543819E2,1.9897931E3,1.4758019E3,2.0027389E3,6.3208923E2,4.3259995E1,6.111219E2,6.905781E2,1.299215E3,3.6340826E2,1.1123936E3],"tree_param":{"num_deleted":"0","num_feature":"106","num_nodes":"15","size_leaf_vector":"1"}},{"base_weights":[1.0793008E-1,2.7577356E-1,-5.1404428E-2,3.401345E-1,1.6504653E-2,7.912303E-2,-2.2732629E-1,2.7858182E-3,5.344125E-3,4.354061E-3,-1.3811339E-4,-1.3522193E-3,1.9307123E-3,-3.8973882E-3,-1.7396528E-3],"categories":[],"categories_nodes":[],"categories_segments":[],"categories_sizes":[],"default_left":[0,0,0,0,0,0,0,0,0,0,0,0,0,0,0],"id":59,"left_children":[1,3,5,7,9,11,13,-1,-1,-1,-1,-1,-1,-1,-1],"loss_changes":[1.8068642E2,5.48974E1,7.962013E1,3.1371277E1,8.328979E0,4.864969E1,1.2730896E1,0E0,0E0,0E0,0E0,0E0,0E0,0E0,0E0],"parents":[2147483647,0,0,1,1,2,2,3,3,4,4,5,5,6,6],"right_children":[2,4,6,8,10,12,14,-1,-1,-1,-1,-1,-1,-1,-1],"split_conditions":[1.5E1,4.9E0,5.45E-1,2.3E1,2E0,-4.7E0,-6.1E0,2.7858182E-3,5.344125E-3,4.354061E-3,-1.3811339E-4,-1.3522193E-3,1.9307123E-3,-3.8973882E-3,-1.7396528E-3],"split_indices":[51,77,55,80,51,25,25,0,0,0,0,0,0,0,0],"split_type":[0,0,0,0,0,0,0,0,0,0,0,0,0,0,0],"sum_hessian":[6.754805E3,3.28921E3,3.465595E3,2.6348281E3,6.543819E2,1.9897931E3,1.4758019E3,2.0027389E3,6.3208923E2,4.326E1,6.111219E2,6.905781E2,1.299215E3,3.634083E2,1.1123936E3],"tree_param":{"num_deleted":"0","num_feature":"106","num_nodes":"15","size_leaf_vector":"1"}},{"base_weights":[-1.0689506E-1,-2.325018E-1,1.0261428E-1,-1.0162619E-1,-3.81128E-1,-6.963839E-2,2.243108E-1,-2.3923793E-3,-5.3626227E-5,-5.1260027E-3,-3.1360178E-3,8.9316047E-4,-1.9486484E-3,3.606197E-3,1.4020179E-3],"categories":[],"categories_nodes":[],"categories_segments":[],"categories_sizes":[],"default_left":[0,0,0,0,0,0,0,0,0,0,0,0,0,0,0],"id":60,"left_children":[1,3,5,7,9,11,13,-1,-1,-1,-1,-1,-1,-1,-1],"loss_changes":[1.777372E2,8.209038E1,5.308995E1,2.9758871E1,1.738794E1,2.0897432E1,1.6962006E1,0E0,0E0,0E0,0E0,0E0,0E0,0E0,0E0],"parents":[2147483647,0,0,1,1,2,2,3,3,4,4,5,5,6,6],"right_children":[2,4,6,8,10,12,14,-1,-1,-1,-1,-1,-1,-1,-1],"split_conditions":[1.8E1,1.4E1,-7E-1,8E0,7E0,-4.7E0,-5.5E0,-2.3923793E-3,-5.3626227E-5,-5.1260027E-3,-3.1360178E-3,8.9316047E-4,-1.9486484E-3,3.606197E-3,1.4020179E-3],"split_indices":[27,80,77,51,51,25,25,0,0,0,0,0,0,0,0],"split_type":[0,0,0,0,0,0,0,0,0,0,0,0,0,0,0],"sum_hessian":[6.752107E3,4.221243E3,2.530864E3,2.245558E3,1.9756852E3,1.0479681E3,1.4828958E3,9.236649E2,1.3218931E3,6.681731E2,1.3075121E3,4.6192142E2,5.860467E2,5.6460187E2,9.1829395E2],"tree_param":{"num_deleted":"0","num_feature":"106","num_nodes":"15","size_leaf_vector":"1"}},{"base_weights":[1.0689506E-1,2.325018E-1,-1.0261427E-1,1.0162617E-1,3.8112798E-1,6.96384E-2,-2.2431077E-1,2.3923793E-3,5.362622E-5,5.1260022E-3,3.1360178E-3,-8.931603E-4,1.9486485E-3,-3.6061965E-3,-1.4020179E-3],"categories":[],"categories_nodes":[],"categories_segments":[],"categories_sizes":[],"default_left":[0,0,0,0,0,0,0,0,0,0,0,0,0,0,0],"id":61,"left_children":[1,3,5,7,9,11,13,-1,-1,-1,-1,-1,-1,-1,-1],"loss_changes":[1.7773715E2,8.209041E1,5.308994E1,2.9758865E1,1.7387909E1,2.0897429E1,1.6962013E1,0E0,0E0,0E0,0E0,0E0,0E0,0E0,0E0],"parents":[2147483647,0,0,1,1,2,2,3,3,4,4,5,5,6,6],"right_children":[2,4,6,8,10,12,14,-1,-1,-1,-1,-1,-1,-1,-1],"split_conditions":[1.8E1,1.4E1,-7E-1,8E0,7E0,-4.7E0,-5.5E0,2.3923793E-3,5.362622E-5,5.1260022E-3,3.1360178E-3,-8.931603E-4,1.9486485E-3,-3.6061965E-3,-1.4020179E-3],"split_indices":[27,80,77,51,51,25,25,0,0,0,0,0,0,0,0],"split_type":[0,0,0,0,0,0,0,0,0,0,0,0,0,0,0],"sum_hessian":[6.752107E3,4.221243E3,2.530864E3,2.245558E3,1.9756852E3,1.0479681E3,1.4828958E3,9.236649E2,1.3218931E3,6.681731E2,1.3075121E3,4.6192142E2,5.860467E2,5.6460187E2,9.182939E2],"tree_param":{"num_deleted":"0","num_feature":"106","num_nodes":"15","size_leaf_vector":"1"}},{"base_weights":[-1.0587278E-1,-2.1184537E-1,1.3793889E-1,-1.2056064E-1,-4.1722277E-1,-1.4544319E-1,2.1420376E-1,-2.8341247E-3,-2.770658E-4,-3.5487225E-3,-5.277702E-3,-2.294307E-3,5.0096994E-4,3.5121497E-3,1.2783658E-3],"categories":[],"categories_nodes":[],"categories_segments":[],"categories_sizes":[],"default_left":[0,0,0,0,0,0,0,0,0,0,0,0,0,0,0],"id":62,"left_children":[1,3,5,7,9,11,13,-1,-1,-1,-1,-1,-1,-1,-1],"loss_changes":[1.7443726E2,8.816826E1,4.4242855E1,4.9273277E1,9.789978E0,7.145526E0,1.903386E1,0E0,0E0,0E0,0E0,0E0,0E0,0E0,0E0],"parents":[2147483647,0,0,1,1,2,2,3,3,4,4,5,5,6,6],"right_children":[2,4,6,8,10,12,14,-1,-1,-1,-1,-1,-1,-1,-1],"split_conditions":[2E1,1.9E1,3.6E-1,7E0,2.7E1,2.7E1,-6.2E0,-2.8341247E-3,-2.770658E-4,-3.5487225E-3,-5.277702E-3,-2.294307E-3,5.0096994E-4,3.5121497E-3,1.2783658E-3],"split_indices":[28,80,55,27,103,28,25,0,0,0,0,0,0,0,0],"split_type":[0,0,0,0,0,0,0,0,0,0,0,0,0,0,0],"sum_hessian":[6.749228E3,4.7045356E3,2.0446924E3,3.2580203E3,1.4465153E3,4.333945E2,1.6112979E3,1.1823342E3,2.075686E3,9.275644E2,5.189509E2,3.0305457E2,1.3033994E2,6.218077E2,9.894902E2],"tree_param":{"num_deleted":"0","num_feature":"106","num_nodes":"15","size_leaf_vector":"1"}},{"base_weights":[1.0587278E-1,2.1184538E-1,-1.379389E-1,1.2056065E-1,4.172228E-1,1.4544314E-1,-2.1420376E-1,2.8341252E-3,2.770659E-4,3.5487225E-3,5.2777026E-3,2.2943066E-3,-5.0097E-4,-3.5121497E-3,-1.278366E-3],"categories":[],"categories_nodes":[],"categories_segments":[],"categories_sizes":[],"default_left":[0,0,0,0,0,0,0,0,0,0,0,0,0,0,0],"id":63,"left_children":[1,3,5,7,9,11,13,-1,-1,-1,-1,-1,-1,-1,-1],"loss_changes":[1.7443726E2,8.816826E1,4.4242847E1,4.9273273E1,9.789978E0,7.145524E0,1.9033867E1,0E0,0E0,0E0,0E0,0E0,0E0,0E0,0E0],"parents":[2147483647,0,0,1,1,2,2,3,3,4,4,5,5,6,6],"right_children":[2,4,6,8,10,12,14,-1,-1,-1,-1,-1,-1,-1,-1],"split_conditions":[2E1,1.9E1,3.6E-1,7E0,2.7E1,2.7E1,-6.2E0,2.8341252E-3,2.770659E-4,3.5487225E-3,5.2777026E-3,2.2943066E-3,-5.0097E-4,-3.5121497E-3,-1.278366E-3],"split_indices":[28,80,55,27,103,28,25,0,0,0,0,0,0,0,0],"split_type":[0,0,0,0,0,0,0,0,0,0,0,0,0,0,0],"sum_hessian":[6.749228E3,4.7045356E3,2.0446924E3,3.2580203E3,1.4465153E3,4.3339453E2,1.6112979E3,1.1823342E3,2.075686E3,9.275644E2,5.189509E2,3.030546E2,1.3033994E2,6.218077E2,9.894902E2],"tree_param":{"num_deleted":"0","num_feature":"106","num_nodes":"15","size_leaf_vector":"1"}},{"base_weights":[-1.0485937E-1,-2.6869276E-1,5.052706E-2,-3.3211336E-1,-1.3634444E-2,-7.7218965E-2,2.2268546E-1,-2.7182198E-3,-5.2297697E-3,-4.2670663E-3,1.6220692E-4,1.3123633E-3,-1.8807481E-3,3.8026837E-3,1.7100644E-3],"categories":[],"categories_nodes":[],"categories_segments":[],"categories_sizes":[],"default_left":[0,0,0,0,0,0,0,0,0,0,0,0,0,0,0],"id":64,"left_children":[1,3,5,7,9,11,13,-1,-1,-1,-1,-1,-1,-1,-1],"loss_changes":[1.7178622E2,5.312703E1,7.6195656E1,3.0127869E1,8.086138E0,4.599057E1,1.1952644E1,0E0,0E0,0E0,0E0,0E0,0E0,0E0,0E0],"parents":[2147483647,0,0,1,1,2,2,3,3,4,4,5,5,6,6],"right_children":[2,4,6,8,10,12,14,-1,-1,-1,-1,-1,-1,-1,-1],"split_conditions":[1.5E1,4.9E0,5.45E-1,2.3E1,2E0,-4.7E0,-6.1E0,-2.7182198E-3,-5.2297697E-3,-4.2670663E-3,1.6220692E-4,1.3123633E-3,-1.8807481E-3,3.8026837E-3,1.7100644E-3],"split_indices":[51,77,55,80,51,25,25,0,0,0,0,0,0,0,0],"split_type":[0,0,0,0,0,0,0,0,0,0,0,0,0,0,0],"sum_hessian":[6.7464316E3,3.2836013E3,3.4628303E3,2.6294763E3,6.5412506E2,1.9881343E3,1.474696E3,2.0000958E3,6.2938043E2,4.319477E1,6.109303E2,6.9016046E2,1.2979738E3,3.6261856E2,1.1120774E3],"tree_param":{"num_deleted":"0","num_feature":"106","num_nodes":"15","size_leaf_vector":"1"}},{"base_weights":[1.0485937E-1,2.6869276E-1,-5.052706E-2,3.3211336E-1,1.3634415E-2,7.721895E-2,-2.2268544E-1,2.7182198E-3,5.2297697E-3,4.267066E-3,-1.622072E-4,-1.3123634E-3,1.8807477E-3,-3.8026837E-3,-1.7100641E-3],"categories":[],"categories_nodes":[],"categories_segments":[],"categories_sizes":[],"default_left":[0,0,0,0,0,0,0,0,0,0,0,0,0,0,0],"id":65,"left_children":[1,3,5,7,9,11,13,-1,-1,-1,-1,-1,-1,-1,-1],"loss_changes":[1.7178622E2,5.312703E1,7.619564E1,3.0127869E1,8.086138E0,4.5990562E1,1.1952644E1,0E0,0E0,0E0,0E0,0E0,0E0,0E0,0E0],"parents":[2147483647,0,0,1,1,2,2,3,3,4,4,5,5,6,6],"right_children":[2,4,6,8,10,12,14,-1,-1,-1,-1,-1,-1,-1,-1],"split_conditions":[1.5E1,4.9E0,5.45E-1,2.3E1,2E0,-4.7E0,-6.1E0,2.7182198E-3,5.2297697E-3,4.267066E-3,-1.622072E-4,-1.3123634E-3,1.8807477E-3,-3.8026837E-3,-1.7100641E-3],"split_indices":[51,77,55,80,51,25,25,0,0,0,0,0,0,0,0],"split_type":[0,0,0,0,0,0,0,0,0,0,0,0,0,0,0],"sum_hessian":[6.7464316E3,3.2836013E3,3.4628303E3,2.6294763E3,6.541251E2,1.9881343E3,1.474696E3,2.0000958E3,6.2938043E2,4.3194767E1,6.1093036E2,6.9016046E2,1.2979738E3,3.6261856E2,1.1120774E3],"tree_param":{"num_deleted":"0","num_feature":"106","num_nodes":"15","size_leaf_vector":"1"}},{"base_weights":[-1.03856474E-1,-2.2633998E-1,1.00294754E-1,-9.8330334E-2,-3.7202883E-1,-1.254664E-1,1.8935432E-1,-2.3284373E-3,-4.330778E-5,-5.0201355E-3,-3.0536067E-3,4.91484E-4,-2.655274E-3,3.6307552E-3,1.2900861E-3],"categories":[],"categories_nodes":[],"categories_segments":[],"categories_sizes":[],"default_left":[0,0,0,0,0,0,0,0,0,0,0,0,0,0,0],"id":66,"left_children":[1,3,5,7,9,11,13,-1,-1,-1,-1,-1,-1,-1,-1],"loss_changes":[1.6867165E2,7.8585434E1,5.0888634E1,2.8390179E1,1.6930237E1,1.7530407E1,1.8975716E1,0E0,0E0,0E0,0E0,0E0,0E0,0E0,0E0],"parents":[2147483647,0,0,1,1,2,2,3,3,4,4,5,5,6,6],"right_children":[2,4,6,8,10,12,14,-1,-1,-1,-1,-1,-1,-1,-1],"split_conditions":[1.8E1,1.4E1,-2.4E0,8E0,7E0,-4.6E0,-7.1E0,-2.3284373E-3,-4.330778E-5,-5.0201355E-3,-3.0536067E-3,4.91484E-4,-2.655274E-3,3.6307552E-3,1.2900861E-3],"split_indices":[27,80,77,51,51,25,25,0,0,0,0,0,0,0,0],"split_type":[0,0,0,0,0,0,0,0,0,0,0,0,0,0,0],"sum_hessian":[6.7435664E3,4.2147544E3,2.528812E3,2.244392E3,1.970362E3,7.1525934E2,1.8135525E3,9.2263055E2,1.3217617E3,6.657674E2,1.3045947E3,3.1864813E2,3.9661124E2,4.6626578E2,1.3472867E3],"tree_param":{"num_deleted":"0","num_feature":"106","num_nodes":"15","size_leaf_vector":"1"}},{"base_weights":[1.0385648E-1,2.2634E-1,-1.0029476E-1,9.833035E-2,3.7202886E-1,1.254664E-1,-1.8935433E-1,2.3284378E-3,4.330767E-5,5.020136E-3,3.0536067E-3,-4.914838E-4,2.6552735E-3,-3.6307552E-3,-1.2900861E-3],"categories":[],"categories_nodes":[],"categories_segments":[],"categories_sizes":[],"default_left":[0,0,0,0,0,0,0,0,0,0,0,0,0,0,0],"id":67,"left_children":[1,3,5,7,9,11,13,-1,-1,-1,-1,-1,-1,-1,-1],"loss_changes":[1.6867166E2,7.858548E1,5.0888634E1,2.8390194E1,1.6930237E1,1.7530403E1,1.8975716E1,0E0,0E0,0E0,0E0,0E0,0E0,0E0,0E0],"parents":[2147483647,0,0,1,1,2,2,3,3,4,4,5,5,6,6],"right_children":[2,4,6,8,10,12,14,-1,-1,-1,-1,-1,-1,-1,-1],"split_conditions":[1.8E1,1.4E1,-2.4E0,8E0,7E0,-4.6E0,-7.1E0,2.3284378E-3,4.330767E-5,5.020136E-3,3.0536067E-3,-4.914838E-4,2.6552735E-3,-3.6307552E-3,-1.2900861E-3],"split_indices":[27,80,77,51,51,25,25,0,0,0,0,0,0,0,0],"split_type":[0,0,0,0,0,0,0,0,0,0,0,0,0,0,0],"sum_hessian":[6.7435664E3,4.2147544E3,2.528812E3,2.244392E3,1.970362E3,7.152594E2,1.8135525E3,9.226305E2,1.3217616E3,6.6576733E2,1.3045947E3,3.1864813E2,3.9661127E2,4.6626578E2,1.3472867E3],"tree_param":{"num_deleted":"0","num_feature":"106","num_nodes":"15","size_leaf_vector":"1"}},{"base_weights":[-1.0286569E-1,1.2068682E-1,-2.1286358E-1,-6.43954E-2,2.3625323E-1,-6.333845E-2,-3.2719406E-1,5.946419E-4,-1.9972753E-3,3.5650952E-4,2.8871258E-3,9.242007E-4,-1.4522965E-3,-4.794329E-3,-2.5591694E-3],"categories":[],"categories_nodes":[],"categories_segments":[],"categories_sizes":[],"default_left":[0,0,0,0,0,0,0,0,0,0,0,0,0,0,0],"id":68,"left_children":[1,3,5,7,9,11,13,-1,-1,-1,-1,-1,-1,-1,-1],"loss_changes":[1.6580237E2,4.7581947E1,7.722754E1,1.4353855E1,1.4398888E1,2.5003765E1,2.7661316E1,0E0,0E0,0E0,0E0,0E0,0E0,0E0,0E0],"parents":[2147483647,0,0,1,1,2,2,3,3,4,4,5,5,6,6],"right_children":[2,4,6,8,10,12,14,-1,-1,-1,-1,-1,-1,-1,-1],"split_conditions":[-1.6E0,-1.2E0,1.2E1,-4.7E0,2E1,1.1E0,7E0,5.946419E-4,-1.9972753E-3,3.5650952E-4,2.8871258E-3,9.242007E-4,-1.4522965E-3,-4.794329E-3,-2.5591694E-3],"split_indices":[25,77,81,25,28,25,51,0,0,0,0,0,0,0,0],"split_type":[0,0,0,0,0,0,0,0,0,0,0,0,0,0,0],"sum_hessian":[6.7405464E3,2.222858E3,4.5176885E3,8.5461523E2,1.3682428E3,1.9582196E3,2.5594688E3,4.4651416E2,4.0810107E2,2.8398315E2,1.0842596E3,6.747344E2,1.2834852E3,8.1436444E2,1.7451044E3],"tree_param":{"num_deleted":"0","num_feature":"106","num_nodes":"15","size_leaf_vector":"1"}},{"base_weights":[1.0286568E-1,-1.2068683E-1,2.1286356E-1,6.4395405E-2,-2.3625325E-1,6.333842E-2,3.271941E-1,-5.94642E-4,1.9972755E-3,-3.5650935E-4,-2.8871258E-3,-9.2420075E-4,1.4522962E-3,4.794329E-3,2.5591694E-3],"categories":[],"categories_nodes":[],"categories_segments":[],"categories_sizes":[],"default_left":[0,0,0,0,0,0,0,0,0,0,0,0,0,0,0],"id":69,"left_children":[1,3,5,7,9,11,13,-1,-1,-1,-1,-1,-1,-1,-1],"loss_changes":[1.6580237E2,4.758195E1,7.72276E1,1.435386E1,1.4398888E1,2.500376E1,2.7661285E1,0E0,0E0,0E0,0E0,0E0,0E0,0E0,0E0],"parents":[2147483647,0,0,1,1,2,2,3,3,4,4,5,5,6,6],"right_children":[2,4,6,8,10,12,14,-1,-1,-1,-1,-1,-1,-1,-1],"split_conditions":[-1.6E0,-1.2E0,1.2E1,-4.7E0,2E1,1.1E0,7E0,-5.94642E-4,1.9972755E-3,-3.5650935E-4,-2.8871258E-3,-9.2420075E-4,1.4522962E-3,4.794329E-3,2.5591694E-3],"split_indices":[25,77,81,25,28,25,51,0,0,0,0,0,0,0,0],"split_type":[0,0,0,0,0,0,0,0,0,0,0,0,0,0,0],"sum_hessian":[6.7405464E3,2.222858E3,4.5176885E3,8.5461523E2,1.3682428E3,1.9582196E3,2.5594688E3,4.4651416E2,4.0810107E2,2.8398315E2,1.0842596E3,6.747344E2,1.2834852E3,8.1436444E2,1.7451044E3],"tree_param":{"num_deleted":"0","num_feature":"106","num_nodes":"15","size_leaf_vector":"1"}},{"base_weights":[-1.0188335E-1,-2.6159325E-1,4.944128E-2,-3.2397953E-1,-1.1161685E-2,-7.541975E-2,2.1770674E-1,-2.6457256E-3,-5.125656E-3,-4.1942466E-3,1.8309338E-4,1.2728077E-3,-1.8325571E-3,3.7173056E-3,1.6728417E-3],"categories":[],"categories_nodes":[],"categories_segments":[],"categories_sizes":[],"default_left":[0,0,0,0,0,0,0,0,0,0,0,0,0,0,0],"id":70,"left_children":[1,3,5,7,9,11,13,-1,-1,-1,-1,-1,-1,-1,-1],"loss_changes":[1.6287106E2,5.1219788E1,7.273052E1,2.9269897E1,7.8873878E0,4.346609E1,1.1389168E1,0E0,0E0,0E0,0E0,0E0,0E0,0E0,0E0],"parents":[2147483647,0,0,1,1,2,2,3,3,4,4,5,5,6,6],"right_children":[2,4,6,8,10,12,14,-1,-1,-1,-1,-1,-1,-1,-1],"split_conditions":[1.5E1,4.9E0,5.45E-1,2.3E1,2E0,-4.7E0,-6.1E0,-2.6457256E-3,-5.125656E-3,-4.1942466E-3,1.8309338E-4,1.2728077E-3,-1.8325571E-3,3.7173056E-3,1.6728417E-3],"split_indices":[51,77,55,80,51,25,25,0,0,0,0,0,0,0,0],"split_type":[0,0,0,0,0,0,0,0,0,0,0,0,0,0,0],"sum_hessian":[6.7375737E3,3.2776123E3,3.4599614E3,2.6237124E3,6.5389984E2,1.9864626E3,1.4734987E3,1.997027E3,6.2668536E2,4.3133827E1,6.1076605E2,6.897504E2,1.2967123E3,3.61837E2,1.1116616E3],"tree_param":{"num_deleted":"0","num_feature":"106","num_nodes":"15","size_leaf_vector":"1"}},{"base_weights":[1.0188334E-1,2.6159325E-1,-4.9441304E-2,3.239795E-1,1.1161694E-2,7.541973E-2,-2.1770677E-1,2.6457252E-3,5.125656E-3,4.1942466E-3,-1.8309326E-4,-1.2728077E-3,1.8325568E-3,-3.717306E-3,-1.6728421E-3],"categories":[],"categories_nodes":[],"categories_segments":[],"categories_sizes":[],"default_left":[0,0,0,0,0,0,0,0,0,0,0,0,0,0,0],"id":71,"left_children":[1,3,5,7,9,11,13,-1,-1,-1,-1,-1,-1,-1,-1],"loss_changes":[1.6287106E2,5.1219757E1,7.273053E1,2.9269897E1,7.8873873E0,4.3466084E1,1.1389191E1,0E0,0E0,0E0,0E0,0E0,0E0,0E0,0E0],"parents":[2147483647,0,0,1,1,2,2,3,3,4,4,5,5,6,6],"right_children":[2,4,6,8,10,12,14,-1,-1,-1,-1,-1,-1,-1,-1],"split_conditions":[1.5E1,4.9E0,5.45E-1,2.3E1,2E0,-4.7E0,-6.1E0,2.6457252E-3,5.125656E-3,4.1942466E-3,-1.8309326E-4,-1.2728077E-3,1.8325568E-3,-3.717306E-3,-1.6728421E-3],"split_indices":[51,77,55,80,51,25,25,0,0,0,0,0,0,0,0],"split_type":[0,0,0,0,0,0,0,0,0,0,0,0,0,0,0],"sum_hessian":[6.7375737E3,3.2776123E3,3.4599614E3,2.6237124E3,6.538999E2,1.9864626E3,1.4734987E3,1.997027E3,6.2668536E2,4.3133827E1,6.1076605E2,6.897504E2,1.2967123E3,3.6183698E2,1.1116616E3],"tree_param":{"num_deleted":"0","num_feature":"106","num_nodes":"15","size_leaf_vector":"1"}},{"base_weights":[-1.0091132E-1,-2.2034556E-1,9.800892E-2,-9.524346E-2,-3.6305287E-1,1.6998559E-1,-1.7107694E-1,-2.2690408E-3,-3.330047E-5,-4.906341E-3,-2.9775172E-3,2.9274449E-3,8.1722555E-4,-2.5478038E-3,8.247663E-4],"categories":[],"categories_nodes":[],"categories_segments":[],"categories_sizes":[],"default_left":[0,0,0,0,0,0,0,0,0,0,0,0,0,0,0],"id":72,"left_children":[1,3,5,7,9,11,13,-1,-1,-1,-1,-1,-1,-1,-1],"loss_changes":[1.6004414E2,7.5107605E1,4.8983597E1,2.7156807E1,1.623117E1,2.1588722E1,1.1352487E1,0E0,0E0,0E0,0E0,0E0,0E0,0E0,0E0],"parents":[2147483647,0,0,1,1,2,2,3,3,4,4,5,5,6,6],"right_children":[2,4,6,8,10,12,14,-1,-1,-1,-1,-1,-1,-1,-1],"split_conditions":[1.8E1,1.4E1,2.4E1,8E0,7E0,-5.1E0,2.7E1,-2.2690408E-3,-3.330047E-5,-4.906341E-3,-2.9775172E-3,2.9274449E-3,8.1722555E-4,-2.5478038E-3,8.247663E-4],"split_indices":[27,80,81,51,51,25,28,0,0,0,0,0,0,0,0],"split_type":[0,0,0,0,0,0,0,0,0,0,0,0,0,0,0],"sum_hessian":[6.734554E3,4.207944E3,2.5266106E3,2.243171E3,1.9647728E3,1.993694E3,5.329166E2,9.215851E2,1.3215858E3,6.62977E2,1.3017959E3,8.329229E2,1.1607711E3,4.0064905E2,1.3226761E2],"tree_param":{"num_deleted":"0","num_feature":"106","num_nodes":"15","size_leaf_vector":"1"}},{"base_weights":[1.0091132E-1,2.2034556E-1,-9.800892E-2,9.5243454E-2,3.6305285E-1,-1.6998558E-1,1.7107692E-1,2.2690406E-3,3.3300657E-5,4.906341E-3,2.9775172E-3,-2.9274444E-3,-8.1722555E-4,2.5478036E-3,-8.2476647E-4],"categories":[],"categories_nodes":[],"categories_segments":[],"categories_sizes":[],"default_left":[0,0,0,0,0,0,0,0,0,0,0,0,0,0,0],"id":73,"left_children":[1,3,5,7,9,11,13,-1,-1,-1,-1,-1,-1,-1,-1],"loss_changes":[1.6004413E2,7.5107605E1,4.898359E1,2.7156792E1,1.623117E1,2.1588726E1,1.13524885E1,0E0,0E0,0E0,0E0,0E0,0E0,0E0,0E0],"parents":[2147483647,0,0,1,1,2,2,3,3,4,4,5,5,6,6],"right_children":[2,4,6,8,10,12,14,-1,-1,-1,-1,-1,-1,-1,-1],"split_conditions":[1.8E1,1.4E1,2.4E1,8E0,7E0,-5.1E0,2.7E1,2.2690406E-3,3.3300657E-5,4.906341E-3,2.9775172E-3,-2.9274444E-3,-8.1722555E-4,2.5478036E-3,-8.2476647E-4],"split_indices":[27,80,81,51,51,25,28,0,0,0,0,0,0,0,0],"split_type":[0,0,0,0,0,0,0,0,0,0,0,0,0,0,0],"sum_hessian":[6.734554E3,4.207944E3,2.5266106E3,2.243171E3,1.9647728E3,1.993694E3,5.329166E2,9.215851E2,1.3215858E3,6.62977E2,1.3017959E3,8.329229E2,1.1607711E3,4.0064905E2,1.3226761E2],"tree_param":{"num_deleted":"0","num_feature":"106","num_nodes":"15","size_leaf_vector":"1"}},{"base_weights":[-9.99503E-2,-2.0075864E-1,1.3170096E-1,-1.1313262E-1,-3.9885196E-1,-1.407271E-1,2.0507006E-1,-2.7018876E-3,-2.3754373E-4,-3.3723381E-3,-5.08368E-3,-2.2085404E-3,4.5623942E-4,3.3583848E-3,1.2284659E-3],"categories":[],"categories_nodes":[],"categories_segments":[],"categories_sizes":[],"default_left":[0,0,0,0,0,0,0,0,0,0,0,0,0,0,0],"id":74,"left_children":[1,3,5,7,9,11,13,-1,-1,-1,-1,-1,-1,-1,-1],"loss_changes":[1.572448E2,8.1389206E1,4.0844185E1,4.5671677E1,9.53508E0,6.4882774E0,1.7260773E1,0E0,0E0,0E0,0E0,0E0,0E0,0E0,0E0],"parents":[2147483647,0,0,1,1,2,2,3,3,4,4,5,5,6,6],"right_children":[2,4,6,8,10,12,14,-1,-1,-1,-1,-1,-1,-1,-1],"split_conditions":[2E1,1.9E1,3.6E-1,7E0,2.7E1,2.7E1,-6.2E0,-2.7018876E-3,-2.3754373E-4,-3.3723381E-3,-5.08368E-3,-2.2085404E-3,4.5623942E-4,3.3583848E-3,1.2284659E-3],"split_indices":[28,80,55,27,103,28,25,0,0,0,0,0,0,0,0],"split_type":[0,0,0,0,0,0,0,0,0,0,0,0,0,0,0],"sum_hessian":[6.7314346E3,4.6904233E3,2.0410114E3,3.2530273E3,1.4373961E3,4.328544E2,1.608157E3,1.1790929E3,2.0739343E3,9.224616E2,5.149346E2,3.0257043E2,1.3028397E2,6.1962274E2,9.8853424E2],"tree_param":{"num_deleted":"0","num_feature":"106","num_nodes":"15","size_leaf_vector":"1"}},{"base_weights":[9.99503E-2,2.0075864E-1,-1.3170096E-1,1.13132626E-1,3.9885193E-1,1.4072709E-1,-2.0507006E-1,2.701888E-3,2.3754373E-4,3.3723381E-3,5.08368E-3,2.2085402E-3,-4.5623883E-4,-3.3583848E-3,-1.2284659E-3],"categories":[],"categories_nodes":[],"categories_segments":[],"categories_sizes":[],"default_left":[0,0,0,0,0,0,0,0,0,0,0,0,0,0,0],"id":75,"left_children":[1,3,5,7,9,11,13,-1,-1,-1,-1,-1,-1,-1,-1],"loss_changes":[1.572448E2,8.1389175E1,4.0844185E1,4.5671688E1,9.53511E0,6.4882736E0,1.7260773E1,0E0,0E0,0E0,0E0,0E0,0E0,0E0,0E0],"parents":[2147483647,0,0,1,1,2,2,3,3,4,4,5,5,6,6],"right_children":[2,4,6,8,10,12,14,-1,-1,-1,-1,-1,-1,-1,-1],"split_conditions":[2E1,1.9E1,3.6E-1,7E0,2.7E1,2.7E1,-6.2E0,2.701888E-3,2.3754373E-4,3.3723381E-3,5.08368E-3,2.2085402E-3,-4.5623883E-4,-3.3583848E-3,-1.2284659E-3],"split_indices":[28,80,55,27,103,28,25,0,0,0,0,0,0,0,0],"split_type":[0,0,0,0,0,0,0,0,0,0,0,0,0,0,0],"sum_hessian":[6.7314346E3,4.6904233E3,2.0410114E3,3.2530273E3,1.4373961E3,4.328544E2,1.608157E3,1.1790929E3,2.0739343E3,9.2246155E2,5.149346E2,3.0257043E2,1.3028397E2,6.1962274E2,9.8853424E2],"tree_param":{"num_deleted":"0","num_feature":"106","num_nodes":"15","size_leaf_vector":"1"}},{"base_weights":[-9.89979E-2,-2.5492454E-1,4.858997E-2,-3.1643102E-1,-8.482891E-3,-1.6394845E-1,1.4370161E-1,-2.5821615E-3,-5.0184685E-3,3.3849772E-4,-2.9003834E-3,1.4704568E-4,-2.9564162E-3,5.499618E-4,2.6114776E-3],"categories":[],"categories_nodes":[],"categories_segments":[],"categories_sizes":[],"default_left":[0,0,0,0,0,0,0,0,0,0,0,0,0,0,0],"id":76,"left_children":[1,3,5,7,9,11,13,-1,-1,-1,-1,-1,-1,-1,-1],"loss_changes":[1.548743E2,4.9599533E1,6.99258E1,2.813736E1,7.812271E0,2.5167204E1,2.4879158E1,0E0,0E0,0E0,0E0,0E0,0E0,0E0,0E0],"parents":[2147483647,0,0,1,1,2,2,3,3,4,4,5,5,6,6],"right_children":[2,4,6,8,10,12,14,-1,-1,-1,-1,-1,-1,-1,-1],"split_conditions":[1.5E1,4.9E0,-2E0,2.3E1,1.17E1,-3.7E0,2.4E1,-2.5821615E-3,-5.0184685E-3,3.3849772E-4,-2.9003834E-3,1.4704568E-4,-2.9564162E-3,5.499618E-4,2.6114776E-3],"split_indices":[51,77,77,80,66,25,51,0,0,0,0,0,0,0,0],"split_type":[0,0,0,0,0,0,0,0,0,0,0,0,0,0,0],"sum_hessian":[6.7283574E3,3.2713975E3,3.45696E3,2.617774E3,6.5362354E2,1.0685137E3,2.3884463E3,1.9940851E3,6.236889E2,5.6895874E2,8.466479E1,4.5379306E2,6.147206E2,1.3615527E3,1.0268934E3],"tree_param":{"num_deleted":"0","num_feature":"106","num_nodes":"15","size_leaf_vector":"1"}},{"base_weights":[9.89979E-2,2.5492454E-1,-4.8589967E-2,3.1643102E-1,8.482874E-3,1.6394845E-1,-1.4370161E-1,2.582161E-3,5.0184685E-3,-3.384979E-4,2.9003834E-3,-1.4704542E-4,2.9564162E-3,-5.499618E-4,-2.6114776E-3],"categories":[],"categories_nodes":[],"categories_segments":[],"categories_sizes":[],"default_left":[0,0,0,0,0,0,0,0,0,0,0,0,0,0,0],"id":77,"left_children":[1,3,5,7,9,11,13,-1,-1,-1,-1,-1,-1,-1,-1],"loss_changes":[1.5487427E2,4.9599518E1,6.99258E1,2.813736E1,7.8122716E0,2.5167196E1,2.4879154E1,0E0,0E0,0E0,0E0,0E0,0E0,0E0,0E0],"parents":[2147483647,0,0,1,1,2,2,3,3,4,4,5,5,6,6],"right_children":[2,4,