{"learner":{"attributes":{},"feature_names":[],"feature_types":[],"gradient_booster":{"model":{"gbtree_model_param":{"num_parallel_tree":"1","num_trees":"1500"},"iteration_indptr":[0,2,4,6,8,10,12,14,16,18,20,22,24,26,28,30,32,34,36,38,40,42,44,46,48,50,52,54,56,58,60,62,64,66,68,70,72,74,76,78,80,82,84,86,88,90,92,94,96,98,100,102,104,106,108,110,112,114,116,118,120,122,124,126,128,130,132,134,136,138,140,142,144,146,148,150,152,154,156,158,160,162,164,166,168,170,172,174,176,178,180,182,184,186,188,190,192,194,196,198,200,202,204,206,208,210,212,214,216,218,220,222,224,226,228,230,232,234,236,238,240,242,244,246,248,250,252,254,256,258,260,262,264,266,268,270,272,274,276,278,280,282,284,286,288,290,292,294,296,298,300,302,304,306,308,310,312,314,316,318,320,322,324,326,328,330,332,334,336,338,340,342,344,346,348,350,352,354,356,358,360,362,364,366,368,370,372,374,376,378,380,382,384,386,388,390,392,394,396,398,400,402,404,406,408,410,412,414,416,418,420,422,424,426,428,430,432,434,436,438,440,442,444,446,448,450,452,454,456,458,460,462,464,466,468,470,472,474,476,478,480,482,484,486,488,490,492,494,496,498,500,502,504,506,508,510,512,514,516,518,520,522,524,526,528,530,532,534,536,538,540,542,544,546,548,550,552,554,556,558,560,562,564,566,568,570,572,574,576,578,580,582,584,586,588,590,592,594,596,598,600,602,604,606,608,610,612,614,616,618,620,622,624,626,628,630,632,634,636,638,640,642,644,646,648,650,652,654,656,658,660,662,664,666,668,670,672,674,676,678,680,682,684,686,688,690,692,694,696,698,700,702,704,706,708,710,712,714,716,718,720,722,724,726,728,730,732,734,736,738,740,742,744,746,748,750,752,754,756,758,760,762,764,766,768,770,772,774,776,778,780,782,784,786,788,790,792,794,796,798,800,802,804,806,808,810,812,814,816,818,820,822,824,826,828,830,832,834,836,838,840,842,844,846,848,850,852,854,856,858,860,862,864,866,868,870,872,874,876,878,880,882,884,886,888,890,892,894,896,898,900,902,904,906,908,910,912,914,916,918,920,922,924,926,928,930,932,934,936,938,940,942,944,946,948,950,952,954,956,958,960,962,964,966,968,970,972,974,976,978,980,982,984,986,988,990,992,994,996,998,1000,1002,1004,1006,1008,1010,1012,1014,1016,1018,1020,1022,1024,1026,1028,1030,1032,1034,1036,1038,1040,1042,1044,1046,1048,1050,1052,1054,1056,1058,1060,1062,1064,1066,1068,1070,1072,1074,1076,1078,1080,1082,1084,1086,1088,1090,1092,1094,1096,1098,1100,1102,1104,1106,1108,1110,1112,1114,1116,1118,1120,1122,1124,1126,1128,1130,1132,1134,1136,1138,1140,1142,1144,1146,1148,1150,1152,1154,1156,1158,1160,1162,1164,1166,1168,1170,1172,1174,1176,1178,1180,1182,1184,1186,1188,1190,1192,1194,1196,1198,1200,1202,1204,1206,1208,1210,1212,1214,1216,1218,1220,1222,1224,1226,1228,1230,1232,1234,1236,1238,1240,1242,1244,1246,1248,1250,1252,1254,1256,1258,1260,1262,1264,1266,1268,1270,1272,1274,1276,1278,1280,1282,1284,1286,1288,1290,1292,1294,1296,1298,1300,1302,1304,1306,1308,1310,1312,1314,1316,1318,1320,1322,1324,1326,1328,1330,1332,1334,1336,1338,1340,1342,1344,1346,1348,1350,1352,1354,1356,1358,1360,1362,1364,1366,1368,1370,1372,1374,1376,1378,1380,1382,1384,1386,1388,1390,1392,1394,1396,1398,1400,1402,1404,1406,1408,1410,1412,1414,1416,1418,1420,1422,1424,1426,1428,1430,1432,1434,1436,1438,1440,1442,1444,1446,1448,1450,1452,1454,1456,1458,1460,1462,1464,1466,1468,1470,1472,1474,1476,1478,1480,1482,1484,1486,1488,1490,1492,1494,1496,1498,1500],"tree_info":[0,1,0,1,0,1,0,1,0,1,0,1,0,1,0,1,0,1,0,1,0,1,0,1,0,1,0,1,0,1,0,1,0,1,0,1,0,1,0,1,0,1,0,1,0,1,0,1,0,1,0,1,0,1,0,1,0,1,0,1,0,1,0,1,0,1,0,1,0,1,0,1,0,1,0,1,0,1,0,1,0,1,0,1,0,1,0,1,0,1,0,1,0,1,0,1,0,1,0,1,0,1,0,1,0,1,0,1,0,1,0,1,0,1,0,1,0,1,0,1,0,1,0,1,0,1,0,1,0,1,0,1,0,1,0,1,0,1,0,1,0,1,0,1,0,1,0,1,0,1,0,1,0,1,0,1,0,1,0,1,0,1,0,1,0,1,0,1,0,1,0,1,0,1,0,1,0,1,0,1,0,1,0,1,0,1,0,1,0,1,0,1,0,1,0,1,0,1,0,1,0,1,0,1,0,1,0,1,0,1,0,1,0,1,0,1,0,1,0,1,0,1,0,1,0,1,0,1,0,1,0,1,0,1,0,1,0,1,0,1,0,1,0,1,0,1,0,1,0,1,0,1,0,1,0,1,0,1,0,1,0,1,0,1,0,1,0,1,0,1,0,1,0,1,0,1,0,1,0,1,0,1,0,1,0,1,0,1,0,1,0,1,0,1,0,1,0,1,0,1,0,1,0,1,0,1,0,1,0,1,0,1,0,1,0,1,0,1,0,1,0,1,0,1,0,1,0,1,0,1,0,1,0,1,0,1,0,1,0,1,0,1,0,1,0,1,0,1,0,1,0,1,0,1,0,1,0,1,0,1,0,1,0,1,0,1,0,1,0,1,0,1,0,1,0,1,0,1,0,1,0,1,0,1,0,1,0,1,0,1,0,1,0,1,0,1,0,1,0,1,0,1,0,1,0,1,0,1,0,1,0,1,0,1,0,1,0,1,0,1,0,1,0,1,0,1,0,1,0,1,0,1,0,1,0,1,0,1,0,1,0,1,0,1,0,1,0,1,0,1,0,1,0,1,0,1,0,1,0,1,0,1,0,1,0,1,0,1,0,1,0,1,0,1,0,1,0,1,0,1,0,1,0,1,0,1,0,1,0,1,0,1,0,1,0,1,0,1,0,1,0,1,0,1,0,1,0,1,0,1,0,1,0,1,0,1,0,1,0,1,0,1,0,1,0,1,0,1,0,1,0,1,0,1,0,1,0,1,0,1,0,1,0,1,0,1,0,1,0,1,0,1,0,1,0,1,0,1,0,1,0,1,0,1,0,1,0,1,0,1,0,1,0,1,0,1,0,1,0,1,0,1,0,1,0,1,0,1,0,1,0,1,0,1,0,1,0,1,0,1,0,1,0,1,0,1,0,1,0,1,0,1,0,1,0,1,0,1,0,1,0,1,0,1,0,1,0,1,0,1,0,1,0,1,0,1,0,1,0,1,0,1,0,1,0,1,0,1,0,1,0,1,0,1,0,1,0,1,0,1,0,1,0,1,0,1,0,1,0,1,0,1,0,1,0,1,0,1,0,1,0,1,0,1,0,1,0,1,0,1,0,1,0,1,0,1,0,1,0,1,0,1,0,1,0,1,0,1,0,1,0,1,0,1,0,1,0,1,0,1,0,1,0,1,0,1,0,1,0,1,0,1,0,1,0,1,0,1,0,1,0,1,0,1,0,1,0,1,0,1,0,1,0,1,0,1,0,1,0,1,0,1,0,1,0,1,0,1,0,1,0,1,0,1,0,1,0,1,0,1,0,1,0,1,0,1,0,1,0,1,0,1,0,1,0,1,0,1,0,1,0,1,0,1,0,1,0,1,0,1,0,1,0,1,0,1,0,1,0,1,0,1,0,1,0,1,0,1,0,1,0,1,0,1,0,1,0,1,0,1,0,1,0,1,0,1,0,1,0,1,0,1,0,1,0,1,0,1,0,1,0,1,0,1,0,1,0,1,0,1,0,1,0,1,0,1,0,1,0,1,0,1,0,1,0,1,0,1,0,1,0,1,0,1,0,1,0,1,0,1,0,1,0,1,0,1,0,1,0,1,0,1,0,1,0,1,0,1,0,1,0,1,0,1,0,1,0,1,0,1,0,1,0,1,0,1,0,1,0,1,0,1,0,1,0,1,0,1,0,1,0,1,0,1,0,1,0,1,0,1,0,1,0,1,0,1,0,1,0,1,0,1,0,1,0,1,0,1,0,1,0,1,0,1,0,1,0,1,0,1,0,1,0,1,0,1,0,1,0,1,0,1,0,1,0,1,0,1,0,1,0,1,0,1,0,1,0,1,0,1,0,1,0,1,0,1,0,1,0,1,0,1,0,1,0,1,0,1,0,1,0,1,0,1,0,1,0,1,0,1,0,1,0,1,0,1,0,1,0,1,0,1,0,1,0,1,0,1,0,1,0,1,0,1,0,1,0,1,0,1,0,1,0,1,0,1,0,1,0,1,0,1,0,1,0,1,0,1,0,1,0,1,0,1,0,1,0,1,0,1,0,1,0,1,0,1,0,1,0,1,0,1,0,1,0,1,0,1,0,1,0,1,0,1,0,1,0,1,0,1,0,1,0,1,0,1,0,1,0,1,0,1,0,1,0,1,0,1,0,1,0,1,0,1,0,1,0,1,0,1,0,1,0,1,0,1,0,1,0,1,0,1,0,1,0,1,0,1,0,1,0,1,0,1,0,1,0,1,0,1,0,1,0,1,0,1,0,1,0,1,0,1,0,1,0,1,0,1,0,1,0,1,0,1,0,1,0,1,0,1,0,1,0,1,0,1,0,1,0,1,0,1,0,1,0,1,0,1,0,1,0,1,0,1,0,1,0,1,0,1,0,1,0,1,0,1,0,1,0,1,0,1,0,1,0,1,0,1,0,1,0,1,0,1,0,1,0,1,0,1,0,1,0,1,0,1,0,1,0,1,0,1,0,1,0,1,0,1,0,1,0,1,0,1,0,1,0,1,0,1,0,1,0,1,0,1,0,1,0,1,0,1,0,1,0,1,0,1,0,1,0,1,0,1,0,1,0,1,0,1,0,1,0,1,0,1,0,1,0,1,0,1,0,1,0,1,0,1,0,1,0,1,0,1,0,1,0,1,0,1,0,1,0,1,0,1,0,1,0,1,0,1,0,1,0,1,0,1,0,1,0,1,0,1,0,1,0,1,0,1,0,1,0,1,0,1,0,1,0,1,0,1,0,1,0,1,0,1,0,1,0,1,0,1,0,1,0,1,0,1,0,1,0,1,0,1,0,1,0,1,0,1,0,1,0,1,0,1,0,1,0,1,0,1,0,1,0,1,0,1,0,1,0,1,0,1,0,1,0,1,0,1,0,1,0,1,0,1,0,1,0,1,0,1,0,1,0,1,0,1],"trees":[{"base_weights":[-1.4913635E-1,-2.877457E-1,1.788276E-1,-1.23813294E-1,-4.713969E-1,-1.04273506E-1,2.9391304E-1,-2.8228476E-3,2.1196064E-4,-3.7447296E-3,-6.0378346E-3,9.059829E-4,-2.9812607E-3,4.7309417E-3,2.1309825E-3],"categories":[],"categories_nodes":[],"categories_segments":[],"categories_sizes":[],"default_left":[0,0,0,0,0,0,0,0,0,0,0,0,0,0,0],"id":0,"left_children":[1,3,5,7,9,11,13,-1,-1,-1,-1,-1,-1,-1,-1],"loss_changes":[3.0928546E2,1.4391034E2,6.589276E1,5.809904E1,2.8708801E1,2.2126202E1,2.0714882E1,0E0,0E0,0E0,0E0,0E0,0E0,0E0,0E0],"parents":[2147483647,0,0,1,1,2,2,3,3,4,4,5,5,6,6],"right_children":[2,4,6,8,10,12,14,-1,-1,-1,-1,-1,-1,-1,-1],"split_conditions":[2E1,1.4E1,-2.4E0,1E1,2.3E1,-4.9E0,-7.1E0,-2.8228476E-3,2.1196064E-4,-3.7447296E-3,-6.0378346E-3,9.059829E-4,-2.9812607E-3,4.7309417E-3,2.1309825E-3],"split_indices":[28,80,77,51,80,25,25,0,0,0,0,0,0,0,0],"split_type":[0,0,0,0,0,0,0,0,0,0,0,0,0,0,0],"sum_hessian":[6.8015E3,4.781E3,2.0205E3,2.527E3,2.254E3,5.84E2,1.4365E3,1.207E3,1.32E3,1.3035E3,9.505E2,2.915E2,2.925E2,4.45E2,9.915E2],"tree_param":{"num_deleted":"0","num_feature":"106","num_nodes":"15","size_leaf_vector":"1"}},{"base_weights":[1.4913635E-1,2.877457E-1,-1.788276E-1,1.23813294E-1,4.713969E-1,1.04273506E-1,-2.9391304E-1,2.8228476E-3,-2.1196064E-4,3.7447296E-3,6.0378346E-3,-9.059829E-4,2.9812607E-3,-4.7309417E-3,-2.1309825E-3],"categories":[],"categories_nodes":[],"categories_segments":[],"categories_sizes":[],"default_left":[0,0,0,0,0,0,0,0,0,0,0,0,0,0,0],"id":1,"left_children":[1,3,5,7,9,11,13,-1,-1,-1,-1,-1,-1,-1,-1],"loss_changes":[3.0928546E2,1.4391034E2,6.589276E1,5.809904E1,2.8708801E1,2.2126202E1,2.0714882E1,0E0,0E0,0E0,0E0,0E0,0E0,0E0,0E0],"parents":[2147483647,0,0,1,1,2,2,3,3,4,4,5,5,6,6],"right_children":[2,4,6,8,10,12,14,-1,-1,-1,-1,-1,-1,-1,-1],"split_conditions":[2E1,1.4E1,-2.4E0,1E1,2.3E1,-4.9E0,-7.1E0,2.8228476E-3,-2.1196064E-4,3.7447296E-3,6.0378346E-3,-9.059829E-4,2.9812607E-3,-4.7309417E-3,-2.1309825E-3],"split_indices":[28,80,77,51,80,25,25,0,0,0,0,0,0,0,0],"split_type":[0,0,0,0,0,0,0,0,0,0,0,0,0,0,0],"sum_hessian":[6.8015E3,4.781E3,2.0205E3,2.527E3,2.254E3,5.84E2,1.4365E3,1.207E3,1.32E3,1.3035E3,9.505E2,2.915E2,2.925E2,4.45E2,9.915E2],"tree_param":{"num_deleted":"0","num_feature":"106","num_nodes":"15","size_leaf_vector":"1"}},{"base_weights":[-1.4764786E-1,-2.8487462E-1,1.7704321E-1,-1.2257665E-1,-4.6669832E-1,-1.032348E-1,2.9098162E-1,-2.7946644E-3,2.098427E-4,-3.7073642E-3,-5.977739E-3,8.969547E-4,-2.9515752E-3,4.6838433E-3,2.1097036E-3],"categories":[],"categories_nodes":[],"categories_segments":[],"categories_sizes":[],"default_left":[0,0,0,0,0,0,0,0,0,0,0,0,0,0,0],"id":2,"left_children":[1,3,5,7,9,11,13,-1,-1,-1,-1,-1,-1,-1,-1],"loss_changes":[3.0314117E2,1.4105594E2,6.458493E1,5.6944412E1,2.8141663E1,2.1687576E1,2.030516E1,0E0,0E0,0E0,0E0,0E0,0E0,0E0,0E0],"parents":[2147483647,0,0,1,1,2,2,3,3,4,4,5,5,6,6],"right_children":[2,4,6,8,10,12,14,-1,-1,-1,-1,-1,-1,-1,-1],"split_conditions":[2E1,1.4E1,-2.4E0,1E1,2.3E1,-4.9E0,-7.1E0,-2.7946644E-3,2.098427E-4,-3.7073642E-3,-5.977739E-3,8.969547E-4,-2.9515752E-3,4.6838433E-3,2.1097036E-3],"split_indices":[28,80,77,51,80,25,25,0,0,0,0,0,0,0,0],"split_type":[0,0,0,0,0,0,0,0,0,0,0,0,0,0,0],"sum_hessian":[6.80142E3,4.780937E3,2.0204827E3,2.5269902E3,2.253947E3,5.8399713E2,1.4364856E3,1.2069904E3,1.3199999E3,1.3034817E3,9.504653E2,2.9149976E2,2.924974E2,4.4499002E2,9.914955E2],"tree_param":{"num_deleted":"0","num_feature":"106","num_nodes":"15","size_leaf_vector":"1"}},{"base_weights":[1.4764784E-1,2.848746E-1,-1.770432E-1,1.2257665E-1,4.666983E-1,1.0323486E-1,-2.9098162E-1,2.7946644E-3,-2.098427E-4,3.7073633E-3,5.977739E-3,-8.969547E-4,2.9515764E-3,-4.683843E-3,-2.1097036E-3],"categories":[],"categories_nodes":[],"categories_segments":[],"categories_sizes":[],"default_left":[0,0,0,0,0,0,0,0,0,0,0,0,0,0,0],"id":3,"left_children":[1,3,5,7,9,11,13,-1,-1,-1,-1,-1,-1,-1,-1],"loss_changes":[3.0314108E2,1.4105594E2,6.458496E1,5.6944412E1,2.8141724E1,2.168759E1,2.0305145E1,0E0,0E0,0E0,0E0,0E0,0E0,0E0,0E0],"parents":[2147483647,0,0,1,1,2,2,3,3,4,4,5,5,6,6],"right_children":[2,4,6,8,10,12,14,-1,-1,-1,-1,-1,-1,-1,-1],"split_conditions":[2E1,1.4E1,-2.4E0,1E1,2.3E1,-4.9E0,-7.1E0,2.7946644E-3,-2.098427E-4,3.7073633E-3,5.977739E-3,-8.969547E-4,2.9515764E-3,-4.683843E-3,-2.1097036E-3],"split_indices":[28,80,77,51,80,25,25,0,0,0,0,0,0,0,0],"split_type":[0,0,0,0,0,0,0,0,0,0,0,0,0,0,0],"sum_hessian":[6.80142E3,4.7809375E3,2.0204828E3,2.5269902E3,2.253947E3,5.8399713E2,1.4364856E3,1.2069904E3,1.3199999E3,1.3034817E3,9.5046533E2,2.9149976E2,2.924974E2,4.4499008E2,9.914955E2],"tree_param":{"num_deleted":"0","num_feature":"106","num_nodes":"15","size_leaf_vector":"1"}},{"base_weights":[-1.461776E-1,-2.8203943E-1,1.7527962E-1,-1.21353306E-1,-4.620678E-1,5.1404736E-3,3.598935E-1,-2.7668073E-3,2.0774623E-4,-3.6704706E-3,-5.918665E-3,1.7460762E-3,-1.7426608E-3,5.0032823E-3,2.6793217E-3],"categories":[],"categories_nodes":[],"categories_segments":[],"categories_sizes":[],"default_left":[0,0,0,0,0,0,0,0,0,0,0,0,0,0,0],"id":4,"left_children":[1,3,5,7,9,11,13,-1,-1,-1,-1,-1,-1,-1,-1],"loss_changes":[2.9712637E2,1.3827072E2,6.3491413E1,5.581395E1,2.7592407E1,3.204441E1,1.2386131E1,0E0,0E0,0E0,0E0,0E0,0E0,0E0,0E0],"parents":[2147483647,0,0,1,1,2,2,3,3,4,4,5,5,6,6],"right_children":[2,4,6,8,10,12,14,-1,-1,-1,-1,-1,-1,-1,-1],"split_conditions":[2E1,1.4E1,5.14E-1,1E1,2.3E1,-4.9E0,-6.1E0,-2.7668073E-3,2.0774623E-4,-3.6704706E-3,-5.918665E-3,1.7460762E-3,-1.7426608E-3,5.0032823E-3,2.6793217E-3],"split_indices":[28,80,55,51,80,25,25,0,0,0,0,0,0,0,0],"split_type":[0,0,0,0,0,0,0,0,0,0,0,0,0,0,0],"sum_hessian":[6.8011836E3,4.780752E3,2.0204315E3,2.5269617E3,2.2537905E3,1.0519698E3,9.684617E2,1.2069619E3,1.3199998E3,1.3034276E3,9.503628E2,5.4098395E2,5.1098584E2,3.814723E2,5.869894E2],"tree_param":{"num_deleted":"0","num_feature":"106","num_nodes":"15","size_leaf_vector":"1"}},{"base_weights":[1.461776E-1,2.8203943E-1,-1.7527963E-1,1.2135328E-1,4.6206787E-1,-5.1404955E-3,-3.5989353E-1,2.7668064E-3,-2.0774595E-4,3.6704715E-3,5.918665E-3,-1.7460763E-3,1.7426607E-3,-5.003283E-3,-2.6793217E-3],"categories":[],"categories_nodes":[],"categories_segments":[],"categories_sizes":[],"default_left":[0,0,0,0,0,0,0,0,0,0,0,0,0,0,0],"id":5,"left_children":[1,3,5,7,9,11,13,-1,-1,-1,-1,-1,-1,-1,-1],"loss_changes":[2.9712643E2,1.3827087E2,6.349141E1,5.5813908E1,2.7592285E1,3.2044415E1,1.2386147E1,0E0,0E0,0E0,0E0,0E0,0E0,0E0,0E0],"parents":[2147483647,0,0,1,1,2,2,3,3,4,4,5,5,6,6],"right_children":[2,4,6,8,10,12,14,-1,-1,-1,-1,-1,-1,-1,-1],"split_conditions":[2E1,1.4E1,5.14E-1,1E1,2.3E1,-4.9E0,-6.1E0,2.7668064E-3,-2.0774595E-4,3.6704715E-3,5.918665E-3,-1.7460763E-3,1.7426607E-3,-5.003283E-3,-2.6793217E-3],"split_indices":[28,80,55,51,80,25,25,0,0,0,0,0,0,0,0],"split_type":[0,0,0,0,0,0,0,0,0,0,0,0,0,0,0],"sum_hessian":[6.8011836E3,4.780752E3,2.0204314E3,2.5269617E3,2.2537903E3,1.0519697E3,9.684617E2,1.2069619E3,1.3199996E3,1.3034276E3,9.503628E2,5.4098395E2,5.109858E2,3.8147226E2,5.869894E2],"tree_param":{"num_deleted":"0","num_feature":"106","num_nodes":"15","size_leaf_vector":"1"}},{"base_weights":[-1.4472456E-1,-2.7923945E-1,1.7353691E-1,-1.2014301E-1,-4.5750386E-1,-1.0225562E-1,2.856571E-1,-2.7392672E-3,2.0567003E-4,-3.634043E-3,-5.860582E-3,8.7012467E-4,-2.9053893E-3,4.5988E-3,2.070896E-3],"categories":[],"categories_nodes":[],"categories_segments":[],"categories_sizes":[],"default_left":[0,0,0,0,0,0,0,0,0,0,0,0,0,0,0],"id":6,"left_children":[1,3,5,7,9,11,13,-1,-1,-1,-1,-1,-1,-1,-1],"loss_changes":[2.9124E2,1.355528E2,6.253351E1,5.4706955E1,2.7059906E1,2.0871609E1,1.9579994E1,0E0,0E0,0E0,0E0,0E0,0E0,0E0,0E0],"parents":[2147483647,0,0,1,1,2,2,3,3,4,4,5,5,6,6],"right_children":[2,4,6,8,10,12,14,-1,-1,-1,-1,-1,-1,-1,-1],"split_conditions":[2E1,1.4E1,-2.4E0,1E1,2.3E1,-4.9E0,-7.1E0,-2.7392672E-3,2.0567003E-4,-3.634043E-3,-5.860582E-3,8.7012467E-4,-2.9053893E-3,4.5988E-3,2.070896E-3],"split_indices":[28,80,77,51,80,25,25,0,0,0,0,0,0,0,0],"split_type":[0,0,0,0,0,0,0,0,0,0,0,0,0,0,0],"sum_hessian":[6.800807E3,4.7804478E3,2.020359E3,2.5269148E3,2.2535332E3,5.839791E2,1.4363799E3,1.2069153E3,1.3199994E3,1.3033387E3,9.501944E2,2.914962E2,2.9248294E2,4.4491992E2,9.9145996E2],"tree_param":{"num_deleted":"0","num_feature":"106","num_nodes":"15","size_leaf_vector":"1"}},{"base_weights":[1.447246E-1,2.792395E-1,-1.7353688E-1,1.20143056E-1,4.5750389E-1,1.02255665E-1,-2.856571E-1,2.7392681E-3,-2.0567003E-4,3.634043E-3,5.860583E-3,-8.7012467E-4,2.9053902E-3,-4.598799E-3,-2.070896E-3],"categories":[],"categories_nodes":[],"categories_segments":[],"categories_sizes":[],"default_left":[0,0,0,0,0,0,0,0,0,0,0,0,0,0,0],"id":7,"left_children":[1,3,5,7,9,11,13,-1,-1,-1,-1,-1,-1,-1,-1],"loss_changes":[2.9124E2,1.3555276E2,6.253351E1,5.470699E1,2.7059967E1,2.0871622E1,1.9579979E1,0E0,0E0,0E0,0E0,0E0,0E0,0E0,0E0],"parents":[2147483647,0,0,1,1,2,2,3,3,4,4,5,5,6,6],"right_children":[2,4,6,8,10,12,14,-1,-1,-1,-1,-1,-1,-1,-1],"split_conditions":[2E1,1.4E1,-2.4E0,1E1,2.3E1,-4.9E0,-7.1E0,2.7392681E-3,-2.0567003E-4,3.634043E-3,5.860583E-3,-8.7012467E-4,2.9053902E-3,-4.598799E-3,-2.070896E-3],"split_indices":[28,80,77,51,80,25,25,0,0,0,0,0,0,0,0],"split_type":[0,0,0,0,0,0,0,0,0,0,0,0,0,0,0],"sum_hessian":[6.8008066E3,4.7804478E3,2.020359E3,2.5269146E3,2.2535332E3,5.839791E2,1.4363799E3,1.2069152E3,1.3199994E3,1.3033387E3,9.5019434E2,2.914962E2,2.924829E2,4.4491992E2,9.914599E2],"tree_param":{"num_deleted":"0","num_feature":"106","num_nodes":"15","size_leaf_vector":"1"}},{"base_weights":[-1.432897E-1,-2.7647406E-1,1.7181326E-1,-1.18945666E-1,-4.5300478E-1,4.3581184E-3,3.5352957E-1,-2.7120432E-3,2.0361529E-4,-3.5980707E-3,-5.8034626E-3,1.707493E-3,-1.7178773E-3,4.91447E-3,2.6323195E-3],"categories":[],"categories_nodes":[],"categories_segments":[],"categories_sizes":[],"default_left":[0,0,0,0,0,0,0,0,0,0,0,0,0,0,0],"id":8,"left_children":[1,3,5,7,9,11,13,-1,-1,-1,-1,-1,-1,-1,-1],"loss_changes":[2.8547522E2,1.3289978E2,6.1503704E1,5.3623055E1,2.6543701E1,3.0889303E1,1.194236E1,0E0,0E0,0E0,0E0,0E0,0E0,0E0,0E0],"parents":[2147483647,0,0,1,1,2,2,3,3,4,4,5,5,6,6],"right_children":[2,4,6,8,10,12,14,-1,-1,-1,-1,-1,-1,-1,-1],"split_conditions":[2E1,1.4E1,5.14E-1,1E1,2.3E1,-4.9E0,-6.1E0,-2.7120432E-3,2.0361529E-4,-3.5980707E-3,-5.8034626E-3,1.707493E-3,-1.7178773E-3,4.91447E-3,2.6323195E-3],"split_indices":[28,80,55,51,80,25,25,0,0,0,0,0,0,0,0],"split_type":[0,0,0,0,0,0,0,0,0,0,0,0,0,0,0],"sum_hessian":[6.8002764E3,4.780028E3,2.0202485E3,2.5268496E3,2.2531782E3,1.0519136E3,9.68335E2,1.2068506E3,1.319999E3,1.3032161E3,9.4996204E2,5.4095056E2,5.1096298E2,3.8138235E2,5.869527E2],"tree_param":{"num_deleted":"0","num_feature":"106","num_nodes":"15","size_leaf_vector":"1"}},{"base_weights":[1.4328974E-1,2.7647412E-1,-1.7181323E-1,1.1894574E-1,4.5300478E-1,-4.358088E-3,-3.535295E-1,2.7120444E-3,-2.0361501E-4,3.5980707E-3,5.8034626E-3,-1.7074929E-3,1.7178778E-3,-4.91447E-3,-2.6323188E-3],"categories":[],"categories_nodes":[],"categories_segments":[],"categories_sizes":[],"default_left":[0,0,0,0,0,0,0,0,0,0,0,0,0,0,0],"id":9,"left_children":[1,3,5,7,9,11,13,-1,-1,-1,-1,-1,-1,-1,-1],"loss_changes":[2.8547522E2,1.3289978E2,6.1503693E1,5.362309E1,2.654364E1,3.0889307E1,1.1942375E1,0E0,0E0,0E0,0E0,0E0,0E0,0E0,0E0],"parents":[2147483647,0,0,1,1,2,2,3,3,4,4,5,5,6,6],"right_children":[2,4,6,8,10,12,14,-1,-1,-1,-1,-1,-1,-1,-1],"split_conditions":[2E1,1.4E1,5.14E-1,1E1,2.3E1,-4.9E0,-6.1E0,2.7120444E-3,-2.0361501E-4,3.5980707E-3,5.8034626E-3,-1.7074929E-3,1.7178778E-3,-4.91447E-3,-2.6323188E-3],"split_indices":[28,80,55,51,80,25,25,0,0,0,0,0,0,0,0],"split_type":[0,0,0,0,0,0,0,0,0,0,0,0,0,0,0],"sum_hessian":[6.8002764E3,4.780028E3,2.0202487E3,2.5268496E3,2.2531782E3,1.0519136E3,9.683351E2,1.2068506E3,1.319999E3,1.3032162E3,9.4996204E2,5.4095056E2,5.1096298E2,3.8138235E2,5.869527E2],"tree_param":{"num_deleted":"0","num_feature":"106","num_nodes":"15","size_leaf_vector":"1"}},{"base_weights":[-1.4187141E-1,-2.7374253E-1,1.7011E-1,-1.17761105E-1,-4.485688E-1,-8.509448E-2,2.8747058E-1,-2.6851285E-3,2.0158081E-4,-3.562543E-3,-5.747276E-3,8.731116E-4,-2.6300873E-3,3.3489703E-3,-3.6237692E-5],"categories":[],"categories_nodes":[],"categories_segments":[],"categories_sizes":[],"default_left":[0,0,0,0,0,0,0,0,0,0,0,0,0,0,0],"id":10,"left_children":[1,3,5,7,9,11,13,-1,-1,-1,-1,-1,-1,-1,-1],"loss_changes":[2.7983295E2,1.303096E2,6.0558853E1,5.2561638E1,2.6042847E1,1.957536E1,1.911753E1,0E0,0E0,0E0,0E0,0E0,0E0,0E0,0E0],"parents":[2147483647,0,0,1,1,2,2,3,3,4,4,5,5,6,6],"right_children":[2,4,6,8,10,12,14,-1,-1,-1,-1,-1,-1,-1,-1],"split_conditions":[2E1,1.4E1,-2E0,1E1,2.3E1,-4.8E0,-1.6E0,-2.6851285E-3,2.0158081E-4,-3.562543E-3,-5.747276E-3,8.731116E-4,-2.6300873E-3,3.3489703E-3,-3.6237692E-5],"split_indices":[28,80,77,51,80,25,25,0,0,0,0,0,0,0,0],"split_type":[0,0,0,0,0,0,0,0,0,0,0,0,0,0,0],"sum_hessian":[6.7996143E3,4.779496E3,2.0201178E3,2.5267676E3,2.2527288E3,6.3643774E2,1.38368E3,1.206769E3,1.3199985E3,1.3030609E3,9.496678E2,3.2348132E2,3.1295642E2,1.1896982E3,1.9398174E2],"tree_param":{"num_deleted":"0","num_feature":"106","num_nodes":"15","size_leaf_vector":"1"}},{"base_weights":[1.4187141E-1,2.737425E-1,-1.7010997E-1,1.1776107E-1,4.485688E-1,8.509452E-2,-2.8747058E-1,2.6851273E-3,-2.0158052E-4,3.562543E-3,5.747276E-3,-8.731108E-4,2.6300873E-3,-3.3489703E-3,3.6237994E-5],"categories":[],"categories_nodes":[],"categories_segments":[],"categories_sizes":[],"default_left":[0,0,0,0,0,0,0,0,0,0,0,0,0,0,0],"id":11,"left_children":[1,3,5,7,9,11,13,-1,-1,-1,-1,-1,-1,-1,-1],"loss_changes":[2.7983286E2,1.3030963E2,6.0558876E1,5.256158E1,2.6042847E1,1.9575352E1,1.9117516E1,0E0,0E0,0E0,0E0,0E0,0E0,0E0,0E0],"parents":[2147483647,0,0,1,1,2,2,3,3,4,4,5,5,6,6],"right_children":[2,4,6,8,10,12,14,-1,-1,-1,-1,-1,-1,-1,-1],"split_conditions":[2E1,1.4E1,-2E0,1E1,2.3E1,-4.8E0,-1.6E0,2.6851273E-3,-2.0158052E-4,3.562543E-3,5.747276E-3,-8.731108E-4,2.6300873E-3,-3.3489703E-3,3.6237994E-5],"split_indices":[28,80,77,51,80,25,25,0,0,0,0,0,0,0,0],"split_type":[0,0,0,0,0,0,0,0,0,0,0,0,0,0,0],"sum_hessian":[6.799614E3,4.779496E3,2.0201177E3,2.5267676E3,2.2527288E3,6.3643774E2,1.3836799E3,1.206769E3,1.3199985E3,1.3030609E3,9.496678E2,3.2348135E2,3.1295642E2,1.1896982E3,1.9398172E2],"tree_param":{"num_deleted":"0","num_feature":"106","num_nodes":"15","size_leaf_vector":"1"}},{"base_weights":[-1.4047076E-1,-2.7104414E-1,1.684225E-1,-5.041831E-1,-1.5619549E-1,3.665367E-3,3.472364E-1,-4.069574E-3,-6.140964E-3,-3.4892468E-3,-4.295244E-4,1.6714383E-3,-1.6939251E-3,4.8341514E-3,2.5810055E-3],"categories":[],"categories_nodes":[],"categories_segments":[],"categories_sizes":[],"default_left":[0,0,0,0,0,0,0,0,0,0,0,0,0,0,0],"id":12,"left_children":[1,3,5,7,9,11,13,-1,-1,-1,-1,-1,-1,-1,-1],"loss_changes":[2.7430444E2,1.2790521E2,5.9538105E1,1.6603394E1,6.990824E1,2.9814339E1,1.1638916E1,0E0,0E0,0E0,0E0,0E0,0E0,0E0,0E0],"parents":[2147483647,0,0,1,1,2,2,3,3,4,4,5,5,6,6],"right_children":[2,4,6,8,10,12,14,-1,-1,-1,-1,-1,-1,-1,-1],"split_conditions":[2E1,-1.4E0,5.14E-1,2.3E1,8E0,-4.9E0,-6.1E0,-4.069574E-3,-6.140964E-3,-3.4892468E-3,-4.295244E-4,1.6714383E-3,-1.6939251E-3,4.8341514E-3,2.5810055E-3],"split_indices":[28,77,55,1,51,25,25,0,0,0,0,0,0,0,0],"split_type":[0,0,0,0,0,0,0,0,0,0,0,0,0,0,0],"sum_hessian":[6.7988213E3,4.7788564E3,2.0199648E3,1.5760785E3,3.2027778E3,1.0518357E3,9.681292E2,8.388031E2,7.372754E2,1.1846063E3,2.0181715E3,5.409055E2,5.1093018E2,3.812481E2,5.868811E2],"tree_param":{"num_deleted":"0","num_feature":"106","num_nodes":"15","size_leaf_vector":"1"}},{"base_weights":[1.4047079E-1,2.7104416E-1,-1.6842249E-1,5.041831E-1,1.5619554E-1,-3.6653578E-3,-3.472364E-1,4.069574E-3,6.140964E-3,3.4892468E-3,4.2952507E-4,-1.6714385E-3,1.6939252E-3,-4.834152E-3,-2.581004E-3],"categories":[],"categories_nodes":[],"categories_segments":[],"categories_sizes":[],"default_left":[0,0,0,0,0,0,0,0,0,0,0,0,0,0,0],"id":13,"left_children":[1,3,5,7,9,11,13,-1,-1,-1,-1,-1,-1,-1,-1],"loss_changes":[2.743045E2,1.2790518E2,5.9538097E1,1.6603394E1,6.990821E1,2.9814342E1,1.1638939E1,0E0,0E0,0E0,0E0,0E0,0E0,0E0,0E0],"parents":[2147483647,0,0,1,1,2,2,3,3,4,4,5,5,6,6],"right_children":[2,4,6,8,10,12,14,-1,-1,-1,-1,-1,-1,-1,-1],"split_conditions":[2E1,-1.4E0,5.14E-1,2.3E1,8E0,-4.9E0,-6.1E0,4.069574E-3,6.140964E-3,3.4892468E-3,4.2952507E-4,-1.6714385E-3,1.6939252E-3,-4.834152E-3,-2.581004E-3],"split_indices":[28,77,55,1,51,25,25,0,0,0,0,0,0,0,0],"split_type":[0,0,0,0,0,0,0,0,0,0,0,0,0,0,0],"sum_hessian":[6.7988213E3,4.778856E3,2.0199648E3,1.5760785E3,3.2027776E3,1.0518357E3,9.681292E2,8.388031E2,7.372754E2,1.1846062E3,2.0181715E3,5.409055E2,5.1093018E2,3.8124808E2,5.868811E2],"tree_param":{"num_deleted":"0","num_feature":"106","num_nodes":"15","size_leaf_vector":"1"}},{"base_weights":[-1.3908495E-1,-2.683752E-1,1.6675733E-1,-1.14940494E-1,-4.4041592E-1,-1.0046904E-1,2.7541843E-1,-2.6303448E-3,2.0521521E-4,-3.4972155E-3,-5.6441794E-3,7.9091016E-4,-2.8468736E-3,4.447511E-3,1.9909407E-3],"categories":[],"categories_nodes":[],"categories_segments":[],"categories_sizes":[],"default_left":[0,0,0,0,0,0,0,0,0,0,0,0,0,0,0],"id":14,"left_children":[1,3,5,7,9,11,13,-1,-1,-1,-1,-1,-1,-1,-1],"loss_changes":[2.6889197E2,1.2610541E2,5.8705273E1,5.0710735E1,2.5136322E1,1.93699E1,1.8482025E1,0E0,0E0,0E0,0E0,0E0,0E0,0E0,0E0],"parents":[2147483647,0,0,1,1,2,2,3,3,4,4,5,5,6,6],"right_children":[2,4,6,8,10,12,14,-1,-1,-1,-1,-1,-1,-1,-1],"split_conditions":[2E1,1.4E1,-2.4E0,1E1,2.3E1,-4.8E0,-7.1E0,-2.6303448E-3,2.0521521E-4,-3.4972155E-3,-5.6441794E-3,7.9091016E-4,-2.8468736E-3,4.447511E-3,1.9909407E-3],"split_indices":[28,80,77,51,80,25,25,0,0,0,0,0,0,0,0],"split_type":[0,0,0,0,0,0,0,0,0,0,0,0,0,0,0],"sum_hessian":[6.797957E3,4.778177E3,2.01978E3,2.5265442E3,2.2516326E3,5.838974E2,1.4358827E3,1.2065454E3,1.3199988E3,1.30268E3,9.4895264E2,2.9597614E2,2.8792123E2,4.4462146E2,9.9126117E2],"tree_param":{"num_deleted":"0","num_feature":"106","num_nodes":"15","size_leaf_vector":"1"}},{"base_weights":[1.3908492E-1,2.6837513E-1,-1.667573E-1,1.14940435E-1,4.4041586E-1,1.00469075E-1,-2.754184E-1,2.6303448E-3,-2.052164E-4,3.4972148E-3,5.6441785E-3,-7.909093E-4,2.8468736E-3,-4.4475105E-3,-1.9909407E-3],"categories":[],"categories_nodes":[],"categories_segments":[],"categories_sizes":[],"default_left":[0,0,0,0,0,0,0,0,0,0,0,0,0,0,0],"id":15,"left_children":[1,3,5,7,9,11,13,-1,-1,-1,-1,-1,-1,-1,-1],"loss_changes":[2.6889188E2,1.2610538E2,5.870529E1,5.0710777E1,2.5136353E1,1.9369892E1,1.848201E1,0E0,0E0,0E0,0E0,0E0,0E0,0E0,0E0],"parents":[2147483647,0,0,1,1,2,2,3,3,4,4,5,5,6,6],"right_children":[2,4,6,8,10,12,14,-1,-1,-1,-1,-1,-1,-1,-1],"split_conditions":[2E1,1.4E1,-2.4E0,1E1,2.3E1,-4.8E0,-7.1E0,2.6303448E-3,-2.052164E-4,3.4972148E-3,5.6441785E-3,-7.909093E-4,2.8468736E-3,-4.4475105E-3,-1.9909407E-3],"split_indices":[28,80,77,51,80,25,25,0,0,0,0,0,0,0,0],"split_type":[0,0,0,0,0,0,0,0,0,0,0,0,0,0,0],"sum_hessian":[6.797957E3,4.778177E3,2.01978E3,2.5265442E3,2.2516328E3,5.838974E2,1.4358827E3,1.2065454E3,1.3199988E3,1.30268E3,9.489527E2,2.9597617E2,2.8792123E2,4.4462146E2,9.912612E2],"tree_param":{"num_deleted":"0","num_feature":"106","num_nodes":"15","size_leaf_vector":"1"}},{"base_weights":[-1.3771668E-1,-2.6574075E-1,1.651097E-1,-1.13798015E-1,-4.3615314E-1,2.9340552E-3,3.411565E-1,-2.6043477E-3,2.0316523E-4,-3.4629197E-3,-5.5905287E-3,1.6346879E-3,-1.6700062E-3,4.7497354E-3,2.5359928E-3],"categories":[],"categories_nodes":[],"categories_segments":[],"categories_sizes":[],"default_left":[0,0,0,0,0,0,0,0,0,0,0,0,0,0,0],"id":16,"left_children":[1,3,5,7,9,11,13,-1,-1,-1,-1,-1,-1,-1,-1],"loss_changes":[2.635923E2,1.2367557E2,5.768713E1,4.9709686E1,2.4676453E1,2.8746067E1,1.123111E1,0E0,0E0,0E0,0E0,0E0,0E0,0E0,0E0],"parents":[2147483647,0,0,1,1,2,2,3,3,4,4,5,5,6,6],"right_children":[2,4,6,8,10,12,14,-1,-1,-1,-1,-1,-1,-1,-1],"split_conditions":[2E1,1.4E1,5.14E-1,1E1,2.3E1,-4.9E0,-6.1E0,-2.6043477E-3,2.0316523E-4,-3.4629197E-3,-5.5905287E-3,1.6346879E-3,-1.6700062E-3,4.7497354E-3,2.5359928E-3],"split_indices":[28,80,55,51,80,25,25,0,0,0,0,0,0,0,0],"split_type":[0,0,0,0,0,0,0,0,0,0,0,0,0,0,0],"sum_hessian":[6.796904E3,4.7773394E3,2.0195645E3,2.5264124E3,2.250927E3,1.0517245E3,9.678399E2,1.2064141E3,1.3199984E3,1.3024364E3,9.4849066E2,5.4083954E2,5.1088498E2,3.8104675E2,5.8679315E2],"tree_param":{"num_deleted":"0","num_feature":"106","num_nodes":"15","size_leaf_vector":"1"}},{"base_weights":[1.377167E-1,2.6574078E-1,-1.6510966E-1,1.1379801E-1,4.3615317E-1,-2.933995E-3,-3.4115648E-1,2.6043474E-3,-2.0316523E-4,3.4629202E-3,5.5905287E-3,-1.6346874E-3,1.6700069E-3,-4.7497363E-3,-2.5359923E-3],"categories":[],"categories_nodes":[],"categories_segments":[],"categories_sizes":[],"default_left":[0,0,0,0,0,0,0,0,0,0,0,0,0,0,0],"id":17,"left_children":[1,3,5,7,9,11,13,-1,-1,-1,-1,-1,-1,-1,-1],"loss_changes":[2.635923E2,1.2367557E2,5.7687145E1,4.970969E1,2.4676453E1,2.8746069E1,1.1231125E1,0E0,0E0,0E0,0E0,0E0,0E0,0E0,0E0],"parents":[2147483647,0,0,1,1,2,2,3,3,4,4,5,5,6,6],"right_children":[2,4,6,8,10,12,14,-1,-1,-1,-1,-1,-1,-1,-1],"split_conditions":[2E1,1.4E1,5.14E-1,1E1,2.3E1,-4.9E0,-6.1E0,2.6043474E-3,-2.0316523E-4,3.4629202E-3,5.5905287E-3,-1.6346874E-3,1.6700069E-3,-4.7497363E-3,-2.5359923E-3],"split_indices":[28,80,55,51,80,25,25,0,0,0,0,0,0,0,0],"split_type":[0,0,0,0,0,0,0,0,0,0,0,0,0,0,0],"sum_hessian":[6.796904E3,4.7773394E3,2.0195645E3,2.5264124E3,2.250927E3,1.0517245E3,9.6783997E2,1.2064141E3,1.3199984E3,1.3024364E3,9.4849066E2,5.408396E2,5.1088498E2,3.8104678E2,5.8679315E2],"tree_param":{"num_deleted":"0","num_feature":"106","num_nodes":"15","size_leaf_vector":"1"}},{"base_weights":[-1.3636394E-1,-3.3455732E-1,5.5640366E-2,-4.2557636E-1,-8.951745E-2,-1.8825103E-1,1.8935466E-1,-3.5308313E-3,-6.241713E-3,-2.1151835E-3,7.6747085E-5,7.5400044E-4,-3.2363976E-3,7.1998074E-4,3.4472803E-3],"categories":[],"categories_nodes":[],"categories_segments":[],"categories_sizes":[],"default_left":[0,0,0,0,0,0,0,0,0,0,0,0,0,0,0],"id":18,"left_children":[1,3,5,7,9,11,13,-1,-1,-1,-1,-1,-1,-1,-1],"loss_changes":[2.586613E2,7.455765E1,1.1264817E2,3.4885834E1,1.0757919E1,4.3690243E1,4.065242E1,0E0,0E0,0E0,0E0,0E0,0E0,0E0,0E0],"parents":[2147483647,0,0,1,1,2,2,3,3,4,4,5,5,6,6],"right_children":[2,4,6,8,10,12,14,-1,-1,-1,-1,-1,-1,-1,-1],"split_conditions":[1.5E1,3.8E0,-1.4E0,2.3E1,6E0,-4.8E0,2.4E1,-3.5308313E-3,-6.241713E-3,-2.1151835E-3,7.6747085E-5,7.5400044E-4,-3.2363976E-3,7.1998074E-4,3.4472803E-3],"split_indices":[51,77,77,80,27,25,51,0,0,0,0,0,0,0,0],"split_type":[0,0,0,0,0,0,0,0,0,0,0,0,0,0,0],"sum_hessian":[6.7957305E3,3.3436052E3,3.4521255E3,2.4374773E3,9.0612775E2,1.2222909E3,2.2298347E3,1.7876927E3,6.4978467E2,4.0126355E2,5.0486417E2,4.1485687E2,8.07434E2,1.2711632E3,9.586715E2],"tree_param":{"num_deleted":"0","num_feature":"106","num_nodes":"15","size_leaf_vector":"1"}},{"base_weights":[1.3636392E-1,3.345573E-1,-5.5640373E-2,4.2557636E-1,8.951744E-2,1.8825102E-1,-1.8935466E-1,3.5308313E-3,6.2417123E-3,2.1151833E-3,-7.6747245E-5,-7.540004E-4,3.2363974E-3,-7.1998057E-4,-3.4472803E-3],"categories":[],"categories_nodes":[],"categories_segments":[],"categories_sizes":[],"default_left":[0,0,0,0,0,0,0,0,0,0,0,0,0,0,0],"id":19,"left_children":[1,3,5,7,9,11,13,-1,-1,-1,-1,-1,-1,-1,-1],"loss_changes":[2.586613E2,7.455768E1,1.12648155E2,3.4885803E1,1.0757919E1,4.3690235E1,4.065242E1,0E0,0E0,0E0,0E0,0E0,0E0,0E0,0E0],"parents":[2147483647,0,0,1,1,2,2,3,3,4,4,5,5,6,6],"right_children":[2,4,6,8,10,12,14,-1,-1,-1,-1,-1,-1,-1,-1],"split_conditions":[1.5E1,3.8E0,-1.4E0,2.3E1,6E0,-4.8E0,2.4E1,3.5308313E-3,6.2417123E-3,2.1151833E-3,-7.6747245E-5,-7.540004E-4,3.2363974E-3,-7.1998057E-4,-3.4472803E-3],"split_indices":[51,77,77,80,27,25,51,0,0,0,0,0,0,0,0],"split_type":[0,0,0,0,0,0,0,0,0,0,0,0,0,0,0],"sum_hessian":[6.7957305E3,3.3436052E3,3.4521255E3,2.4374773E3,9.0612775E2,1.2222909E3,2.2298347E3,1.7876927E3,6.4978467E2,4.0126355E2,5.0486417E2,4.1485687E2,8.0743396E2,1.2711632E3,9.586715E2],"tree_param":{"num_deleted":"0","num_feature":"106","num_nodes":"15","size_leaf_vector":"1"}},{"base_weights":[-1.3502537E-1,-2.6076177E-1,1.623438E-1,-4.863803E-1,-1.4974843E-1,-9.824423E-2,2.683283E-1,-4.0249047E-3,-6.0980516E-3,-3.3714415E-3,-3.9686577E-4,7.593017E-4,-2.7697955E-3,4.3379036E-3,1.9379191E-3],"categories":[],"categories_nodes":[],"categories_segments":[],"categories_sizes":[],"default_left":[0,0,0,0,0,0,0,0,0,0,0,0,0,0,0],"id":20,"left_children":[1,3,5,7,9,11,13,-1,-1,-1,-1,-1,-1,-1,-1],"loss_changes":[2.5412906E2,1.1956189E2,5.5817684E1,1.6059357E1,6.6043686E1,1.8226044E1,1.7629745E1,0E0,0E0,0E0,0E0,0E0,0E0,0E0,0E0],"parents":[2147483647,0,0,1,1,2,2,3,3,4,4,5,5,6,6],"right_children":[2,4,6,8,10,12,14,-1,-1,-1,-1,-1,-1,-1,-1],"split_conditions":[2E1,-1.4E0,-2.4E0,2.6E1,8E0,-4.8E0,-7.1E0,-4.0249047E-3,-6.0980516E-3,-3.3714415E-3,-3.9686577E-4,7.593017E-4,-2.7697955E-3,4.3379036E-3,1.9379191E-3],"split_indices":[28,77,77,1,51,25,25,0,0,0,0,0,0,0,0],"split_type":[0,0,0,0,0,0,0,0,0,0,0,0,0,0,0],"sum_hessian":[6.794557E3,4.775471E3,2.0190858E3,1.5737236E3,3.2017476E3,5.8378503E2,1.4353008E3,9.394538E2,6.342699E2,1.1839104E3,2.017837E3,2.9595618E2,2.8782886E2,4.4426495E2,9.910358E2],"tree_param":{"num_deleted":"0","num_feature":"106","num_nodes":"15","size_leaf_vector":"1"}},{"base_weights":[1.3502538E-1,2.6076177E-1,-1.6234381E-1,4.8638034E-1,1.4974843E-1,9.8244205E-2,-2.683283E-1,4.024905E-3,6.098052E-3,3.3714413E-3,3.9686597E-4,-7.593026E-4,2.769796E-3,-4.3379036E-3,-1.9379192E-3],"categories":[],"categories_nodes":[],"categories_segments":[],"categories_sizes":[],"default_left":[0,0,0,0,0,0,0,0,0,0,0,0,0,0,0],"id":21,"left_children":[1,3,5,7,9,11,13,-1,-1,-1,-1,-1,-1,-1,-1],"loss_changes":[2.5412906E2,1.1956189E2,5.581768E1,1.6059357E1,6.604365E1,1.8226057E1,1.7629753E1,0E0,0E0,0E0,0E0,0E0,0E0,0E0,0E0],"parents":[2147483647,0,0,1,1,2,2,3,3,4,4,5,5,6,6],"right_children":[2,4,6,8,10,12,14,-1,-1,-1,-1,-1,-1,-1,-1],"split_conditions":[2E1,-1.4E0,-2.4E0,2.6E1,8E0,-4.8E0,-7.1E0,4.024905E-3,6.098052E-3,3.3714413E-3,3.9686597E-4,-7.593026E-4,2.769796E-3,-4.3379036E-3,-1.9379192E-3],"split_indices":[28,77,77,1,51,25,25,0,0,0,0,0,0,0,0],"split_type":[0,0,0,0,0,0,0,0,0,0,0,0,0,0,0],"sum_hessian":[6.794557E3,4.775471E3,2.0190858E3,1.5737236E3,3.2017476E3,5.8378503E2,1.4353008E3,9.394538E2,6.342699E2,1.1839105E3,2.017837E3,2.9595618E2,2.8782886E2,4.4426495E2,9.910358E2],"tree_param":{"num_deleted":"0","num_feature":"106","num_nodes":"15","size_leaf_vector":"1"}},{"base_weights":[-1.3370298E-1,-3.2849342E-1,5.4961197E-2,-4.183185E-1,-8.678216E-2,-1.8434815E-1,1.8613726E-1,-3.470218E-3,-6.1381147E-3,-2.0658947E-3,8.639071E-5,7.3930697E-4,-3.1703734E-3,7.09542E-4,3.386887E-3],"categories":[],"categories_nodes":[],"categories_segments":[],"categories_sizes":[],"default_left":[0,0,0,0,0,0,0,0,0,0,0,0,0,0,0],"id":22,"left_children":[1,3,5,7,9,11,13,-1,-1,-1,-1,-1,-1,-1,-1],"loss_changes":[2.4970576E2,7.2545685E1,1.0840599E2,3.3753754E1,1.0370709E1,4.1930565E1,3.9167473E1,0E0,0E0,0E0,0E0,0E0,0E0,0E0,0E0],"parents":[2147483647,0,0,1,1,2,2,3,3,4,4,5,5,6,6],"right_children":[2,4,6,8,10,12,14,-1,-1,-1,-1,-1,-1,-1,-1],"split_conditions":[1.5E1,3.8E0,-1.4E0,2.3E1,6E0,-4.8E0,2.4E1,-3.470218E-3,-6.1381147E-3,-2.0658947E-3,8.639071E-5,7.3930697E-4,-3.1703734E-3,7.09542E-4,3.386887E-3],"split_indices":[51,77,77,80,27,25,51,0,0,0,0,0,0,0,0],"split_type":[0,0,0,0,0,0,0,0,0,0,0,0,0,0,0],"sum_hessian":[6.793228E3,3.3419836E3,3.4512446E3,2.4359875E3,9.05996E2,1.2218228E3,2.2294219E3,1.7870295E3,6.4895807E2,4.0115533E2,5.048406E2,4.1482016E2,8.0700256E2,1.2711289E3,9.582931E2],"tree_param":{"num_deleted":"0","num_feature":"106","num_nodes":"15","size_leaf_vector":"1"}},{"base_weights":[1.33703E-1,3.2849345E-1,-5.496122E-2,4.1831854E-1,8.678219E-2,1.8434817E-1,-1.8613729E-1,3.4702187E-3,6.138115E-3,2.065895E-3,-8.639041E-5,-7.393063E-4,3.1703734E-3,-7.095428E-4,-3.3868866E-3],"categories":[],"categories_nodes":[],"categories_segments":[],"categories_sizes":[],"default_left":[0,0,0,0,0,0,0,0,0,0,0,0,0,0,0],"id":23,"left_children":[1,3,5,7,9,11,13,-1,-1,-1,-1,-1,-1,-1,-1],"loss_changes":[2.4970586E2,7.2545685E1,1.0840604E2,3.3753723E1,1.0370708E1,4.1930557E1,3.9167442E1,0E0,0E0,0E0,0E0,0E0,0E0,0E0,0E0],"parents":[2147483647,0,0,1,1,2,2,3,3,4,4,5,5,6,6],"right_children":[2,4,6,8,10,12,14,-1,-1,-1,-1,-1,-1,-1,-1],"split_conditions":[1.5E1,3.8E0,-1.4E0,2.3E1,6E0,-4.8E0,2.4E1,3.4702187E-3,6.138115E-3,2.065895E-3,-8.639041E-5,-7.393063E-4,3.1703734E-3,-7.095428E-4,-3.3868866E-3],"split_indices":[51,77,77,80,27,25,51,0,0,0,0,0,0,0,0],"split_type":[0,0,0,0,0,0,0,0,0,0,0,0,0,0,0],"sum_hessian":[6.793228E3,3.3419836E3,3.4512446E3,2.4359875E3,9.0599603E2,1.2218228E3,2.2294219E3,1.7870295E3,6.4895807E2,4.0115536E2,5.0484064E2,4.1482016E2,8.0700256E2,1.2711288E3,9.582931E2],"tree_param":{"num_deleted":"0","num_feature":"106","num_nodes":"15","size_leaf_vector":"1"}},{"base_weights":[-1.3239504E-1,-2.5589222E-1,1.5963016E-1,-1.0858598E-1,-4.2130274E-1,2.203903E-3,3.3059186E-1,-2.5042088E-3,2.106466E-4,-3.3479112E-3,-5.3979503E-3,1.5662666E-3,-1.6126053E-3,4.6039736E-3,2.4573589E-3],"categories":[],"categories_nodes":[],"categories_segments":[],"categories_sizes":[],"default_left":[0,0,0,0,0,0,0,0,0,0,0,0,0,0,0],"id":24,"left_children":[1,3,5,7,9,11,13,-1,-1,-1,-1,-1,-1,-1,-1],"loss_changes":[2.4501926E2,1.1628528E2,5.4352024E1,4.646887E1,2.286969E1,2.6590109E1,1.0550568E1,0E0,0E0,0E0,0E0,0E0,0E0,0E0,0E0],"parents":[2147483647,0,0,1,1,2,2,3,3,4,4,5,5,6,6],"right_children":[2,4,6,8,10,12,14,-1,-1,-1,-1,-1,-1,-1,-1],"split_conditions":[2E1,1.4E1,5.14E-1,1E1,2.3E1,-4.9E0,-6.1E0,-2.5042088E-3,2.106466E-4,-3.3479112E-3,-5.3979503E-3,1.5662666E-3,-1.6126053E-3,4.6039736E-3,2.4573589E-3],"split_indices":[28,80,55,51,80,25,25,0,0,0,0,0,0,0,0],"split_type":[0,0,0,0,0,0,0,0,0,0,0,0,0,0,0],"sum_hessian":[6.7918267E3,4.773319E3,2.0185079E3,2.5257078E3,2.2476108E3,1.0513805E3,9.671274E2,1.2057323E3,1.3199756E3,1.3013308E3,9.462801E2,5.40664E2,5.1071655E2,3.8055728E2,5.8657007E2],"tree_param":{"num_deleted":"0","num_feature":"106","num_nodes":"15","size_leaf_vector":"1"}},{"base_weights":[1.3239506E-1,2.5589222E-1,-1.5963016E-1,1.0858603E-1,4.213027E-1,-2.2039118E-3,-3.3059183E-1,2.5042086E-3,-2.1064575E-4,3.3479114E-3,5.39795E-3,-1.5662666E-3,1.612605E-3,-4.603973E-3,-2.4573589E-3],"categories":[],"categories_nodes":[],"categories_segments":[],"categories_sizes":[],"default_left":[0,0,0,0,0,0,0,0,0,0,0,0,0,0,0],"id":25,"left_children":[1,3,5,7,9,11,13,-1,-1,-1,-1,-1,-1,-1,-1],"loss_changes":[2.4501929E2,1.1628528E2,5.4352024E1,4.646884E1,2.286969E1,2.6590103E1,1.055056E1,0E0,0E0,0E0,0E0,0E0,0E0,0E0,0E0],"parents":[2147483647,0,0,1,1,2,2,3,3,4,4,5,5,6,6],"right_children":[2,4,6,8,10,12,14,-1,-1,-1,-1,-1,-1,-1,-1],"split_conditions":[2E1,1.4E1,5.14E-1,1E1,2.3E1,-4.9E0,-6.1E0,2.5042086E-3,-2.1064575E-4,3.3479114E-3,5.39795E-3,-1.5662666E-3,1.612605E-3,-4.603973E-3,-2.4573589E-3],"split_indices":[28,80,55,51,80,25,25,0,0,0,0,0,0,0,0],"split_type":[0,0,0,0,0,0,0,0,0,0,0,0,0,0,0],"sum_hessian":[6.7918267E3,4.773319E3,2.0185079E3,2.5257078E3,2.2476108E3,1.0513805E3,9.671274E2,1.2057323E3,1.3199756E3,1.3013308E3,9.4628E2,5.40664E2,5.1071655E2,3.8055728E2,5.8657007E2],"tree_param":{"num_deleted":"0","num_feature":"106","num_nodes":"15","size_leaf_vector":"1"}},{"base_weights":[-1.3110289E-1,-3.226053E-1,5.432713E-2,-4.1119638E-1,-8.4352836E-2,-1.8084408E-1,1.832106E-1,-3.4121089E-3,-6.033098E-3,-3.7857456E-4,-3.2271375E-3,7.211548E-4,-3.1086497E-3,7.026234E-4,3.3286237E-3],"categories":[],"categories_nodes":[],"categories_segments":[],"categories_sizes":[],"default_left":[0,0,0,0,0,0,0,0,0,0,0,0,0,0,0],"id":26,"left_children":[1,3,5,7,9,11,13,-1,-1,-1,-1,-1,-1,-1,-1],"loss_changes":[2.4117603E2,7.048508E1,1.0463709E2,3.2535797E1,1.0038136E1,4.022375E1,3.7668022E1,0E0,0E0,0E0,0E0,0E0,0E0,0E0,0E0],"parents":[2147483647,0,0,1,1,2,2,3,3,4,4,5,5,6,6],"right_children":[2,4,6,8,10,12,14,-1,-1,-1,-1,-1,-1,-1,-1],"split_conditions":[1.5E1,3.8E0,-1.4E0,2.3E1,1.17E1,-4.8E0,2.4E1,-3.4121089E-3,-6.033098E-3,-3.7857456E-4,-3.2271375E-3,7.211548E-4,-3.1086497E-3,7.026234E-4,3.3286237E-3],"split_indices":[51,77,77,80,66,25,51,0,0,0,0,0,0,0,0],"split_type":[0,0,0,0,0,0,0,0,0,0,0,0,0,0,0],"sum_hessian":[6.7902275E3,3.3400542E3,3.4501733E3,2.4342021E3,9.058522E2,1.2212955E3,2.2288777E3,1.7862578E3,6.479443E2,7.58965E2,1.4688712E2,4.1477792E2,8.065176E2,1.2710411E3,9.578367E2],"tree_param":{"num_deleted":"0","num_feature":"106","num_nodes":"15","size_leaf_vector":"1"}},{"base_weights":[1.3110289E-1,3.2260537E-1,-5.4327145E-2,4.1119644E-1,8.435286E-2,1.8084405E-1,-1.8321061E-1,3.4121093E-3,6.033099E-3,3.785747E-4,3.227138E-3,-7.2115555E-4,3.1086497E-3,-7.026233E-4,-3.3286242E-3],"categories":[],"categories_nodes":[],"categories_segments":[],"categories_sizes":[],"default_left":[0,0,0,0,0,0,0,0,0,0,0,0,0,0,0],"id":27,"left_children":[1,3,5,7,9,11,13,-1,-1,-1,-1,-1,-1,-1,-1],"loss_changes":[2.4117606E2,7.048511E1,1.04637085E2,3.2535828E1,1.0038137E1,4.022376E1,3.7668053E1,0E0,0E0,0E0,0E0,0E0,0E0,0E0,0E0],"parents":[2147483647,0,0,1,1,2,2,3,3,4,4,5,5,6,6],"right_children":[2,4,6,8,10,12,14,-1,-1,-1,-1,-1,-1,-1,-1],"split_conditions":[1.5E1,3.8E0,-1.4E0,2.3E1,1.17E1,-4.8E0,2.4E1,3.4121093E-3,6.033099E-3,3.785747E-4,3.227138E-3,-7.2115555E-4,3.1086497E-3,-7.026233E-4,-3.3286242E-3],"split_indices":[51,77,77,80,66,25,51,0,0,0,0,0,0,0,0],"split_type":[0,0,0,0,0,0,0,0,0,0,0,0,0,0,0],"sum_hessian":[6.7902275E3,3.3400542E3,3.4501733E3,2.4342021E3,9.058521E2,1.2212954E3,2.2288777E3,1.7862578E3,6.479443E2,7.5896497E2,1.4688712E2,4.147779E2,8.065176E2,1.2710411E3,9.578366E2],"tree_param":{"num_deleted":"0","num_feature":"106","num_nodes":"15","size_leaf_vector":"1"}},{"base_weights":[-1.2982444E-1,-3.1948897E-1,5.379211E-2,-4.0726724E-1,-8.351654E-2,-1.790732E-1,1.8140137E-1,-3.3788898E-3,-5.978406E-3,-2.0134791E-3,1.0303276E-4,7.1397435E-4,-3.0784972E-3,6.9560506E-4,3.2962426E-3],"categories":[],"categories_nodes":[],"categories_segments":[],"categories_sizes":[],"default_left":[0,0,0,0,0,0,0,0,0,0,0,0,0,0,0],"id":28,"left_children":[1,3,5,7,9,11,13,-1,-1,-1,-1,-1,-1,-1,-1],"loss_changes":[2.3646982E2,6.914734E1,1.0257194E2,3.1981323E1,1.0026868E1,3.9439022E1,3.693834E1,0E0,0E0,0E0,0E0,0E0,0E0,0E0,0E0],"parents":[2147483647,0,0,1,1,2,2,3,3,4,4,5,5,6,6],"right_children":[2,4,6,8,10,12,14,-1,-1,-1,-1,-1,-1,-1,-1],"split_conditions":[1.5E1,3.8E0,-1.4E0,2.3E1,6E0,-4.8E0,2.4E1,-3.3788898E-3,-5.978406E-3,-2.0134791E-3,1.0303276E-4,7.1397435E-4,-3.0784972E-3,6.9560506E-4,3.2962426E-3],"split_indices":[51,77,77,80,27,25,51,0,0,0,0,0,0,0,0],"split_type":[0,0,0,0,0,0,0,0,0,0,0,0,0,0,0],"sum_hessian":[6.788631E3,3.3389558E3,3.449675E3,2.4331384E3,9.058175E2,1.2210542E3,2.2286208E3,1.7857932E3,6.473453E2,4.0101877E2,5.047987E2,4.1477048E2,8.062838E2,1.271036E3,9.575847E2],"tree_param":{"num_deleted":"0","num_feature":"106","num_nodes":"15","size_leaf_vector":"1"}},{"base_weights":[1.2982443E-1,3.1948897E-1,-5.379212E-2,4.0726724E-1,8.351654E-2,1.7907321E-1,-1.8140139E-1,3.3788895E-3,5.978406E-3,2.0134791E-3,-1.0303275E-4,-7.1397424E-4,3.0784975E-3,-6.956052E-4,-3.2962428E-3],"categories":[],"categories_nodes":[],"categories_segments":[],"categories_sizes":[],"default_left":[0,0,0,0,0,0,0,0,0,0,0,0,0,0,0],"id":29,"left_children":[1,3,5,7,9,11,13,-1,-1,-1,-1,-1,-1,-1,-1],"loss_changes":[2.3646977E2,6.914737E1,1.0257197E2,3.1981293E1,1.0026866E1,3.9439026E1,3.6938347E1,0E0,0E0,0E0,0E0,0E0,0E0,0E0,0E0],"parents":[2147483647,0,0,1,1,2,2,3,3,4,4,5,5,6,6],"right_children":[2,4,6,8,10,12,14,-1,-1,-1,-1,-1,-1,-1,-1],"split_conditions":[1.5E1,3.8E0,-1.4E0,2.3E1,6E0,-4.8E0,2.4E1,3.3788895E-3,5.978406E-3,2.0134791E-3,-1.0303275E-4,-7.1397424E-4,3.0784975E-3,-6.956052E-4,-3.2962428E-3],"split_indices":[51,77,77,80,27,25,51,0,0,0,0,0,0,0,0],"split_type":[0,0,0,0,0,0,0,0,0,0,0,0,0,0,0],"sum_hessian":[6.788631E3,3.338956E3,3.449675E3,2.4331384E3,9.0581744E2,1.2210542E3,2.2286208E3,1.7857932E3,6.473453E2,4.0101877E2,5.047987E2,4.1477045E2,8.062838E2,1.2710361E3,9.575847E2],"tree_param":{"num_deleted":"0","num_feature":"106","num_nodes":"15","size_leaf_vector":"1"}},{"base_weights":[-1.2856068E-1,-2.488944E-1,1.5589504E-1,-1.0511581E-1,-4.1053218E-1,2.1529887E-3,3.2292247E-1,-2.435913E-3,2.1403385E-4,-3.2650833E-3,-5.2578673E-3,1.5192395E-3,-1.5639665E-3,4.763778E-3,2.538001E-3],"categories":[],"categories_nodes":[],"categories_segments":[],"categories_sizes":[],"default_left":[0,0,0,0,0,0,0,0,0,0,0,0,0,0,0],"id":30,"left_children":[1,3,5,7,9,11,13,-1,-1,-1,-1,-1,-1,-1,-1],"loss_changes":[2.3238615E2,1.10821594E2,5.1832344E1,4.4260742E1,2.1572968E1,2.5005901E1,1.0140884E1,0E0,0E0,0E0,0E0,0E0,0E0,0E0,0E0],"parents":[2147483647,0,0,1,1,2,2,3,3,4,4,5,5,6,6],"right_children":[2,4,6,8,10,12,14,-1,-1,-1,-1,-1,-1,-1,-1],"split_conditions":[2E1,1.4E1,5.14E-1,1E1,2.3E1,-4.9E0,-7.1E0,-2.435913E-3,2.1403385E-4,-3.2650833E-3,-5.2578673E-3,1.5192395E-3,-1.5639665E-3,4.763778E-3,2.538001E-3],"split_indices":[28,80,55,51,80,25,25,0,0,0,0,0,0,0,0],"split_type":[0,0,0,0,0,0,0,0,0,0,0,0,0,0,0],"sum_hessian":[6.7869053E3,4.769417E3,2.0174882E3,2.5250276E3,2.2443892E3,1.0510509E3,9.664373E2,1.2051085E3,1.3199192E3,1.3002808E3,9.441085E2,5.4051E2,5.1054086E2,2.9830115E2,6.6813617E2],"tree_param":{"num_deleted":"0","num_feature":"106","num_nodes":"15","size_leaf_vector":"1"}},{"base_weights":[1.2856069E-1,2.4889438E-1,-1.5589502E-1,1.05115816E-1,4.1053218E-1,-2.152966E-3,-3.2292247E-1,2.435913E-3,-2.1403366E-4,3.2650833E-3,5.2578673E-3,-1.5192392E-3,1.5639669E-3,-4.7637774E-3,-2.538001E-3],"categories":[],"categories_nodes":[],"categories_segments":[],"categories_sizes":[],"default_left":[0,0,0,0,0,0,0,0,0,0,0,0,0,0,0],"id":31,"left_children":[1,3,5,7,9,11,13,-1,-1,-1,-1,-1,-1,-1,-1],"loss_changes":[2.3238615E2,1.1082156E2,5.1832344E1,4.4260735E1,2.1572998E1,2.50059E1,1.01409E1,0E0,0E0,0E0,0E0,0E0,0E0,0E0,0E0],"parents":[2147483647,0,0,1,1,2,2,3,3,4,4,5,5,6,6],"right_children":[2,4,6,8,10,12,14,-1,-1,-1,-1,-1,-1,-1,-1],"split_conditions":[2E1,1.4E1,5.14E-1,1E1,2.3E1,-4.9E0,-7.1E0,2.435913E-3,-2.1403366E-4,3.2650833E-3,5.2578673E-3,-1.5192392E-3,1.5639669E-3,-4.7637774E-3,-2.538001E-3],"split_indices":[28,80,55,51,80,25,25,0,0,0,0,0,0,0,0],"split_type":[0,0,0,0,0,0,0,0,0,0,0,0,0,0,0],"sum_hessian":[6.7869053E3,4.769417E3,2.0174882E3,2.5250276E3,2.2443892E3,1.0510509E3,9.6643726E2,1.2051085E3,1.3199192E3,1.3002808E3,9.4410846E2,5.4051E2,5.1054086E2,2.9830112E2,6.6813617E2],"tree_param":{"num_deleted":"0","num_feature":"106","num_nodes":"15","size_leaf_vector":"1"}},{"base_weights":[-1.2731138E-1,-3.1380188E-1,5.317182E-2,-4.0040055E-1,-8.116902E-2,-1.7567664E-1,1.7855307E-1,-3.3226502E-3,-5.8781663E-3,-3.5168996E-4,-3.1704588E-3,6.9651083E-4,-3.018835E-3,6.884796E-4,3.2401718E-3],"categories":[],"categories_nodes":[],"categories_segments":[],"categories_sizes":[],"default_left":[0,0,0,0,0,0,0,0,0,0,0,0,0,0,0],"id":32,"left_children":[1,3,5,7,9,11,13,-1,-1,-1,-1,-1,-1,-1,-1],"loss_changes":[2.2842322E2,6.720599E1,9.900627E1,3.0860016E1,9.82637E0,3.783925E1,3.5547935E1,0E0,0E0,0E0,0E0,0E0,0E0,0E0,0E0],"parents":[2147483647,0,0,1,1,2,2,3,3,4,4,5,5,6,6],"right_children":[2,4,6,8,10,12,14,-1,-1,-1,-1,-1,-1,-1,-1],"split_conditions":[1.5E1,3.8E0,-1.4E0,2.3E1,1.17E1,-4.8E0,2.4E1,-3.3226502E-3,-5.8781663E-3,-3.5168996E-4,-3.1704588E-3,6.9651083E-4,-3.018835E-3,6.884796E-4,3.2401718E-3],"split_indices":[51,77,77,80,66,25,51,0,0,0,0,0,0,0,0],"split_type":[0,0,0,0,0,0,0,0,0,0,0,0,0,0,0],"sum_hessian":[6.785018E3,3.3366108E3,3.4484072E3,2.4309553E3,9.0565564E2,1.2204377E3,2.2279695E3,1.7848444E3,6.4611096E2,7.588216E2,1.4683406E2,4.1472372E2,8.0571405E2,1.2709366E3,9.5703284E2],"tree_param":{"num_deleted":"0","num_feature":"106","num_nodes":"15","size_leaf_vector":"1"}},{"base_weights":[1.2731133E-1,3.1380183E-1,-5.3171843E-2,4.004005E-1,8.1169E-2,1.756766E-1,-1.7855307E-1,3.3226495E-3,5.878166E-3,3.516898E-4,3.1704588E-3,-6.9651153E-4,3.0188349E-3,-6.884796E-4,-3.2401718E-3],"categories":[],"categories_nodes":[],"categories_segments":[],"categories_sizes":[],"default_left":[0,0,0,0,0,0,0,0,0,0,0,0,0,0,0],"id":33,"left_children":[1,3,5,7,9,11,13,-1,-1,-1,-1,-1,-1,-1,-1],"loss_changes":[2.2842319E2,6.720599E1,9.9006256E1,3.0859985E1,9.826374E0,3.7839245E1,3.5547935E1,0E0,0E0,0E0,0E0,0E0,0E0,0E0,0E0],"parents":[2147483647,0,0,1,1,2,2,3,3,4,4,5,5,6,6],"right_children":[2,4,6,8,10,12,14,-1,-1,-1,-1,-1,-1,-1,-1],"split_conditions":[1.5E1,3.8E0,-1.4E0,2.3E1,1.17E1,-4.8E0,2.4E1,3.3226495E-3,5.878166E-3,3.516898E-4,3.1704588E-3,-6.9651153E-4,3.0188349E-3,-6.884796E-4,-3.2401718E-3],"split_indices":[51,77,77,80,66,25,51,0,0,0,0,0,0,0,0],"split_type":[0,0,0,0,0,0,0,0,0,0,0,0,0,0,0],"sum_hessian":[6.785018E3,3.336611E3,3.4484072E3,2.4309553E3,9.0565564E2,1.2204377E3,2.2279695E3,1.7848444E3,6.4611096E2,7.5882153E2,1.4683405E2,4.147237E2,8.0571405E2,1.2709366E3,9.5703284E2],"tree_param":{"num_deleted":"0","num_feature":"106","num_nodes":"15","size_leaf_vector":"1"}},{"base_weights":[-1.2607563E-1,-2.4429531E-1,1.533156E-1,-1.0291613E-1,-4.033804E-1,2.1165838E-3,3.1763804E-1,-2.737926E-3,-2.7614811E-5,-5.366616E-3,-3.3163943E-3,1.4888512E-3,-1.5325967E-3,4.689555E-3,2.4952807E-3],"categories":[],"categories_nodes":[],"categories_segments":[],"categories_sizes":[],"default_left":[0,0,0,0,0,0,0,0,0,0,0,0,0,0,0],"id":34,"left_children":[1,3,5,7,9,11,13,-1,-1,-1,-1,-1,-1,-1,-1],"loss_changes":[2.2411377E2,1.0718396E2,5.012994E1,4.322116E1,2.1267944E1,2.4008862E1,9.847908E0,0E0,0E0,0E0,0E0,0E0,0E0,0E0,0E0],"parents":[2147483647,0,0,1,1,2,2,3,3,4,4,5,5,6,6],"right_children":[2,4,6,8,10,12,14,-1,-1,-1,-1,-1,-1,-1,-1],"split_conditions":[2E1,1.4E1,5.14E-1,7E0,8E0,-4.9E0,-7.1E0,-2.737926E-3,-2.7614811E-5,-5.366616E-3,-3.3163943E-3,1.4888512E-3,-1.5325967E-3,4.689555E-3,2.4952807E-3],"split_indices":[28,80,55,27,51,25,25,0,0,0,0,0,0,0,0],"split_type":[0,0,0,0,0,0,0,0,0,0,0,0,0,0,0],"sum_hessian":[6.7831177E3,4.766415E3,2.0167026E3,2.5245183E3,2.2418967E3,1.050819E3,9.6588367E2,9.322493E2,1.592269E3,7.8221246E2,1.4596843E3,5.4039923E2,5.1041977E2,2.979821E2,6.679016E2],"tree_param":{"num_deleted":"0","num_feature":"106","num_nodes":"15","size_leaf_vector":"1"}},{"base_weights":[1.2607563E-1,2.4429533E-1,-1.5331562E-1,1.0291616E-1,4.0338042E-1,-2.1165754E-3,-3.176381E-1,2.737926E-3,2.7615255E-5,5.366616E-3,3.3163943E-3,-1.4888513E-3,1.5325971E-3,-4.689555E-3,-2.4952814E-3],"categories":[],"categories_nodes":[],"categories_segments":[],"categories_sizes":[],"default_left":[0,0,0,0,0,0,0,0,0,0,0,0,0,0,0],"id":35,"left_children":[1,3,5,7,9,11,13,-1,-1,-1,-1,-1,-1,-1,-1],"loss_changes":[2.2411383E2,1.0718393E2,5.012996E1,4.3221146E1,2.1267975E1,2.400887E1,9.8479E0,0E0,0E0,0E0,0E0,0E0,0E0,0E0,0E0],"parents":[2147483647,0,0,1,1,2,2,3,3,4,4,5,5,6,6],"right_children":[2,4,6,8,10,12,14,-1,-1,-1,-1,-1,-1,-1,-1],"split_conditions":[2E1,1.4E1,5.14E-1,7E0,8E0,-4.9E0,-7.1E0,2.737926E-3,2.7615255E-5,5.366616E-3,3.3163943E-3,-1.4888513E-3,1.5325971E-3,-4.689555E-3,-2.4952814E-3],"split_indices":[28,80,55,27,51,25,25,0,0,0,0,0,0,0,0],"split_type":[0,0,0,0,0,0,0,0,0,0,0,0,0,0,0],"sum_hessian":[6.7831177E3,4.766415E3,2.0167026E3,2.5245183E3,2.2418967E3,1.050819E3,9.6588367E2,9.322493E2,1.592269E3,7.8221246E2,1.4596843E3,5.4039923E2,5.1041974E2,2.979821E2,6.6790155E2],"tree_param":{"num_deleted":"0","num_feature":"106","num_nodes":"15","size_leaf_vector":"1"}},{"base_weights":[-1.2485208E-1,-3.0815694E-1,5.2478332E-2,-3.9353988E-1,-7.898426E-2,-1.7275155E-1,1.758575E-1,-3.2627827E-3,-5.7879495E-3,-3.3485066E-4,-3.1235174E-3,6.7891355E-4,-2.9661634E-3,6.830688E-4,3.1854324E-3],"categories":[],"categories_nodes":[],"categories_segments":[],"categories_sizes":[],"default_left":[0,0,0,0,0,0,0,0,0,0,0,0,0,0,0],"id":36,"left_children":[1,3,5,7,9,11,13,-1,-1,-1,-1,-1,-1,-1,-1],"loss_changes":[2.2047353E2,6.522714E1,9.584871E1,3.0084381E1,9.614941E0,3.641034E1,3.417289E1,0E0,0E0,0E0,0E0,0E0,0E0,0E0,0E0],"parents":[2147483647,0,0,1,1,2,2,3,3,4,4,5,5,6,6],"right_children":[2,4,6,8,10,12,14,-1,-1,-1,-1,-1,-1,-1,-1],"split_conditions":[1.5E1,3.8E0,-1.4E0,2.3E1,1.17E1,-4.8E0,2.4E1,-3.2627827E-3,-5.7879495E-3,-3.3485066E-4,-3.1235174E-3,6.7891355E-4,-2.9661634E-3,6.830688E-4,3.1854324E-3],"split_indices":[51,77,77,80,66,25,51,0,0,0,0,0,0,0,0],"split_type":[0,0,0,0,0,0,0,0,0,0,0,0,0,0,0],"sum_hessian":[6.78115E3,3.3340425E3,3.4471074E3,2.4285278E3,9.0551465E2,1.2198533E3,2.2272542E3,1.7836788E3,6.44849E2,7.5873004E2,1.4678462E2,4.1467673E2,8.051765E2,1.2708322E3,9.56422E2],"tree_param":{"num_deleted":"0","num_feature":"106","num_nodes":"15","size_leaf_vector":"1"}},{"base_weights":[1.248521E-1,3.0815694E-1,-5.2478313E-2,3.935399E-1,7.8984246E-2,1.7275159E-1,-1.7585748E-1,3.262783E-3,5.7879495E-3,3.3485043E-4,3.1235174E-3,-6.7891355E-4,2.9661644E-3,-6.8306894E-4,-3.1854322E-3],"categories":[],"categories_nodes":[],"categories_segments":[],"categories_sizes":[],"default_left":[0,0,0,0,0,0,0,0,0,0,0,0,0,0,0],"id":37,"left_children":[1,3,5,7,9,11,13,-1,-1,-1,-1,-1,-1,-1,-1],"loss_changes":[2.2047351E2,6.522714E1,9.584873E1,3.0084442E1,9.6149435E0,3.641036E1,3.417289E1,0E0,0E0,0E0,0E0,0E0,0E0,0E0,0E0],"parents":[2147483647,0,0,1,1,2,2,3,3,4,4,5,5,6,6],"right_children":[2,4,6,8,10,12,14,-1,-1,-1,-1,-1,-1,-1,-1],"split_conditions":[1.5E1,3.8E0,-1.4E0,2.3E1,1.17E1,-4.8E0,2.4E1,3.262783E-3,5.7879495E-3,3.3485043E-4,3.1235174E-3,-6.7891355E-4,2.9661644E-3,-6.8306894E-4,-3.1854322E-3],"split_indices":[51,77,77,80,66,25,51,0,0,0,0,0,0,0,0],"split_type":[0,0,0,0,0,0,0,0,0,0,0,0,0,0,0],"sum_hessian":[6.78115E3,3.3340425E3,3.4471074E3,2.4285278E3,9.055147E2,1.2198533E3,2.2272542E3,1.7836788E3,6.4484894E2,7.5873004E2,1.4678462E2,4.1467673E2,8.0517645E2,1.2708322E3,9.56422E2],"tree_param":{"num_deleted":"0","num_feature":"106","num_nodes":"15","size_leaf_vector":"1"}},{"base_weights":[-1.2364357E-1,-3.0521184E-1,5.1963665E-2,-3.898334E-1,-7.82021E-2,-1.7106858E-1,1.7412733E-1,-3.2313045E-3,-5.7370644E-3,-4.484472E-3,-4.9606524E-4,6.721558E-4,-2.9376105E-3,6.7624764E-4,3.1547048E-3],"categories":[],"categories_nodes":[],"categories_segments":[],"categories_sizes":[],"default_left":[0,0,0,0,0,0,0,0,0,0,0,0,0,0,0],"id":38,"left_children":[1,3,5,7,9,11,13,-1,-1,-1,-1,-1,-1,-1,-1],"loss_changes":[2.1619638E2,6.400775E1,9.3960976E1,2.9595367E1,9.574888E0,3.5703384E1,3.351638E1,0E0,0E0,0E0,0E0,0E0,0E0,0E0,0E0],"parents":[2147483647,0,0,1,1,2,2,3,3,4,4,5,5,6,6],"right_children":[2,4,6,8,10,12,14,-1,-1,-1,-1,-1,-1,-1,-1],"split_conditions":[1.5E1,3.8E0,-1.4E0,2.3E1,2E0,-4.8E0,2.4E1,-3.2313045E-3,-5.7370644E-3,-4.484472E-3,-4.9606524E-4,6.721558E-4,-2.9376105E-3,6.7624764E-4,3.1547048E-3],"split_indices":[51,77,77,80,51,25,51,0,0,0,0,0,0,0,0],"split_type":[0,0,0,0,0,0,0,0,0,0,0,0,0,0,0],"sum_hessian":[6.77907E3,3.3326028E3,3.446467E3,2.4271326E3,9.054702E2,1.2195513E3,2.2269155E3,1.7830571E3,6.440755E2,6.3866566E1,8.416037E2,4.1466733E2,8.04884E2,1.2708239E3,9.560918E2],"tree_param":{"num_deleted":"0","num_feature":"106","num_nodes":"15","size_leaf_vector":"1"}},{"base_weights":[1.2364357E-1,3.0521184E-1,-5.196367E-2,3.898334E-1,7.820209E-2,1.7106858E-1,-1.7412734E-1,3.2313045E-3,5.7370644E-3,4.4844723E-3,4.9606524E-4,-6.7215605E-4,2.9376105E-3,-6.762478E-4,-3.1547048E-3],"categories":[],"categories_nodes":[],"categories_segments":[],"categories_sizes":[],"default_left":[0,0,0,0,0,0,0,0,0,0,0,0,0,0,0],"id":39,"left_children":[1,3,5,7,9,11,13,-1,-1,-1,-1,-1,-1,-1,-1],"loss_changes":[2.1619637E2,6.400778E1,9.396098E1,2.9595337E1,9.57489E0,3.570339E1,3.351638E1,0E0,0E0,0E0,0E0,0E0,0E0,0E0,0E0],"parents":[2147483647,0,0,1,1,2,2,3,3,4,4,5,5,6,6],"right_children":[2,4,6,8,10,12,14,-1,-1,-1,-1,-1,-1,-1,-1],"split_conditions":[1.5E1,3.8E0,-1.4E0,2.3E1,2E0,-4.8E0,2.4E1,3.2313045E-3,5.7370644E-3,4.4844723E-3,4.9606524E-4,-6.7215605E-4,2.9376105E-3,-6.762478E-4,-3.1547048E-3],"split_indices":[51,77,77,80,51,25,51,0,0,0,0,0,0,0,0],"split_type":[0,0,0,0,0,0,0,0,0,0,0,0,0,0,0],"sum_hessian":[6.77907E3,3.332603E3,3.446467E3,2.4271326E3,9.054703E2,1.2195513E3,2.2269155E3,1.7830571E3,6.440755E2,6.386657E1,8.416037E2,4.1466736E2,8.04884E2,1.2708239E3,9.5609174E2],"tree_param":{"num_deleted":"0","num_feature":"106","num_nodes":"15","size_leaf_vector":"1"}},{"base_weights":[-1.2244878E-1,-2.3767304E-1,1.4976132E-1,-9.963662E-2,-3.9322656E-1,2.0681801E-3,3.1035513E-1,-2.6718061E-3,-1.4856916E-5,-5.3872624E-3,-3.299166E-3,1.4442069E-3,-1.4864973E-3,4.5883832E-3,2.4359496E-3],"categories":[],"categories_nodes":[],"categories_segments":[],"categories_sizes":[],"default_left":[0,0,0,0,0,0,0,0,0,0,0,0,0,0,0],"id":40,"left_children":[1,3,5,7,9,11,13,-1,-1,-1,-1,-1,-1,-1,-1],"loss_changes":[2.1262558E2,1.0222174E2,4.7825096E1,4.1516846E1,2.0445496E1,2.2579039E1,9.463913E0,0E0,0E0,0E0,0E0,0E0,0E0,0E0,0E0],"parents":[2147483647,0,0,1,1,2,2,3,3,4,4,5,5,6,6],"right_children":[2,4,6,8,10,12,14,-1,-1,-1,-1,-1,-1,-1,-1],"split_conditions":[2E1,1.4E1,5.14E-1,7E0,7E0,-4.9E0,-7.1E0,-2.6718061E-3,-1.4856916E-5,-5.3872624E-3,-3.299166E-3,1.4442069E-3,-1.4864973E-3,4.5883832E-3,2.4359496E-3],"split_indices":[28,80,55,27,51,25,25,0,0,0,0,0,0,0,0],"split_type":[0,0,0,0,0,0,0,0,0,0,0,0,0,0,0],"sum_hessian":[6.776892E3,4.761511E3,2.0153809E3,2.523673E3,2.237838E3,1.0503862E3,9.649947E2,9.316393E2,1.5920338E3,6.762239E2,1.5616141E3,5.402057E2,5.101805E2,2.9748248E2,6.6751215E2],"tree_param":{"num_deleted":"0","num_feature":"106","num_nodes":"15","size_leaf_vector":"1"}},{"base_weights":[1.2244877E-1,2.3767303E-1,-1.4976132E-1,9.96366E-2,3.9322656E-1,-2.0681527E-3,-3.1035516E-1,2.6718061E-3,1.485651E-5,5.3872624E-3,3.2991655E-3,-1.4442065E-3,1.4864975E-3,-4.5883832E-3,-2.43595E-3],"categories":[],"categories_nodes":[],"categories_segments":[],"categories_sizes":[],"default_left":[0,0,0,0,0,0,0,0,0,0,0,0,0,0,0],"id":41,"left_children":[1,3,5,7,9,11,13,-1,-1,-1,-1,-1,-1,-1,-1],"loss_changes":[2.1262553E2,1.0222174E2,4.7825108E1,4.1516853E1,2.0445526E1,2.2579035E1,9.463898E0,0E0,0E0,0E0,0E0,0E0,0E0,0E0,0E0],"parents":[2147483647,0,0,1,1,2,2,3,3,4,4,5,5,6,6],"right_children":[2,4,6,8,10,12,14,-1,-1,-1,-1,-1,-1,-1,-1],"split_conditions":[2E1,1.4E1,5.14E-1,7E0,7E0,-4.9E0,-7.1E0,2.6718061E-3,1.485651E-5,5.3872624E-3,3.2991655E-3,-1.4442065E-3,1.4864975E-3,-4.5883832E-3,-2.43595E-3],"split_indices":[28,80,55,27,51,25,25,0,0,0,0,0,0,0,0],"split_type":[0,0,0,0,0,0,0,0,0,0,0,0,0,0,0],"sum_hessian":[6.776892E3,4.761511E3,2.0153809E3,2.523673E3,2.237838E3,1.0503862E3,9.649946E2,9.316393E2,1.5920338E3,6.762239E2,1.561614E3,5.402057E2,5.101805E2,2.9748248E2,6.675122E2],"tree_param":{"num_deleted":"0","num_feature":"106","num_nodes":"15","size_leaf_vector":"1"}},{"base_weights":[-1.21264845E-1,-2.997665E-1,5.1297992E-2,-3.8322663E-1,-7.608941E-2,-1.6820331E-1,1.7150691E-1,-3.1735292E-3,-5.6508104E-3,-3.111206E-4,-3.0685987E-3,6.5518287E-4,-2.8862103E-3,6.709644E-4,3.1016099E-3],"categories":[],"categories_nodes":[],"categories_segments":[],"categories_sizes":[],"default_left":[0,0,0,0,0,0,0,0,0,0,0,0,0,0,0],"id":42,"left_children":[1,3,5,7,9,11,13,-1,-1,-1,-1,-1,-1,-1,-1],"loss_changes":[2.087251E2,6.2148315E1,9.095523E1,2.8875153E1,9.397463E0,3.435203E1,3.2220886E1,0E0,0E0,0E0,0E0,0E0,0E0,0E0,0E0],"parents":[2147483647,0,0,1,1,2,2,3,3,4,4,5,5,6,6],"right_children":[2,4,6,8,10,12,14,-1,-1,-1,-1,-1,-1,-1,-1],"split_conditions":[1.5E1,3.8E0,-1.4E0,2.3E1,1.17E1,-4.8E0,2.4E1,-3.1735292E-3,-5.6508104E-3,-3.111206E-4,-3.0685987E-3,6.5518287E-4,-2.8862103E-3,6.709644E-4,3.1016099E-3],"split_indices":[51,77,77,80,66,25,51,0,0,0,0,0,0,0,0],"split_type":[0,0,0,0,0,0,0,0,0,0,0,0,0,0,0],"sum_hessian":[6.774684E3,3.3296772E3,3.4450066E3,2.4243657E3,9.053114E2,1.2188993E3,2.2261074E3,1.7817147E3,6.426511E2,7.585954E2,1.4671605E2,4.1461642E2,8.0428284E2,1.2707103E3,9.553971E2],"tree_param":{"num_deleted":"0","num_feature":"106","num_nodes":"15","size_leaf_vector":"1"}},{"base_weights":[1.21264845E-1,2.9976654E-1,-5.1298007E-2,3.8322666E-1,7.608941E-2,1.682033E-1,-1.7150693E-1,3.1735294E-3,5.6508104E-3,3.1112047E-4,3.0685992E-3,-6.5518345E-4,2.8862103E-3,-6.709644E-4,-3.10161E-3],"categories":[],"categories_nodes":[],"categories_segments":[],"categories_sizes":[],"default_left":[0,0,0,0,0,0,0,0,0,0,0,0,0,0,0],"id":43,"left_children":[1,3,5,7,9,11,13,-1,-1,-1,-1,-1,-1,-1,-1],"loss_changes":[2.0872513E2,6.2148346E1,9.095523E1,2.8875153E1,9.397467E0,3.4352043E1,3.2220894E1,0E0,0E0,0E0,0E0,0E0,0E0,0E0,0E0],"parents":[2147483647,0,0,1,1,2,2,3,3,4,4,5,5,6,6],"right_children":[2,4,6,8,10,12,14,-1,-1,-1,-1,-1,-1,-1,-1],"split_conditions":[1.5E1,3.8E0,-1.4E0,2.3E1,1.17E1,-4.8E0,2.4E1,3.1735294E-3,5.6508104E-3,3.1112047E-4,3.0685992E-3,-6.5518345E-4,2.8862103E-3,-6.709644E-4,-3.10161E-3],"split_indices":[51,77,77,80,66,25,51,0,0,0,0,0,0,0,0],"split_type":[0,0,0,0,0,0,0,0,0,0,0,0,0,0,0],"sum_hessian":[6.774684E3,3.3296772E3,3.4450068E3,2.4243657E3,9.053114E2,1.2188993E3,2.2261074E3,1.7817146E3,6.426511E2,7.5859534E2,1.4671605E2,4.1461642E2,8.0428284E2,1.2707103E3,9.5539716E2],"tree_param":{"num_deleted":"0","num_feature":"106","num_nodes":"15","size_leaf_vector":"1"}},{"base_weights":[-1.2009571E-1,-2.3331293E-1,1.4730099E-1,-1.42165E-1,-4.627242E-1,-1.4574608E-1,2.2587015E-1,-3.0746956E-3,-4.6309395E-4,-4.0265084E-3,-5.9277248E-3,-2.5336267E-3,1.0076433E-3,1.3159458E-3,3.3976089E-3],"categories":[],"categories_nodes":[],"categories_segments":[],"categories_sizes":[],"default_left":[0,0,0,0,0,0,0,0,0,0,0,0,0,0,0],"id":44,"left_children":[1,3,5,7,9,11,13,-1,-1,-1,-1,-1,-1,-1,-1],"loss_changes":[2.0509012E2,9.944531E1,4.6436634E1,5.3974464E1,1.0329315E1,1.1345735E1,1.7024002E1,0E0,0E0,0E0,0E0,0E0,0E0,0E0,0E0],"parents":[2147483647,0,0,1,1,2,2,3,3,4,4,5,5,6,6],"right_children":[2,4,6,8,10,12,14,-1,-1,-1,-1,-1,-1,-1,-1],"split_conditions":[2E1,2E1,3.59E-1,8E0,3.7E1,2.7E1,5.69E-1,-3.0746956E-3,-4.6309395E-4,-4.0265084E-3,-5.9277248E-3,-2.5336267E-3,1.0076433E-3,1.3159458E-3,3.3976089E-3],"split_indices":[28,80,55,51,54,28,55,0,0,0,0,0,0,0,0],"split_type":[0,0,0,0,0,0,0,0,0,0,0,0,0,0,0],"sum_hessian":[6.7723467E3,4.7579375E3,2.0144094E3,3.4062227E3,1.3517147E3,4.257168E2,1.5886926E3,1.2494016E3,2.156821E3,9.274108E2,4.2430392E2,2.9632526E2,1.2939154E2,8.7037555E2,7.183171E2],"tree_param":{"num_deleted":"0","num_feature":"106","num_nodes":"15","size_leaf_vector":"1"}},{"base_weights":[1.2009571E-1,2.3331295E-1,-1.4730099E-1,1.4216502E-1,4.6272418E-1,1.4574602E-1,-2.2587015E-1,3.0746956E-3,4.6309415E-4,4.026508E-3,5.9277243E-3,2.5336258E-3,-1.0076436E-3,-1.3159458E-3,-3.3976086E-3],"categories":[],"categories_nodes":[],"categories_segments":[],"categories_sizes":[],"default_left":[0,0,0,0,0,0,0,0,0,0,0,0,0,0,0],"id":45,"left_children":[1,3,5,7,9,11,13,-1,-1,-1,-1,-1,-1,-1,-1],"loss_changes":[2.0509012E2,9.944531E1,4.6436623E1,5.397445E1,1.0329315E1,1.1345732E1,1.7024002E1,0E0,0E0,0E0,0E0,0E0,0E0,0E0,0E0],"parents":[2147483647,0,0,1,1,2,2,3,3,4,4,5,5,6,6],"right_children":[2,4,6,8,10,12,14,-1,-1,-1,-1,-1,-1,-1,-1],"split_conditions":[2E1,2E1,3.59E-1,8E0,3.7E1,2.7E1,5.69E-1,3.0746956E-3,4.6309415E-4,4.026508E-3,5.9277243E-3,2.5336258E-3,-1.0076436E-3,-1.3159458E-3,-3.3976086E-3],"split_indices":[28,80,55,51,54,28,55,0,0,0,0,0,0,0,0],"split_type":[0,0,0,0,0,0,0,0,0,0,0,0,0,0,0],"sum_hessian":[6.7723467E3,4.7579375E3,2.0144094E3,3.4062227E3,1.3517147E3,4.2571683E2,1.5886926E3,1.2494016E3,2.156821E3,9.274108E2,4.243039E2,2.963253E2,1.2939156E2,8.7037555E2,7.183171E2],"tree_param":{"num_deleted":"0","num_feature":"106","num_nodes":"15","size_leaf_vector":"1"}},{"base_weights":[-1.1893669E-1,-2.944838E-1,5.0685637E-2,-3.769725E-1,-7.363062E-2,-1.6498385E-1,1.6876781E-1,-3.1217276E-3,-5.561806E-3,-4.379141E-3,-4.5522102E-4,6.4784044E-4,-2.8345769E-3,6.6144497E-4,3.0513431E-3],"categories":[],"categories_nodes":[],"categories_segments":[],"categories_sizes":[],"default_left":[0,0,0,0,0,0,0,0,0,0,0,0,0,0,0],"id":46,"left_children":[1,3,5,7,9,11,13,-1,-1,-1,-1,-1,-1,-1,-1],"loss_changes":[2.0163522E2,6.0593536E1,8.774803E1,2.7957428E1,9.258247E0,3.3206234E1,3.1135838E1,0E0,0E0,0E0,0E0,0E0,0E0,0E0,0E0],"parents":[2147483647,0,0,1,1,2,2,3,3,4,4,5,5,6,6],"right_children":[2,4,6,8,10,12,14,-1,-1,-1,-1,-1,-1,-1,-1],"split_conditions":[1.5E1,3.8E0,-1.4E0,2.3E1,2E0,-4.8E0,2.4E1,-3.1217276E-3,-5.561806E-3,-4.379141E-3,-4.5522102E-4,6.4784044E-4,-2.8345769E-3,6.6144497E-4,3.0513431E-3],"split_indices":[51,77,77,80,51,25,51,0,0,0,0,0,0,0,0],"split_type":[0,0,0,0,0,0,0,0,0,0,0,0,0,0,0],"sum_hessian":[6.770073E3,3.326571E3,3.4435022E3,2.421452E3,9.0511914E2,1.2181792E3,2.225323E3,1.7804149E3,6.41037E2,6.3792732E1,8.413264E2,4.1458572E2,8.035935E2,1.2706066E3,9.547165E2],"tree_param":{"num_deleted":"0","num_feature":"106","num_nodes":"15","size_leaf_vector":"1"}},{"base_weights":[1.18936695E-1,2.944838E-1,-5.068563E-2,3.769725E-1,7.363064E-2,1.6498388E-1,-1.6876782E-1,3.1217276E-3,5.561806E-3,4.379141E-3,4.552211E-4,-6.478402E-4,2.834577E-3,-6.614452E-4,-3.051343E-3],"categories":[],"categories_nodes":[],"categories_segments":[],"categories_sizes":[],"default_left":[0,0,0,0,0,0,0,0,0,0,0,0,0,0,0],"id":47,"left_children":[1,3,5,7,9,11,13,-1,-1,-1,-1,-1,-1,-1,-1],"loss_changes":[2.0163522E2,6.0593536E1,8.7748055E1,2.7957428E1,9.258247E0,3.3206234E1,3.1135815E1,0E0,0E0,0E0,0E0,0E0,0E0,0E0,0E0],"parents":[2147483647,0,0,1,1,2,2,3,3,4,4,5,5,6,6],"right_children":[2,4,6,8,10,12,14,-1,-1,-1,-1,-1,-1,-1,-1],"split_conditions":[1.5E1,3.8E0,-1.4E0,2.3E1,2E0,-4.8E0,2.4E1,3.1217276E-3,5.561806E-3,4.379141E-3,4.552211E-4,-6.478402E-4,2.834577E-3,-6.614452E-4,-3.051343E-3],"split_indices":[51,77,77,80,51,25,51,0,0,0,0,0,0,0,0],"split_type":[0,0,0,0,0,0,0,0,0,0,0,0,0,0,0],"sum_hessian":[6.770073E3,3.326571E3,3.4435022E3,2.421452E3,9.0511914E2,1.2181792E3,2.225323E3,1.7804149E3,6.41037E2,6.3792732E1,8.413264E2,4.1458572E2,8.035935E2,1.2706066E3,9.547165E2],"tree_param":{"num_deleted":"0","num_feature":"106","num_nodes":"15","size_leaf_vector":"1"}},{"base_weights":[-1.17792964E-1,-2.2904395E-1,1.4487422E-1,-4.3307042E-1,-1.2937842E-1,-1.4323835E-1,2.2213627E-1,-3.5257658E-3,-5.5190003E-3,-3.0100083E-3,-2.8867353E-4,-2.4917657E-3,9.935175E-4,1.2919325E-3,3.344703E-3],"categories":[],"categories_nodes":[],"categories_segments":[],"categories_sizes":[],"default_left":[0,0,0,0,0,0,0,0,0,0,0,0,0,0,0],"id":48,"left_children":[1,3,5,7,9,11,13,-1,-1,-1,-1,-1,-1,-1,-1],"loss_changes":[1.9782455E2,9.663667E1,4.4873867E1,1.4727936E1,5.5122486E1,1.0987776E1,1.6545631E1,0E0,0E0,0E0,0E0,0E0,0E0,0E0,0E0],"parents":[2147483647,0,0,1,1,2,2,3,3,4,4,5,5,6,6],"right_children":[2,4,6,8,10,12,14,-1,-1,-1,-1,-1,-1,-1,-1],"split_conditions":[2E1,-1.4E0,3.59E-1,2.6E1,8E0,2.7E1,5.69E-1,-3.5257658E-3,-5.5190003E-3,-3.0100083E-3,-2.8867353E-4,-2.4917657E-3,9.935175E-4,1.2919325E-3,3.344703E-3],"split_indices":[28,77,55,1,51,28,55,0,0,0,0,0,0,0,0],"split_type":[0,0,0,0,0,0,0,0,0,0,0,0,0,0,0],"sum_hessian":[6.767582E3,4.7541294E3,2.0134526E3,1.5591105E3,3.195019E3,4.255838E2,1.5878688E3,9.318518E2,6.2725867E2,1.1793267E3,2.0156923E3,2.96205E2,1.2937881E2,8.701081E2,7.177607E2],"tree_param":{"num_deleted":"0","num_feature":"106","num_nodes":"15","size_leaf_vector":"1"}},{"base_weights":[1.1779298E-1,2.2904395E-1,-1.4487419E-1,4.3307042E-1,1.2937842E-1,1.4323837E-1,-2.2213624E-1,3.5257658E-3,5.5190003E-3,3.010008E-3,2.8867368E-4,2.4917657E-3,-9.935164E-4,-1.2919324E-3,-3.3447025E-3],"categories":[],"categories_nodes":[],"categories_segments":[],"categories_sizes":[],"default_left":[0,0,0,0,0,0,0,0,0,0,0,0,0,0,0],"id":49,"left_children":[1,3,5,7,9,11,13,-1,-1,-1,-1,-1,-1,-1,-1],"loss_changes":[1.9782455E2,9.66367E1,4.487388E1,1.4727936E1,5.5122463E1,1.0987765E1,1.6545631E1,0E0,0E0,0E0,0E0,0E0,0E0,0E0,0E0],"parents":[2147483647,0,0,1,1,2,2,3,3,4,4,5,5,6,6],"right_children":[2,4,6,8,10,12,14,-1,-1,-1,-1,-1,-1,-1,-1],"split_conditions":[2E1,-1.4E0,3.59E-1,2.6E1,8E0,2.7E1,5.69E-1,3.5257658E-3,5.5190003E-3,3.010008E-3,2.8867368E-4,2.4917657E-3,-9.935164E-4,-1.2919324E-3,-3.3447025E-3],"split_indices":[28,77,55,1,51,28,55,0,0,0,0,0,0,0,0],"split_type":[0,0,0,0,0,0,0,0,0,0,0,0,0,0,0],"sum_hessian":[6.767582E3,4.7541294E3,2.0134525E3,1.5591105E3,3.1950188E3,4.255838E2,1.5878688E3,9.318518E2,6.2725867E2,1.1793267E3,2.0156923E3,2.96205E2,1.2937881E2,8.701081E2,7.177606E2],"tree_param":{"num_deleted":"0","num_feature":"106","num_nodes":"15","size_leaf_vector":"1"}},{"base_weights":[-1.1665901E-1,-2.892994E-1,5.0065983E-2,-3.7080353E-1,-7.131502E-2,-1.615738E-1,1.6590841E-1,-3.0695966E-3,-5.476901E-3,-2.6796153E-4,-2.9984266E-3,6.4216874E-4,-2.7809734E-3,6.493029E-4,3.0018105E-3],"categories":[],"categories_nodes":[],"categories_segments":[],"categories_sizes":[],"default_left":[0,0,0,0,0,0,0,0,0,0,0,0,0,0,0],"id":50,"left_children":[1,3,5,7,9,11,13,-1,-1,-1,-1,-1,-1,-1,-1],"loss_changes":[1.9476749E2,5.903424E1,8.443574E1,2.7153717E1,9.208543E0,3.2073456E1,3.0155308E1,0E0,0E0,0E0,0E0,0E0,0E0,0E0,0E0],"parents":[2147483647,0,0,1,1,2,2,3,3,4,4,5,5,6,6],"right_children":[2,4,6,8,10,12,14,-1,-1,-1,-1,-1,-1,-1,-1],"split_conditions":[1.5E1,3.8E0,-1.4E0,2.3E1,1.17E1,-4.8E0,2.4E1,-3.0695966E-3,-5.476901E-3,-2.6796153E-4,-2.9984266E-3,6.4216874E-4,-2.7809734E-3,6.493029E-4,3.0018105E-3],"split_indices":[51,77,77,80,66,25,51,0,0,0,0,0,0,0,0],"split_type":[0,0,0,0,0,0,0,0,0,0,0,0,0,0,0],"sum_hessian":[6.765141E3,3.3232483E3,3.4418926E3,2.4183347E3,9.049138E2,1.2173837E3,2.224509E3,1.7789805E3,6.393541E2,7.5830725E2,1.4660657E2,4.145495E2,8.028341E2,1.2705161E3,9.539928E2],"tree_param":{"num_deleted":"0","num_feature":"106","num_nodes":"15","size_leaf_vector":"1"}},{"base_weights":[1.16659E-1,2.892994E-1,-5.0065994E-2,3.7080353E-1,7.131499E-2,1.615738E-1,-1.6590843E-1,3.0695966E-3,5.4769013E-3,2.6796135E-4,2.9984259E-3,-6.4216845E-4,2.7809734E-3,-6.493035E-4,-3.00181E-3],"categories":[],"categories_nodes":[],"categories_segments":[],"categories_sizes":[],"default_left":[0,0,0,0,0,0,0,0,0,0,0,0,0,0,0],"id":51,"left_children":[1,3,5,7,9,11,13,-1,-1,-1,-1,-1,-1,-1,-1],"loss_changes":[1.9476752E2,5.903427E1,8.443575E1,2.7153717E1,9.20854E0,3.207345E1,3.0155266E1,0E0,0E0,0E0,0E0,0E0,0E0,0E0,0E0],"parents":[2147483647,0,0,1,1,2,2,3,3,4,4,5,5,6,6],"right_children":[2,4,6,8,10,12,14,-1,-1,-1,-1,-1,-1,-1,-1],"split_conditions":[1.5E1,3.8E0,-1.4E0,2.3E1,1.17E1,-4.8E0,2.4E1,3.0695966E-3,5.4769013E-3,2.6796135E-4,2.9984259E-3,-6.4216845E-4,2.7809734E-3,-6.493035E-4,-3.00181E-3],"split_indices":[51,77,77,80,66,25,51,0,0,0,0,0,0,0,0],"split_type":[0,0,0,0,0,0,0,0,0,0,0,0,0,0,0],"sum_hessian":[6.765141E3,3.3232483E3,3.4418926E3,2.4183345E3,9.049138E2,1.2173837E3,2.224509E3,1.7789805E3,6.3935406E2,7.5830725E2,1.4660657E2,4.145495E2,8.028341E2,1.2705161E3,9.539928E2],"tree_param":{"num_deleted":"0","num_feature":"106","num_nodes":"15","size_leaf_vector":"1"}},{"base_weights":[-1.1553941E-1,-2.8656873E-1,4.9577344E-2,-3.6736992E-1,-7.060977E-2,-1.6000879E-1,1.6428317E-1,-3.040293E-3,-5.430505E-3,-2.6528974E-4,-2.9694864E-3,6.357784E-4,-2.754434E-3,6.4282207E-4,2.9731342E-3],"categories":[],"categories_nodes":[],"categories_segments":[],"categories_sizes":[],"default_left":[0,0,0,0,0,0,0,0,0,0,0,0,0,0,0],"id":52,"left_children":[1,3,5,7,9,11,13,-1,-1,-1,-1,-1,-1,-1,-1],"loss_changes":[1.9101443E2,5.7949463E1,8.2776726E1,2.6736847E1,9.03006E0,3.1454014E1,2.9581425E1,0E0,0E0,0E0,0E0,0E0,0E0,0E0,0E0],"parents":[2147483647,0,0,1,1,2,2,3,3,4,4,5,5,6,6],"right_children":[2,4,6,8,10,12,14,-1,-1,-1,-1,-1,-1,-1,-1],"split_conditions":[1.5E1,3.8E0,-1.4E0,2.3E1,1.17E1,-4.8E0,2.4E1,-3.040293E-3,-5.430505E-3,-2.6528974E-4,-2.9694864E-3,6.357784E-4,-2.754434E-3,6.4282207E-4,2.9731342E-3],"split_indices":[51,77,77,80,66,25,51,0,0,0,0,0,0,0,0],"split_type":[0,0,0,0,0,0,0,0,0,0,0,0,0,0,0],"sum_hessian":[6.7625107E3,3.3214204E3,3.4410906E3,2.416561E3,9.0485925E2,1.2170139E3,2.2240767E3,1.7781794E3,6.383817E2,7.582943E2,1.4656497E2,4.1453864E2,8.0247534E2,1.2705027E3,9.535739E2],"tree_param":{"num_deleted":"0","num_feature":"106","num_nodes":"15","size_leaf_vector":"1"}},{"base_weights":[1.1553942E-1,2.8656873E-1,-4.957736E-2,3.6736995E-1,7.06098E-2,1.6000876E-1,-1.6428319E-1,3.0402935E-3,5.430505E-3,2.6529003E-4,2.9694864E-3,-6.357789E-4,2.754434E-3,-6.428221E-4,-2.9731342E-3],"categories":[],"categories_nodes":[],"categories_segments":[],"categories_sizes":[],"default_left":[0,0,0,0,0,0,0,0,0,0,0,0,0,0,0],"id":53,"left_children":[1,3,5,7,9,11,13,-1,-1,-1,-1,-1,-1,-1,-1],"loss_changes":[1.9101447E2,5.7949463E1,8.277672E1,2.6736816E1,9.030058E0,3.1454021E1,2.9581425E1,0E0,0E0,0E0,0E0,0E0,0E0,0E0,0E0],"parents":[2147483647,0,0,1,1,2,2,3,3,4,4,5,5,6,6],"right_children":[2,4,6,8,10,12,14,-1,-1,-1,-1,-1,-1,-1,-1],"split_conditions":[1.5E1,3.8E0,-1.4E0,2.3E1,1.17E1,-4.8E0,2.4E1,3.0402935E-3,5.430505E-3,2.6529003E-4,2.9694864E-3,-6.357789E-4,2.754434E-3,-6.428221E-4,-2.9731342E-3],"split_indices":[51,77,77,80,66,25,51,0,0,0,0,0,0,0,0],"split_type":[0,0,0,0,0,0,0,0,0,0,0,0,0,0,0],"sum_hessian":[6.7625107E3,3.3214204E3,3.4410906E3,2.416561E3,9.0485925E2,1.2170139E3,2.2240767E3,1.7781794E3,6.383817E2,7.582943E2,1.4656499E2,4.1453864E2,8.024753E2,1.2705027E3,9.53574E2],"tree_param":{"num_deleted":"0","num_feature":"106","num_nodes":"15","size_leaf_vector":"1"}},{"base_weights":[-1.1443189E-1,-2.2290091E-1,1.4153497E-1,-9.1622956E-2,-3.7142715E-1,1.6036073E-3,2.9391107E-1,-2.5233403E-3,2.3883198E-5,-5.124327E-3,-3.102107E-3,1.3611087E-3,-1.4086219E-3,4.3839333E-3,2.2911667E-3],"categories":[],"categories_nodes":[],"categories_segments":[],"categories_sizes":[],"default_left":[0,0,0,0,0,0,0,0,0,0,0,0,0,0,0],"id":54,"left_children":[1,3,5,7,9,11,13,-1,-1,-1,-1,-1,-1,-1,-1],"loss_changes":[1.8774173E2,9.256178E1,4.291826E1,3.810717E1,1.9070831E1,2.0145485E1,8.920235E0,0E0,0E0,0E0,0E0,0E0,0E0,0E0,0E0],"parents":[2147483647,0,0,1,1,2,2,3,3,4,4,5,5,6,6],"right_children":[2,4,6,8,10,12,14,-1,-1,-1,-1,-1,-1,-1,-1],"split_conditions":[2E1,1.4E1,5.14E-1,7E0,7E0,-4.9E0,-7.1E0,-2.5233403E-3,2.3883198E-5,-5.124327E-3,-3.102107E-3,1.3611087E-3,-1.4086219E-3,4.3839333E-3,2.2911667E-3],"split_indices":[28,80,55,27,51,25,25,0,0,0,0,0,0,0,0],"split_type":[0,0,0,0,0,0,0,0,0,0,0,0,0,0,0],"sum_hessian":[6.7598047E3,4.747938E3,2.0118665E3,2.5211685E3,2.2267695E3,1.0492867E3,9.625797E2,9.29875E2,1.5912935E3,6.7185406E2,1.5549155E3,5.397414E2,5.0954532E2,2.9624017E2,6.6633954E2],"tree_param":{"num_deleted":"0","num_feature":"106","num_nodes":"15","size_leaf_vector":"1"}},{"base_weights":[1.1443189E-1,2.2290091E-1,-1.4153498E-1,9.1622956E-2,3.7142715E-1,-1.6036553E-3,-2.9391104E-1,2.5233396E-3,-2.3882894E-5,5.124327E-3,3.1021072E-3,-1.361109E-3,1.4086213E-3,-4.3839323E-3,-2.291167E-3],"categories":[],"categories_nodes":[],"categories_segments":[],"categories_sizes":[],"default_left":[0,0,0,0,0,0,0,0,0,0,0,0,0,0,0],"id":55,"left_children":[1,3,5,7,9,11,13,-1,-1,-1,-1,-1,-1,-1,-1],"loss_changes":[1.8774174E2,9.256181E1,4.2918243E1,3.8107147E1,1.90708E1,2.0145481E1,8.920235E0,0E0,0E0,0E0,0E0,0E0,0E0,0E0,0E0],"parents":[2147483647,0,0,1,1,2,2,3,3,4,4,5,5,6,6],"right_children":[2,4,6,8,10,12,14,-1,-1,-1,-1,-1,-1,-1,-1],"split_conditions":[2E1,1.4E1,5.14E-1,7E0,7E0,-4.9E0,-7.1E0,2.5233396E-3,-2.3882894E-5,5.124327E-3,3.1021072E-3,-1.361109E-3,1.4086213E-3,-4.3839323E-3,-2.291167E-3],"split_indices":[28,80,55,27,51,25,25,0,0,0,0,0,0,0,0],"split_type":[0,0,0,0,0,0,0,0,0,0,0,0,0,0,0],"sum_hessian":[6.7598047E3,4.747938E3,2.0118665E3,2.5211685E3,2.2267695E3,1.0492867E3,9.625797E2,9.29875E2,1.5912935E3,6.7185406E2,1.5549155E3,5.397414E2,5.0954532E2,2.9624017E2,6.6633954E2],"tree_param":{"num_deleted":"0","num_feature":"106","num_nodes":"15","size_leaf_vector":"1"}},{"base_weights":[-1.13333486E-1,-2.8151074E-1,4.893592E-2,-3.6124426E-1,-6.866536E-2,-1.5734142E-1,1.6180857E-1,-2.9864768E-3,-5.3517646E-3,-4.2695305E-3,-4.1053235E-4,6.19747E-4,-2.7065715E-3,6.376127E-4,2.9234258E-3],"categories":[],"categories_nodes":[],"categories_segments":[],"categories_sizes":[],"default_left":[0,0,0,0,0,0,0,0,0,0,0,0,0,0,0],"id":56,"left_children":[1,3,5,7,9,11,13,-1,-1,-1,-1,-1,-1,-1,-1],"loss_changes":[1.844433E2,5.629831E1,8.012687E1,2.6124084E1,8.942376E0,3.0267479E1,2.8446438E1,0E0,0E0,0E0,0E0,0E0,0E0,0E0,0E0],"parents":[2147483647,0,0,1,1,2,2,3,3,4,4,5,5,6,6],"right_children":[2,4,6,8,10,12,14,-1,-1,-1,-1,-1,-1,-1,-1],"split_conditions":[1.5E1,3.8E0,-1.4E0,2.3E1,2E0,-4.8E0,2.4E1,-2.9864768E-3,-5.3517646E-3,-4.2695305E-3,-4.1053235E-4,6.19747E-4,-2.7065715E-3,6.376127E-4,2.9234258E-3],"split_indices":[51,77,77,80,51,25,51,0,0,0,0,0,0,0,0],"split_type":[0,0,0,0,0,0,0,0,0,0,0,0,0,0,0],"sum_hessian":[6.7571294E3,3.3178005E3,3.4393289E3,2.4131272E3,9.0467334E2,1.216236E3,2.223093E3,1.7764987E3,6.366286E2,6.3696888E1,8.4097644E2,4.1448227E2,8.0175366E2,1.2703732E3,9.5271985E2],"tree_param":{"num_deleted":"0","num_feature":"106","num_nodes":"15","size_leaf_vector":"1"}},{"base_weights":[1.13333486E-1,2.8151074E-1,-4.8935924E-2,3.612443E-1,6.866537E-2,1.5734144E-1,-1.6180858E-1,2.9864768E-3,5.3517646E-3,4.269531E-3,4.1053235E-4,-6.197469E-4,2.7065717E-3,-6.37613E-4,-2.9234258E-3],"categories":[],"categories_nodes":[],"categories_segments":[],"categories_sizes":[],"default_left":[0,0,0,0,0,0,0,0,0,0,0,0,0,0,0],"id":57,"left_children":[1,3,5,7,9,11,13,-1,-1,-1,-1,-1,-1,-1,-1],"loss_changes":[1.844433E2,5.629831E1,8.012689E1,2.6124115E1,8.942379E0,3.0267485E1,2.8446426E1,0E0,0E0,0E0,0E0,0E0,0E0,0E0,0E0],"parents":[2147483647,0,0,1,1,2,2,3,3,4,4,5,5,6,6],"right_children":[2,4,6,8,10,12,14,-1,-1,-1,-1,-1,-1,-1,-1],"split_conditions":[1.5E1,3.8E0,-1.4E0,2.3E1,2E0,-4.8E0,2.4E1,2.9864768E-3,5.3517646E-3,4.269531E-3,4.1053235E-4,-6.197469E-4,2.7065717E-3,-6.37613E-4,-2.9234258E-3],"split_indices":[51,77,77,80,51,25,51,0,0,0,0,0,0,0,0],"split_type":[0,0,0,0,0,0,0,0,0,0,0,0,0,0,0],"sum_hessian":[6.7571294E3,3.3178005E3,3.4393289E3,2.4131272E3,9.0467334E2,1.216236E3,2.223093E3,1.7764987E3,6.3662854E2,6.3696884E1,8.4097644E2,4.1448227E2,8.0175366E2,1.2703732E3,9.5271985E2],"tree_param":{"num_deleted":"0","num_feature":"106","num_nodes":"15","size_leaf_vector":"1"}},{"base_weights":[-1.12249576E-1,9.557387E-2,-2.4141833E-1,-1.14486344E-1,1.9340017E-1,-3.6011243E-1,-7.8897215E-2,5.838248E-4,-2.4372248E-3,7.6190545E-4,2.84071E-3,-4.5393906E-3,-2.6378368E-3,-1.916296E-3,4.906221E-4],"categories":[],"categories_nodes":[],"categories_segments":[],"categories_sizes":[],"default_left":[0,0,0,0,0,0,0,0,0,0,0,0,0,0,0],"id":58,"left_children":[1,3,5,7,9,11,13,-1,-1,-1,-1,-1,-1,-1,-1],"loss_changes":[1.813641E2,5.3245384E1,8.034039E1,1.8413427E1,1.8761894E1,2.1639832E1,2.5394323E1,0E0,0E0,0E0,0E0,0E0,0E0,0E0,0E0],"parents":[2147483647,0,0,1,1,2,2,3,3,4,4,5,5,6,6],"right_children":[2,4,6,8,10,12,14,-1,-1,-1,-1,-1,-1,-1,-1],"split_conditions":[4.69E-1,-2E0,1.6E0,-4.8E0,2.4E1,-1.9E0,1E1,5.838248E-4,-2.4372248E-3,7.6190545E-4,2.84071E-3,-4.5393906E-3,-2.6378368E-3,-1.916296E-3,4.906221E-4],"split_indices":[3,77,77,25,51,77,51,0,0,0,0,0,0,0,0],"split_type":[0,0,0,0,0,0,0,0,0,0,0,0,0,0,0],"sum_hessian":[6.7542915E3,2.5890125E3,4.1652793E3,8.2256555E2,1.7664469E3,2.4065134E3,1.7587656E3,3.521162E2,4.7044934E2,7.7127075E2,9.951762E2,1.217209E3,1.1893044E3,9.347513E2,8.240144E2],"tree_param":{"num_deleted":"0","num_feature":"106","num_nodes":"15","size_leaf_vector":"1"}},{"base_weights":[1.1224957E-1,-9.5573895E-2,2.4141833E-1,1.14486344E-1,-1.934002E-1,3.6011243E-1,7.8897215E-2,-5.838246E-4,2.4372248E-3,-7.619055E-4,-2.8407108E-3,4.5393906E-3,2.6378368E-3,1.9162962E-3,-4.906222E-4],"categories":[],"categories_nodes":[],"categories_segments":[],"categories_sizes":[],"default_left":[0,0,0,0,0,0,0,0,0,0,0,0,0,0,0],"id":59,"left_children":[1,3,5,7,9,11,13,-1,-1,-1,-1,-1,-1,-1,-1],"loss_changes":[1.8136415E2,5.3245388E1,8.034036E1,1.8413422E1,1.8761902E1,2.1639832E1,2.5394331E1,0E0,0E0,0E0,0E0,0E0,0E0,0E0,0E0],"parents":[2147483647,0,0,1,1,2,2,3,3,4,4,5,5,6,6],"right_children":[2,4,6,8,10,12,14,-1,-1,-1,-1,-1,-1,-1,-1],"split_conditions":[4.69E-1,-2E0,1.6E0,-4.8E0,2.4E1,-1.9E0,1E1,-5.838246E-4,2.4372248E-3,-7.619055E-4,-2.8407108E-3,4.5393906E-3,2.6378368E-3,1.9162962E-3,-4.906222E-4],"split_indices":[3,77,77,25,51,77,51,0,0,0,0,0,0,0,0],"split_type":[0,0,0,0,0,0,0,0,0,0,0,0,0,0,0],"sum_hessian":[6.7542915E3,2.5890125E3,4.1652793E3,8.2256555E2,1.7664469E3,2.4065134E3,1.7587657E3,3.521162E2,4.7044934E2,7.7127075E2,9.9517615E2,1.217209E3,1.1893044E3,9.347512E2,8.2401447E2],"tree_param":{"num_deleted":"0","num_feature":"106","num_nodes":"15","size_leaf_vector":"1"}},{"base_weights":[-1.1117514E-1,-2.7655914E-1,4.830289E-2,-3.5519305E-1,-6.692138E-2,-1.5417972E-1,1.5906592E-1,-2.9345267E-3,-5.271015E-3,2.3635905E-3,-9.916916E-4,6.067161E-4,-2.6529632E-3,6.3103635E-4,2.8693771E-3],"categories":[],"categories_nodes":[],"categories_segments":[],"categories_sizes":[],"default_left":[0,0,0,0,0,0,0,0,0,0,0,0,0,0,0],"id":60,"left_children":[1,3,5,7,9,11,13,-1,-1,-1,-1,-1,-1,-1,-1],"loss_changes":[1.7811041E2,5.4622833E1,7.714097E1,2.542978E1,8.879229E0,2.9054482E1,2.7261536E1,0E0,0E0,0E0,0E0,0E0,0E0,0E0,0E0],"parents":[2147483647,0,0,1,1,2,2,3,3,4,4,5,5,6,6],"right_children":[2,4,6,8,10,12,14,-1,-1,-1,-1,-1,-1,-1,-1],"split_conditions":[1.5E1,3.8E0,-1.4E0,2.3E1,2E0,-4.8E0,2.4E1,-2.9345267E-3,-5.271015E-3,2.3635905E-3,-9.916916E-4,6.067161E-4,-2.6529632E-3,6.3103635E-4,2.8693771E-3],"split_indices":[51,77,77,80,95,25,51,0,0,0,0,0,0,0,0],"split_type":[0,0,0,0,0,0,0,0,0,0,0,0,0,0,0],"sum_hessian":[6.751466E3,3.314002E3,3.4374639E3,2.4095132E3,9.044887E2,1.2153417E3,2.222122E3,1.7748047E3,6.347085E2,8.6322525E1,8.181662E2,4.1444278E2,8.0089886E2,1.2703059E3,9.518163E2],"tree_param":{"num_deleted":"0","num_feature":"106","num_nodes":"15","size_leaf_vector":"1"}},{"base_weights":[1.11175135E-1,2.7655914E-1,-4.83029E-2,3.5519305E-1,6.692137E-2,1.5417974E-1,-1.5906593E-1,2.9345267E-3,5.271015E-3,-2.3635908E-3,9.916914E-4,-6.06716E-4,2.6529632E-3,-6.3103647E-4,-2.8693776E-3],"categories":[],"categories_nodes":[],"categories_segments":[],"categories_sizes":[],"default_left":[0,0,0,0,0,0,0,0,0,0,0,0,0,0,0],"id":61,"left_children":[1,3,5,7,9,11,13,-1,-1,-1,-1,-1,-1,-1,-1],"loss_changes":[1.7811044E2,5.462285E1,7.714099E1,2.542978E1,8.879229E0,2.9054487E1,2.7261547E1,0E0,0E0,0E0,0E0,0E0,0E0,0E0,0E0],"parents":[2147483647,0,0,1,1,2,2,3,3,4,4,5,5,6,6],"right_children":[2,4,6,8,10,12,14,-1,-1,-1,-1,-1,-1,-1,-1],"split_conditions":[1.5E1,3.8E0,-1.4E0,2.3E1,2E0,-4.8E0,2.4E1,2.9345267E-3,5.271015E-3,-2.3635908E-3,9.916914E-4,-6.06716E-4,2.6529632E-3,-6.3103647E-4,-2.8693776E-3],"split_indices":[51,77,77,80,95,25,51,0,0,0,0,0,0,0,0],"split_type":[0,0,0,0,0,0,0,0,0,0,0,0,0,0,0],"sum_hessian":[6.751466E3,3.314002E3,3.4374639E3,2.4095132E3,9.044887E2,1.2153417E3,2.222122E3,1.7748047E3,6.347085E2,8.632252E1,8.181662E2,4.1444278E2,8.0089886E2,1.2703059E3,9.518163E2],"tree_param":{"num_deleted":"0","num_feature":"106","num_nodes":"15","size_leaf_vector":"1"}},{"base_weights":[-1.1011287E-1,-2.1497072E-1,1.3716225E-1,-1.2966499E-1,-4.3118528E-1,-1.3688453E-1,2.1071215E-1,-2.874071E-3,-3.954401E-4,-3.7216314E-3,-5.5928626E-3,-2.3838542E-3,9.5250696E-4,1.2148715E-3,3.1869798E-3],"categories":[],"categories_nodes":[],"categories_segments":[],"categories_sizes":[],"default_left":[0,0,0,0,0,0,0,0,0,0,0,0,0,0,0],"id":62,"left_children":[1,3,5,7,9,11,13,-1,-1,-1,-1,-1,-1,-1,-1],"loss_changes":[1.7503598E2,8.737103E1,4.055223E1,4.8328644E1,9.9279785E0,1.0060419E1,1.5237274E1,0E0,0E0,0E0,0E0,0E0,0E0,0E0,0E0],"parents":[2147483647,0,0,1,1,2,2,3,3,4,4,5,5,6,6],"right_children":[2,4,6,8,10,12,14,-1,-1,-1,-1,-1,-1,-1,-1],"split_conditions":[2E1,2E1,3.59E-1,7E0,3.7E1,2.7E1,5.69E-1,-2.874071E-3,-3.954401E-4,-3.7216314E-3,-5.5928626E-3,-2.3838542E-3,9.5250696E-4,1.2148715E-3,3.1869798E-3],"split_indices":[28,80,55,27,54,28,55,0,0,0,0,0,0,0,0],"split_type":[0,0,0,0,0,0,0,0,0,0,0,0,0,0,0],"sum_hessian":[6.7485176E3,4.7390415E3,2.0094761E3,3.3994253E3,1.3396165E3,4.2501395E2,1.5844622E3,1.2352072E3,2.164218E3,9.197499E2,4.1986658E2,2.9569476E2,1.2931917E2,8.687603E2,7.1570184E2],"tree_param":{"num_deleted":"0","num_feature":"106","num_nodes":"15","size_leaf_vector":"1"}},{"base_weights":[1.1011286E-1,2.1497072E-1,-1.3716225E-1,1.2966497E-1,4.311853E-1,1.3688454E-1,-2.1071215E-1,2.874071E-3,3.954399E-4,3.7216314E-3,5.5928635E-3,2.383854E-3,-9.5250626E-4,-1.2148713E-3,-3.18698E-3],"categories":[],"categories_nodes":[],"categories_segments":[],"categories_sizes":[],"default_left":[0,0,0,0,0,0,0,0,0,0,0,0,0,0,0],"id":63,"left_children":[1,3,5,7,9,11,13,-1,-1,-1,-1,-1,-1,-1,-1],"loss_changes":[1.7503596E2,8.737105E1,4.055223E1,4.8328655E1,9.927948E0,1.0060413E1,1.5237274E1,0E0,0E0,0E0,0E0,0E0,0E0,0E0,0E0],"parents":[2147483647,0,0,1,1,2,2,3,3,4,4,5,5,6,6],"right_children":[2,4,6,8,10,12,14,-1,-1,-1,-1,-1,-1,-1,-1],"split_conditions":[2E1,2E1,3.59E-1,7E0,3.7E1,2.7E1,5.69E-1,2.874071E-3,3.954399E-4,3.7216314E-3,5.5928635E-3,2.383854E-3,-9.5250626E-4,-1.2148713E-3,-3.18698E-3],"split_indices":[28,80,55,27,54,28,55,0,0,0,0,0,0,0,0],"split_type":[0,0,0,0,0,0,0,0,0,0,0,0,0,0,0],"sum_hessian":[6.7485176E3,4.7390415E3,2.0094761E3,3.399425E3,1.3396165E3,4.2501395E2,1.5844622E3,1.235207E3,2.164218E3,9.197499E2,4.1986658E2,2.9569476E2,1.2931917E2,8.687603E2,7.1570184E2],"tree_param":{"num_deleted":"0","num_feature":"106","num_nodes":"15","size_leaf_vector":"1"}},{"base_weights":[-1.090589E-1,-2.7177006E-1,4.7744177E-2,-3.4955123E-1,-6.467172E-2,-1.5121025E-1,1.5654606E-1,-2.8877773E-3,-5.191508E-3,-2.1168875E-4,-2.8821179E-3,6.000313E-4,-2.6055186E-3,6.223223E-4,2.8232224E-3],"categories":[],"categories_nodes":[],"categories_segments":[],"categories_sizes":[],"default_left":[0,0,0,0,0,0,0,0,0,0,0,0,0,0,0],"id":64,"left_children":[1,3,5,7,9,11,13,-1,-1,-1,-1,-1,-1,-1,-1],"loss_changes":[1.7214622E2,5.3314285E1,7.441416E1,2.465799E1,8.797334E0,2.8085844E1,2.634235E1,0E0,0E0,0E0,0E0,0E0,0E0,0E0,0E0],"parents":[2147483647,0,0,1,1,2,2,3,3,4,4,5,5,6,6],"right_children":[2,4,6,8,10,12,14,-1,-1,-1,-1,-1,-1,-1,-1],"split_conditions":[1.5E1,3.8E0,-1.4E0,2.3E1,1.17E1,-4.8E0,2.4E1,-2.8877773E-3,-5.191508E-3,-2.1168875E-4,-2.8821179E-3,6.000313E-4,-2.6055186E-3,6.223223E-4,2.8232224E-3],"split_indices":[51,77,77,80,66,25,51,0,0,0,0,0,0,0,0],"split_type":[0,0,0,0,0,0,0,0,0,0,0,0,0,0,0],"sum_hessian":[6.745722E3,3.3101343E3,3.435588E3,2.4058623E3,9.042721E2,1.2144543E3,2.2211335E3,1.7731744E3,6.3268787E2,7.578773E2,1.463948E2,4.144055E2,8.000489E2,1.270179E3,9.509544E2],"tree_param":{"num_deleted":"0","num_feature":"106","num_nodes":"15","size_leaf_vector":"1"}},{"base_weights":[1.0905891E-1,2.7177006E-1,-4.7744162E-2,3.4955123E-1,6.467174E-2,1.5121025E-1,-1.5654603E-1,2.8877773E-3,5.191508E-3,2.1168905E-4,2.8821176E-3,-6.000316E-4,2.605519E-3,-6.2232197E-4,-2.8232224E-3],"categories":[],"categories_nodes":[],"categories_segments":[],"categories_sizes":[],"default_left":[0,0,0,0,0,0,0,0,0,0,0,0,0,0,0],"id":65,"left_children":[1,3,5,7,9,11,13,-1,-1,-1,-1,-1,-1,-1,-1],"loss_changes":[1.7214621E2,5.3314316E1,7.4414154E1,2.4657959E1,8.797331E0,2.8085852E1,2.634235E1,0E0,0E0,0E0,0E0,0E0,0E0,0E0,0E0],"parents":[2147483647,0,0,1,1,2,2,3,3,4,4,5,5,6,6],"right_children":[2,4,6,8,10,12,14,-1,-1,-1,-1,-1,-1,-1,-1],"split_conditions":[1.5E1,3.8E0,-1.4E0,2.3E1,1.17E1,-4.8E0,2.4E1,2.8877773E-3,5.191508E-3,2.1168905E-4,2.8821176E-3,-6.000316E-4,2.605519E-3,-6.2232197E-4,-2.8232224E-3],"split_indices":[51,77,77,80,66,25,51,0,0,0,0,0,0,0,0],"split_type":[0,0,0,0,0,0,0,0,0,0,0,0,0,0,0],"sum_hessian":[6.745722E3,3.3101343E3,3.435588E3,2.4058623E3,9.042721E2,1.2144545E3,2.2211335E3,1.7731744E3,6.3268787E2,7.578773E2,1.463948E2,4.144055E2,8.000489E2,1.2701791E3,9.509544E2],"tree_param":{"num_deleted":"0","num_feature":"106","num_nodes":"15","size_leaf_vector":"1"}},{"base_weights":[-1.08019516E-1,9.2699185E-2,-2.3289181E-1,-1.09799355E-1,1.8700954E-1,-3.486591E-1,-7.478015E-2,5.659137E-4,-2.3440295E-3,7.4143073E-4,2.744553E-3,-4.398677E-3,-2.5529438E-3,-1.978122E-3,3.7065498E-4],"categories":[],"categories_nodes":[],"categories_segments":[],"categories_sizes":[],"default_left":[0,0,0,0,0,0,0,0,0,0,0,0,0,0,0],"id":66,"left_children":[1,3,5,7,9,11,13,-1,-1,-1,-1,-1,-1,-1,-1],"loss_changes":[1.6904591E2,4.9427742E1,7.607486E1,1.706953E1,1.7403694E1,2.0324615E1,2.4207563E1,0E0,0E0,0E0,0E0,0E0,0E0,0E0,0E0],"parents":[2147483647,0,0,1,1,2,2,3,3,4,4,5,5,6,6],"right_children":[2,4,6,8,10,12,14,-1,-1,-1,-1,-1,-1,-1,-1],"split_conditions":[4.69E-1,-2E0,1.6E0,-4.8E0,2.4E1,-1.9E0,9E0,5.659137E-4,-2.3440295E-3,7.4143073E-4,2.744553E-3,-4.398677E-3,-2.5529438E-3,-1.978122E-3,3.7065498E-4],"split_indices":[3,77,77,25,51,77,51,0,0,0,0,0,0,0,0],"split_type":[0,0,0,0,0,0,0,0,0,0,0,0,0,0,0],"sum_hessian":[6.7426533E3,2.5860752E3,4.156578E3,8.2166736E2,1.7644078E3,2.3989175E3,1.757661E3,3.520712E2,4.6959613E2,7.710541E2,9.933537E2,1.2115927E3,1.1873247E3,8.366089E2,9.2105206E2],"tree_param":{"num_deleted":"0","num_feature":"106","num_nodes":"15","size_leaf_vector":"1"}},{"base_weights":[1.0801951E-1,-9.269919E-2,2.3289181E-1,1.09799355E-1,-1.8700956E-1,3.486591E-1,7.4780144E-2,-5.6591374E-4,2.3440297E-3,-7.4143097E-4,-2.744553E-3,4.398677E-3,2.5529438E-3,1.9781217E-3,-3.7065506E-4],"categories":[],"categories_nodes":[],"categories_segments":[],"categories_sizes":[],"default_left":[0,0,0,0,0,0,0,0,0,0,0,0,0,0,0],"id":67,"left_children":[1,3,5,7,9,11,13,-1,-1,-1,-1,-1,-1,-1,-1],"loss_changes":[1.6904593E2,4.942775E1,7.607489E1,1.706953E1,1.7403683E1,2.0324615E1,2.4207558E1,0E0,0E0,0E0,0E0,0E0,0E0,0E0,0E0],"parents":[2147483647,0,0,1,1,2,2,3,3,4,4,5,5,6,6],"right_children":[2,4,6,8,10,12,14,-1,-1,-1,-1,-1,-1,-1,-1],"split_conditions":[4.69E-1,-2E0,1.6E0,-4.8E0,2.4E1,-1.9E0,9E0,-5.6591374E-4,2.3440297E-3,-7.4143097E-4,-2.744553E-3,4.398677E-3,2.5529438E-3,1.9781217E-3,-3.7065506E-4],"split_indices":[3,77,77,25,51,77,51,0,0,0,0,0,0,0,0],"split_type":[0,0,0,0,0,0,0,0,0,0,0,0,0,0,0],"sum_hessian":[6.7426533E3,2.5860752E3,4.156578E3,8.2166736E2,1.7644078E3,2.3989175E3,1.757661E3,3.520712E2,4.6959616E2,7.710541E2,9.9335376E2,1.2115927E3,1.1873248E3,8.366089E2,9.2105206E2],"tree_param":{"num_deleted":"0","num_feature":"106","num_nodes":"15","size_leaf_vector":"1"}},{"base_weights":[-1.0698914E-1,-2.6703042E-1,4.7140665E-2,-3.4374908E-1,-6.305079E-2,-1.4817506E-1,1.5391864E-1,-2.837884E-3,-5.1145684E-3,2.370339E-3,-9.497234E-4,-3.0274894E-3,-4.540801E-5,6.16201E-4,2.771262E-3],"categories":[],"categories_nodes":[],"categories_segments":[],"categories_sizes":[],"default_left":[0,0,0,0,0,0,0,0,0,0,0,0,0,0,0],"id":68,"left_children":[1,3,5,7,9,11,13,-1,-1,-1,-1,-1,-1,-1,-1],"loss_changes":[1.6628418E2,5.1730362E1,7.165225E1,2.4018646E1,8.692461E0,2.6962923E1,2.5240772E1,0E0,0E0,0E0,0E0,0E0,0E0,0E0,0E0],"parents":[2147483647,0,0,1,1,2,2,3,3,4,4,5,5,6,6],"right_children":[2,4,6,8,10,12,14,-1,-1,-1,-1,-1,-1,-1,-1],"split_conditions":[1.5E1,3.8E0,-1.4E0,2.3E1,2E0,2.1E1,2.4E1,-2.837884E-3,-5.1145684E-3,2.370339E-3,-9.497234E-4,-3.0274894E-3,-4.540801E-5,6.16201E-4,2.771262E-3],"split_indices":[51,77,77,80,95,28,51,0,0,0,0,0,0,0,0],"split_type":[0,0,0,0,0,0,0,0,0,0,0,0,0,0,0],"sum_hessian":[6.7396133E3,3.3060405E3,3.4335728E3,2.4019568E3,9.0408374E2,1.2134929E3,2.2200798E3,1.7713405E3,6.306163E2,8.630753E1,8.177762E2,5.8395465E2,6.2953827E2,1.2701053E3,9.499744E2],"tree_param":{"num_deleted":"0","num_feature":"106","num_nodes":"15","size_leaf_vector":"1"}},{"base_weights":[1.06989145E-1,2.6703045E-1,-4.7140658E-2,3.437491E-1,6.305079E-2,1.4817506E-1,-1.5391864E-1,2.8378845E-3,5.1145684E-3,-2.3703391E-3,9.497234E-4,3.0274894E-3,4.540812E-5,-6.1620126E-4,-2.7712618E-3],"categories":[],"categories_nodes":[],"categories_segments":[],"categories_sizes":[],"default_left":[0,0,0,0,0,0,0,0,0,0,0,0,0,0,0],"id":69,"left_children":[1,3,5,7,9,11,13,-1,-1,-1,-1,-1,-1,-1,-1],"loss_changes":[1.6628418E2,5.1730362E1,7.165225E1,2.4018677E1,8.692461E0,2.6962925E1,2.524076E1,0E0,0E0,0E0,0E0,0E0,0E0,0E0,0E0],"parents":[2147483647,0,0,1,1,2,2,3,3,4,4,5,5,6,6],"right_children":[2,4,6,8,10,12,14,-1,-1,-1,-1,-1,-1,-1,-1],"split_conditions":[1.5E1,3.8E0,-1.4E0,2.3E1,2E0,2.1E1,2.4E1,2.8378845E-3,5.1145684E-3,-2.3703391E-3,9.497234E-4,3.0274894E-3,4.540812E-5,-6.1620126E-4,-2.7712618E-3],"split_indices":[51,77,77,80,95,28,51,0,0,0,0,0,0,0,0],"split_type":[0,0,0,0,0,0,0,0,0,0,0,0,0,0,0],"sum_hessian":[6.7396133E3,3.3060405E3,3.4335728E3,2.4019568E3,9.0408374E2,1.2134929E3,2.2200798E3,1.7713405E3,6.306163E2,8.630753E1,8.1777625E2,5.8395465E2,6.2953827E2,1.2701055E3,9.499744E2],"tree_param":{"num_deleted":"0","num_feature":"106","num_nodes":"15","size_leaf_vector":"1"}},{"base_weights":[-1.0596997E-1,-2.1719222E-1,1.1167098E-1,-3.0912638E-1,-2.723427E-2,-1.4131163E-1,1.8519376E-1,-4.1643037E-3,-2.2483913E-3,8.258786E-4,-1.5205626E-3,1.769926E-4,-2.798461E-3,9.5323264E-4,2.9434045E-3],"categories":[],"categories_nodes":[],"categories_segments":[],"categories_sizes":[],"default_left":[0,0,0,0,0,0,0,0,0,0,0,0,0,0,0],"id":70,"left_children":[1,3,5,7,9,11,13,-1,-1,-1,-1,-1,-1,-1,-1],"loss_changes":[1.631153E2,7.7865234E1,4.2420982E1,2.7082947E1,1.9963276E1,1.1323642E1,1.7299381E1,0E0,0E0,0E0,0E0,0E0,0E0,0E0,0E0],"parents":[2147483647,0,0,1,1,2,2,3,3,4,4,5,5,6,6],"right_children":[2,4,6,8,10,12,14,-1,-1,-1,-1,-1,-1,-1,-1],"split_conditions":[1.9E1,2.9E0,3.73E-1,-1.9E0,3.2E0,-4.7E0,2.6E1,-4.1643037E-3,-2.2483913E-3,8.258786E-4,-1.5205626E-3,1.769926E-4,-2.798461E-3,9.5323264E-4,2.9434045E-3],"split_indices":[27,77,55,77,25,25,51,0,0,0,0,0,0,0,0],"split_type":[0,0,0,0,0,0,0,0,0,0,0,0,0,0,0],"sum_hessian":[6.7364854E3,4.458193E3,2.2782925E3,3.003809E3,1.4543839E3,5.1282043E2,1.7654722E3,1.3197399E3,1.6840692E3,7.7385846E2,6.805255E2,2.3917075E2,2.736497E2,9.692625E2,7.9620966E2],"tree_param":{"num_deleted":"0","num_feature":"106","num_nodes":"15","size_leaf_vector":"1"}},{"base_weights":[1.0596997E-1,2.1719222E-1,-1.1167099E-1,3.0912638E-1,2.7234277E-2,1.413116E-1,-1.8519378E-1,4.1643037E-3,2.2483913E-3,-8.2587864E-4,1.5205627E-3,-1.769927E-4,2.7984607E-3,-9.5323275E-4,-2.9434045E-3],"categories":[],"categories_nodes":[],"categories_segments":[],"categories_sizes":[],"default_left":[0,0,0,0,0,0,0,0,0,0,0,0,0,0,0],"id":71,"left_children":[1,3,5,7,9,11,13,-1,-1,-1,-1,-1,-1,-1,-1],"loss_changes":[1.6311533E2,7.786522E1,4.2420975E1,2.7082977E1,1.996328E1,1.1323638E1,1.7299377E1,0E0,0E0,0E0,0E0,0E0,0E0,0E0,0E0],"parents":[2147483647,0,0,1,1,2,2,3,3,4,4,5,5,6,6],"right_children":[2,4,6,8,10,12,14,-1,-1,-1,-1,-1,-1,-1,-1],"split_conditions":[1.9E1,2.9E0,3.73E-1,-1.9E0,3.2E0,-4.7E0,2.6E1,4.1643037E-3,2.2483913E-3,-8.2587864E-4,1.5205627E-3,-1.769927E-4,2.7984607E-3,-9.5323275E-4,-2.9434045E-3],"split_indices":[27,77,55,77,25,25,51,0,0,0,0,0,0,0,0],"split_type":[0,0,0,0,0,0,0,0,0,0,0,0,0,0,0],"sum_hessian":[6.7364854E3,4.458193E3,2.2782925E3,3.003809E3,1.4543839E3,5.1282043E2,1.7654722E3,1.3197397E3,1.6840692E3,7.7385846E2,6.805255E2,2.3917075E2,2.736497E2,9.692625E2,7.9620966E2],"tree_param":{"num_deleted":"0","num_feature":"106","num_nodes":"15","size_leaf_vector":"1"}},{"base_weights":[-1.0495876E-1,-2.6248777E-1,4.665054E-2,-3.3807522E-1,-6.1816357E-2,-8.633647E-2,1.9884111E-1,-2.788666E-3,-5.04058E-3,-1.8801929E-4,-2.829658E-3,7.724151E-4,-2.0615014E-3,9.961113E-4,2.9555233E-3],"categories":[],"categories_nodes":[],"categories_segments":[],"categories_sizes":[],"default_left":[0,0,0,0,0,0,0,0,0,0,0,0,0,0,0],"id":72,"left_children":[1,3,5,7,9,11,13,-1,-1,-1,-1,-1,-1,-1,-1],"loss_changes":[1.6085052E2,5.0078323E1,6.9490036E1,2.3435577E1,8.602975E0,3.593185E1,1.5334911E1,0E0,0E0,0E0,0E0,0E0,0E0,0E0,0E0],"parents":[2147483647,0,0,1,1,2,2,3,3,4,4,5,5,6,6],"right_children":[2,4,6,8,10,12,14,-1,-1,-1,-1,-1,-1,-1,-1],"split_conditions":[1.5E1,3.8E0,5.24E-1,2.3E1,1.17E1,-3.7E0,2.1E1,-2.788666E-3,-5.04058E-3,-1.8801929E-4,-2.829658E-3,7.724151E-4,-2.0615014E-3,9.961113E-4,2.9555233E-3],"split_indices":[51,77,55,80,66,25,28,0,0,0,0,0,0,0,0],"split_type":[0,0,0,0,0,0,0,0,0,0,0,0,0,0,0],"sum_hessian":[6.7334644E3,3.3019036E3,3.4315608E3,2.3979692E3,9.039345E2,1.8315502E3,1.6000106E3,1.7694564E3,6.2851276E2,7.576531E2,1.4628145E2,7.745017E2,1.0570485E3,7.907235E2,8.0928705E2],"tree_param":{"num_deleted":"0","num_feature":"106","num_nodes":"15","size_leaf_vector":"1"}},{"base_weights":[1.0495875E-1,2.6248777E-1,-4.6650544E-2,3.3807522E-1,6.181636E-2,8.633647E-2,-1.9884112E-1,2.788666E-3,5.0405795E-3,1.8801927E-4,2.8296583E-3,-7.7241496E-4,2.0615011E-3,-9.961113E-4,-2.9555236E-3],"categories":[],"categories_nodes":[],"categories_segments":[],"categories_sizes":[],"default_left":[0,0,0,0,0,0,0,0,0,0,0,0,0,0,0],"id":73,"left_children":[1,3,5,7,9,11,13,-1,-1,-1,-1,-1,-1,-1,-1],"loss_changes":[1.6085054E2,5.0078323E1,6.9490036E1,2.3435577E1,8.602977E0,3.593184E1,1.5334908E1,0E0,0E0,0E0,0E0,0E0,0E0,0E0,0E0],"parents":[2147483647,0,0,1,1,2,2,3,3,4,4,5,5,6,6],"right_children":[2,4,6,8,10,12,14,-1,-1,-1,-1,-1,-1,-1,-1],"split_conditions":[1.5E1,3.8E0,5.24E-1,2.3E1,1.17E1,-3.7E0,2.1E1,2.788666E-3,5.0405795E-3,1.8801927E-4,2.8296583E-3,-7.7241496E-4,2.0615011E-3,-9.961113E-4,-2.9555236E-3],"split_indices":[51,77,55,80,66,25,28,0,0,0,0,0,0,0,0],"split_type":[0,0,0,0,0,0,0,0,0,0,0,0,0,0,0],"sum_hessian":[6.7334644E3,3.3019036E3,3.4315608E3,2.3979692E3,9.039345E2,1.8315502E3,1.6000106E3,1.7694564E3,6.2851276E2,7.576531E2,1.4628145E2,7.745017E2,1.0570485E3,7.907235E2,8.0928705E2],"tree_param":{"num_deleted":"0","num_feature":"106","num_nodes":"15","size_leaf_vector":"1"}},{"base_weights":[-1.0395981E-1,-2.6004702E-1,4.619682E-2,-1.4639586E-1,-3.9156753E-1,-1.445475E-1,1.5044017E-1,-2.0895782E-3,3.6638157E-4,-3.3663763E-3,-5.5808425E-3,5.7580473E-4,-2.4943436E-3,6.059117E-4,2.70535E-3],"categories":[],"categories_nodes":[],"categories_segments":[],"categories_sizes":[],"default_left":[0,0,0,0,0,0,0,0,0,0,0,0,0,0,0],"id":74,"left_children":[1,3,5,7,9,11,13,-1,-1,-1,-1,-1,-1,-1,-1],"loss_changes":[1.577771E2,4.927861E1,6.825663E1,2.0300976E1,1.3801453E1,2.5734964E1,2.3932621E1,0E0,0E0,0E0,0E0,0E0,0E0,0E0,0E0],"parents":[2147483647,0,0,1,1,2,2,3,3,4,4,5,5,6,6],"right_children":[2,4,6,8,10,12,14,-1,-1,-1,-1,-1,-1,-1,-1],"split_conditions":[1.5E1,1.4E1,-1.4E0,6.2E0,2.6E1,-4.8E0,2.4E1,-2.0895782E-3,3.6638157E-4,-3.3663763E-3,-5.5808425E-3,5.7580473E-4,-2.4943436E-3,6.059117E-4,2.70535E-3],"split_indices":[51,80,77,77,80,25,51,0,0,0,0,0,0,0,0],"split_type":[0,0,0,0,0,0,0,0,0,0,0,0,0,0,0],"sum_hessian":[6.730302E3,3.2996243E3,3.4306775E3,1.7711924E3,1.5284318E3,1.2122032E3,2.218474E3,1.3199016E3,4.512908E2,1.1515762E3,3.7685562E2,4.142845E2,7.979187E2,1.2699016E3,9.4857263E2],"tree_param":{"num_deleted":"0","num_feature":"106","num_nodes":"15","size_leaf_vector":"1"}},{"base_weights":[1.0395981E-1,2.60047E-1,-4.6196815E-2,1.4639588E-1,3.915675E-1,1.4454752E-1,-1.5044017E-1,2.0895784E-3,-3.6638143E-4,3.366376E-3,5.5808425E-3,-5.758047E-4,2.4943436E-3,-6.059116E-4,-2.7053505E-3],"categories":[],"categories_nodes":[],"categories_segments":[],"categories_sizes":[],"default_left":[0,0,0,0,0,0,0,0,0,0,0,0,0,0,0],"id":75,"left_children":[1,3,5,7,9,11,13,-1,-1,-1,-1,-1,-1,-1,-1],"loss_changes":[1.5777707E2,4.927864E1,6.825663E1,2.030098E1,1.3801453E1,2.573496E1,2.3932632E1,0E0,0E0,0E0,0E0,0E0,0E0,0E0,0E0],"parents":[2147483647,0,0,1,1,2,2,3,3,4,4,5,5,6,6],"right_children":[2,4,6,8,10,12,14,-1,-1,-1,-1,-1,-1,-1,-1],"split_conditions":[1.5E1,1.4E1,-1.4E0,6.2E0,2.6E1,-4.8E0,2.4E1,2.0895784E-3,-3.6638143E-4,3.366376E-3,5.5808425E-3,-5.758047E-4,2.4943436E-3,-6.059116E-4,-2.7053505E-3],"split_indices":[51,80,77,77,80,25,51,0,0,0,0,0,0,0,0],"split_type":[0,0,0,0,0,0,0,0,0,0,0,0,0,0,0],"sum_hessian":[6.730302E3,3.2996243E3,3.4306775E3,1.7711924E3,1.5284318E3,1.2122032E3,2.218474E3,1.3199016E3,4.512908E2,1.1515762E3,3.7685562E2,4.142845E2,7.979187E2,1.2699016E3,9.4857263E2],"tree_param":{"num_deleted":"0","num_feature":"106","num_nodes":"15","size_leaf_vector":"1"}},{"base_weights":[-1.0297249E-1,-2.0183519E-1,1.2982157E-1,-1.2087632E-1,-4.0837827E-1,2.4473073E-4,2.712862E-1,-2.7345219E-3,-3.3857598E-4,-3.4987358E-3,-5.356476E-3,1.2281467E-3,-1.2965848E-3,4.0954403E-3,2.0956951E-3],"categories":[],"categories_nodes":[],"categories_segments":[],"categories_sizes":[],"default_left":[0,0,0,0,0,0,0,0,0,0,0,0,0,0,0],"id":76,"left_children":[1,3,5,7,9,11,13,-1,-1,-1,-1,-1,-1,-1,-1],"loss_changes":[1.5486914E2,7.892413E1,3.677366E1,4.5057495E1,9.711914E0,1.6703505E1,8.097801E0,0E0,0E0,0E0,0E0,0E0,0E0,0E0,0E0],"parents":[2147483647,0,0,1,1,2,2,3,3,4,4,5,5,6,6],"right_children":[2,4,6,8,10,12,14,-1,-1,-1,-1,-1,-1,-1,-1],"split_conditions":[2E1,2E1,5.14E-1,7E0,3.7E1,-4.9E0,-7.1E0,-2.7345219E-3,-3.3857598E-4,-3.4987358E-3,-5.356476E-3,1.2281467E-3,-1.2965848E-3,4.0954403E-3,2.0956951E-3],"split_indices":[28,80,55,27,54,25,25,0,0,0,0,0,0,0,0],"split_type":[0,0,0,0,0,0,0,0,0,0,0,0,0,0,0],"sum_hessian":[6.7270166E3,4.721871E3,2.0051455E3,3.3933586E3,1.3285125E3,1.047068E3,9.5807745E2,1.231661E3,2.1616978E3,9.127007E2,4.1581183E2,5.3876855E2,5.082995E2,2.939451E2,6.641324E2],"tree_param":{"num_deleted":"0","num_feature":"106","num_nodes":"15","size_leaf_vector":"1"}},{"base_weights":[1.029725E-1,2.018352E-1,-1.2982157E-1,1.2087633E-1,4.0837827E-1,-2.4471994E-4,-2.712862E-1,2.7345219E-3,3.385762E-4,3.4987363E-3,5.356476E-3,-1.2281467E-3,1.2965852E-3,-4.0954403E-3,-2.095695E-3],"categories":[],"categories_nodes":[],"categories_segments":[],"categories_sizes":[],"default_left":[0,0,0,0,0,0,0,0,0,0,0,0,0,0,0],"id":77,"left_children":[1,3,5,7,9,11,13,-1,-1,-1,-1,-1,-1,-1,-1],"loss_changes":[1.5486914E2,7.892412E1,3.677366E1,4.5057484E1,9.711914E0,1.6703508E1,8.097809E0,0E0,0E0,0E0,0E0,0E0,0E0,0E0,0E0],"parents":[2147483647,0,0,1,1,2,2,3,3,4,4,5,5,6,6],"right_children":[2,4,6,8,10,12,