{"learner":{"attributes":{},"feature_names":[],"feature_types":[],"gradient_booster":{"model":{"gbtree_model_param":{"num_parallel_tree":"1","num_trees":"1500"},"iteration_indptr":[0,2,4,6,8,10,12,14,16,18,20,22,24,26,28,30,32,34,36,38,40,42,44,46,48,50,52,54,56,58,60,62,64,66,68,70,72,74,76,78,80,82,84,86,88,90,92,94,96,98,100,102,104,106,108,110,112,114,116,118,120,122,124,126,128,130,132,134,136,138,140,142,144,146,148,150,152,154,156,158,160,162,164,166,168,170,172,174,176,178,180,182,184,186,188,190,192,194,196,198,200,202,204,206,208,210,212,214,216,218,220,222,224,226,228,230,232,234,236,238,240,242,244,246,248,250,252,254,256,258,260,262,264,266,268,270,272,274,276,278,280,282,284,286,288,290,292,294,296,298,300,302,304,306,308,310,312,314,316,318,320,322,324,326,328,330,332,334,336,338,340,342,344,346,348,350,352,354,356,358,360,362,364,366,368,370,372,374,376,378,380,382,384,386,388,390,392,394,396,398,400,402,404,406,408,410,412,414,416,418,420,422,424,426,428,430,432,434,436,438,440,442,444,446,448,450,452,454,456,458,460,462,464,466,468,470,472,474,476,478,480,482,484,486,488,490,492,494,496,498,500,502,504,506,508,510,512,514,516,518,520,522,524,526,528,530,532,534,536,538,540,542,544,546,548,550,552,554,556,558,560,562,564,566,568,570,572,574,576,578,580,582,584,586,588,590,592,594,596,598,600,602,604,606,608,610,612,614,616,618,620,622,624,626,628,630,632,634,636,638,640,642,644,646,648,650,652,654,656,658,660,662,664,666,668,670,672,674,676,678,680,682,684,686,688,690,692,694,696,698,700,702,704,706,708,710,712,714,716,718,720,722,724,726,728,730,732,734,736,738,740,742,744,746,748,750,752,754,756,758,760,762,764,766,768,770,772,774,776,778,780,782,784,786,788,790,792,794,796,798,800,802,804,806,808,810,812,814,816,818,820,822,824,826,828,830,832,834,836,838,840,842,844,846,848,850,852,854,856,858,860,862,864,866,868,870,872,874,876,878,880,882,884,886,888,890,892,894,896,898,900,902,904,906,908,910,912,914,916,918,920,922,924,926,928,930,932,934,936,938,940,942,944,946,948,950,952,954,956,958,960,962,964,966,968,970,972,974,976,978,980,982,984,986,988,990,992,994,996,998,1000,1002,1004,1006,1008,1010,1012,1014,1016,1018,1020,1022,1024,1026,1028,1030,1032,1034,1036,1038,1040,1042,1044,1046,1048,1050,1052,1054,1056,1058,1060,1062,1064,1066,1068,1070,1072,1074,1076,1078,1080,1082,1084,1086,1088,1090,1092,1094,1096,1098,1100,1102,1104,1106,1108,1110,1112,1114,1116,1118,1120,1122,1124,1126,1128,1130,1132,1134,1136,1138,1140,1142,1144,1146,1148,1150,1152,1154,1156,1158,1160,1162,1164,1166,1168,1170,1172,1174,1176,1178,1180,1182,1184,1186,1188,1190,1192,1194,1196,1198,1200,1202,1204,1206,1208,1210,1212,1214,1216,1218,1220,1222,1224,1226,1228,1230,1232,1234,1236,1238,1240,1242,1244,1246,1248,1250,1252,1254,1256,1258,1260,1262,1264,1266,1268,1270,1272,1274,1276,1278,1280,1282,1284,1286,1288,1290,1292,1294,1296,1298,1300,1302,1304,1306,1308,1310,1312,1314,1316,1318,1320,1322,1324,1326,1328,1330,1332,1334,1336,1338,1340,1342,1344,1346,1348,1350,1352,1354,1356,1358,1360,1362,1364,1366,1368,1370,1372,1374,1376,1378,1380,1382,1384,1386,1388,1390,1392,1394,1396,1398,1400,1402,1404,1406,1408,1410,1412,1414,1416,1418,1420,1422,1424,1426,1428,1430,1432,1434,1436,1438,1440,1442,1444,1446,1448,1450,1452,1454,1456,1458,1460,1462,1464,1466,1468,1470,1472,1474,1476,1478,1480,1482,1484,1486,1488,1490,1492,1494,1496,1498,1500],"tree_info":[0,1,0,1,0,1,0,1,0,1,0,1,0,1,0,1,0,1,0,1,0,1,0,1,0,1,0,1,0,1,0,1,0,1,0,1,0,1,0,1,0,1,0,1,0,1,0,1,0,1,0,1,0,1,0,1,0,1,0,1,0,1,0,1,0,1,0,1,0,1,0,1,0,1,0,1,0,1,0,1,0,1,0,1,0,1,0,1,0,1,0,1,0,1,0,1,0,1,0,1,0,1,0,1,0,1,0,1,0,1,0,1,0,1,0,1,0,1,0,1,0,1,0,1,0,1,0,1,0,1,0,1,0,1,0,1,0,1,0,1,0,1,0,1,0,1,0,1,0,1,0,1,0,1,0,1,0,1,0,1,0,1,0,1,0,1,0,1,0,1,0,1,0,1,0,1,0,1,0,1,0,1,0,1,0,1,0,1,0,1,0,1,0,1,0,1,0,1,0,1,0,1,0,1,0,1,0,1,0,1,0,1,0,1,0,1,0,1,0,1,0,1,0,1,0,1,0,1,0,1,0,1,0,1,0,1,0,1,0,1,0,1,0,1,0,1,0,1,0,1,0,1,0,1,0,1,0,1,0,1,0,1,0,1,0,1,0,1,0,1,0,1,0,1,0,1,0,1,0,1,0,1,0,1,0,1,0,1,0,1,0,1,0,1,0,1,0,1,0,1,0,1,0,1,0,1,0,1,0,1,0,1,0,1,0,1,0,1,0,1,0,1,0,1,0,1,0,1,0,1,0,1,0,1,0,1,0,1,0,1,0,1,0,1,0,1,0,1,0,1,0,1,0,1,0,1,0,1,0,1,0,1,0,1,0,1,0,1,0,1,0,1,0,1,0,1,0,1,0,1,0,1,0,1,0,1,0,1,0,1,0,1,0,1,0,1,0,1,0,1,0,1,0,1,0,1,0,1,0,1,0,1,0,1,0,1,0,1,0,1,0,1,0,1,0,1,0,1,0,1,0,1,0,1,0,1,0,1,0,1,0,1,0,1,0,1,0,1,0,1,0,1,0,1,0,1,0,1,0,1,0,1,0,1,0,1,0,1,0,1,0,1,0,1,0,1,0,1,0,1,0,1,0,1,0,1,0,1,0,1,0,1,0,1,0,1,0,1,0,1,0,1,0,1,0,1,0,1,0,1,0,1,0,1,0,1,0,1,0,1,0,1,0,1,0,1,0,1,0,1,0,1,0,1,0,1,0,1,0,1,0,1,0,1,0,1,0,1,0,1,0,1,0,1,0,1,0,1,0,1,0,1,0,1,0,1,0,1,0,1,0,1,0,1,0,1,0,1,0,1,0,1,0,1,0,1,0,1,0,1,0,1,0,1,0,1,0,1,0,1,0,1,0,1,0,1,0,1,0,1,0,1,0,1,0,1,0,1,0,1,0,1,0,1,0,1,0,1,0,1,0,1,0,1,0,1,0,1,0,1,0,1,0,1,0,1,0,1,0,1,0,1,0,1,0,1,0,1,0,1,0,1,0,1,0,1,0,1,0,1,0,1,0,1,0,1,0,1,0,1,0,1,0,1,0,1,0,1,0,1,0,1,0,1,0,1,0,1,0,1,0,1,0,1,0,1,0,1,0,1,0,1,0,1,0,1,0,1,0,1,0,1,0,1,0,1,0,1,0,1,0,1,0,1,0,1,0,1,0,1,0,1,0,1,0,1,0,1,0,1,0,1,0,1,0,1,0,1,0,1,0,1,0,1,0,1,0,1,0,1,0,1,0,1,0,1,0,1,0,1,0,1,0,1,0,1,0,1,0,1,0,1,0,1,0,1,0,1,0,1,0,1,0,1,0,1,0,1,0,1,0,1,0,1,0,1,0,1,0,1,0,1,0,1,0,1,0,1,0,1,0,1,0,1,0,1,0,1,0,1,0,1,0,1,0,1,0,1,0,1,0,1,0,1,0,1,0,1,0,1,0,1,0,1,0,1,0,1,0,1,0,1,0,1,0,1,0,1,0,1,0,1,0,1,0,1,0,1,0,1,0,1,0,1,0,1,0,1,0,1,0,1,0,1,0,1,0,1,0,1,0,1,0,1,0,1,0,1,0,1,0,1,0,1,0,1,0,1,0,1,0,1,0,1,0,1,0,1,0,1,0,1,0,1,0,1,0,1,0,1,0,1,0,1,0,1,0,1,0,1,0,1,0,1,0,1,0,1,0,1,0,1,0,1,0,1,0,1,0,1,0,1,0,1,0,1,0,1,0,1,0,1,0,1,0,1,0,1,0,1,0,1,0,1,0,1,0,1,0,1,0,1,0,1,0,1,0,1,0,1,0,1,0,1,0,1,0,1,0,1,0,1,0,1,0,1,0,1,0,1,0,1,0,1,0,1,0,1,0,1,0,1,0,1,0,1,0,1,0,1,0,1,0,1,0,1,0,1,0,1,0,1,0,1,0,1,0,1,0,1,0,1,0,1,0,1,0,1,0,1,0,1,0,1,0,1,0,1,0,1,0,1,0,1,0,1,0,1,0,1,0,1,0,1,0,1,0,1,0,1,0,1,0,1,0,1,0,1,0,1,0,1,0,1,0,1,0,1,0,1,0,1,0,1,0,1,0,1,0,1,0,1,0,1,0,1,0,1,0,1,0,1,0,1,0,1,0,1,0,1,0,1,0,1,0,1,0,1,0,1,0,1,0,1,0,1,0,1,0,1,0,1,0,1,0,1,0,1,0,1,0,1,0,1,0,1,0,1,0,1,0,1,0,1,0,1,0,1,0,1,0,1,0,1,0,1,0,1,0,1,0,1,0,1,0,1,0,1,0,1,0,1,0,1,0,1,0,1,0,1,0,1,0,1,0,1,0,1,0,1,0,1,0,1,0,1,0,1,0,1,0,1,0,1,0,1,0,1,0,1,0,1,0,1,0,1,0,1,0,1,0,1,0,1,0,1,0,1,0,1,0,1,0,1,0,1,0,1,0,1,0,1,0,1,0,1,0,1,0,1,0,1,0,1,0,1,0,1,0,1,0,1,0,1,0,1,0,1,0,1,0,1,0,1,0,1,0,1,0,1,0,1,0,1,0,1,0,1,0,1,0,1,0,1,0,1,0,1,0,1,0,1,0,1,0,1,0,1,0,1,0,1,0,1,0,1,0,1,0,1,0,1,0,1,0,1,0,1,0,1,0,1,0,1,0,1,0,1,0,1,0,1,0,1,0,1,0,1,0,1,0,1,0,1,0,1,0,1,0,1,0,1,0,1,0,1,0,1,0,1,0,1,0,1,0,1,0,1,0,1,0,1,0,1,0,1,0,1,0,1,0,1,0,1,0,1,0,1,0,1,0,1,0,1,0,1,0,1,0,1,0,1,0,1,0,1,0,1,0,1,0,1,0,1,0,1,0,1,0,1],"trees":[{"base_weights":[-1.506064E-1,-2.8852424E-1,1.692683E-1,-1.2232779E-1,-4.767781E-1,-1.0742496E-1,2.9266572E-1,-2.8056363E-3,2.2340022E-4,-3.7577641E-3,-6.14445E-3,8.7827427E-4,-3.117932E-3,4.3842364E-3,1.8271605E-3],"categories":[],"categories_nodes":[],"categories_segments":[],"categories_sizes":[],"default_left":[0,0,0,0,0,0,0,0,0,0,0,0,0,0,0],"id":0,"left_children":[1,3,5,7,9,11,13,-1,-1,-1,-1,-1,-1,-1,-1],"loss_changes":[3.0015082E2,1.4866498E2,7.002507E1,5.783053E1,3.0755493E1,2.5286228E1,2.2644814E1,0E0,0E0,0E0,0E0,0E0,0E0,0E0,0E0],"parents":[2147483647,0,0,1,1,2,2,3,3,4,4,5,5,6,6],"right_children":[2,4,6,8,10,12,14,-1,-1,-1,-1,-1,-1,-1,-1],"split_conditions":[2E1,1.4E1,-2E0,1E1,2.3E1,-4.8E0,-5.9E0,-2.8056363E-3,2.2340022E-4,-3.7577641E-3,-6.14445E-3,8.7827427E-4,-3.117932E-3,4.3842364E-3,1.8271605E-3],"split_indices":[28,80,77,51,80,25,25,0,0,0,0,0,0,0,0],"split_type":[0,0,0,0,0,0,0,0,0,0,0,0,0,0,0],"sum_hessian":[6.8015E3,4.7525E3,2.049E3,2.525E3,2.2275E3,6.32E2,1.417E3,1.2055E3,1.3195E3,1.287E3,9.405E2,3.235E2,3.085E2,6.08E2,8.09E2],"tree_param":{"num_deleted":"0","num_feature":"106","num_nodes":"15","size_leaf_vector":"1"}},{"base_weights":[1.506064E-1,2.8852424E-1,-1.692683E-1,1.2232779E-1,4.767781E-1,1.0742496E-1,-2.9266572E-1,2.8056363E-3,-2.2340022E-4,3.7577641E-3,6.14445E-3,-8.7827427E-4,3.117932E-3,-4.3842364E-3,-1.8271605E-3],"categories":[],"categories_nodes":[],"categories_segments":[],"categories_sizes":[],"default_left":[0,0,0,0,0,0,0,0,0,0,0,0,0,0,0],"id":1,"left_children":[1,3,5,7,9,11,13,-1,-1,-1,-1,-1,-1,-1,-1],"loss_changes":[3.0015082E2,1.4866498E2,7.002507E1,5.783053E1,3.0755493E1,2.5286228E1,2.2644814E1,0E0,0E0,0E0,0E0,0E0,0E0,0E0,0E0],"parents":[2147483647,0,0,1,1,2,2,3,3,4,4,5,5,6,6],"right_children":[2,4,6,8,10,12,14,-1,-1,-1,-1,-1,-1,-1,-1],"split_conditions":[2E1,1.4E1,-2E0,1E1,2.3E1,-4.8E0,-5.9E0,2.8056363E-3,-2.2340022E-4,3.7577641E-3,6.14445E-3,-8.7827427E-4,3.117932E-3,-4.3842364E-3,-1.8271605E-3],"split_indices":[28,80,77,51,80,25,25,0,0,0,0,0,0,0,0],"split_type":[0,0,0,0,0,0,0,0,0,0,0,0,0,0,0],"sum_hessian":[6.8015E3,4.7525E3,2.049E3,2.525E3,2.2275E3,6.32E2,1.417E3,1.2055E3,1.3195E3,1.287E3,9.405E2,3.235E2,3.085E2,6.08E2,8.09E2],"tree_param":{"num_deleted":"0","num_feature":"106","num_nodes":"15","size_leaf_vector":"1"}},{"base_weights":[-1.4910336E-1,-2.8564543E-1,1.67579E-1,-1.2110597E-1,-4.7202617E-1,-1.0635477E-1,2.897464E-1,-2.7776244E-3,2.2116795E-4,-3.7202681E-3,-6.083301E-3,8.6951983E-4,-3.0868836E-3,4.3405485E-3,1.8089177E-3],"categories":[],"categories_nodes":[],"categories_segments":[],"categories_sizes":[],"default_left":[0,0,0,0,0,0,0,0,0,0,0,0,0,0,0],"id":2,"left_children":[1,3,5,7,9,11,13,-1,-1,-1,-1,-1,-1,-1,-1],"loss_changes":[2.9418768E2,1.457164E2,6.863507E1,5.6681217E1,3.0148102E1,2.4784895E1,2.2196114E1,0E0,0E0,0E0,0E0,0E0,0E0,0E0,0E0],"parents":[2147483647,0,0,1,1,2,2,3,3,4,4,5,5,6,6],"right_children":[2,4,6,8,10,12,14,-1,-1,-1,-1,-1,-1,-1,-1],"split_conditions":[2E1,1.4E1,-2E0,1E1,2.3E1,-4.8E0,-5.9E0,-2.7776244E-3,2.2116795E-4,-3.7202681E-3,-6.083301E-3,8.6951983E-4,-3.0868836E-3,4.3405485E-3,1.8089177E-3],"split_indices":[28,80,77,51,80,25,25,0,0,0,0,0,0,0,0],"split_type":[0,0,0,0,0,0,0,0,0,0,0,0,0,0,0],"sum_hessian":[6.801419E3,4.7524365E3,2.0489824E3,2.5249905E3,2.2274463E3,6.3199677E2,1.4169856E3,1.2054906E3,1.3194999E3,1.2869817E3,9.4046454E2,3.2349976E2,3.08497E2,6.0798834E2,8.089973E2],"tree_param":{"num_deleted":"0","num_feature":"106","num_nodes":"15","size_leaf_vector":"1"}},{"base_weights":[1.4910337E-1,2.8564546E-1,-1.6757898E-1,1.2110601E-1,4.7202617E-1,1.0635481E-1,-2.8974637E-1,2.7776253E-3,-2.2116795E-4,3.7202686E-3,6.083301E-3,-8.6951896E-4,3.0868836E-3,-4.34055E-3,-1.8089169E-3],"categories":[],"categories_nodes":[],"categories_segments":[],"categories_sizes":[],"default_left":[0,0,0,0,0,0,0,0,0,0,0,0,0,0,0],"id":3,"left_children":[1,3,5,7,9,11,13,-1,-1,-1,-1,-1,-1,-1,-1],"loss_changes":[2.9418765E2,1.4571646E2,6.863507E1,5.668125E1,3.014804E1,2.4784885E1,2.2196152E1,0E0,0E0,0E0,0E0,0E0,0E0,0E0,0E0],"parents":[2147483647,0,0,1,1,2,2,3,3,4,4,5,5,6,6],"right_children":[2,4,6,8,10,12,14,-1,-1,-1,-1,-1,-1,-1,-1],"split_conditions":[2E1,1.4E1,-2E0,1E1,2.3E1,-4.8E0,-5.9E0,2.7776253E-3,-2.2116795E-4,3.7202686E-3,6.083301E-3,-8.6951896E-4,3.0868836E-3,-4.34055E-3,-1.8089169E-3],"split_indices":[28,80,77,51,80,25,25,0,0,0,0,0,0,0,0],"split_type":[0,0,0,0,0,0,0,0,0,0,0,0,0,0,0],"sum_hessian":[6.8014194E3,4.752437E3,2.0489824E3,2.5249905E3,2.2274463E3,6.3199677E2,1.4169857E3,1.2054905E3,1.3194999E3,1.2869818E3,9.4046454E2,3.2349976E2,3.08497E2,6.0798834E2,8.089974E2],"tree_param":{"num_deleted":"0","num_feature":"106","num_nodes":"15","size_leaf_vector":"1"}},{"base_weights":[-1.4761883E-1,-2.8280282E-1,1.6590935E-1,-1.1989732E-1,-4.673438E-1,-1.052964E-1,2.868619E-1,-2.7499353E-3,2.1895712E-4,-3.683249E-3,-6.0232077E-3,8.608523E-4,-3.0562025E-3,4.2974604E-3,1.7908679E-3],"categories":[],"categories_nodes":[],"categories_segments":[],"categories_sizes":[],"default_left":[0,0,0,0,0,0,0,0,0,0,0,0,0,0,0],"id":4,"left_children":[1,3,5,7,9,11,13,-1,-1,-1,-1,-1,-1,-1,-1],"loss_changes":[2.8835043E2,1.4283972E2,6.727413E1,5.5555878E1,2.9559753E1,2.4293964E1,2.1758446E1,0E0,0E0,0E0,0E0,0E0,0E0,0E0,0E0],"parents":[2147483647,0,0,1,1,2,2,3,3,4,4,5,5,6,6],"right_children":[2,4,6,8,10,12,14,-1,-1,-1,-1,-1,-1,-1,-1],"split_conditions":[2E1,1.4E1,-2E0,1E1,2.3E1,-4.8E0,-5.9E0,-2.7499353E-3,2.1895712E-4,-3.683249E-3,-6.0232077E-3,8.608523E-4,-3.0562025E-3,4.2974604E-3,1.7908679E-3],"split_indices":[28,80,77,51,80,25,25,0,0,0,0,0,0,0,0],"split_type":[0,0,0,0,0,0,0,0,0,0,0,0,0,0,0],"sum_hessian":[6.8011797E3,4.7522495E3,2.0489302E3,2.5249622E3,2.2272874E3,6.319871E2,1.416943E3,1.2054625E3,1.3194998E3,1.2869281E3,9.4035944E2,3.2349902E2,3.0848813E2,6.0795374E2,8.089893E2],"tree_param":{"num_deleted":"0","num_feature":"106","num_nodes":"15","size_leaf_vector":"1"}},{"base_weights":[1.476188E-1,2.828028E-1,-1.6590936E-1,1.1989725E-1,4.673438E-1,1.0529639E-1,-2.8686193E-1,2.749935E-3,-2.189583E-4,3.683249E-3,6.0232077E-3,-8.608525E-4,3.0562025E-3,-4.2974604E-3,-1.790868E-3],"categories":[],"categories_nodes":[],"categories_segments":[],"categories_sizes":[],"default_left":[0,0,0,0,0,0,0,0,0,0,0,0,0,0,0],"id":5,"left_children":[1,3,5,7,9,11,13,-1,-1,-1,-1,-1,-1,-1,-1],"loss_changes":[2.883504E2,1.4283975E2,6.7274124E1,5.5555916E1,2.9559753E1,2.4293968E1,2.1758453E1,0E0,0E0,0E0,0E0,0E0,0E0,0E0,0E0],"parents":[2147483647,0,0,1,1,2,2,3,3,4,4,5,5,6,6],"right_children":[2,4,6,8,10,12,14,-1,-1,-1,-1,-1,-1,-1,-1],"split_conditions":[2E1,1.4E1,-2E0,1E1,2.3E1,-4.8E0,-5.9E0,2.749935E-3,-2.189583E-4,3.683249E-3,6.0232077E-3,-8.608525E-4,3.0562025E-3,-4.2974604E-3,-1.790868E-3],"split_indices":[28,80,77,51,80,25,25,0,0,0,0,0,0,0,0],"split_type":[0,0,0,0,0,0,0,0,0,0,0,0,0,0,0],"sum_hessian":[6.8011797E3,4.7522495E3,2.0489302E3,2.5249622E3,2.2272874E3,6.319872E2,1.4169431E3,1.2054624E3,1.3194998E3,1.2869281E3,9.4035944E2,3.2349902E2,3.0848813E2,6.0795374E2,8.089893E2],"tree_param":{"num_deleted":"0","num_feature":"106","num_nodes":"15","size_leaf_vector":"1"}},{"base_weights":[-1.4615239E-1,-2.7999562E-1,1.6425912E-1,-1.18701555E-1,-4.627292E-1,-1.0424951E-1,2.8401175E-1,-2.7225644E-3,2.1677015E-4,-3.5057603E-3,-5.797823E-3,8.5227384E-4,-3.0258822E-3,4.254956E-3,1.7730107E-3],"categories":[],"categories_nodes":[],"categories_segments":[],"categories_sizes":[],"default_left":[0,0,0,0,0,0,0,0,0,0,0,0,0,0,0],"id":6,"left_children":[1,3,5,7,9,11,13,-1,-1,-1,-1,-1,-1,-1,-1],"loss_changes":[2.8263626E2,1.4003262E2,6.594156E1,5.445408E1,2.904596E1,2.3813236E1,2.1331375E1,0E0,0E0,0E0,0E0,0E0,0E0,0E0,0E0],"parents":[2147483647,0,0,1,1,2,2,3,3,4,4,5,5,6,6],"right_children":[2,4,6,8,10,12,14,-1,-1,-1,-1,-1,-1,-1,-1],"split_conditions":[2E1,1.4E1,-2E0,1E1,2.2E1,-4.8E0,-5.9E0,-2.7225644E-3,2.1677015E-4,-3.5057603E-3,-5.797823E-3,8.5227384E-4,-3.0258822E-3,4.254956E-3,1.7730107E-3],"split_indices":[28,80,77,51,80,25,25,0,0,0,0,0,0,0,0],"split_type":[0,0,0,0,0,0,0,0,0,0,0,0,0,0,0],"sum_hessian":[6.8007866E3,4.7519424E3,2.0488445E3,2.5249158E3,2.2270264E3,6.319713E2,1.416873E3,1.2054163E3,1.3194994E3,1.139358E3,1.0876685E3,3.234978E2,3.0847354E2,6.078969E2,8.089762E2],"tree_param":{"num_deleted":"0","num_feature":"106","num_nodes":"15","size_leaf_vector":"1"}},{"base_weights":[1.4615235E-1,2.7999556E-1,-1.6425912E-1,1.18701495E-1,4.6272913E-1,1.0424951E-1,-2.8401175E-1,2.722563E-3,-2.1677015E-4,3.5057603E-3,5.7978216E-3,-8.5227384E-4,3.0258822E-3,-4.254956E-3,-1.7730107E-3],"categories":[],"categories_nodes":[],"categories_segments":[],"categories_sizes":[],"default_left":[0,0,0,0,0,0,0,0,0,0,0,0,0,0,0],"id":7,"left_children":[1,3,5,7,9,11,13,-1,-1,-1,-1,-1,-1,-1,-1],"loss_changes":[2.8263623E2,1.4003256E2,6.594156E1,5.445403E1,2.9045929E1,2.3813236E1,2.1331375E1,0E0,0E0,0E0,0E0,0E0,0E0,0E0,0E0],"parents":[2147483647,0,0,1,1,2,2,3,3,4,4,5,5,6,6],"right_children":[2,4,6,8,10,12,14,-1,-1,-1,-1,-1,-1,-1,-1],"split_conditions":[2E1,1.4E1,-2E0,1E1,2.2E1,-4.8E0,-5.9E0,2.722563E-3,-2.1677015E-4,3.5057603E-3,5.7978216E-3,-8.5227384E-4,3.0258822E-3,-4.254956E-3,-1.7730107E-3],"split_indices":[28,80,77,51,80,25,25,0,0,0,0,0,0,0,0],"split_type":[0,0,0,0,0,0,0,0,0,0,0,0,0,0,0],"sum_hessian":[6.8007866E3,4.7519424E3,2.0488445E3,2.5249158E3,2.2270264E3,6.319713E2,1.416873E3,1.2054163E3,1.3194994E3,1.139358E3,1.0876685E3,3.234978E2,3.0847354E2,6.078969E2,8.089762E2],"tree_param":{"num_deleted":"0","num_feature":"106","num_nodes":"15","size_leaf_vector":"1"}},{"base_weights":[-1.4470363E-1,-2.772229E-1,1.6262785E-1,-1.1751852E-1,-4.5817995E-1,-1.03214025E-1,2.811951E-1,-2.6955043E-3,2.1460463E-4,-3.6093988E-3,-5.907675E-3,8.437821E-4,-2.9959169E-3,4.319002E-3,1.8293246E-3],"categories":[],"categories_nodes":[],"categories_segments":[],"categories_sizes":[],"default_left":[0,0,0,0,0,0,0,0,0,0,0,0,0,0,0],"id":8,"left_children":[1,3,5,7,9,11,13,-1,-1,-1,-1,-1,-1,-1,-1],"loss_changes":[2.770418E2,1.3729224E2,6.4636665E1,5.3375107E1,2.850772E1,2.3342463E1,2.0916397E1,0E0,0E0,0E0,0E0,0E0,0E0,0E0,0E0],"parents":[2147483647,0,0,1,1,2,2,3,3,4,4,5,5,6,6],"right_children":[2,4,6,8,10,12,14,-1,-1,-1,-1,-1,-1,-1,-1],"split_conditions":[2E1,1.4E1,-2E0,1E1,2.3E1,-4.8E0,-6.2E0,-2.6955043E-3,2.1460463E-4,-3.6093988E-3,-5.907675E-3,8.437821E-4,-2.9959169E-3,4.319002E-3,1.8293246E-3],"split_indices":[28,80,77,51,80,25,25,0,0,0,0,0,0,0,0],"split_type":[0,0,0,0,0,0,0,0,0,0,0,0,0,0,0],"sum_hessian":[6.8002466E3,4.7515205E3,2.048726E3,2.5248516E3,2.226669E3,6.319495E2,1.4167766E3,1.2053527E3,1.319499E3,1.2867125E3,9.3995636E2,3.2349612E2,3.0845343E2,5.578335E2,8.589431E2],"tree_param":{"num_deleted":"0","num_feature":"106","num_nodes":"15","size_leaf_vector":"1"}},{"base_weights":[1.4470363E-1,2.7722293E-1,-1.6262788E-1,1.1751851E-1,4.5818004E-1,1.0321405E-1,-2.8119513E-1,2.6955034E-3,-2.1460436E-4,3.6093998E-3,5.9076757E-3,-8.4378186E-4,2.9959169E-3,-4.319002E-3,-1.8293256E-3],"categories":[],"categories_nodes":[],"categories_segments":[],"categories_sizes":[],"default_left":[0,0,0,0,0,0,0,0,0,0,0,0,0,0,0],"id":9,"left_children":[1,3,5,7,9,11,13,-1,-1,-1,-1,-1,-1,-1,-1],"loss_changes":[2.770419E2,1.3729236E2,6.463671E1,5.337507E1,2.850769E1,2.3342459E1,2.0916351E1,0E0,0E0,0E0,0E0,0E0,0E0,0E0,0E0],"parents":[2147483647,0,0,1,1,2,2,3,3,4,4,5,5,6,6],"right_children":[2,4,6,8,10,12,14,-1,-1,-1,-1,-1,-1,-1,-1],"split_conditions":[2E1,1.4E1,-2E0,1E1,2.3E1,-4.8E0,-6.2E0,2.6955034E-3,-2.1460436E-4,3.6093998E-3,5.9076757E-3,-8.4378186E-4,2.9959169E-3,-4.319002E-3,-1.8293256E-3],"split_indices":[28,80,77,51,80,25,25,0,0,0,0,0,0,0,0],"split_type":[0,0,0,0,0,0,0,0,0,0,0,0,0,0,0],"sum_hessian":[6.8002466E3,4.7515205E3,2.048726E3,2.5248516E3,2.2266687E3,6.319495E2,1.4167765E3,1.2053527E3,1.3194989E3,1.2867125E3,9.399563E2,3.234961E2,3.0845343E2,5.578335E2,8.5894305E2],"tree_param":{"num_deleted":"0","num_feature":"106","num_nodes":"15","size_leaf_vector":"1"}},{"base_weights":[-1.4327236E-1,-2.744845E-1,1.6101529E-1,-1.1634811E-1,-4.536957E-1,-1.02189794E-1,2.7841142E-1,-2.66875E-3,2.1245939E-4,-3.4353968E-3,-5.6870165E-3,8.3537586E-4,-2.9663E-3,4.1726134E-3,1.7371231E-3],"categories":[],"categories_nodes":[],"categories_segments":[],"categories_sizes":[],"default_left":[0,0,0,0,0,0,0,0,0,0,0,0,0,0,0],"id":10,"left_children":[1,3,5,7,9,11,13,-1,-1,-1,-1,-1,-1,-1,-1],"loss_changes":[2.71565E2,1.3461752E2,6.335887E1,5.231843E1,2.8020325E1,2.2881405E1,2.0536636E1,0E0,0E0,0E0,0E0,0E0,0E0,0E0,0E0],"parents":[2147483647,0,0,1,1,2,2,3,3,4,4,5,5,6,6],"right_children":[2,4,6,8,10,12,14,-1,-1,-1,-1,-1,-1,-1,-1],"split_conditions":[2E1,1.4E1,-2E0,1E1,2.2E1,-4.8E0,-5.9E0,-2.66875E-3,2.1245939E-4,-3.4353968E-3,-5.6870165E-3,8.3537586E-4,-2.9663E-3,4.1726134E-3,1.7371231E-3],"split_indices":[28,80,77,51,80,25,25,0,0,0,0,0,0,0,0],"split_type":[0,0,0,0,0,0,0,0,0,0,0,0,0,0,0],"sum_hessian":[6.7995615E3,4.750984E3,2.0485776E3,2.5247705E3,2.2262136E3,6.31922E2,1.4166556E3,1.2052721E3,1.3194984E3,1.1391195E3,1.0870941E3,3.23494E2,3.0842798E2,6.077216E2,8.08934E2],"tree_param":{"num_deleted":"0","num_feature":"106","num_nodes":"15","size_leaf_vector":"1"}},{"base_weights":[1.4327236E-1,2.7448446E-1,-1.6101523E-1,1.16348065E-1,4.536957E-1,1.0218986E-1,-2.7841133E-1,2.66875E-3,-2.1246029E-4,3.4353968E-3,5.6870165E-3,-8.353756E-4,2.9663008E-3,-4.172613E-3,-1.7371222E-3],"categories":[],"categories_nodes":[],"categories_segments":[],"categories_sizes":[],"default_left":[0,0,0,0,0,0,0,0,0,0,0,0,0,0,0],"id":11,"left_children":[1,3,5,7,9,11,13,-1,-1,-1,-1,-1,-1,-1,-1],"loss_changes":[2.7156485E2,1.3461758E2,6.3358868E1,5.2318462E1,2.8020325E1,2.2881414E1,2.0536652E1,0E0,0E0,0E0,0E0,0E0,0E0,0E0,0E0],"parents":[2147483647,0,0,1,1,2,2,3,3,4,4,5,5,6,6],"right_children":[2,4,6,8,10,12,14,-1,-1,-1,-1,-1,-1,-1,-1],"split_conditions":[2E1,1.4E1,-2E0,1E1,2.2E1,-4.8E0,-5.9E0,2.66875E-3,-2.1246029E-4,3.4353968E-3,5.6870165E-3,-8.353756E-4,2.9663008E-3,-4.172613E-3,-1.7371222E-3],"split_indices":[28,80,77,51,80,25,25,0,0,0,0,0,0,0,0],"split_type":[0,0,0,0,0,0,0,0,0,0,0,0,0,0,0],"sum_hessian":[6.7995615E3,4.750984E3,2.0485776E3,2.5247705E3,2.2262136E3,6.3192194E2,1.4166556E3,1.2052721E3,1.3194983E3,1.1391195E3,1.0870941E3,3.23494E2,3.0842795E2,6.077216E2,8.089341E2],"tree_param":{"num_deleted":"0","num_feature":"106","num_nodes":"15","size_leaf_vector":"1"}},{"base_weights":[-1.4185816E-1,-2.717792E-1,1.5942107E-1,-1.15190096E-1,-4.4927362E-1,-1.0117662E-1,2.7566016E-1,-2.6422984E-3,2.103368E-4,-3.5374016E-3,-5.7958947E-3,8.2705496E-4,-2.9370254E-3,4.2357966E-3,1.792421E-3],"categories":[],"categories_nodes":[],"categories_segments":[],"categories_sizes":[],"default_left":[0,0,0,0,0,0,0,0,0,0,0,0,0,0,0],"id":12,"left_children":[1,3,5,7,9,11,13,-1,-1,-1,-1,-1,-1,-1,-1],"loss_changes":[2.6620215E2,1.3200555E2,6.2107502E1,5.128366E1,2.75159E1,2.2429863E1,2.014074E1,0E0,0E0,0E0,0E0,0E0,0E0,0E0,0E0],"parents":[2147483647,0,0,1,1,2,2,3,3,4,4,5,5,6,6],"right_children":[2,4,6,8,10,12,14,-1,-1,-1,-1,-1,-1,-1,-1],"split_conditions":[2E1,1.4E1,-2E0,1E1,2.3E1,-4.8E0,-6.2E0,-2.6422984E-3,2.103368E-4,-3.5374016E-3,-5.7958947E-3,8.2705496E-4,-2.9370254E-3,4.2357966E-3,1.792421E-3],"split_indices":[28,80,77,51,80,25,25,0,0,0,0,0,0,0,0],"split_type":[0,0,0,0,0,0,0,0,0,0,0,0,0,0,0],"sum_hessian":[6.798738E3,4.7503403E3,2.0483975E3,2.5246726E3,2.2256675E3,6.3188873E2,1.4165088E3,1.205175E3,1.3194977E3,1.2863615E3,9.393061E2,3.2349146E2,3.083973E2,5.5762964E2,8.5887915E2],"tree_param":{"num_deleted":"0","num_feature":"106","num_nodes":"15","size_leaf_vector":"1"}},{"base_weights":[1.4185813E-1,2.7177918E-1,-1.594211E-1,1.15190096E-1,4.4927356E-1,1.01176664E-1,-2.7566022E-1,2.6422984E-3,-2.103368E-4,3.537401E-3,5.7958937E-3,-8.270538E-4,2.9370252E-3,-4.2357976E-3,-1.7924211E-3],"categories":[],"categories_nodes":[],"categories_segments":[],"categories_sizes":[],"default_left":[0,0,0,0,0,0,0,0,0,0,0,0,0,0,0],"id":13,"left_children":[1,3,5,7,9,11,13,-1,-1,-1,-1,-1,-1,-1,-1],"loss_changes":[2.6620212E2,1.320055E2,6.2107525E1,5.128366E1,2.751587E1,2.2429848E1,2.0140762E1,0E0,0E0,0E0,0E0,0E0,0E0,0E0,0E0],"parents":[2147483647,0,0,1,1,2,2,3,3,4,4,5,5,6,6],"right_children":[2,4,6,8,10,12,14,-1,-1,-1,-1,-1,-1,-1,-1],"split_conditions":[2E1,1.4E1,-2E0,1E1,2.3E1,-4.8E0,-6.2E0,2.6422984E-3,-2.103368E-4,3.537401E-3,5.7958937E-3,-8.270538E-4,2.9370252E-3,-4.2357976E-3,-1.7924211E-3],"split_indices":[28,80,77,51,80,25,25,0,0,0,0,0,0,0,0],"split_type":[0,0,0,0,0,0,0,0,0,0,0,0,0,0,0],"sum_hessian":[6.798738E3,4.7503403E3,2.0483975E3,2.5246726E3,2.2256675E3,6.3188873E2,1.4165088E3,1.205175E3,1.3194977E3,1.2863615E3,9.3930615E2,3.2349146E2,3.0839728E2,5.576296E2,8.5887915E2],"tree_param":{"num_deleted":"0","num_feature":"106","num_nodes":"15","size_leaf_vector":"1"}},{"base_weights":[-1.4046076E-1,-2.6910675E-1,1.5784493E-1,-1.5806764E-1,-5.151025E-1,-5.8685753E-2,2.956415E-1,-2.4019509E-4,-3.107361E-3,-5.7425355E-3,-3.6266362E-3,1.0447743E-3,-2.3711754E-3,4.5034164E-3,1.9693167E-3],"categories":[],"categories_nodes":[],"categories_segments":[],"categories_sizes":[],"default_left":[0,0,0,0,0,0,0,0,0,0,0,0,0,0,0],"id":14,"left_children":[1,3,5,7,9,11,13,-1,-1,-1,-1,-1,-1,-1,-1],"loss_changes":[2.6095126E2,1.2968161E2,6.1159393E1,6.700661E1,1.3109802E1,2.3250257E1,1.9036484E1,0E0,0E0,0E0,0E0,0E0,0E0,0E0,0E0],"parents":[2147483647,0,0,1,1,2,2,3,3,4,4,5,5,6,6],"right_children":[2,4,6,8,10,12,14,-1,-1,-1,-1,-1,-1,-1,-1],"split_conditions":[2E1,1.9E1,4.67E-1,2.8E0,-2.5E0,-4.8E0,-6.2E0,-2.4019509E-4,-3.107361E-3,-5.7425355E-3,-3.6266362E-3,1.0447743E-3,-2.3711754E-3,4.5034164E-3,1.9693167E-3],"split_indices":[28,80,55,25,77,25,25,0,0,0,0,0,0,0,0],"split_type":[0,0,0,0,0,0,0,0,0,0,0,0,0,0,0],"sum_hessian":[6.797778E3,4.749589E3,2.048189E3,3.2735815E3,1.4760074E3,7.9675653E2,1.2514325E3,1.7437058E3,1.5298756E3,1.0613884E3,4.1461908E2,4.1640146E2,3.8035504E2,4.8607828E2,7.6535425E2],"tree_param":{"num_deleted":"0","num_feature":"106","num_nodes":"15","size_leaf_vector":"1"}},{"base_weights":[1.4046077E-1,2.691068E-1,-1.5784496E-1,1.5806769E-1,5.151025E-1,5.8685757E-2,-2.9564157E-1,2.401959E-4,3.1073615E-3,5.7425355E-3,3.6266372E-3,-1.0447738E-3,2.3711752E-3,-4.5034173E-3,-1.9693165E-3],"categories":[],"categories_nodes":[],"categories_segments":[],"categories_sizes":[],"default_left":[0,0,0,0,0,0,0,0,0,0,0,0,0,0,0],"id":15,"left_children":[1,3,5,7,9,11,13,-1,-1,-1,-1,-1,-1,-1,-1],"loss_changes":[2.6095135E2,1.2968161E2,6.115941E1,6.7006584E1,1.3109772E1,2.325025E1,1.9036514E1,0E0,0E0,0E0,0E0,0E0,0E0,0E0,0E0],"parents":[2147483647,0,0,1,1,2,2,3,3,4,4,5,5,6,6],"right_children":[2,4,6,8,10,12,14,-1,-1,-1,-1,-1,-1,-1,-1],"split_conditions":[2E1,1.9E1,4.67E-1,2.8E0,-2.5E0,-4.8E0,-6.2E0,2.401959E-4,3.1073615E-3,5.7425355E-3,3.6266372E-3,-1.0447738E-3,2.3711752E-3,-4.5034173E-3,-1.9693165E-3],"split_indices":[28,80,55,25,77,25,25,0,0,0,0,0,0,0,0],"split_type":[0,0,0,0,0,0,0,0,0,0,0,0,0,0,0],"sum_hessian":[6.797778E3,4.749589E3,2.048189E3,3.2735815E3,1.4760074E3,7.9675653E2,1.2514325E3,1.7437058E3,1.5298756E3,1.0613884E3,4.1461905E2,4.164015E2,3.80355E2,4.8607828E2,7.6535425E2],"tree_param":{"num_deleted":"0","num_feature":"106","num_nodes":"15","size_leaf_vector":"1"}},{"base_weights":[-1.390783E-1,-2.6646382E-1,1.5628558E-1,-1.12466976E-1,-4.411044E-1,-9.977878E-2,2.7051765E-1,-2.5876623E-3,2.1223162E-4,-3.4753904E-3,-5.688119E-3,8.063295E-4,-2.8870448E-3,4.0557086E-3,1.6873679E-3],"categories":[],"categories_nodes":[],"categories_segments":[],"categories_sizes":[],"default_left":[0,0,0,0,0,0,0,0,0,0,0,0,0,0,0],"id":16,"left_children":[1,3,5,7,9,11,13,-1,-1,-1,-1,-1,-1,-1,-1],"loss_changes":[2.558079E2,1.2769162E2,5.996105E1,4.9399532E1,2.639325E1,2.15924E1,1.9411598E1,0E0,0E0,0E0,0E0,0E0,0E0,0E0,0E0],"parents":[2147483647,0,0,1,1,2,2,3,3,4,4,5,5,6,6],"right_children":[2,4,6,8,10,12,14,-1,-1,-1,-1,-1,-1,-1,-1],"split_conditions":[2E1,1.4E1,-2E0,1E1,2.3E1,-4.8E0,-5.9E0,-2.5876623E-3,2.1223162E-4,-3.4753904E-3,-5.688119E-3,8.063295E-4,-2.8870448E-3,4.0557086E-3,1.6873679E-3],"split_indices":[28,80,77,51,80,25,25,0,0,0,0,0,0,0,0],"split_type":[0,0,0,0,0,0,0,0,0,0,0,0,0,0,0],"sum_hessian":[6.7967603E3,4.7487856E3,2.0479742E3,2.5244167E3,2.224369E3,6.318148E2,1.4161594E3,1.204919E3,1.3194978E3,1.285941E3,9.3842786E2,3.234829E2,3.083319E2,6.073202E2,8.0883923E2],"tree_param":{"num_deleted":"0","num_feature":"106","num_nodes":"15","size_leaf_vector":"1"}},{"base_weights":[1.3907832E-1,2.6646385E-1,-1.5628555E-1,1.12466976E-1,4.4110447E-1,9.9778794E-2,-2.7051762E-1,2.5876623E-3,-2.1223162E-4,3.4753906E-3,5.68812E-3,-8.063295E-4,2.8870448E-3,-4.055708E-3,-1.6873677E-3],"categories":[],"categories_nodes":[],"categories_segments":[],"categories_sizes":[],"default_left":[0,0,0,0,0,0,0,0,0,0,0,0,0,0,0],"id":17,"left_children":[1,3,5,7,9,11,13,-1,-1,-1,-1,-1,-1,-1,-1],"loss_changes":[2.5580789E2,1.2769162E2,5.996104E1,4.9399532E1,2.639331E1,2.1592403E1,1.9411598E1,0E0,0E0,0E0,0E0,0E0,0E0,0E0,0E0],"parents":[2147483647,0,0,1,1,2,2,3,3,4,4,5,5,6,6],"right_children":[2,4,6,8,10,12,14,-1,-1,-1,-1,-1,-1,-1,-1],"split_conditions":[2E1,1.4E1,-2E0,1E1,2.3E1,-4.8E0,-5.9E0,2.5876623E-3,-2.1223162E-4,3.4753906E-3,5.68812E-3,-8.063295E-4,2.8870448E-3,-4.055708E-3,-1.6873677E-3],"split_indices":[28,80,77,51,80,25,25,0,0,0,0,0,0,0,0],"split_type":[0,0,0,0,0,0,0,0,0,0,0,0,0,0,0],"sum_hessian":[6.79676E3,4.7487856E3,2.0479742E3,2.5244167E3,2.224369E3,6.318148E2,1.4161594E3,1.204919E3,1.3194978E3,1.285941E3,9.384278E2,3.234829E2,3.083319E2,6.073202E2,8.0883923E2],"tree_param":{"num_deleted":"0","num_feature":"106","num_nodes":"15","size_leaf_vector":"1"}},{"base_weights":[-1.3771348E-1,-2.6385468E-1,1.5474449E-1,-1.1134973E-1,-4.368558E-1,-5.807284E-2,2.9019868E-1,-2.5621157E-3,2.101103E-4,-3.3081102E-3,-5.4769265E-3,1.0185303E-3,-2.329787E-3,4.4217636E-3,1.9326969E-3],"categories":[],"categories_nodes":[],"categories_segments":[],"categories_sizes":[],"default_left":[0,0,0,0,0,0,0,0,0,0,0,0,0,0,0],"id":18,"left_children":[1,3,5,7,9,11,13,-1,-1,-1,-1,-1,-1,-1,-1],"loss_changes":[2.5077235E2,1.2524246E2,5.907506E1,4.8424995E1,2.5965607E1,2.2335415E1,1.8358788E1,0E0,0E0,0E0,0E0,0E0,0E0,0E0,0E0],"parents":[2147483647,0,0,1,1,2,2,3,3,4,4,5,5,6,6],"right_children":[2,4,6,8,10,12,14,-1,-1,-1,-1,-1,-1,-1,-1],"split_conditions":[2E1,1.4E1,4.67E-1,1E1,2.2E1,-4.8E0,-6.2E0,-2.5621157E-3,2.101103E-4,-3.3081102E-3,-5.4769265E-3,1.0185303E-3,-2.329787E-3,4.4217636E-3,1.9326969E-3],"split_indices":[28,80,55,51,80,25,25,0,0,0,0,0,0,0,0],"split_type":[0,0,0,0,0,0,0,0,0,0,0,0,0,0,0],"sum_hessian":[6.79555E3,4.7478384E3,2.0477113E3,2.5242712E3,2.223567E3,7.9664417E2,1.2510671E3,1.2047742E3,1.3194971E3,1.1383853E3,1.0851818E3,4.1636078E2,3.8028342E2,4.8580234E2,7.6526483E2],"tree_param":{"num_deleted":"0","num_feature":"106","num_nodes":"15","size_leaf_vector":"1"}},{"base_weights":[1.3771349E-1,2.638547E-1,-1.5474449E-1,1.1134973E-1,4.3685582E-1,5.807288E-2,-2.901987E-1,2.5621164E-3,-2.1011113E-4,3.3081102E-3,5.476927E-3,-1.0185305E-3,2.3297882E-3,-4.4217636E-3,-1.9326971E-3],"categories":[],"categories_nodes":[],"categories_segments":[],"categories_sizes":[],"default_left":[0,0,0,0,0,0,0,0,0,0,0,0,0,0,0],"id":19,"left_children":[1,3,5,7,9,11,13,-1,-1,-1,-1,-1,-1,-1,-1],"loss_changes":[2.5077238E2,1.2524249E2,5.9075077E1,4.8425045E1,2.5965668E1,2.2335426E1,1.8358795E1,0E0,0E0,0E0,0E0,0E0,0E0,0E0,0E0],"parents":[2147483647,0,0,1,1,2,2,3,3,4,4,5,5,6,6],"right_children":[2,4,6,8,10,12,14,-1,-1,-1,-1,-1,-1,-1,-1],"split_conditions":[2E1,1.4E1,4.67E-1,1E1,2.2E1,-4.8E0,-6.2E0,2.5621164E-3,-2.1011113E-4,3.3081102E-3,5.476927E-3,-1.0185305E-3,2.3297882E-3,-4.4217636E-3,-1.9326971E-3],"split_indices":[28,80,55,51,80,25,25,0,0,0,0,0,0,0,0],"split_type":[0,0,0,0,0,0,0,0,0,0,0,0,0,0,0],"sum_hessian":[6.7955493E3,4.7478384E3,2.0477114E3,2.5242712E3,2.223567E3,7.9664417E2,1.2510671E3,1.2047742E3,1.3194971E3,1.1383853E3,1.0851818E3,4.1636078E2,3.8028342E2,4.8580234E2,7.6526483E2],"tree_param":{"num_deleted":"0","num_feature":"106","num_nodes":"15","size_leaf_vector":"1"}},{"base_weights":[-1.3636377E-1,-3.3052716E-1,5.040292E-2,-1.802139E-1,-4.8508105E-1,-2.196431E-1,1.6980287E-1,-2.5657301E-3,3.3005534E-5,-3.9714626E-3,-6.1840736E-3,5.5757444E-4,-3.6376026E-3,5.5094884E-4,3.1947251E-3],"categories":[],"categories_nodes":[],"categories_segments":[],"categories_sizes":[],"default_left":[0,0,0,0,0,0,0,0,0,0,0,0,0,0,0],"id":20,"left_children":[1,3,5,7,9,11,13,-1,-1,-1,-1,-1,-1,-1,-1],"loss_changes":[2.4643417E2,7.731482E1,1.11743576E2,2.3691975E1,1.9006744E1,4.2194923E1,4.1235405E1,0E0,0E0,0E0,0E0,0E0,0E0,0E0,0E0],"parents":[2147483647,0,0,1,1,2,2,3,3,4,4,5,5,6,6],"right_children":[2,4,6,8,10,12,14,-1,-1,-1,-1,-1,-1,-1,-1],"split_conditions":[1.5E1,1.3E1,-2E0,6E0,2.3E1,-4.8E0,2.4E1,-2.5657301E-3,3.3005534E-5,-3.9714626E-3,-6.1840736E-3,5.5757444E-4,-3.6376026E-3,5.5094884E-4,3.1947251E-3],"split_indices":[51,80,77,77,80,25,51,0,0,0,0,0,0,0,0],"split_type":[0,0,0,0,0,0,0,0,0,0,0,0,0,0,0],"sum_hessian":[6.7942407E3,3.3307795E3,3.463461E3,1.689653E3,1.6411266E3,1.0616025E3,2.4018584E3,1.1928981E3,4.9675494E2,9.912989E2,6.498277E2,3.6490356E2,6.96699E2,1.3605162E3,1.0413422E3],"tree_param":{"num_deleted":"0","num_feature":"106","num_nodes":"15","size_leaf_vector":"1"}},{"base_weights":[1.363638E-1,3.3052722E-1,-5.040291E-2,1.8021394E-1,4.8508108E-1,2.1964315E-1,-1.6980287E-1,2.5657308E-3,-3.300499E-5,3.9714626E-3,6.184074E-3,-5.5757415E-4,3.6376028E-3,-5.5094884E-4,-3.1947251E-3],"categories":[],"categories_nodes":[],"categories_segments":[],"categories_sizes":[],"default_left":[0,0,0,0,0,0,0,0,0,0,0,0,0,0,0],"id":21,"left_children":[1,3,5,7,9,11,13,-1,-1,-1,-1,-1,-1,-1,-1],"loss_changes":[2.4643423E2,7.731476E1,1.11743614E2,2.3691967E1,1.9006775E1,4.2194916E1,4.1235405E1,0E0,0E0,0E0,0E0,0E0,0E0,0E0,0E0],"parents":[2147483647,0,0,1,1,2,2,3,3,4,4,5,5,6,6],"right_children":[2,4,6,8,10,12,14,-1,-1,-1,-1,-1,-1,-1,-1],"split_conditions":[1.5E1,1.3E1,-2E0,6E0,2.3E1,-4.8E0,2.4E1,2.5657308E-3,-3.300499E-5,3.9714626E-3,6.184074E-3,-5.5757415E-4,3.6376028E-3,-5.5094884E-4,-3.1947251E-3],"split_indices":[51,80,77,77,80,25,51,0,0,0,0,0,0,0,0],"split_type":[0,0,0,0,0,0,0,0,0,0,0,0,0,0,0],"sum_hessian":[6.7942407E3,3.3307795E3,3.4634612E3,1.689653E3,1.6411266E3,1.0616025E3,2.4018584E3,1.1928981E3,4.9675494E2,9.912988E2,6.498277E2,3.6490353E2,6.96699E2,1.3605164E3,1.0413422E3],"tree_param":{"num_deleted":"0","num_feature":"106","num_nodes":"15","size_leaf_vector":"1"}},{"base_weights":[-1.3502814E-1,1.1081006E-1,-2.7978823E-1,-1.3562596E-1,2.2376464E-1,-5.1394784E-1,-1.6948248E-1,6.7496335E-4,-2.9813226E-3,8.033628E-4,3.249216E-3,-2.2017448E-3,-5.5173817E-3,-3.3771228E-3,-5.3573074E-4],"categories":[],"categories_nodes":[],"categories_segments":[],"categories_sizes":[],"default_left":[0,0,0,0,0,0,0,0,0,0,0,0,0,0,0],"id":22,"left_children":[1,3,5,7,9,11,13,-1,-1,-1,-1,-1,-1,-1,-1],"loss_changes":[2.4181061E2,7.0138985E1,1.10366394E2,2.6170013E1,2.503653E1,1.5075562E1,5.669461E1,0E0,0E0,0E0,0E0,0E0,0E0,0E0,0E0],"parents":[2147483647,0,0,1,1,2,2,3,3,4,4,5,5,6,6],"right_children":[2,4,6,8,10,12,14,-1,-1,-1,-1,-1,-1,-1,-1],"split_conditions":[4.59E-1,-2E0,-1.4E0,-4.8E0,2.4E1,9E0,8E0,6.7496335E-4,-2.9813226E-3,8.033628E-4,3.249216E-3,-2.2017448E-3,-5.5173817E-3,-3.3771228E-3,-5.3573074E-4],"split_indices":[3,77,77,25,51,52,51,0,0,0,0,0,0,0,0],"split_type":[0,0,0,0,0,0,0,0,0,0,0,0,0,0,0],"sum_hessian":[6.7929365E3,2.517625E3,4.2753115E3,7.9121326E2,1.7264117E3,1.3678813E3,2.9074302E3,3.519204E2,4.3929288E2,7.1476105E2,1.0116507E3,1.5668384E2,1.2111975E3,1.1852523E3,1.7221779E3],"tree_param":{"num_deleted":"0","num_feature":"106","num_nodes":"15","size_leaf_vector":"1"}},{"base_weights":[1.3502817E-1,-1.1081004E-1,2.7978826E-1,1.3562596E-1,-2.2376463E-1,5.1394784E-1,1.694825E-1,-6.7496335E-4,2.9813226E-3,-8.0336264E-4,-3.2492157E-3,2.2017448E-3,5.5173817E-3,3.377123E-3,5.357311E-4],"categories":[],"categories_nodes":[],"categories_segments":[],"categories_sizes":[],"default_left":[0,0,0,0,0,0,0,0,0,0,0,0,0,0,0],"id":23,"left_children":[1,3,5,7,9,11,13,-1,-1,-1,-1,-1,-1,-1,-1],"loss_changes":[2.4181061E2,7.0138985E1,1.10366394E2,2.617002E1,2.503653E1,1.5075562E1,5.6694595E1,0E0,0E0,0E0,0E0,0E0,0E0,0E0,0E0],"parents":[2147483647,0,0,1,1,2,2,3,3,4,4,5,5,6,6],"right_children":[2,4,6,8,10,12,14,-1,-1,-1,-1,-1,-1,-1,-1],"split_conditions":[4.59E-1,-2E0,-1.4E0,-4.8E0,2.4E1,9E0,8E0,-6.7496335E-4,2.9813226E-3,-8.0336264E-4,-3.2492157E-3,2.2017448E-3,5.5173817E-3,3.377123E-3,5.357311E-4],"split_indices":[3,77,77,25,51,52,51,0,0,0,0,0,0,0,0],"split_type":[0,0,0,0,0,0,0,0,0,0,0,0,0,0,0],"sum_hessian":[6.7929365E3,2.517625E3,4.2753115E3,7.912133E2,1.7264117E3,1.3678813E3,2.9074302E3,3.519204E2,4.392929E2,7.1476105E2,1.01165063E3,1.5668385E2,1.2111975E3,1.1852524E3,1.7221779E3],"tree_param":{"num_deleted":"0","num_feature":"106","num_nodes":"15","size_leaf_vector":"1"}},{"base_weights":[-1.3370787E-1,-3.244482E-1,4.9718544E-2,-1.7641918E-1,-4.7676247E-1,-1.9106291E-1,1.7858407E-1,-2.5200807E-3,5.219501E-5,-3.902873E-3,-6.0799206E-3,7.290643E-4,-3.3048615E-3,6.6062395E-4,3.2708852E-3],"categories":[],"categories_nodes":[],"categories_segments":[],"categories_sizes":[],"default_left":[0,0,0,0,0,0,0,0,0,0,0,0,0,0,0],"id":24,"left_children":[1,3,5,7,9,11,13,-1,-1,-1,-1,-1,-1,-1,-1],"loss_changes":[2.3766418E2,7.49971E1,1.0750128E2,2.3209496E1,1.8381042E1,4.4479843E1,3.7685837E1,0E0,0E0,0E0,0E0,0E0,0E0,0E0,0E0],"parents":[2147483647,0,0,1,1,2,2,3,3,4,4,5,5,6,6],"right_children":[2,4,6,8,10,12,14,-1,-1,-1,-1,-1,-1,-1,-1],"split_conditions":[1.5E1,1.3E1,-1.4E0,6E0,2.3E1,-4.8E0,2.4E1,-2.5200807E-3,5.219501E-5,-3.902873E-3,-6.0799206E-3,7.290643E-4,-3.3048615E-3,6.6062395E-4,3.2708852E-3],"split_indices":[51,80,77,77,80,25,51,0,0,0,0,0,0,0,0],"split_type":[0,0,0,0,0,0,0,0,0,0,0,0,0,0,0],"sum_hessian":[6.7915044E3,3.3289978E3,3.4625066E3,1.6893423E3,1.6396555E3,1.2069232E3,2.2555833E3,1.1926385E3,4.9670364E2,9.9075854E2,6.48897E2,4.1730978E2,7.8961346E2,1.2840812E3,9.715021E2],"tree_param":{"num_deleted":"0","num_feature":"106","num_nodes":"15","size_leaf_vector":"1"}},{"base_weights":[1.3370787E-1,3.244482E-1,-4.971854E-2,1.764192E-1,4.7676244E-1,1.9106288E-1,-1.7858405E-1,2.5200811E-3,-5.2194944E-5,3.9028728E-3,6.0799206E-3,-7.290649E-4,3.3048615E-3,-6.6062424E-4,-3.2708847E-3],"categories":[],"categories_nodes":[],"categories_segments":[],"categories_sizes":[],"default_left":[0,0,0,0,0,0,0,0,0,0,0,0,0,0,0],"id":25,"left_children":[1,3,5,7,9,11,13,-1,-1,-1,-1,-1,-1,-1,-1],"loss_changes":[2.3766418E2,7.499713E1,1.0750127E2,2.3209488E1,1.8381012E1,4.4479855E1,3.76858E1,0E0,0E0,0E0,0E0,0E0,0E0,0E0,0E0],"parents":[2147483647,0,0,1,1,2,2,3,3,4,4,5,5,6,6],"right_children":[2,4,6,8,10,12,14,-1,-1,-1,-1,-1,-1,-1,-1],"split_conditions":[1.5E1,1.3E1,-1.4E0,6E0,2.3E1,-4.8E0,2.4E1,2.5200811E-3,-5.2194944E-5,3.9028728E-3,6.0799206E-3,-7.290649E-4,3.3048615E-3,-6.6062424E-4,-3.2708847E-3],"split_indices":[51,80,77,77,80,25,51,0,0,0,0,0,0,0,0],"split_type":[0,0,0,0,0,0,0,0,0,0,0,0,0,0,0],"sum_hessian":[6.7915044E3,3.3289978E3,3.4625066E3,1.6893422E3,1.6396555E3,1.2069232E3,2.2555833E3,1.1926385E3,4.9670364E2,9.9075854E2,6.48897E2,4.1730978E2,7.8961346E2,1.2840812E3,9.715021E2],"tree_param":{"num_deleted":"0","num_feature":"106","num_nodes":"15","size_leaf_vector":"1"}},{"base_weights":[-1.3240252E-1,-2.5416303E-1,1.49802E-1,-1.0662619E-1,-4.2176354E-1,-5.6126066E-2,2.8090364E-1,-2.471942E-3,2.174271E-4,-5.8009336E-3,-3.5225817E-3,9.700143E-4,-2.23662E-3,4.2900546E-3,1.8653473E-3],"categories":[],"categories_nodes":[],"categories_segments":[],"categories_sizes":[],"default_left":[0,0,0,0,0,0,0,0,0,0,0,0,0,0,0],"id":26,"left_children":[1,3,5,7,9,11,13,-1,-1,-1,-1,-1,-1,-1,-1],"loss_changes":[2.3338538E2,1.1727237E2,5.5293743E1,4.556065E1,2.4235718E1,2.0475962E1,1.740728E1,0E0,0E0,0E0,0E0,0E0,0E0,0E0,0E0],"parents":[2147483647,0,0,1,1,2,2,3,3,4,4,5,5,6,6],"right_children":[2,4,6,8,10,12,14,-1,-1,-1,-1,-1,-1,-1,-1],"split_conditions":[2E1,1.4E1,4.67E-1,1E1,7E0,-4.8E0,-6.2E0,-2.471942E-3,2.174271E-4,-5.8009336E-3,-3.5225817E-3,9.700143E-4,-2.23662E-3,4.2900546E-3,1.8653473E-3],"split_indices":[28,80,55,51,51,25,25,0,0,0,0,0,0,0,0],"split_type":[0,0,0,0,0,0,0,0,0,0,0,0,0,0,0],"sum_hessian":[6.789979E3,4.7434575E3,2.0465217E3,2.5235986E3,2.219859E3,7.963017E2,1.25022E3,1.2041216E3,1.319477E3,6.749681E2,1.5448907E3,4.1626102E2,3.8004065E2,4.8520197E2,7.65018E2],"tree_param":{"num_deleted":"0","num_feature":"106","num_nodes":"15","size_leaf_vector":"1"}},{"base_weights":[1.3240251E-1,2.54163E-1,-1.49802E-1,1.0662618E-1,4.2176354E-1,5.6126066E-2,-2.8090364E-1,2.4719418E-3,-2.1742716E-4,5.8009336E-3,3.5225817E-3,-9.700143E-4,2.2366203E-3,-4.2900546E-3,-1.8653474E-3],"categories":[],"categories_nodes":[],"categories_segments":[],"categories_sizes":[],"default_left":[0,0,0,0,0,0,0,0,0,0,0,0,0,0,0],"id":27,"left_children":[1,3,5,7,9,11,13,-1,-1,-1,-1,-1,-1,-1,-1],"loss_changes":[2.3338535E2,1.1727237E2,5.529376E1,4.5560646E1,2.4235718E1,2.0475964E1,1.740728E1,0E0,0E0,0E0,0E0,0E0,0E0,0E0,0E0],"parents":[2147483647,0,0,1,1,2,2,3,3,4,4,5,5,6,6],"right_children":[2,4,6,8,10,12,14,-1,-1,-1,-1,-1,-1,-1,-1],"split_conditions":[2E1,1.4E1,4.67E-1,1E1,7E0,-4.8E0,-6.2E0,2.4719418E-3,-2.1742716E-4,5.8009336E-3,3.5225817E-3,-9.700143E-4,2.2366203E-3,-4.2900546E-3,-1.8653474E-3],"split_indices":[28,80,55,51,51,25,25,0,0,0,0,0,0,0,0],"split_type":[0,0,0,0,0,0,0,0,0,0,0,0,0,0,0],"sum_hessian":[6.789979E3,4.7434575E3,2.0465217E3,2.5235986E3,2.219859E3,7.963017E2,1.25022E3,1.2041216E3,1.319477E3,6.749681E2,1.5448907E3,4.1626102E2,3.8004065E2,4.8520197E2,7.6501807E2],"tree_param":{"num_deleted":"0","num_feature":"106","num_nodes":"15","size_leaf_vector":"1"}},{"base_weights":[-1.3111205E-1,-3.1848547E-1,4.902022E-2,-1.7311816E-1,-4.6819174E-1,-2.1178398E-1,1.6428186E-1,-2.4796494E-3,6.708944E-5,-3.824708E-3,-5.983894E-3,5.319185E-4,-3.506188E-3,5.4322084E-4,3.0786952E-3],"categories":[],"categories_nodes":[],"categories_segments":[],"categories_sizes":[],"default_left":[0,0,0,0,0,0,0,0,0,0,0,0,0,0,0],"id":28,"left_children":[1,3,5,7,9,11,13,-1,-1,-1,-1,-1,-1,-1,-1],"loss_changes":[2.2916837E2,7.23421E1,1.04117256E2,2.2748257E1,1.8062286E1,3.9074184E1,3.7904434E1,0E0,0E0,0E0,0E0,0E0,0E0,0E0,0E0],"parents":[2147483647,0,0,1,1,2,2,3,3,4,4,5,5,6,6],"right_children":[2,4,6,8,10,12,14,-1,-1,-1,-1,-1,-1,-1,-1],"split_conditions":[1.5E1,1.3E1,-2E0,6E0,2.3E1,-4.8E0,2.4E1,-2.4796494E-3,6.708944E-5,-3.824708E-3,-5.983894E-3,5.319185E-4,-3.506188E-3,5.4322084E-4,3.0786952E-3],"split_indices":[51,80,77,77,80,25,51,0,0,0,0,0,0,0,0],"split_type":[0,0,0,0,0,0,0,0,0,0,0,0,0,0,0],"sum_hessian":[6.788309E3,3.3269014E3,3.461408E3,1.6890052E3,1.637896E3,1.0606415E3,2.4007664E3,1.1923516E3,4.9665375E2,9.9001624E2,6.478798E2,3.6487305E2,6.9576843E2,1.3603701E3,1.0403964E3],"tree_param":{"num_deleted":"0","num_feature":"106","num_nodes":"15","size_leaf_vector":"1"}},{"base_weights":[1.3111205E-1,3.1848547E-1,-4.9020205E-2,1.7311816E-1,4.6819174E-1,2.1178398E-1,-1.6428185E-1,2.4796494E-3,-6.708959E-5,3.824708E-3,5.983894E-3,-5.319188E-4,3.5061883E-3,-5.432209E-4,-3.0786947E-3],"categories":[],"categories_nodes":[],"categories_segments":[],"categories_sizes":[],"default_left":[0,0,0,0,0,0,0,0,0,0,0,0,0,0,0],"id":29,"left_children":[1,3,5,7,9,11,13,-1,-1,-1,-1,-1,-1,-1,-1],"loss_changes":[2.2916837E2,7.23421E1,1.0411726E2,2.274825E1,1.8062286E1,3.90742E1,3.7904427E1,0E0,0E0,0E0,0E0,0E0,0E0,0E0,0E0],"parents":[2147483647,0,0,1,1,2,2,3,3,4,4,5,5,6,6],"right_children":[2,4,6,8,10,12,14,-1,-1,-1,-1,-1,-1,-1,-1],"split_conditions":[1.5E1,1.3E1,-2E0,6E0,2.3E1,-4.8E0,2.4E1,2.4796494E-3,-6.708959E-5,3.824708E-3,5.983894E-3,-5.319188E-4,3.5061883E-3,-5.432209E-4,-3.0786947E-3],"split_indices":[51,80,77,77,80,25,51,0,0,0,0,0,0,0,0],"split_type":[0,0,0,0,0,0,0,0,0,0,0,0,0,0,0],"sum_hessian":[6.788309E3,3.3269014E3,3.461408E3,1.6890052E3,1.637896E3,1.0606415E3,2.4007664E3,1.1923516E3,4.9665375E2,9.9001624E2,6.4787976E2,3.6487308E2,6.9576843E2,1.36037E3,1.0403964E3],"tree_param":{"num_deleted":"0","num_feature":"106","num_nodes":"15","size_leaf_vector":"1"}},{"base_weights":[-1.2983619E-1,1.0166716E-1,-2.7305055E-1,-1.3632609E-1,2.098629E-1,-1.2679185E-1,-4.384005E-1,6.4723473E-4,-2.9036594E-3,7.2821445E-4,3.1362523E-3,-2.756995E-3,-1.9372275E-4,-3.5059943E-3,-5.5707116E-3],"categories":[],"categories_nodes":[],"categories_segments":[],"categories_sizes":[],"default_left":[0,0,0,0,0,0,0,0,0,0,0,0,0,0,0],"id":30,"left_children":[1,3,5,7,9,11,13,-1,-1,-1,-1,-1,-1,-1,-1],"loss_changes":[2.2506715E2,6.6846664E1,1.0136398E2,2.515367E1,2.5349365E1,3.561232E1,2.0309753E1,0E0,0E0,0E0,0E0,0E0,0E0,0E0,0E0],"parents":[2147483647,0,0,1,1,2,2,3,3,4,4,5,5,6,6],"right_children":[2,4,6,8,10,12,14,-1,-1,-1,-1,-1,-1,-1,-1],"split_conditions":[4.65E-1,-2E0,1.4E1,-4.8E0,2.4E1,8E0,2.3E1,6.4723473E-4,-2.9036594E-3,7.2821445E-4,3.1362523E-3,-2.756995E-3,-1.9372275E-4,-3.5059943E-3,-5.5707116E-3],"split_indices":[3,77,80,25,51,51,80,0,0,0,0,0,0,0,0],"split_type":[0,0,0,0,0,0,0,0,0,0,0,0,0,0,0],"sum_hessian":[6.7865767E3,2.5938906E3,4.192686E3,8.105971E2,1.7832936E3,2.2257168E3,1.9669691E3,3.5189325E2,4.5870383E2,7.691544E2,1.01413916E3,9.320792E2,1.2936375E3,1.132798E3,8.3417114E2],"tree_param":{"num_deleted":"0","num_feature":"106","num_nodes":"15","size_leaf_vector":"1"}},{"base_weights":[1.2983619E-1,-1.0166715E-1,2.7305055E-1,1.3632606E-1,-2.0986287E-1,1.2679186E-1,4.384005E-1,-6.4723473E-4,2.903659E-3,-7.2821445E-4,-3.1362518E-3,2.756995E-3,1.9372303E-4,3.5059943E-3,5.5707116E-3],"categories":[],"categories_nodes":[],"categories_segments":[],"categories_sizes":[],"default_left":[0,0,0,0,0,0,0,0,0,0,0,0,0,0,0],"id":31,"left_children":[1,3,5,7,9,11,13,-1,-1,-1,-1,-1,-1,-1,-1],"loss_changes":[2.2506717E2,6.684666E1,1.0136395E2,2.515366E1,2.5349342E1,3.5612312E1,2.0309753E1,0E0,0E0,0E0,0E0,0E0,0E0,0E0,0E0],"parents":[2147483647,0,0,1,1,2,2,3,3,4,4,5,5,6,6],"right_children":[2,4,6,8,10,12,14,-1,-1,-1,-1,-1,-1,-1,-1],"split_conditions":[4.65E-1,-2E0,1.4E1,-4.8E0,2.4E1,8E0,2.3E1,-6.4723473E-4,2.903659E-3,-7.2821445E-4,-3.1362518E-3,2.756995E-3,1.9372303E-4,3.5059943E-3,5.5707116E-3],"split_indices":[3,77,80,25,51,51,80,0,0,0,0,0,0,0,0],"split_type":[0,0,0,0,0,0,0,0,0,0,0,0,0,0,0],"sum_hessian":[6.7865767E3,2.5938906E3,4.192686E3,8.105971E2,1.7832937E3,2.2257168E3,1.9669691E3,3.5189325E2,4.5870383E2,7.691544E2,1.0141392E3,9.320792E2,1.2936376E3,1.132798E3,8.3417114E2],"tree_param":{"num_deleted":"0","num_feature":"106","num_nodes":"15","size_leaf_vector":"1"}},{"base_weights":[-1.285756E-1,-3.1274337E-1,4.8412796E-2,-1.6992211E-1,-4.5997673E-1,-1.8430755E-1,1.7290893E-1,-2.4403802E-3,8.11649E-5,-3.75719E-3,-5.88105E-3,6.965725E-4,-3.1860757E-3,6.5040163E-4,3.1540676E-3],"categories":[],"categories_nodes":[],"categories_segments":[],"categories_sizes":[],"default_left":[0,0,0,0,0,0,0,0,0,0,0,0,0,0,0],"id":32,"left_children":[1,3,5,7,9,11,13,-1,-1,-1,-1,-1,-1,-1,-1],"loss_changes":[2.2119836E2,6.985132E1,1.0031118E2,2.229768E1,1.7450531E1,4.118163E1,3.464737E1,0E0,0E0,0E0,0E0,0E0,0E0,0E0,0E0],"parents":[2147483647,0,0,1,1,2,2,3,3,4,4,5,5,6,6],"right_children":[2,4,6,8,10,12,14,-1,-1,-1,-1,-1,-1,-1,-1],"split_conditions":[1.5E1,1.3E1,-1.4E0,6E0,2.3E1,-4.8E0,2.4E1,-2.4403802E-3,8.11649E-5,-3.75719E-3,-5.88105E-3,6.965725E-4,-3.1860757E-3,6.5040163E-4,3.1540676E-3],"split_indices":[51,80,77,77,80,25,51,0,0,0,0,0,0,0,0],"split_type":[0,0,0,0,0,0,0,0,0,0,0,0,0,0,0],"sum_hessian":[6.784687E3,3.3245315E3,3.4601555E3,1.6886445E3,1.6358871E3,1.2057567E3,2.2543987E3,1.1920386E3,4.96606E2,9.892706E2,6.4661646E2,4.1723538E2,7.8852136E2,1.2839352E3,9.7046356E2],"tree_param":{"num_deleted":"0","num_feature":"106","num_nodes":"15","size_leaf_vector":"1"}},{"base_weights":[1.2857558E-1,3.1274334E-1,-4.8412785E-2,1.699221E-1,4.599767E-1,1.8430755E-1,-1.7290893E-1,2.4403802E-3,-8.116519E-5,3.7571897E-3,5.8810497E-3,-6.965727E-4,3.186076E-3,-6.504016E-4,-3.1540676E-3],"categories":[],"categories_nodes":[],"categories_segments":[],"categories_sizes":[],"default_left":[0,0,0,0,0,0,0,0,0,0,0,0,0,0,0],"id":33,"left_children":[1,3,5,7,9,11,13,-1,-1,-1,-1,-1,-1,-1,-1],"loss_changes":[2.2119833E2,6.985129E1,1.00311165E2,2.229768E1,1.7450562E1,4.1181637E1,3.4647377E1,0E0,0E0,0E0,0E0,0E0,0E0,0E0,0E0],"parents":[2147483647,0,0,1,1,2,2,3,3,4,4,5,5,6,6],"right_children":[2,4,6,8,10,12,14,-1,-1,-1,-1,-1,-1,-1,-1],"split_conditions":[1.5E1,1.3E1,-1.4E0,6E0,2.3E1,-4.8E0,2.4E1,2.4403802E-3,-8.116519E-5,3.7571897E-3,5.8810497E-3,-6.965727E-4,3.186076E-3,-6.504016E-4,-3.1540676E-3],"split_indices":[51,80,77,77,80,25,51,0,0,0,0,0,0,0,0],"split_type":[0,0,0,0,0,0,0,0,0,0,0,0,0,0,0],"sum_hessian":[6.784687E3,3.3245315E3,3.4601553E3,1.6886445E3,1.6358871E3,1.2057567E3,2.2543987E3,1.1920386E3,4.9660596E2,9.892706E2,6.4661646E2,4.1723538E2,7.8852136E2,1.2839352E3,9.704635E2],"tree_param":{"num_deleted":"0","num_feature":"106","num_nodes":"15","size_leaf_vector":"1"}},{"base_weights":[-1.273281E-1,-2.449054E-1,1.4505948E-1,-1.4266887E-1,-4.724151E-1,-5.4245245E-2,2.7198413E-1,-1.7501916E-4,-2.8541482E-3,-5.2824602E-3,-3.2897475E-3,9.2352874E-4,-2.1472573E-3,4.164175E-3,1.8005694E-3],"categories":[],"categories_nodes":[],"categories_segments":[],"categories_sizes":[],"default_left":[0,0,0,0,0,0,0,0,0,0,0,0,0,0,0],"id":34,"left_children":[1,3,5,7,9,11,13,-1,-1,-1,-1,-1,-1,-1,-1],"loss_changes":[2.1729619E2,1.1015555E2,5.177127E1,5.8437653E1,1.158905E1,1.8766743E1,1.6523392E1,0E0,0E0,0E0,0E0,0E0,0E0,0E0,0E0],"parents":[2147483647,0,0,1,1,2,2,3,3,4,4,5,5,6,6],"right_children":[2,4,6,8,10,12,14,-1,-1,-1,-1,-1,-1,-1,-1],"split_conditions":[2E1,1.9E1,4.67E-1,2.8E0,-2.5E0,-4.8E0,-6.2E0,-1.7501916E-4,-2.8541482E-3,-5.2824602E-3,-3.2897475E-3,9.2352874E-4,-2.1472573E-3,4.164175E-3,1.8005694E-3],"split_indices":[28,80,55,25,77,25,25,0,0,0,0,0,0,0,0],"split_type":[0,0,0,0,0,0,0,0,0,0,0,0,0,0,0],"sum_hessian":[6.7827563E3,4.7377754E3,2.044981E3,3.2699695E3,1.4678062E3,7.958546E2,1.2491263E3,1.7428616E3,1.5271078E3,1.0546317E3,4.131744E2,4.161386E2,3.7971597E2,4.84447E2,7.646793E2],"tree_param":{"num_deleted":"0","num_feature":"106","num_nodes":"15","size_leaf_vector":"1"}},{"base_weights":[1.2732808E-1,2.4490538E-1,-1.450595E-1,1.4266886E-1,4.724151E-1,5.4245252E-2,-2.7198416E-1,1.750191E-4,2.8541477E-3,5.2824602E-3,3.289747E-3,-9.2352857E-4,2.1472573E-3,-4.164175E-3,-1.8005698E-3],"categories":[],"categories_nodes":[],"categories_segments":[],"categories_sizes":[],"default_left":[0,0,0,0,0,0,0,0,0,0,0,0,0,0,0],"id":35,"left_children":[1,3,5,7,9,11,13,-1,-1,-1,-1,-1,-1,-1,-1],"loss_changes":[2.1729617E2,1.1015558E2,5.1771294E1,5.8437653E1,1.158902E1,1.8766743E1,1.6523376E1,0E0,0E0,0E0,0E0,0E0,0E0,0E0,0E0],"parents":[2147483647,0,0,1,1,2,2,3,3,4,4,5,5,6,6],"right_children":[2,4,6,8,10,12,14,-1,-1,-1,-1,-1,-1,-1,-1],"split_conditions":[2E1,1.9E1,4.67E-1,2.8E0,-2.5E0,-4.8E0,-6.2E0,1.750191E-4,2.8541477E-3,5.2824602E-3,3.289747E-3,-9.2352857E-4,2.1472573E-3,-4.164175E-3,-1.8005698E-3],"split_indices":[28,80,55,25,77,25,25,0,0,0,0,0,0,0,0],"split_type":[0,0,0,0,0,0,0,0,0,0,0,0,0,0,0],"sum_hessian":[6.7827563E3,4.7377754E3,2.044981E3,3.2699692E3,1.4678062E3,7.958546E2,1.2491263E3,1.7428615E3,1.5271078E3,1.0546317E3,4.131744E2,4.161386E2,3.7971597E2,4.84447E2,7.646793E2],"tree_param":{"num_deleted":"0","num_feature":"106","num_nodes":"15","size_leaf_vector":"1"}},{"base_weights":[-1.2609404E-1,-3.071014E-1,4.7790788E-2,-1.6634952E-1,-4.5235336E-1,-2.0389196E-1,1.5895171E-1,-2.3978692E-3,1.0020638E-4,-3.6955944E-3,-5.784203E-3,5.074042E-4,-3.3752741E-3,5.3547294E-4,2.9673236E-3],"categories":[],"categories_nodes":[],"categories_segments":[],"categories_sizes":[],"default_left":[0,0,0,0,0,0,0,0,0,0,0,0,0,0,0],"id":36,"left_children":[1,3,5,7,9,11,13,-1,-1,-1,-1,-1,-1,-1,-1],"loss_changes":[2.1346558E2,6.786066E1,9.682766E1,2.188115E1,1.684903E1,3.6099567E1,3.484441E1,0E0,0E0,0E0,0E0,0E0,0E0,0E0,0E0],"parents":[2147483647,0,0,1,1,2,2,3,3,4,4,5,5,6,6],"right_children":[2,4,6,8,10,12,14,-1,-1,-1,-1,-1,-1,-1,-1],"split_conditions":[1.5E1,1.3E1,-2E0,6E0,2.3E1,-4.8E0,2.4E1,-2.3978692E-3,1.0020638E-4,-3.6955944E-3,-5.784203E-3,5.074042E-4,-3.3752741E-3,5.3547294E-4,2.9673236E-3],"split_indices":[51,80,77,77,80,25,51,0,0,0,0,0,0,0,0],"split_type":[0,0,0,0,0,0,0,0,0,0,0,0,0,0,0],"sum_hessian":[6.7807236E3,3.3219436E3,3.4587798E3,1.6881956E3,1.6337479E3,1.0593774E3,2.3994023E3,1.1916528E3,4.9654266E2,9.884917E2,6.452562E2,3.6483395E2,6.945435E2,1.3602091E3,1.0391934E3],"tree_param":{"num_deleted":"0","num_feature":"106","num_nodes":"15","size_leaf_vector":"1"}},{"base_weights":[1.2609404E-1,3.0710137E-1,-4.7790784E-2,1.6634952E-1,4.5235333E-1,2.03892E-1,-1.5895171E-1,2.3978692E-3,-1.0020674E-4,3.695594E-3,5.784203E-3,-5.074033E-4,3.3752741E-3,-5.35473E-4,-2.9673236E-3],"categories":[],"categories_nodes":[],"categories_segments":[],"categories_sizes":[],"default_left":[0,0,0,0,0,0,0,0,0,0,0,0,0,0,0],"id":37,"left_children":[1,3,5,7,9,11,13,-1,-1,-1,-1,-1,-1,-1,-1],"loss_changes":[2.1346558E2,6.7860596E1,9.682768E1,2.1881142E1,1.684903E1,3.609955E1,3.4844402E1,0E0,0E0,0E0,0E0,0E0,0E0,0E0,0E0],"parents":[2147483647,0,0,1,1,2,2,3,3,4,4,5,5,6,6],"right_children":[2,4,6,8,10,12,14,-1,-1,-1,-1,-1,-1,-1,-1],"split_conditions":[1.5E1,1.3E1,-2E0,6E0,2.3E1,-4.8E0,2.4E1,2.3978692E-3,-1.0020674E-4,3.695594E-3,5.784203E-3,-5.074033E-4,3.3752741E-3,-5.35473E-4,-2.9673236E-3],"split_indices":[51,80,77,77,80,25,51,0,0,0,0,0,0,0,0],"split_type":[0,0,0,0,0,0,0,0,0,0,0,0,0,0,0],"sum_hessian":[6.7807236E3,3.3219436E3,3.45878E3,1.6881956E3,1.6337479E3,1.0593776E3,2.3994023E3,1.191653E3,4.9654266E2,9.884917E2,6.452562E2,3.6483395E2,6.945436E2,1.3602091E3,1.0391934E3],"tree_param":{"num_deleted":"0","num_feature":"106","num_nodes":"15","size_leaf_vector":"1"}},{"base_weights":[-1.2487416E-1,-2.4038641E-1,1.4266169E-1,-1.398998E-1,-4.6429643E-1,-5.319824E-2,2.6742074E-1,-1.6650367E-4,-2.8051971E-3,-3.4097391E-3,-5.283019E-3,9.026786E-4,-2.1030034E-3,4.098062E-3,1.7686242E-3],"categories":[],"categories_nodes":[],"categories_segments":[],"categories_sizes":[],"default_left":[0,0,0,0,0,0,0,0,0,0,0,0,0,0,0],"id":38,"left_children":[1,3,5,7,9,11,13,-1,-1,-1,-1,-1,-1,-1,-1],"loss_changes":[2.0954913E2,1.0648401E2,4.9986656E1,5.66697E1,1.1395142E1,1.7973833E1,1.6038445E1,0E0,0E0,0E0,0E0,0E0,0E0,0E0,0E0],"parents":[2147483647,0,0,1,1,2,2,3,3,4,4,5,5,6,6],"right_children":[2,4,6,8,10,12,14,-1,-1,-1,-1,-1,-1,-1,-1],"split_conditions":[2E1,1.9E1,4.67E-1,2.8E0,5.31E-1,-4.8E0,-6.2E0,-1.6650367E-4,-2.8051971E-3,-3.4097391E-3,-5.283019E-3,9.026786E-4,-2.1030034E-3,4.098062E-3,1.7686242E-3],"split_indices":[28,80,55,25,3,25,25,0,0,0,0,0,0,0,0],"split_type":[0,0,0,0,0,0,0,0,0,0,0,0,0,0,0],"sum_hessian":[6.77861E3,4.7345186E3,2.0440916E3,3.2690535E3,1.465465E3,7.956187E2,1.2484728E3,1.7427235E3,1.52633E3,5.0287598E2,9.62589E2,4.1607928E2,3.7953943E2,4.8398096E2,7.644919E2],"tree_param":{"num_deleted":"0","num_feature":"106","num_nodes":"15","size_leaf_vector":"1"}},{"base_weights":[1.2487416E-1,2.4038641E-1,-1.4266168E-1,1.398998E-1,4.6429643E-1,5.319825E-2,-2.674207E-1,1.6650367E-4,2.8051971E-3,3.4097391E-3,5.283019E-3,-9.026778E-4,2.1030025E-3,-4.098062E-3,-1.7686237E-3],"categories":[],"categories_nodes":[],"categories_segments":[],"categories_sizes":[],"default_left":[0,0,0,0,0,0,0,0,0,0,0,0,0,0,0],"id":39,"left_children":[1,3,5,7,9,11,13,-1,-1,-1,-1,-1,-1,-1,-1],"loss_changes":[2.095491E2,1.0648404E2,4.998664E1,5.66697E1,1.1395142E1,1.7973816E1,1.6038467E1,0E0,0E0,0E0,0E0,0E0,0E0,0E0,0E0],"parents":[2147483647,0,0,1,1,2,2,3,3,4,4,5,5,6,6],"right_children":[2,4,6,8,10,12,14,-1,-1,-1,-1,-1,-1,-1,-1],"split_conditions":[2E1,1.9E1,4.67E-1,2.8E0,5.31E-1,-4.8E0,-6.2E0,1.6650367E-4,2.8051971E-3,3.4097391E-3,5.283019E-3,-9.026778E-4,2.1030025E-3,-4.098062E-3,-1.7686237E-3],"split_indices":[28,80,55,25,3,25,25,0,0,0,0,0,0,0,0],"split_type":[0,0,0,0,0,0,0,0,0,0,0,0,0,0,0],"sum_hessian":[6.77861E3,4.7345186E3,2.0440916E3,3.2690535E3,1.465465E3,7.956188E2,1.2484729E3,1.7427235E3,1.52633E3,5.0287598E2,9.62589E2,4.160793E2,3.7953946E2,4.8398096E2,7.644919E2],"tree_param":{"num_deleted":"0","num_feature":"106","num_nodes":"15","size_leaf_vector":"1"}},{"base_weights":[-1.2366685E-1,-3.014764E-1,4.7067933E-2,-1.6285089E-1,-4.447021E-1,-1.779252E-1,1.6736567E-1,-2.3561956E-3,1.1870358E-4,-3.6318453E-3,-5.6899814E-3,6.645408E-4,-3.0734066E-3,6.359654E-4,3.0461298E-3],"categories":[],"categories_nodes":[],"categories_segments":[],"categories_sizes":[],"default_left":[0,0,0,0,0,0,0,0,0,0,0,0,0,0,0],"id":40,"left_children":[1,3,5,7,9,11,13,-1,-1,-1,-1,-1,-1,-1,-1],"loss_changes":[2.0576497E2,6.584653E1,9.36343E1,2.1473358E1,1.6332886E1,3.8141724E1,3.2082138E1,0E0,0E0,0E0,0E0,0E0,0E0,0E0,0E0],"parents":[2147483647,0,0,1,1,2,2,3,3,4,4,5,5,6,6],"right_children":[2,4,6,8,10,12,14,-1,-1,-1,-1,-1,-1,-1,-1],"split_conditions":[1.5E1,1.3E1,-1.4E0,6E0,2.3E1,-4.8E0,2.4E1,-2.3561956E-3,1.1870358E-4,-3.6318453E-3,-5.6899814E-3,6.645408E-4,-3.0734066E-3,6.359654E-4,3.0461298E-3],"split_indices":[51,80,77,77,80,25,51,0,0,0,0,0,0,0,0],"split_type":[0,0,0,0,0,0,0,0,0,0,0,0,0,0,0],"sum_hessian":[6.77642E3,3.319061E3,3.4573591E3,1.6877024E3,1.6313586E3,1.204361E3,2.252998E3,1.1912264E3,4.964759E2,9.875874E2,6.4377124E2,4.171431E2,7.8721783E2,1.2838079E3,9.691903E2],"tree_param":{"num_deleted":"0","num_feature":"106","num_nodes":"15","size_leaf_vector":"1"}},{"base_weights":[1.23666845E-1,3.0147636E-1,-4.7067918E-2,1.6285086E-1,4.447021E-1,1.7792524E-1,-1.6736567E-1,2.3561954E-3,-1.187036E-4,3.6318451E-3,5.6899814E-3,-6.6454016E-4,3.073407E-3,-6.35965E-4,-3.0461305E-3],"categories":[],"categories_nodes":[],"categories_segments":[],"categories_sizes":[],"default_left":[0,0,0,0,0,0,0,0,0,0,0,0,0,0,0],"id":41,"left_children":[1,3,5,7,9,11,13,-1,-1,-1,-1,-1,-1,-1,-1],"loss_changes":[2.0576494E2,6.58465E1,9.363432E1,2.1473358E1,1.6332916E1,3.814172E1,3.208217E1,0E0,0E0,0E0,0E0,0E0,0E0,0E0,0E0],"parents":[2147483647,0,0,1,1,2,2,3,3,4,4,5,5,6,6],"right_children":[2,4,6,8,10,12,14,-1,-1,-1,-1,-1,-1,-1,-1],"split_conditions":[1.5E1,1.3E1,-1.4E0,6E0,2.3E1,-4.8E0,2.4E1,2.3561954E-3,-1.187036E-4,3.6318451E-3,5.6899814E-3,-6.6454016E-4,3.073407E-3,-6.35965E-4,-3.0461305E-3],"split_indices":[51,80,77,77,80,25,51,0,0,0,0,0,0,0,0],"split_type":[0,0,0,0,0,0,0,0,0,0,0,0,0,0,0],"sum_hessian":[6.77642E3,3.319061E3,3.4573591E3,1.6877024E3,1.6313586E3,1.204361E3,2.252998E3,1.1912264E3,4.964759E2,9.875874E2,6.4377124E2,4.171431E2,7.8721783E2,1.2838079E3,9.691903E2],"tree_param":{"num_deleted":"0","num_feature":"106","num_nodes":"15","size_leaf_vector":"1"}},{"base_weights":[-1.2247348E-1,9.7066484E-2,-2.5841895E-1,-1.2831429E-1,1.9951452E-1,-1.1882595E-1,-4.1674942E-1,6.0516637E-4,-2.7328874E-3,7.056835E-4,2.9731416E-3,-2.7084644E-3,-1.9964579E-4,-3.3338019E-3,-5.2984697E-3],"categories":[],"categories_nodes":[],"categories_segments":[],"categories_sizes":[],"default_left":[0,0,0,0,0,0,0,0,0,0,0,0,0,0,0],"id":42,"left_children":[1,3,5,7,9,11,13,-1,-1,-1,-1,-1,-1,-1,-1],"loss_changes":[2.022322E2,5.9867218E1,9.243442E1,2.2205154E1,2.2453705E1,3.3437187E1,1.8306152E1,0E0,0E0,0E0,0E0,0E0,0E0,0E0,0E0],"parents":[2147483647,0,0,1,1,2,2,3,3,4,4,5,5,6,6],"right_children":[2,4,6,8,10,12,14,-1,-1,-1,-1,-1,-1,-1,-1],"split_conditions":[4.65E-1,-2E0,1.4E1,-4.8E0,2.4E1,7E0,2.3E1,6.0516637E-4,-2.7328874E-3,7.056835E-4,2.9731416E-3,-2.7084644E-3,-1.9964579E-4,-3.3338019E-3,-5.2984697E-3],"split_indices":[3,77,80,25,51,29,80,0,0,0,0,0,0,0,0],"split_type":[0,0,0,0,0,0,0,0,0,0,0,0,0,0,0],"sum_hessian":[6.7741367E3,2.5906887E3,4.183448E3,8.0952344E2,1.7811653E3,2.2242102E3,1.9592378E3,3.518358E2,4.5768765E2,7.689919E2,1.0121734E3,8.757766E2,1.3484336E3,1.1301222E3,8.2911566E2],"tree_param":{"num_deleted":"0","num_feature":"106","num_nodes":"15","size_leaf_vector":"1"}},{"base_weights":[1.22473486E-1,-9.706647E-2,2.5841895E-1,1.2831432E-1,-1.9951451E-1,1.1882596E-1,4.1674942E-1,-6.0516625E-4,2.7328874E-3,-7.0568296E-4,-2.9731416E-3,2.7084644E-3,1.9964583E-4,3.3338016E-3,5.2984697E-3],"categories":[],"categories_nodes":[],"categories_segments":[],"categories_sizes":[],"default_left":[0,0,0,0,0,0,0,0,0,0,0,0,0,0,0],"id":43,"left_children":[1,3,5,7,9,11,13,-1,-1,-1,-1,-1,-1,-1,-1],"loss_changes":[2.0223215E2,5.9867226E1,9.243445E1,2.2205154E1,2.245372E1,3.343718E1,1.8306122E1,0E0,0E0,0E0,0E0,0E0,0E0,0E0,0E0],"parents":[2147483647,0,0,1,1,2,2,3,3,4,4,5,5,6,6],"right_children":[2,4,6,8,10,12,14,-1,-1,-1,-1,-1,-1,-1,-1],"split_conditions":[4.65E-1,-2E0,1.4E1,-4.8E0,2.4E1,7E0,2.3E1,-6.0516625E-4,2.7328874E-3,-7.0568296E-4,-2.9731416E-3,2.7084644E-3,1.9964583E-4,3.3338016E-3,5.2984697E-3],"split_indices":[3,77,80,25,51,29,80,0,0,0,0,0,0,0,0],"split_type":[0,0,0,0,0,0,0,0,0,0,0,0,0,0,0],"sum_hessian":[6.7741367E3,2.5906887E3,4.183448E3,8.0952344E2,1.7811653E3,2.2242102E3,1.9592378E3,3.5183575E2,4.5768765E2,7.689919E2,1.0121734E3,8.757766E2,1.3484336E3,1.1301222E3,8.2911566E2],"tree_param":{"num_deleted":"0","num_feature":"106","num_nodes":"15","size_leaf_vector":"1"}},{"base_weights":[-1.21293366E-1,-2.9611868E-1,4.649759E-2,-1.5986896E-1,-4.3707824E-1,-1.9672152E-1,1.5385136E-1,-2.3193245E-3,1.3114748E-4,-3.5687413E-3,-5.595649E-3,4.831599E-4,-3.2555694E-3,5.2834424E-4,2.8605917E-3],"categories":[],"categories_nodes":[],"categories_segments":[],"categories_sizes":[],"default_left":[0,0,0,0,0,0,0,0,0,0,0,0,0,0,0],"id":44,"left_children":[1,3,5,7,9,11,13,-1,-1,-1,-1,-1,-1,-1,-1],"loss_changes":[1.9868652E2,6.3635223E1,9.028819E1,2.1048435E1,1.581073E1,3.3447327E1,3.202121E1,0E0,0E0,0E0,0E0,0E0,0E0,0E0,0E0],"parents":[2147483647,0,0,1,1,2,2,3,3,4,4,5,5,6,6],"right_children":[2,4,6,8,10,12,14,-1,-1,-1,-1,-1,-1,-1,-1],"split_conditions":[1.5E1,1.3E1,-2E0,6E0,2.3E1,-4.8E0,2.4E1,-2.3193245E-3,1.3114748E-4,-3.5687413E-3,-5.595649E-3,4.831599E-4,-3.2555694E-3,5.2834424E-4,2.8605917E-3],"split_indices":[51,80,77,77,80,25,51,0,0,0,0,0,0,0,0],"split_type":[0,0,0,0,0,0,0,0,0,0,0,0,0,0,0],"sum_hessian":[6.7717563E3,3.315987E3,3.455769E3,1.6872484E3,1.6287386E3,1.0579839E3,2.3977852E3,1.1908217E3,4.9642676E2,9.866171E2,6.421216E2,3.6479324E2,6.931907E2,1.3600228E3,1.0377623E3],"tree_param":{"num_deleted":"0","num_feature":"106","num_nodes":"15","size_leaf_vector":"1"}},{"base_weights":[1.2129337E-1,2.9611868E-1,-4.649758E-2,1.5986897E-1,4.3707824E-1,1.9672151E-1,-1.5385133E-1,2.3193248E-3,-1.3114704E-4,3.5687413E-3,5.59565E-3,-4.8316023E-4,3.2555694E-3,-5.283442E-4,-2.8605913E-3],"categories":[],"categories_nodes":[],"categories_segments":[],"categories_sizes":[],"default_left":[0,0,0,0,0,0,0,0,0,0,0,0,0,0,0],"id":45,"left_children":[1,3,5,7,9,11,13,-1,-1,-1,-1,-1,-1,-1,-1],"loss_changes":[1.9868652E2,6.3635193E1,9.028818E1,2.1048431E1,1.581073E1,3.344734E1,3.202121E1,0E0,0E0,0E0,0E0,0E0,0E0,0E0,0E0],"parents":[2147483647,0,0,1,1,2,2,3,3,4,4,5,5,6,6],"right_children":[2,4,6,8,10,12,14,-1,-1,-1,-1,-1,-1,-1,-1],"split_conditions":[1.5E1,1.3E1,-2E0,6E0,2.3E1,-4.8E0,2.4E1,2.3193248E-3,-1.3114704E-4,3.5687413E-3,5.59565E-3,-4.8316023E-4,3.2555694E-3,-5.283442E-4,-2.8605913E-3],"split_indices":[51,80,77,77,80,25,51,0,0,0,0,0,0,0,0],"split_type":[0,0,0,0,0,0,0,0,0,0,0,0,0,0,0],"sum_hessian":[6.7717563E3,3.315987E3,3.4557693E3,1.6872484E3,1.6287386E3,1.0579839E3,2.3977852E3,1.1908217E3,4.9642676E2,9.866171E2,6.421216E2,3.6479324E2,6.931907E2,1.3600228E3,1.0377623E3],"tree_param":{"num_deleted":"0","num_feature":"106","num_nodes":"15","size_leaf_vector":"1"}},{"base_weights":[-1.2012599E-1,-2.3171929E-1,1.3818532E-1,-1.406867E-1,-4.638144E-1,-5.1427726E-2,2.590146E-1,-3.066568E-3,-4.627597E-4,-5.047845E-3,-2.7836277E-3,8.590773E-4,-2.019298E-3,3.980242E-3,1.7072806E-3],"categories":[],"categories_nodes":[],"categories_segments":[],"categories_sizes":[],"default_left":[0,0,0,0,0,0,0,0,0,0,0,0,0,0,0],"id":46,"left_children":[1,3,5,7,9,11,13,-1,-1,-1,-1,-1,-1,-1,-1],"loss_changes":[1.9519165E2,9.983328E1,4.6822437E1,5.3223984E1,9.977051E0,1.6470982E1,1.5249054E1,0E0,0E0,0E0,0E0,0E0,0E0,0E0,0E0],"parents":[2147483647,0,0,1,1,2,2,3,3,4,4,5,5,6,6],"right_children":[2,4,6,8,10,12,14,-1,-1,-1,-1,-1,-1,-1,-1],"split_conditions":[2E1,2E1,4.67E-1,7E0,-2E0,-4.8E0,-6.2E0,-3.066568E-3,-4.627597E-4,-5.047845E-3,-2.7836277E-3,8.590773E-4,-2.019298E-3,3.980242E-3,1.7072806E-3],"split_indices":[28,80,55,27,77,25,25,0,0,0,0,0,0,0,0],"split_type":[0,0,0,0,0,0,0,0,0,0,0,0,0,0,0],"sum_hessian":[6.769308E3,4.7272065E3,2.0421017E3,3.3965967E3,1.3306101E3,7.950433E2,1.2470583E3,1.2307471E3,2.1658496E3,1.0884312E3,2.4217888E2,4.1592996E2,3.7911328E2,4.8302057E2,7.640378E2],"tree_param":{"num_deleted":"0","num_feature":"106","num_nodes":"15","size_leaf_vector":"1"}},{"base_weights":[1.20125994E-1,2.3171929E-1,-1.3818532E-1,1.406867E-1,4.638144E-1,5.1427744E-2,-2.590146E-1,3.0665684E-3,4.6275958E-4,5.047845E-3,2.783628E-3,-8.5907726E-4,2.0192983E-3,-3.980242E-3,-1.7072806E-3],"categories":[],"categories_nodes":[],"categories_segments":[],"categories_sizes":[],"default_left":[0,0,0,0,0,0,0,0,0,0,0,0,0,0,0],"id":47,"left_children":[1,3,5,7,9,11,13,-1,-1,-1,-1,-1,-1,-1,-1],"loss_changes":[1.9519165E2,9.983328E1,4.682244E1,5.3223984E1,9.97702E0,1.6470985E1,1.5249054E1,0E0,0E0,0E0,0E0,0E0,0E0,0E0,0E0],"parents":[2147483647,0,0,1,1,2,2,3,3,4,4,5,5,6,6],"right_children":[2,4,6,8,10,12,14,-1,-1,-1,-1,-1,-1,-1,-1],"split_conditions":[2E1,2E1,4.67E-1,7E0,-2E0,-4.8E0,-6.2E0,3.0665684E-3,4.6275958E-4,5.047845E-3,2.783628E-3,-8.5907726E-4,2.0192983E-3,-3.980242E-3,-1.7072806E-3],"split_indices":[28,80,55,27,77,25,25,0,0,0,0,0,0,0,0],"split_type":[0,0,0,0,0,0,0,0,0,0,0,0,0,0,0],"sum_hessian":[6.769308E3,4.7272065E3,2.0421017E3,3.3965967E3,1.3306101E3,7.950433E2,1.2470583E3,1.2307471E3,2.1658496E3,1.0884312E3,2.421789E2,4.1592996E2,3.791133E2,4.8302057E2,7.640378E2],"tree_param":{"num_deleted":"0","num_feature":"106","num_nodes":"15","size_leaf_vector":"1"}},{"base_weights":[-1.189693E-1,4.355585E-2,-2.9364294E-1,-1.7684332E-1,1.5698698E-1,-1.5643018E-1,-4.3557715E-1,6.0365576E-4,-3.0017542E-3,5.882843E-4,2.9008493E-3,-2.3315386E-3,2.4978782E-4,-3.8263032E-3,-6.009513E-3],"categories":[],"categories_nodes":[],"categories_segments":[],"categories_sizes":[],"default_left":[0,0,0,0,0,0,0,0,0,0,0,0,0,0,0],"id":48,"left_children":[1,3,5,7,9,11,13,-1,-1,-1,-1,-1,-1,-1,-1],"loss_changes":[1.9214453E2,8.769608E1,6.3462708E1,3.4890812E1,3.023698E1,2.3113365E1,1.3805328E1,0E0,0E0,0E0,0E0,0E0,0E0,0E0,0E0],"parents":[2147483647,0,0,1,1,2,2,3,3,4,4,5,5,6,6],"right_children":[2,4,6,8,10,12,14,-1,-1,-1,-1,-1,-1,-1,-1],"split_conditions":[6E-1,-1.5E0,1.3E1,-4.8E0,2.4E1,6E0,2.6E1,6.0365576E-4,-3.0017542E-3,5.882843E-4,2.9008493E-3,-2.3315386E-3,2.4978782E-4,-3.8263032E-3,-6.009513E-3],"split_indices":[25,77,80,25,51,77,80,0,0,0,0,0,0,0,0],"split_type":[0,0,0,0,0,0,0,0,0,0,0,0,0,0,0],"sum_hessian":[6.766858E3,3.5057148E3,3.261143E3,1.1910057E3,2.314709E3,1.6592197E3,1.6019233E3,4.0758813E2,7.8341766E2,1.3330435E3,9.8166565E2,1.1658563E3,4.9336337E2,1.2159376E3,3.8598566E2],"tree_param":{"num_deleted":"0","num_feature":"106","num_nodes":"15","size_leaf_vector":"1"}},{"base_weights":[1.1896932E-1,-4.3555845E-2,2.9364297E-1,1.7684332E-1,-1.5698698E-1,1.5643024E-1,4.3557718E-1,-6.0365506E-4,3.001754E-3,-5.8828417E-4,-2.9008496E-3,2.3315393E-3,-2.4978752E-4,3.8263032E-3,6.0095135E-3],"categories":[],"categories_nodes":[],"categories_segments":[],"categories_sizes":[],"default_left":[0,0,0,0,0,0,0,0,0,0,0,0,0,0,0],"id":49,"left_children":[1,3,5,7,9,11,13,-1,-1,-1,-1,-1,-1,-1,-1],"loss_changes":[1.9214459E2,8.769608E1,6.3462677E1,3.48908E1,3.0236988E1,2.3113373E1,1.3805328E1,0E0,0E0,0E0,0E0,0E0,0E0,0E0,0E0],"parents":[2147483647,0,0,1,1,2,2,3,3,4,4,5,5,6,6],"right_children":[2,4,6,8,10,12,14,-1,-1,-1,-1,-1,-1,-1,-1],"split_conditions":[6E-1,-1.5E0,1.3E1,-4.8E0,2.4E1,6E0,2.6E1,-6.0365506E-4,3.001754E-3,-5.8828417E-4,-2.9008496E-3,2.3315393E-3,-2.4978752E-4,3.8263032E-3,6.0095135E-3],"split_indices":[25,77,80,25,51,77,80,0,0,0,0,0,0,0,0],"split_type":[0,0,0,0,0,0,0,0,0,0,0,0,0,0,0],"sum_hessian":[6.766858E3,3.5057148E3,3.261143E3,1.1910059E3,2.314709E3,1.6592197E3,1.6019233E3,4.0758817E2,7.8341766E2,1.3330435E3,9.8166565E2,1.1658563E3,4.9336337E2,1.2159376E3,3.8598566E2],"tree_param":{"num_deleted":"0","num_feature":"106","num_nodes":"15","size_leaf_vector":"1"}},{"base_weights":[-1.1782648E-1,-2.8824577E-1,4.5609947E-2,-1.5510857E-1,-4.2627257E-1,-1.6973999E-1,1.6065702E-1,-2.2580065E-3,1.44938E-4,-3.4786484E-3,-5.4631364E-3,6.283746E-4,-2.9317976E-3,6.22176E-4,2.9109058E-3],"categories":[],"categories_nodes":[],"categories_segments":[],"categories_sizes":[],"default_left":[0,0,0,0,0,0,0,0,0,0,0,0,0,0,0],"id":50,"left_children":[1,3,5,7,9,11,13,-1,-1,-1,-1,-1,-1,-1,-1],"loss_changes":[1.884449E2,6.0797394E1,8.560785E1,2.0235008E1,1.5110199E1,3.456402E1,2.8896744E1,0E0,0E0,0E0,0E0,0E0,0E0,0E0,0E0],"parents":[2147483647,0,0,1,1,2,2,3,3,4,4,5,5,6,6],"right_children":[2,4,6,8,10,12,14,-1,-1,-1,-1,-1,-1,-1,-1],"split_conditions":[1.5E1,1.3E1,-1.4E0,6E0,2.3E1,-4.8E0,2.4E1,-2.2580065E-3,1.44938E-4,-3.4786484E-3,-5.4631364E-3,6.283746E-4,-2.9317976E-3,6.22176E-4,2.9109058E-3],"split_indices":[51,80,77,77,80,25,51,0,0,0,0,0,0,0,0],"split_type":[0,0,0,0,0,0,0,0,0,0,0,0,0,0,0],"sum_hessian":[6.76429E3,3.3110308E3,3.453259E3,1.6864486E3,1.6245823E3,1.202289E3,2.2509702E3,1.1900795E3,4.9636914E2,9.8506274E2,6.3951953E2,4.1703287E2,7.8525604E2,1.2836583E3,9.673119E2],"tree_param":{"num_deleted":"0","num_feature":"106","num_nodes":"15","size_leaf_vector":"1"}},{"base_weights":[1.1782648E-1,2.8824574E-1,-4.560993E-2,1.5510856E-1,4.2627257E-1,1.6974005E-1,-1.6065702E-1,2.2580063E-3,-1.44938E-4,3.4786484E-3,5.4631364E-3,-6.2837376E-4,2.931798E-3,-6.22176E-4,-2.9109058E-3],"categories":[],"categories_nodes":[],"categories_segments":[],"categories_sizes":[],"default_left":[0,0,0,0,0,0,0,0,0,0,0,0,0,0,0],"id":51,"left_children":[1,3,5,7,9,11,13,-1,-1,-1,-1,-1,-1,-1,-1],"loss_changes":[1.8844484E2,6.0797424E1,8.560788E1,2.0235004E1,1.5110168E1,3.456402E1,2.889674E1,0E0,0E0,0E0,0E0,0E0,0E0,0E0,0E0],"parents":[2147483647,0,0,1,1,2,2,3,3,4,4,5,5,6,6],"right_children":[2,4,6,8,10,12,14,-1,-1,-1,-1,-1,-1,-1,-1],"split_conditions":[1.5E1,1.3E1,-1.4E0,6E0,2.3E1,-4.8E0,2.4E1,2.2580063E-3,-1.44938E-4,3.4786484E-3,5.4631364E-3,-6.2837376E-4,2.931798E-3,-6.22176E-4,-2.9109058E-3],"split_indices":[51,80,77,77,80,25,51,0,0,0,0,0,0,0,0],"split_type":[0,0,0,0,0,0,0,0,0,0,0,0,0,0,0],"sum_hessian":[6.76429E3,3.3110308E3,3.453259E3,1.6864486E3,1.6245822E3,1.202289E3,2.2509702E3,1.1900795E3,4.9636914E2,9.850627E2,6.395195E2,4.1703287E2,7.8525604E2,1.2836583E3,9.673119E2],"tree_param":{"num_deleted":"0","num_feature":"106","num_nodes":"15","size_leaf_vector":"1"}},{"base_weights":[-1.1669634E-1,9.350396E-2,-2.4698545E-1,-4.599052E-2,2.4734819E-1,-1.1271773E-1,-3.9978763E-1,1.1836914E-3,-1.7919277E-3,1.3435262E-3,3.373882E-3,-2.6050417E-3,-1.6701221E-4,-3.1977883E-3,-5.0873817E-3],"categories":[],"categories_nodes":[],"categories_segments":[],"categories_sizes":[],"default_left":[0,0,0,0,0,0,0,0,0,0,0,0,0,0,0],"id":52,"left_children":[1,3,5,7,9,11,13,-1,-1,-1,-1,-1,-1,-1,-1],"loss_changes":[1.8522963E2,5.556077E1,8.56142E1,2.9760427E1,1.2479767E1,3.155061E1,1.6856445E1,0E0,0E0,0E0,0E0,0E0,0E0,0E0,0E0],"parents":[2147483647,0,0,1,1,2,2,3,3,4,4,5,5,6,6],"right_children":[2,4,6,8,10,12,14,-1,-1,-1,-1,-1,-1,-1,-1],"split_conditions":[4.65E-1,5.19E-1,1.4E1,-4.8E0,2.4E1,7E0,2.3E1,1.1836914E-3,-1.7919277E-3,1.3435262E-3,3.373882E-3,-2.6050417E-3,-1.6701221E-4,-3.1977883E-3,-5.0873817E-3],"split_indices":[3,55,80,25,51,29,80,0,0,0,0,0,0,0,0],"split_type":[0,0,0,0,0,0,0,0,0,0,0,0,0,0,0],"sum_hessian":[6.761618E3,2.5874578E3,4.17416E3,1.3573842E3,1.2300736E3,2.2227559E3,1.9514043E3,6.0767676E2,7.4970734E2,5.466049E2,6.8346875E2,8.747096E2,1.3480464E3,1.1274132E3,8.239911E2],"tree_param":{"num_deleted":"0","num_feature":"106","num_nodes":"15","size_leaf_vector":"1"}},{"base_weights":[1.1669635E-1,-9.350394E-2,2.4698545E-1,4.5990534E-2,-2.4734816E-1,1.1271772E-1,3.9978766E-1,-1.1836912E-3,1.7919277E-3,-1.3435254E-3,-3.373882E-3,2.6050413E-3,1.6701227E-4,3.1977883E-3,5.087382E-3],"categories":[],"categories_nodes":[],"categories_segments":[],"categories_sizes":[],"default_left":[0,0,0,0,0,0,0,0,0,0,0,0,0,0,0],"id":53,"left_children":[1,3,5,7,9,11,13,-1,-1,-1,-1,-1,-1,-1,-1],"loss_changes":[1.8522961E2,5.556077E1,8.561423E1,2.9760418E1,1.2479774E1,3.1550598E1,1.6856415E1,0E0,0E0,0E0,0E0,0E0,0E0,0E0,0E0],"parents":[2147483647,0,0,1,1,2,2,3,3,4,4,5,5,6,6],"right_children":[2,4,6,8,10,12,14,-1,-1,-1,-1,-1,-1,-1,-1],"split_conditions":[4.65E-1,5.19E-1,1.4E1,-4.8E0,2.4E1,7E0,2.3E1,-1.1836912E-3,1.7919277E-3,-1.3435254E-3,-3.373882E-3,2.6050413E-3,1.6701227E-4,3.1977883E-3,5.087382E-3],"split_indices":[3,55,80,25,51,29,80,0,0,0,0,0,0,0,0],"split_type":[0,0,0,0,0,0,0,0,0,0,0,0,0,0,0],"sum_hessian":[6.761618E3,2.5874578E3,4.17416E3,1.3573842E3,1.2300736E3,2.222756E3,1.9514043E3,6.0767676E2,7.4970734E2,5.466049E2,6.8346875E2,8.747096E2,1.3480464E3,1.1274132E3,8.239911E2],"tree_param":{"num_deleted":"0","num_feature":"106","num_nodes":"15","size_leaf_vector":"1"}},{"base_weights":[-1.15576506E-1,4.2703558E-2,-2.8583467E-1,-1.7208454E-1,1.531912E-1,-1.5210909E-1,-4.2448458E-1,5.804856E-4,-2.9191375E-3,5.811213E-4,2.822611E-3,-2.2742625E-3,2.587535E-4,-3.7246724E-3,-5.873548E-3],"categories":[],"categories_nodes":[],"categories_segments":[],"categories_sizes":[],"default_left":[0,0,0,0,0,0,0,0,0,0,0,0,0,0,0],"id":54,"left_children":[1,3,5,7,9,11,13,-1,-1,-1,-1,-1,-1,-1,-1],"loss_changes":[1.8218262E2,8.31831E1,6.032132E1,3.2852867E1,2.8385101E1,2.2251122E1,1.3323303E1,0E0,0E0,0E0,0E0,0E0,0E0,0E0,0E0],"parents":[2147483647,0,0,1,1,2,2,3,3,4,4,5,5,6,6],"right_children":[2,4,6,8,10,12,14,-1,-1,-1,-1,-1,-1,-1,-1],"split_conditions":[6E-1,-1.5E0,1.3E1,-4.8E0,2.4E1,6E0,2.6E1,5.804856E-4,-2.9191375E-3,5.811213E-4,2.822611E-3,-2.2742625E-3,2.587535E-4,-3.7246724E-3,-5.873548E-3],"split_indices":[25,77,80,25,51,77,80,0,0,0,0,0,0,0,0],"split_type":[0,0,0,0,0,0,0,0,0,0,0,0,0,0,0],"sum_hessian":[6.758953E3,3.5030764E3,3.2558767E3,1.1897139E3,2.3133625E3,1.6584377E3,1.5974391E3,4.0754172E2,7.821721E2,1.33292E3,9.8044244E2,1.1651195E3,4.9331818E2,1.213242E3,3.841972E2],"tree_param":{"num_deleted":"0","num_feature":"106","num_nodes":"15","size_leaf_vector":"1"}},{"base_weights":[1.1557652E-1,-4.2703554E-2,2.858347E-1,1.7208456E-1,-1.5319121E-1,1.5210913E-1,4.2448458E-1,-5.804856E-4,2.9191377E-3,-5.8112113E-4,-2.8226112E-3,2.274263E-3,-2.5875322E-4,3.7246724E-3,5.873548E-3],"categories":[],"categories_nodes":[],"categories_segments":[],"categories_sizes":[],"default_left":[0,0,0,0,0,0,0,0,0,0,0,0,0,0,0],"id":55,"left_children":[1,3,5,7,9,11,13,-1,-1,-1,-1,-1,-1,-1,-1],"loss_changes":[1.8218265E2,8.318312E1,6.032132E1,3.285287E1,2.8385109E1,2.2251118E1,1.3323334E1,0E0,0E0,0E0,0E0,0E0,0E0,0E0,0E0],"parents":[2147483647,0,0,1,1,2,2,3,3,4,4,5,5,6,6],"right_children":[2,4,6,8,10,12,14,-1,-1,-1,-1,-1,-1,-1,-1],"split_conditions":[6E-1,-1.5E0,1.3E1,-4.8E0,2.4E1,6E0,2.6E1,-5.804856E-4,2.9191377E-3,-5.8112113E-4,-2.8226112E-3,2.274263E-3,-2.5875322E-4,3.7246724E-3,5.873548E-3],"split_indices":[25,77,80,25,51,77,80,0,0,0,0,0,0,0,0],"split_type":[0,0,0,0,0,0,0,0,0,0,0,0,0,0,0],"sum_hessian":[6.758953E3,3.5030764E3,3.2558767E3,1.1897139E3,2.3133625E3,1.6584376E3,1.5974391E3,4.0754172E2,7.821721E2,1.33292E3,9.8044244E2,1.1651195E3,4.9331815E2,1.213242E3,3.841972E2],"tree_param":{"num_deleted":"0","num_feature":"106","num_nodes":"15","size_leaf_vector":"1"}},{"base_weights":[-1.1447003E-1,-2.2145654E-1,1.3296944E-1,-1.3396168E-1,-4.4547543E-1,-8.090344E-3,2.8311005E-1,-2.9527033E-3,-4.2303975E-4,-4.855262E-3,-2.6472725E-3,1.2893933E-3,-1.6087451E-3,4.0959828E-3,2.049041E-3],"categories":[],"categories_nodes":[],"categories_segments":[],"categories_sizes":[],"default_left":[0,0,0,0,0,0,0,0,0,0,0,0,0,0,0],"id":56,"left_children":[1,3,5,7,9,11,13,-1,-1,-1,-1,-1,-1,-1,-1],"loss_changes":[1.789099E2,9.241228E1,4.3214134E1,5.01709E1,9.460907E0,2.206532E1,9.693275E0,0E0,0E0,0E0,0E0,0E0,0E0,0E0,0E0],"parents":[2147483647,0,0,1,1,2,2,3,3,4,4,5,5,6,6],"right_children":[2,4,6,8,10,12,14,-1,-1,-1,-1,-1,-1,-1,-1],"split_conditions":[2E1,2E1,5.14E-1,7E0,-2E0,-4.8E0,-6.2E0,-2.9527033E-3,-4.2303975E-4,-4.855262E-3,-2.6472725E-3,1.2893933E-3,-1.6087451E-3,4.0959828E-3,2.049041E-3],"split_indices":[28,80,55,27,77,25,25,0,0,0,0,0,0,0,0],"split_type":[0,0,0,0,0,0,0,0,0,0,0,0,0,0,0],"sum_hessian":[6.756171E3,4.7168364E3,2.0393346E3,3.3931677E3,1.3236685E3,1.0519525E3,9.873821E2,1.228647E3,2.1645208E3,1.0821875E3,2.41481E2,5.54651E2,4.973015E2,3.7562256E2,6.117595E2],"tree_param":{"num_deleted":"0","num_feature":"106","num_nodes":"15","size_leaf_vector":"1"}},{"base_weights":[1.1447003E-1,2.2145653E-1,-1.3296941E-1,1.3396168E-1,4.454754E-1,8.090403E-3,-2.8311005E-1,2.9527033E-3,4.2303986E-4,4.855262E-3,2.6472723E-3,-1.2893927E-3,1.6087459E-3,-4.095983E-3,-2.049041E-3],"categories":[],"categories_nodes":[],"categories_segments":[],"categories_sizes":[],"default_left":[0,0,0,0,0,0,0,0,0,0,0,0,0,0,0],"id":57,"left_children":[1,3,5,7,9,11,13,-1,-1,-1,-1,-1,-1,-1,-1],"loss_changes":[1.7890987E2,9.241228E1,4.3214157E1,5.0170883E1,9.460876E0,2.2065323E1,9.693275E0,0E0,0E0,0E0,0E0,0E0,0E0,0E0,0E0],"parents":[2147483647,0,0,1,1,2,2,3,3,4,4,5,5,6,6],"right_children":[2,4,6,8,10,12,14,-1,-1,-1,-1,-1,-1,-1,-1],"split_conditions":[2E1,2E1,5.14E-1,7E0,-2E0,-4.8E0,-6.2E0,2.9527033E-3,4.2303986E-4,4.855262E-3,2.6472723E-3,-1.2893927E-3,1.6087459E-3,-4.095983E-3,-2.049041E-3],"split_indices":[28,80,55,27,77,25,25,0,0,0,0,0,0,0,0],"split_type":[0,0,0,0,0,0,0,0,0,0,0,0,0,0,0],"sum_hessian":[6.756171E3,4.7168364E3,2.0393346E3,3.3931677E3,1.3236685E3,1.0519525E3,9.873821E2,1.228647E3,2.1645208E3,1.0821875E3,2.4148102E2,5.54651E2,4.973015E2,3.756226E2,6.117595E2],"tree_param":{"num_deleted":"0","num_feature":"106","num_nodes":"15","size_leaf_vector":"1"}},{"base_weights":[-1.1337265E-1,4.222194E-2,-2.8083777E-1,-1.6897444E-1,1.5081695E-1,-3.6376914E-1,-6.2155616E-2,5.6497485E-4,-2.864992E-3,5.75924E-4,2.7747347E-3,-2.837536E-3,-4.905938E-3,3.3211193E-4,-1.8476916E-3],"categories":[],"categories_nodes":[],"categories_segments":[],"categories_sizes":[],"default_left":[0,0,0,0,0,0,0,0,0,0,0,0,0,0,0],"id":58,"left_children":[1,3,5,7,9,11,13,-1,-1,-1,-1,-1,-1,-1,-1],"loss_changes":[1.760097E2,8.034743E1,5.897708E1,3.1542618E1,2.729987E1,2.3795074E1,1.0479995E1,0E0,0E0,0E0,0E0,0E0,0E0,0E0,0E0],"parents":[2147483647,0,0,1,1,2,2,3,3,4,4,5,5,6,6],"right_children":[2,4,6,8,10,12,14,-1,-1,-1,-1,-1,-1,-1,-1],"split_conditions":[6E-1,-1.5E0,3.8E0,-4.8E0,2.4E1,2E1,6.55E-1,5.6497485E-4,-2.864992E-3,5.75924E-4,2.7747347E-3,-2.837536E-3,-4.905938E-3,3.3211193E-4,-1.8476916E-3],"split_indices":[25,77,77,25,51,80,3,0,0,0,0,0,0,0,0],"split_type":[0,0,0,0,0,0,0,0,0,0,0,0,0,0,0],"sum_hessian":[6.7534272E3,3.5011753E3,3.2522517E3,1.1887429E3,2.3124324E3,2.3575347E3,8.947172E2,4.0749008E2,7.812529E2,1.3328519E3,9.795804E2,1.4475142E3,9.1002045E2,5.0368692E2,3.9103027E2],"tree_param":{"num_deleted":"0","num_feature":"106","num_nodes":"15","size_leaf_vector":"1"}},{"base_weights":[1.1337266E-1,-4.2221945E-2,2.8083777E-1,1.6897443E-1,-1.5081695E-1,3.6376917E-1,6.21556E-2,-5.649749E-4,2.8649915E-3,-5.759239E-4,-2.7747347E-3,2.8375362E-3,4.905938E-3,-3.3211207E-4,1.8476915E-3],"categories":[],"categories_nodes":[],"categories_segments":[],"categories_sizes":[],"default_left":[0,0,0,0,0,0,0,0,0,0,0,0,0,0,0],"id":59,"left_children":[1,3,5,7,9,11,13,-1,-1,-1,-1,-1,-1,-1,-1],"loss_changes":[1.7600974E2,8.034742E1,5.897711E1,3.1542622E1,2.729987E1,2.3795074E1,1.0479995E1,0E0,0E0,0E0,0E0,0E0,0E0,0E0,0E0],"parents":[2147483647,0,0,1,1,2,2,3,3,4,4,5,5,6,6],"right_children":[2,4,6,8,10,12,14,-1,-1,-1,-1,-1,-1,-1,-1],"split_conditions":[6E-1,-1.5E0,3.8E0,-4.8E0,2.4E1,2E1,6.55E-1,-5.649749E-4,2.8649915E-3,-5.759239E-4,-2.7747347E-3,2.8375362E-3,4.905938E-3,-3.3211207E-4,1.8476915E-3],"split_indices":[25,77,77,25,51,80,3,0,0,0,0,0,0,0,0],"split_type":[0,0,0,0,0,0,0,0,0,0,0,0,0,0,0],"sum_hessian":[6.7534272E3,3.5011753E3,3.252252E3,1.188743E3,2.3124324E3,2.3575347E3,8.947172E2,4.0749008E2,7.812529E2,1.3328519E3,9.795804E2,1.4475142E3,9.1002045E2,5.0368692E2,3.9103027E2],"tree_param":{"num_deleted":"0","num_feature":"106","num_nodes":"15","size_leaf_vector":"1"}},{"base_weights":[-1.1228893E-1,-2.757596E-1,4.425642E-2,-1.47678E-1,-4.0905938E-1,-1.8342459E-1,1.4459087E-1,-2.16664E-3,1.768991E-4,-3.333491E-3,-5.2549825E-3,4.2805055E-4,-3.0288887E-3,5.163564E-4,2.66604E-3],"categories":[],"categories_nodes":[],"categories_segments":[],"categories_sizes":[],"default_left":[0,0,0,0,0,0,0,0,0,0,0,0,0,0,0],"id":60,"left_children":[1,3,5,7,9,11,13,-1,-1,-1,-1,-1,-1,-1,-1],"loss_changes":[1.7278767E2,5.632997E1,7.883187E1,1.9237366E1,1.4087524E1,2.8543083E1,2.7150188E1,0E0,0E0,0E0,0E0,0E0,0E0,0E0,0E0],"parents":[2147483647,0,0,1,1,2,2,3,3,4,4,5,5,6,6],"right_children":[2,4,6,8,10,12,14,-1,-1,-1,-1,-1,-1,-1,-1],"split_conditions":[1.5E1,1.3E1,-2E0,6E0,2.3E1,-4.8E0,2.4E1,-2.16664E-3,1.768991E-4,-3.333491E-3,-5.2549825E-3,4.2805055E-4,-3.0288887E-3,5.163564E-4,2.66604E-3],"split_indices":[51,80,77,77,80,25,51,0,0,0,0,0,0,0,0],"split_type":[0,0,0,0,0,0,0,0,0,0,0,0,0,0,0],"sum_hessian":[6.7505283E3,3.301849E3,3.4486794E3,1.684958E3,1.616891E3,1.0546401E3,2.3940393E3,1.1887434E3,4.9621454E2,9.8214734E2,6.347437E2,3.646824E2,6.8995776E2,1.3596321E3,1.0344072E3],"tree_param":{"num_deleted":"0","num_feature":"106","num_nodes":"15","size_leaf_vector":"1"}},{"base_weights":[1.12288944E-1,2.7575964E-1,-4.4256404E-2,1.4767803E-1,4.0905938E-1,1.8342462E-1,-1.4459087E-1,2.1666402E-3,-1.7689863E-4,3.333491E-3,5.2549825E-3,-4.2805055E-4,3.0288892E-3,-5.163563E-4,-2.66604E-3],"categories":[],"categories_nodes":[],"categories_segments":[],"categories_sizes":[],"default_left":[0,0,0,0,0,0,0,0,0,0,0,0,0,0,0],"id":61,"left_children":[1,3,5,7,9,11,13,-1,-1,-1,-1,-1,-1,-1,-1],"loss_changes":[1.7278772E2,5.632991E1,7.883187E1,1.9237358E1,1.4087524E1,2.8543095E1,2.7150188E1,0E0,0E0,0E0,0E0,0E0,0E0,0E0,0E0],"parents":[2147483647,0,0,1,1,2,2,3,3,4,4,5,5,6,6],"right_children":[2,4,6,8,10,12,14,-1,-1,-1,-1,-1,-1,-1,-1],"split_conditions":[1.5E1,1.3E1,-2E0,6E0,2.3E1,-4.8E0,2.4E1,2.1666402E-3,-1.7689863E-4,3.333491E-3,5.2549825E-3,-4.2805055E-4,3.0288892E-3,-5.163563E-4,-2.66604E-3],"split_indices":[51,80,77,77,80,25,51,0,0,0,0,0,0,0,0],"split_type":[0,0,0,0,0,0,0,0,0,0,0,0,0,0,0],"sum_hessian":[6.7505283E3,3.3018489E3,3.4486794E3,1.684958E3,1.616891E3,1.0546401E3,2.3940393E3,1.1887434E3,4.9621454E2,9.8214734E2,6.347437E2,3.646824E2,6.8995776E2,1.3596322E3,1.0344072E3],"tree_param":{"num_deleted":"0","num_feature":"106","num_nodes":"15","size_leaf_vector":"1"}},{"base_weights":[-1.1121742E-1,-2.155328E-1,1.2991367E-1,-8.770194E-2,-3.623104E-1,-5.72243E-3,2.7936757E-1,-2.126029E-3,2.5962864E-4,-5.107445E-3,-2.9746804E-3,1.2752857E-3,-1.5447844E-3,4.0576607E-3,2.0125802E-3],"categories":[],"categories_nodes":[],"categories_segments":[],"categories_sizes":[],"default_left":[0,0,0,0,0,0,0,0,0,0,0,0,0,0,0],"id":62,"left_children":[1,3,5,7,9,11,13,-1,-1,-1,-1,-1,-1,-1,-1],"loss_changes":[1.6977861E2,8.836011E1,4.1324696E1,3.5772484E1,2.095224E1,2.122179E1,9.493774E0,0E0,0E0,0E0,0E0,0E0,0E0,0E0,0E0],"parents":[2147483647,0,0,1,1,2,2,3,3,4,4,5,5,6,6],"right_children":[2,4,6,8,10,12,14,-1,-1,-1,-1,-1,-1,-1,-1],"split_conditions":[2E1,1.4E1,5.19E-1,1E1,7E0,-4.8E0,-6.2E0,-2.126029E-3,2.5962864E-4,-5.107445E-3,-2.9746804E-3,1.2752857E-3,-1.5447844E-3,4.0576607E-3,2.0125802E-3],"split_indices":[28,80,55,51,51,25,25,0,0,0,0,0,0,0,0],"split_type":[0,0,0,0,0,0,0,0,0,0,0,0,0,0,0],"sum_hessian":[6.7475396E3,4.7100415E3,2.037498E3,2.5183606E3,2.191681E3,1.0686301E3,9.688679E2,1.1994598E3,1.3189009E3,6.6424524E2,1.5274358E3,5.6376746E2,5.0486264E2,3.6844604E2,6.0042194E2],"tree_param":{"num_deleted":"0","num_feature":"106","num_nodes":"15","size_leaf_vector":"1"}},{"base_weights":[1.11217394E-1,2.1553276E-1,-1.299137E-1,8.770191E-2,3.623104E-1,5.722418E-3,-2.7936763E-1,2.1260285E-3,-2.5962904E-4,5.107445E-3,2.97468E-3,-1.2752858E-3,1.5447844E-3,-4.057662E-3,-2.0125802E-3],"categories":[],"categories_nodes":[],"categories_segments":[],"categories_sizes":[],"default_left":[0,0,0,0,0,0,0,0,0,0,0,0,0,0,0],"id":63,"left_children":[1,3,5,7,9,11,13,-1,-1,-1,-1,-1,-1,-1,-1],"loss_changes":[1.6977861E2,8.836012E1,4.132471E1,3.577249E1,2.095227E1,2.1221792E1,9.493782E0,0E0,0E0,0E0,0E0,0E0,0E0,0E0,0E0],"parents":[2147483647,0,0,1,1,2,2,3,3,4,4,5,5,6,6],"right_children":[2,4,6,8,10,12,14,-1,-1,-1,-1,-1,-1,-1,-1],"split_conditions":[2E1,1.4E1,5.19E-1,1E1,7E0,-4.8E0,-6.2E0,2.1260285E-3,-2.5962904E-4,5.107445E-3,2.97468E-3,-1.2752858E-3,1.5447844E-3,-4.057662E-3,-2.0125802E-3],"split_indices":[28,80,55,51,51,25,25,0,0,0,0,0,0,0,0],"split_type":[0,0,0,0,0,0,0,0,0,0,0,0,0,0,0],"sum_hessian":[6.7475396E3,4.7100415E3,2.037498E3,2.5183606E3,2.191681E3,1.0686301E3,9.688679E2,1.1994597E3,1.3189009E3,6.6424524E2,1.5274357E3,5.6376746E2,5.0486264E2,3.6844604E2,6.0042194E2],"tree_param":{"num_deleted":"0","num_feature":"106","num_nodes":"15","size_leaf_vector":"1"}},{"base_weights":[-1.10154465E-1,4.1298773E-2,-2.73325E-1,-1.6474776E-1,1.4719161E-1,-3.3934027E-1,-8.771621E-3,5.431494E-4,-2.7910238E-3,5.6739704E-4,2.7023836E-3,-2.6414858E-3,-4.7921683E-3,1.7253526E-4,-4.0194346E-3],"categories":[],"categories_nodes":[],"categories_segments":[],"categories_sizes":[],"default_left":[0,0,0,0,0,0,0,0,0,0,0,0,0,0,0],"id":64,"left_children":[1,3,5,7,9,11,13,-1,-1,-1,-1,-1,-1,-1,-1],"loss_changes":[1.6671313E2,7.6374435E1,5.6709976E1,2.9784496E1,2.5715893E1,2.720639E1,6.6530814E0,0E0,0E0,0E0,0E0,0E0,0E0,0E0,0E0],"parents":[2147483647,0,0,1,1,2,2,3,3,4,4,5,5,6,6],"right_children":[2,4,6,8,10,12,14,-1,-1,-1,-1,-1,-1,-1,-1],"split_conditions":[6E-1,-1.5E0,4.9E0,-4.8E0,2.4E1,2E1,1.08E1,5.431494E-4,-2.7910238E-3,5.6739704E-4,2.7023836E-3,-2.6414858E-3,-4.7921683E-3,1.7253526E-4,-4.0194346E-3],"split_indices":[25,77,77,25,51,80,25,0,0,0,0,0,0,0,0],"split_type":[0,0,0,0,0,0,0,0,0,0,0,0,0,0,0],"sum_hessian":[6.744593E3,3.4982756E3,3.246317E3,1.1873573E3,2.3109182E3,2.5977944E3,6.4852264E2,4.0741687E2,7.799405E2,1.3327052E3,9.7821313E2,1.6914379E3,9.063565E2,6.091569E2,3.936569E1],"tree_param":{"num_deleted":"0","num_feature":"106","num_nodes":"15","size_leaf_vector":"1"}},{"base_weights":[1.1015447E-1,-4.1298766E-2,2.7332503E-1,1.6474777E-1,-1.4719161E-1,3.3934027E-1,8.771657E-3,-5.4314954E-4,2.791024E-3,-5.673971E-4,-2.7023836E-3,2.6414855E-3,4.7921687E-3,-1.7253491E-4,4.0194355E-3],"categories":[],"categories_nodes":[],"categories_segments":[],"categories_sizes":[],"default_left":[0,0,0,0,0,0,0,0,0,0,0,0,0,0,0],"id":65,"left_children":[1,3,5,7,9,11,13,-1,-1,-1,-1,-1,-1,-1,-1],"loss_changes":[1.6671315E2,7.6374435E1,5.6709976E1,2.9784504E1,2.5715881E1,2.720639E1,6.6530833E0,0E0,0E0,0E0,0E0,0E0,0E0,0E0,0E0],"parents":[2147483647,0,0,1,1,2,2,3,3,4,4,5,5,6,6],"right_children":[2,4,6,8,10,12,14,-1,-1,-1,-1,-1,-1,-1,-1],"split_conditions":[6E-1,-1.5E0,4.9E0,-4.8E0,2.4E1,2E1,1.08E1,-5.4314954E-4,2.791024E-3,-5.673971E-4,-2.7023836E-3,2.6414855E-3,4.7921687E-3,-1.7253491E-4,4.0194355E-3],"split_indices":[25,77,77,25,51,80,25,0,0,0,0,0,0,0,0],"split_type":[0,0,0,0,0,0,0,0,0,0,0,0,0,0,0],"sum_hessian":[6.744593E3,3.4982756E3,3.246317E3,1.1873573E3,2.3109182E3,2.5977944E3,6.4852264E2,4.0741687E2,7.799405E2,1.3327052E3,9.7821313E2,1.6914379E3,9.063565E2,6.091569E2,3.9365685E1],"tree_param":{"num_deleted":"0","num_feature":"106","num_nodes":"15","size_leaf_vector":"1"}},{"base_weights":[-1.0910456E-1,8.874452E-2,-2.3193885E-1,-4.3351024E-2,2.3449671E-1,-3.2571888E-1,-3.3761192E-2,1.09707E-3,-1.6752818E-3,1.0793679E-3,3.0657495E-3,-4.4242535E-3,-2.396413E-3,5.4880674E-4,-2.0253297E-3],"categories":[],"categories_nodes":[],"categories_segments":[],"categories_sizes":[],"default_left":[0,0,0,0,0,0,0,0,0,0,0,0,0,0,0],"id":66,"left_children":[1,3,5,7,9,11,13,-1,-1,-1,-1,-1,-1,-1,-1],"loss_changes":[1.6388203E2,4.9748478E1,7.730591E1,2.579134E1,1.1172256E1,2.8260834E1,2.0018997E1,0E0,0E0,0E0,0E0,0E0,0E0,0E0,0E0],"parents":[2147483647,0,0,1,1,2,2,3,3,4,4,5,5,6,6],"right_children":[2,4,6,8,10,12,14,-1,-1,-1,-1,-1,-1,-1,-1],"split_conditions":[4.65E-1,5.19E-1,3E0,-4.8E0,2.2E1,-1.9E0,6.55E-1,1.09707E-3,-1.6752818E-3,1.0793679E-3,3.0657495E-3,-4.4242535E-3,-2.396413E-3,5.4880674E-4,-2.0253297E-3],"split_indices":[3,55,77,25,28,77,3,0,0,0,0,0,0,0,0],"split_type":[0,0,0,0,0,0,0,0,0,0,0,0,0,0,0],"sum_hessian":[6.7415327E3,2.5823774E3,4.159155E3,1.3550212E3,1.2273563E3,2.8227517E3,1.3364032E3,6.069834E2,7.4803784E2,4.4626733E2,7.81089E2,1.1964418E3,1.62631E3,8.766475E2,4.5975565E2],"tree_param":{"num_deleted":"0","num_feature":"106","num_nodes":"15","size_leaf_vector":"1"}},{"base_weights":[1.0910457E-1,-8.874451E-2,2.3193887E-1,4.3351024E-2,-2.3449668E-1,3.257189E-1,3.376119E-2,-1.0970699E-3,1.6752817E-3,-1.079368E-3,-3.0657493E-3,4.4242535E-3,2.3964131E-3,-5.4880657E-4,2.0253293E-3],"categories":[],"categories_nodes":[],"categories_segments":[],"categories_sizes":[],"default_left":[0,0,0,0,0,0,0,0,0,0,0,0,0,0,0],"id":67,"left_children":[1,3,5,7,9,11,13,-1,-1,-1,-1,-1,-1,-1,-1],"loss_changes":[1.6388202E2,4.974848E1,7.730592E1,2.5791332E1,1.1172234E1,2.8260864E1,2.001899E1,0E0,0E0,0E0,0E0,0E0,0E0,0E0,0E0],"parents":[2147483647,0,0,1,1,2,2,3,3,4,4,5,5,6,6],"right_children":[2,4,6,8,10,12,14,-1,-1,-1,-1,-1,-1,-1,-1],"split_conditions":[4.65E-1,5.19E-1,3E0,-4.8E0,2.2E1,-1.9E0,6.55E-1,-1.0970699E-3,1.6752817E-3,-1.079368E-3,-3.0657493E-3,4.4242535E-3,2.3964131E-3,-5.4880657E-4,2.0253293E-3],"split_indices":[3,55,77,25,28,77,3,0,0,0,0,0,0,0,0],"split_type":[0,0,0,0,0,0,0,0,0,0,0,0,0,0,0],"sum_hessian":[6.7415327E3,2.5823774E3,4.1591553E3,1.3550212E3,1.2273563E3,2.822752E3,1.3364032E3,6.0698334E2,7.4803784E2,4.4626733E2,7.81089E2,1.1964418E3,1.62631E3,8.766475E2,4.5975568E2],"tree_param":{"num_deleted":"0","num_feature":"106","num_nodes":"15","size_leaf_vector":"1"}},{"base_weights":[-1.0806219E-1,-2.6623046E-1,4.320919E-2,-1.4220534E-1,-3.957488E-1,-1.7761503E-1,1.4044598E-1,-2.0972076E-3,1.9510812E-4,-5.3983955E-3,-3.3545503E-3,6.0509785E-5,-3.151454E-3,5.11775E-4,2.5780278E-3],"categories":[],"categories_nodes":[],"categories_segments":[],"categories_sizes":[],"default_left":[0,0,0,0,0,0,0,0,0,0,0,0,0,0,0],"id":68,"left_children":[1,3,5,7,9,11,13,-1,-1,-1,-1,-1,-1,-1,-1],"loss_changes":[1.6126477E2,5.2870163E1,7.4013E1,1.83978E1,1.3816254E1,2.6622261E1,2.5055305E1,0E0,0E0,0E0,0E0,0E0,0E0,0E0,0E0],"parents":[2147483647,0,0,1,1,2,2,3,3,4,4,5,5,6,6],"right_children":[2,4,6,8,10,12,14,-1,-1,-1,-1,-1,-1,-1,-1],"split_conditions":[1.5E1,1.3E1,-2E0,6E0,5E0,-3.7E0,2.4E1,-2.0972076E-3,1.9510812E-4,-5.3983955E-3,-3.3545503E-3,6.0509785E-5,-3.151454E-3,5.11775E-4,2.5780278E-3],"split_indices":[51,80,77,77,51,25,51,0,0,0,0,0,0,0,0],"split_type":[0,0,0,0,0,0,0,0,0,0,0,0,0,0,0],"sum_hessian":[6.7385737E3,3.2938196E3,3.4447542E3,1.6836627E3,1.6101567E3,1.0528685E3,2.3918855E3,1.1875653E3,4.9609744E2,4.726525E2,1.1375043E3,4.5122827E2,6.016403E2,1.3593331E3,1.0325524E3],"tree_param":{"num_deleted":"0","num_feature":"106","num_nodes":"15","size_leaf_vector":"1"}},{"base_weights":[1.0806221E-1,2.662305E-1,-4.3209184E-2,1.4220534E-1,3.957488E-1,1.7761505E-1,-1.4044598E-1,2.0972076E-3,-1.9510822E-4,5.398396E-3,3.3545503E-3,-6.0509698E-5,3.1514543E-3,-5.117751E-4,-2.5780278E-3],"categories":[],"categories_nodes":[],"categories_segments":[],"categories_sizes":[],"default_left":[0,0,0,0,0,0,0,0,0,0,0,0,0,0,0],"id":69,"left_children":[1,3,5,7,9,11,13,-1,-1,-1,-1,-1,-1,-1,-1],"loss_changes":[1.612648E2,5.2870148E1,7.401301E1,1.8397804E1,1.3816284E1,2.6622269E1,2.5055305E1,0E0,0E0,0E0,0E0,0E0,0E0,0E0,0E0],"parents":[2147483647,0,0,1,1,2,2,3,3,4,4,5,5,6,6],"right_children":[2,4,6,8,10,12,14,-1,-1,-1,-1,-1,-1,-1,-1],"split_conditions":[1.5E1,1.3E1,-2E0,6E0,5E0,-3.7E0,2.4E1,2.0972076E-3,-1.9510822E-4,5.398396E-3,3.3545503E-3,-6.0509698E-5,3.1514543E-3,-5.117751E-4,-2.5780278E-3],"split_indices":[51,80,77,77,51,25,51,0,0,0,0,0,0,0,0],"split_type":[0,0,0,0,0,0,0,0,0,0,0,0,0,0,0],"sum_hessian":[6.7385737E3,3.2938196E3,3.4447542E3,1.6836627E3,1.6101569E3,1.0528687E3,2.3918855E3,1.1875653E3,4.9609744E2,4.726525E2,1.1375043E3,4.5122827E2,6.016403E2,1.3593331E3,1.0325524E3],"tree_param":{"num_deleted":"0","num_feature":"106","num_nodes":"15","size_leaf_vector":"1"}},{"base_weights":[-1.0703292E-1,4.054388E-2,-2.661889E-1,-1.6040285E-1,1.4375572E-1,-3.3080488E-1,-7.8010946E-3,5.25104E-4,-2.7173324E-3,5.5990764E-4,2.6330382E-3,-2.5699898E-3,-4.684924E-3,1.7904452E-4,-3.964007E-3],"categories":[],"categories_nodes":[],"categories_segments":[],"categories_sizes":[],"default_left":[0,0,0,0,0,0,0,0,0,0,0,0,0,0,0],"id":70,"left_children":[1,3,5,7,9,11,13,-1,-1,-1,-1,-1,-1,-1,-1],"loss_changes":[1.5823538E2,7.253576E1,5.4112823E1,2.814769E1,2.422607E1,2.6227997E1,6.494274E0,0E0,0E0,0E0,0E0,0E0,0E0,0E0,0E0],"parents":[2147483647,0,0,1,1,2,2,3,3,4,4,5,5,6,6],"right_children":[2,4,6,8,10,12,14,-1,-1,-1,-1,-1,-1,-1,-1],"split_conditions":[6E-1,-1.5E0,4.9E0,-4.8E0,2.4E1,2E1,1.08E1,5.25104E-4,-2.7173324E-3,5.5990764E-4,2.6330382E-3,-2.5699898E-3,-4.684924E-3,1.7904452E-4,-3.964007E-3],"split_indices":[25,77,77,25,51,80,25,0,0,0,0,0,0,0,0],"split_type":[0,0,0,0,0,0,0,0,0,0,0,0,0,0,0],"sum_hessian":[6.7354795E3,3.4952588E3,3.240221E3,1.1858778E3,2.3093809E3,2.5917996E3,6.4842126E2,4.0735748E2,7.785203E2,1.3325625E3,9.768184E2,1.6891926E3,9.0260693E2,6.090848E2,3.9336533E1],"tree_param":{"num_deleted":"0","num_feature":"106","num_nodes":"15","size_leaf_vector":"1"}},{"base_weights":[1.0703292E-1,-4.0543884E-2,2.661889E-1,1.6040286E-1,-1.4375573E-1,3.3080488E-1,7.801099E-3,-5.25104E-4,2.7173327E-3,-5.5990746E-4,-2.6330384E-3,2.5699898E-3,4.6849237E-3,-1.7904447E-4,3.964007E-3],"categories":[],"categories_nodes":[],"categories_segments":[],"categories_sizes":[],"default_left":[0,0,0,0,0,0,0,0,0,0,0,0,0,0,0],"id":71,"left_children":[1,3,5,7,9,11,13,-1,-1,-1,-1,-1,-1,-1,-1],"loss_changes":[1.582354E2,7.253577E1,5.411281E1,2.814769E1,2.4226097E1,2.6227997E1,6.494274E0,0E0,0E0,0E0,0E0,0E0,0E0,0E0,0E0],"parents":[2147483647,0,0,1,1,2,2,3,3,4,4,5,5,6,6],"right_children":[2,4,6,8,10,12,14,-1,-1,-1,-1,-1,-1,-1,-1],"split_conditions":[6E-1,-1.5E0,4.9E0,-4.8E0,2.4E1,2E1,1.08E1,-5.25104E-4,2.7173327E-3,-5.5990746E-4,-2.6330384E-3,2.5699898E-3,4.6849237E-3,-1.7904447E-4,3.964007E-3],"split_indices":[25,77,77,25,51,80,25,0,0,0,0,0,0,0,0],"split_type":[0,0,0,0,0,0,0,0,0,0,0,0,0,0,0],"sum_hessian":[6.7354795E3,3.4952588E3,3.240221E3,1.1858778E3,2.3093809E3,2.5917996E3,6.484213E2,4.0735748E2,7.785203E2,1.3325625E3,9.768184E2,1.6891926E3,9.0260693E2,6.090848E2,3.9336533E1],"tree_param":{"num_deleted":"0","num_feature":"106","num_nodes":"15","size_leaf_vector":"1"}},{"base_weights":[-1.0601536E-1,-2.0604537E-1,1.2498053E-1,-1.2365784E-1,-4.185769E-1,1.8388063E-1,-1.947711E-1,-2.7832647E-3,-3.595045E-4,-3.6114093E-3,-5.465627E-3,7.418466E-4,2.6896142E-3,-3.0309136E-3,7.6139276E-4],"categories":[],"categories_nodes":[],"categories_segments":[],"categories_sizes":[],"default_left":[0,0,0,0,0,0,0,0,0,0,0,0,0,0,0],"id":72,"left_children":[1,3,5,7,9,11,13,-1,-1,-1,-1,-1,-1,-1,-1],"loss_changes":[1.5560803E2,8.2226944E1,3.836728E1,4.5946156E1,9.449097E0,1.602549E1,9.327807E0,0E0,0E0,0E0,0E0,0E0,0E0,0E0,0E0],"parents":[2147483647,0,0,1,1,2,2,3,3,4,4,5,5,6,6],"right_children":[2,4,6,8,10,12,14,-1,-1,-1,-1,-1,-1,-1,-1],"split_conditions":[2E1,2E1,2.6E1,7E0,3.7E1,5.19E-1,2.7E1,-2.7832647E-3,-3.595045E-4,-3.6114093E-3,-5.465627E-3,7.418466E-4,2.6896142E-3,-3.0309136E-3,7.6139276E-4],"split_indices":[28,80,103,27,54,55,28,0,0,0,0,0,0,0,0],"split_type":[0,0,0,0,0,0,0,0,0,0,0,0,0,0,0],"sum_hessian":[6.732262E3,4.69797E3,2.034292E3,3.3867021E3,1.3112683E3,1.7182123E3,3.1607968E2,1.2247423E3,2.1619597E3,9.0772986E2,4.0353842E2,7.513533E2,9.66859E2,2.2571245E2,9.0367226E1],"tree_param":{"num_deleted":"0","num_feature":"106","num_nodes":"15","size_leaf_vector":"1"}},{"base_weights":[1.06015354E-1,2.0604537E-1,-1.2498055E-1,1.23657845E-1,4.185769E-1,-1.8388063E-1,1.9477107E-1,2.7832647E-3,3.5950463E-4,3.6114096E-3,5.465627E-3,-7.418466E-4,-2.6896144E-3,3.0309134E-3,-7.6139276E-4],"categories":[],"categories_nodes":[],"categories_segments":[],"categories_sizes":[],"default_left":[0,0,0,0,0,0,0,0,0,0,0,0,0,0,0],"id":73,"left_children":[1,3,5,7,9,11,13,-1,-1,-1,-1,-1,-1,-1,-1],"loss_changes":[1.5560805E2,8.222696E1,3.836728E1,4.594614E1,9.449081E0,1.6025494E1,9.327807E0,0E0,0E0,0E0,0E0,0E0,0E0,0E0,0E0],"parents":[2147483647,0,0,1,1,2,2,3,3,4,4,5,5,6,6],"right_children":[2,4,6,8,10,12,14,-1,-1,-1,-1,-1,-1,-1,-1],"split_conditions":[2E1,2E1,2.6E1,7E0,3.7E1,5.19E-1,2.7E1,2.7832647E-3,3.5950463E-4,3.6114096E-3,5.465627E-3,-7.418466E-4,-2.6896144E-3,3.0309134E-3,-7.6139276E-4],"split_indices":[28,80,103,27,54,55,28,0,0,0,0,0,0,0,0],"split_type":[0,0,0,0,0,0,0,0,0,0,0,0,0,0,0],"sum_hessian":[6.732262E3,4.69797E3,2.034292E3,3.3867021E3,1.3112683E3,1.7182123E3,3.1607968E2,1.2247423E3,2.1619597E3,9.0772986E2,4.0353842E2,7.513533E2,9.668591E2,2.2571245E2,9.0367226E1],"tree_param":{"num_deleted":"0","num_feature":"106","num_nodes":"15","size_leaf_vector":"1"}},{"base_weights":[-1.0500494E-1,-2.5926515E-1,4.237578E-2,-1.3780695E-1,-3.8643155E-1,-9.29627E-2,1.9395131E-1,-2.0414705E-3,2.0981349E-4,-5.2942536E-3,-3.2665867E-3,9.6964807E-4,-1.9435611E-3,1.070099E-3,2.9335727E-3],"categories":[],"categories_nodes":[],"categories_segments":[],"categories_sizes":[],"default_left":[0,0,0,0,0,0,0,0,0,0,0,0,0,0,0],"id":74,"left_children":[1,3,5,7,9,11,13,-1,-1,-1,-1,-1,-1,-1,-1],"loss_changes":[1.530224E2,5.0739E1,7.064193E1,1.7738916E1,1.3553329E1,3.5056717E1,1.4006329E1,0E0,0E0,0E0,0E0,0E0,0E0,0E0,0E0],"parents":[2147483647,0,0,1,1,2,2,3,3,4,4,5,5,6,6],"right_children":[2,4,6,8,10,12,14,-1,-1,-1,-1,-1,-1,-1,-1],"split_conditions":[1.5E1,1.3E1,5.23E-1,6E0,5E0,-4.8E0,2.2E1,-2.0414705E-3,2.0981349E-4,-5.2942536E-3,-3.2665867E-3,9.6964807E-4,-1.9435611E-3,1.070099E-3,2.9335727E-3],"split_indices":[51,80,55,77,51,25,28,0,0,0,0,0,0,0,0],"split_type":[0,0,0,0,0,0,0,0,0,0,0,0,0,0,0],"sum_hessian":[6.7292197E3,3.2875027E3,3.441717E3,1.6825562E3,1.6049464E3,1.8184498E3,1.6232673E3,1.1865446E3,4.9601157E2,4.7080026E2,1.1341462E3,6.3292145E2,1.1855283E3,8.670305E2,7.5623676E2],"tree_param":{"num_deleted":"0","num_feature":"106","num_nodes":"15","size_leaf_vector":"1"}},{"base_weights":[1.0500493E-1,2.5926515E-1,-4.2375784E-2,1.3780695E-1,3.8643155E-1,9.29627E-2,-1.9395132E-1,2.0414703E-3,-2.0981353E-4,5.2942536E-3,3.2665862E-3,-9.6964795E-4,1.9435611E-3,-1.070099E-3,-2.933573E-3],"categories":[],"categories_nodes":[],"categories_segments":[],"categories_sizes":[],"default_left":[0,0,0,0,0,0,0,0,0,0,0,0,0,0,0],"id":75,"left_children":[1,3,5,7,9,11,13,-1,-1,-1,-1,-1,-1,-1,-1],"loss_changes":[1.530224E2,5.0739E1,7.064194E1,1.7738914E1,1.3553329E1,3.5056713E1,1.4006329E1,0E0,0E0,0E0,0E0,0E0,0E0,0E0,0E0],"parents":[2147483647,0,0,1,1,2,2,3,3,4,4,5,5,6,6],"right_children":[2,4,6,8,10,12,14,-1,-1,-1,-1,-1,-1,-1,-1],"split_conditions":[1.5E1,1.3E1,5.23E-1,6E0,5E0,-4.8E0,2.2E1,2.0414703E-3,-2.0981353E-4,5.2942536E-3,3.2665862E-3,-9.6964795E-4,1.9435611E-3,-1.070099E-3,-2.933573E-3],"split_indices":[51,80,55,77,51,25,28,0,0,0,0,0,0,0,0],"split_type":[0,0,0,0,0,0,0,0,0,0,0,0,0,0,0],"sum_hessian":[6.7292197E3,3.2875027E3,3.441717E3,1.6825562E3,1.6049464E3,1.8184498E3,1.6232673E3,1.1865446E3,4.960116E2,4.7080026E2,1.1341462E3,6.3292145E2,1.1855283E3,8.670305E2,7.5623676E2],"tree_param":{"num_deleted":"0","num_feature":"106","num_nodes":"15","size_leaf_vector":"1"}},{"base_weights":[-1.0400511E-1,3.9771743E-2,-2.5923395E-1,-1.5647087E-1,1.4051525E-1,-3.2272732E-1,-5.8828513E-3,5.096771E-4,-2.651157E-3,5.4932566E-4,2.5723139E-3,-2.5048659E-3,-4.57914E-3,1.952411E-4,-3.9027287E-3],"categories":[],"categories_nodes":[],"categories_segments":[],"categories_sizes":[],"default_left":[0,0,0,0,0,0,0,0,0,0,0,0,0,0,0],"id":76,"left_children":[1,3,5,7,9,11,13,-1,-1,-1,-1,-1,-1,-1,-1],"loss_changes":[1.5014734E2,6.908373E1,5.2034225E1,2.6730047E1,2.3048038E1,2.5145905E1,6.3484025E0,0E0,0E0,0E0,0E0,0E0,0E0,0E0,0E0],"parents":[2147483647,0,0,1,1,2,2,3,3,4,4,5,5,6,6],"right_children":[2,4,6,8,10,12,14,-1,-1,-1,-1,-1,-1,-1,-1],"split_conditions":[6E-1,-1.5E0,4.9E0,-4.8E0,2.4E1,2E1,1.08E1,5.096771E-4,-2.651157E-3,5.4932566E-4,2.5723139E-3,-2.5048659E-3,-4.57914E-3,1.952411E-4,-3.9027287E-3],"split_indices":[25,77,77,25,51,80,25,0,0,0,0,0,0,0,0],"split_type":[0,0,0,0,0,0,0,0,0,0,0,0,0,0,0],"sum_hessian":[6.7260776E3,3.49223E3,3.2338477E3,1.1844452E3,2.307785E3,2.5855886E3,6.4825903E2,4.0730243E2,7.771427E2,1.332323E3,9.754618E2,1.6869648E3,8.986237E2,6.08958E2,3.9300983E1],"tree_param":{"num_deleted":"0","num_feature":"106","num_nodes":"15","size_leaf_vector":"1"}},{"base_weights":[1.0400512E-1,-3.9771743E-2,2.5923395E-1,1.5647088E-1,-1.4051525E-1,3.2272732E-1,5.8828564E-3,-5.0967676E-4,2.651157E-3,-5.4932595E-4,-2.5723134E-3,2.5048659E-3,4.57914E-3,-1.9524107E-4,3.9027291E-3],"categories":[],"categories_nodes":[],"categories_segments":[],"categories_sizes":[],"default_left":[0,0,0,0,0,0,0,0,0,0,0,0,0,0,0],"id":77,"left_children":[1,3,5,7,9,11,13,-1,-1,-1,-1,-1,-1,-1,-1],"loss_changes":[1.5014734E2,6.908374E1,5.203424E1,2.6730042E1,2.304803E1,2.5145874E1,6.3484025E0,0E0,0E0,0E0,0E0,0E0,0E0,0E0,0E0],"parents":[2147483647,0,0,1,1,2,2,3,3,4,4,5,5,6,6],"right_children":[2,4,6,8,10,12,14,-1,-1,-1,-1,-1,-1,-1,-1],"split_conditions":[6E-1,-1.5E0,4.9E0,-4.8E0,2.4E1,2E1,1.08E1,