{"learner":{"attributes":{},"feature_names":[],"feature_types":[],"gradient_booster":{"model":{"gbtree_model_param":{"num_parallel_tree":"1","num_trees":"1500"},"iteration_indptr":[0,2,4,6,8,10,12,14,16,18,20,22,24,26,28,30,32,34,36,38,40,42,44,46,48,50,52,54,56,58,60,62,64,66,68,70,72,74,76,78,80,82,84,86,88,90,92,94,96,98,100,102,104,106,108,110,112,114,116,118,120,122,124,126,128,130,132,134,136,138,140,142,144,146,148,150,152,154,156,158,160,162,164,166,168,170,172,174,176,178,180,182,184,186,188,190,192,194,196,198,200,202,204,206,208,210,212,214,216,218,220,222,224,226,228,230,232,234,236,238,240,242,244,246,248,250,252,254,256,258,260,262,264,266,268,270,272,274,276,278,280,282,284,286,288,290,292,294,296,298,300,302,304,306,308,310,312,314,316,318,320,322,324,326,328,330,332,334,336,338,340,342,344,346,348,350,352,354,356,358,360,362,364,366,368,370,372,374,376,378,380,382,384,386,388,390,392,394,396,398,400,402,404,406,408,410,412,414,416,418,420,422,424,426,428,430,432,434,436,438,440,442,444,446,448,450,452,454,456,458,460,462,464,466,468,470,472,474,476,478,480,482,484,486,488,490,492,494,496,498,500,502,504,506,508,510,512,514,516,518,520,522,524,526,528,530,532,534,536,538,540,542,544,546,548,550,552,554,556,558,560,562,564,566,568,570,572,574,576,578,580,582,584,586,588,590,592,594,596,598,600,602,604,606,608,610,612,614,616,618,620,622,624,626,628,630,632,634,636,638,640,642,644,646,648,650,652,654,656,658,660,662,664,666,668,670,672,674,676,678,680,682,684,686,688,690,692,694,696,698,700,702,704,706,708,710,712,714,716,718,720,722,724,726,728,730,732,734,736,738,740,742,744,746,748,750,752,754,756,758,760,762,764,766,768,770,772,774,776,778,780,782,784,786,788,790,792,794,796,798,800,802,804,806,808,810,812,814,816,818,820,822,824,826,828,830,832,834,836,838,840,842,844,846,848,850,852,854,856,858,860,862,864,866,868,870,872,874,876,878,880,882,884,886,888,890,892,894,896,898,900,902,904,906,908,910,912,914,916,918,920,922,924,926,928,930,932,934,936,938,940,942,944,946,948,950,952,954,956,958,960,962,964,966,968,970,972,974,976,978,980,982,984,986,988,990,992,994,996,998,1000,1002,1004,1006,1008,1010,1012,1014,1016,1018,1020,1022,1024,1026,1028,1030,1032,1034,1036,1038,1040,1042,1044,1046,1048,1050,1052,1054,1056,1058,1060,1062,1064,1066,1068,1070,1072,1074,1076,1078,1080,1082,1084,1086,1088,1090,1092,1094,1096,1098,1100,1102,1104,1106,1108,1110,1112,1114,1116,1118,1120,1122,1124,1126,1128,1130,1132,1134,1136,1138,1140,1142,1144,1146,1148,1150,1152,1154,1156,1158,1160,1162,1164,1166,1168,1170,1172,1174,1176,1178,1180,1182,1184,1186,1188,1190,1192,1194,1196,1198,1200,1202,1204,1206,1208,1210,1212,1214,1216,1218,1220,1222,1224,1226,1228,1230,1232,1234,1236,1238,1240,1242,1244,1246,1248,1250,1252,1254,1256,1258,1260,1262,1264,1266,1268,1270,1272,1274,1276,1278,1280,1282,1284,1286,1288,1290,1292,1294,1296,1298,1300,1302,1304,1306,1308,1310,1312,1314,1316,1318,1320,1322,1324,1326,1328,1330,1332,1334,1336,1338,1340,1342,1344,1346,1348,1350,1352,1354,1356,1358,1360,1362,1364,1366,1368,1370,1372,1374,1376,1378,1380,1382,1384,1386,1388,1390,1392,1394,1396,1398,1400,1402,1404,1406,1408,1410,1412,1414,1416,1418,1420,1422,1424,1426,1428,1430,1432,1434,1436,1438,1440,1442,1444,1446,1448,1450,1452,1454,1456,1458,1460,1462,1464,1466,1468,1470,1472,1474,1476,1478,1480,1482,1484,1486,1488,1490,1492,1494,1496,1498,1500],"tree_info":[0,1,0,1,0,1,0,1,0,1,0,1,0,1,0,1,0,1,0,1,0,1,0,1,0,1,0,1,0,1,0,1,0,1,0,1,0,1,0,1,0,1,0,1,0,1,0,1,0,1,0,1,0,1,0,1,0,1,0,1,0,1,0,1,0,1,0,1,0,1,0,1,0,1,0,1,0,1,0,1,0,1,0,1,0,1,0,1,0,1,0,1,0,1,0,1,0,1,0,1,0,1,0,1,0,1,0,1,0,1,0,1,0,1,0,1,0,1,0,1,0,1,0,1,0,1,0,1,0,1,0,1,0,1,0,1,0,1,0,1,0,1,0,1,0,1,0,1,0,1,0,1,0,1,0,1,0,1,0,1,0,1,0,1,0,1,0,1,0,1,0,1,0,1,0,1,0,1,0,1,0,1,0,1,0,1,0,1,0,1,0,1,0,1,0,1,0,1,0,1,0,1,0,1,0,1,0,1,0,1,0,1,0,1,0,1,0,1,0,1,0,1,0,1,0,1,0,1,0,1,0,1,0,1,0,1,0,1,0,1,0,1,0,1,0,1,0,1,0,1,0,1,0,1,0,1,0,1,0,1,0,1,0,1,0,1,0,1,0,1,0,1,0,1,0,1,0,1,0,1,0,1,0,1,0,1,0,1,0,1,0,1,0,1,0,1,0,1,0,1,0,1,0,1,0,1,0,1,0,1,0,1,0,1,0,1,0,1,0,1,0,1,0,1,0,1,0,1,0,1,0,1,0,1,0,1,0,1,0,1,0,1,0,1,0,1,0,1,0,1,0,1,0,1,0,1,0,1,0,1,0,1,0,1,0,1,0,1,0,1,0,1,0,1,0,1,0,1,0,1,0,1,0,1,0,1,0,1,0,1,0,1,0,1,0,1,0,1,0,1,0,1,0,1,0,1,0,1,0,1,0,1,0,1,0,1,0,1,0,1,0,1,0,1,0,1,0,1,0,1,0,1,0,1,0,1,0,1,0,1,0,1,0,1,0,1,0,1,0,1,0,1,0,1,0,1,0,1,0,1,0,1,0,1,0,1,0,1,0,1,0,1,0,1,0,1,0,1,0,1,0,1,0,1,0,1,0,1,0,1,0,1,0,1,0,1,0,1,0,1,0,1,0,1,0,1,0,1,0,1,0,1,0,1,0,1,0,1,0,1,0,1,0,1,0,1,0,1,0,1,0,1,0,1,0,1,0,1,0,1,0,1,0,1,0,1,0,1,0,1,0,1,0,1,0,1,0,1,0,1,0,1,0,1,0,1,0,1,0,1,0,1,0,1,0,1,0,1,0,1,0,1,0,1,0,1,0,1,0,1,0,1,0,1,0,1,0,1,0,1,0,1,0,1,0,1,0,1,0,1,0,1,0,1,0,1,0,1,0,1,0,1,0,1,0,1,0,1,0,1,0,1,0,1,0,1,0,1,0,1,0,1,0,1,0,1,0,1,0,1,0,1,0,1,0,1,0,1,0,1,0,1,0,1,0,1,0,1,0,1,0,1,0,1,0,1,0,1,0,1,0,1,0,1,0,1,0,1,0,1,0,1,0,1,0,1,0,1,0,1,0,1,0,1,0,1,0,1,0,1,0,1,0,1,0,1,0,1,0,1,0,1,0,1,0,1,0,1,0,1,0,1,0,1,0,1,0,1,0,1,0,1,0,1,0,1,0,1,0,1,0,1,0,1,0,1,0,1,0,1,0,1,0,1,0,1,0,1,0,1,0,1,0,1,0,1,0,1,0,1,0,1,0,1,0,1,0,1,0,1,0,1,0,1,0,1,0,1,0,1,0,1,0,1,0,1,0,1,0,1,0,1,0,1,0,1,0,1,0,1,0,1,0,1,0,1,0,1,0,1,0,1,0,1,0,1,0,1,0,1,0,1,0,1,0,1,0,1,0,1,0,1,0,1,0,1,0,1,0,1,0,1,0,1,0,1,0,1,0,1,0,1,0,1,0,1,0,1,0,1,0,1,0,1,0,1,0,1,0,1,0,1,0,1,0,1,0,1,0,1,0,1,0,1,0,1,0,1,0,1,0,1,0,1,0,1,0,1,0,1,0,1,0,1,0,1,0,1,0,1,0,1,0,1,0,1,0,1,0,1,0,1,0,1,0,1,0,1,0,1,0,1,0,1,0,1,0,1,0,1,0,1,0,1,0,1,0,1,0,1,0,1,0,1,0,1,0,1,0,1,0,1,0,1,0,1,0,1,0,1,0,1,0,1,0,1,0,1,0,1,0,1,0,1,0,1,0,1,0,1,0,1,0,1,0,1,0,1,0,1,0,1,0,1,0,1,0,1,0,1,0,1,0,1,0,1,0,1,0,1,0,1,0,1,0,1,0,1,0,1,0,1,0,1,0,1,0,1,0,1,0,1,0,1,0,1,0,1,0,1,0,1,0,1,0,1,0,1,0,1,0,1,0,1,0,1,0,1,0,1,0,1,0,1,0,1,0,1,0,1,0,1,0,1,0,1,0,1,0,1,0,1,0,1,0,1,0,1,0,1,0,1,0,1,0,1,0,1,0,1,0,1,0,1,0,1,0,1,0,1,0,1,0,1,0,1,0,1,0,1,0,1,0,1,0,1,0,1,0,1,0,1,0,1,0,1,0,1,0,1,0,1,0,1,0,1,0,1,0,1,0,1,0,1,0,1,0,1,0,1,0,1,0,1,0,1,0,1,0,1,0,1,0,1,0,1,0,1,0,1,0,1,0,1,0,1,0,1,0,1,0,1,0,1,0,1,0,1,0,1,0,1,0,1,0,1,0,1,0,1,0,1,0,1,0,1,0,1,0,1,0,1,0,1,0,1,0,1,0,1,0,1,0,1,0,1,0,1,0,1,0,1,0,1,0,1,0,1,0,1,0,1,0,1,0,1,0,1,0,1,0,1,0,1,0,1,0,1,0,1,0,1,0,1,0,1,0,1,0,1,0,1,0,1,0,1,0,1,0,1,0,1,0,1,0,1,0,1,0,1,0,1,0,1,0,1,0,1,0,1,0,1,0,1,0,1,0,1,0,1,0,1,0,1,0,1,0,1,0,1,0,1,0,1,0,1,0,1,0,1,0,1,0,1,0,1,0,1,0,1,0,1,0,1,0,1,0,1,0,1,0,1,0,1,0,1,0,1,0,1,0,1,0,1,0,1,0,1,0,1,0,1,0,1,0,1,0,1,0,1,0,1,0,1,0,1,0,1,0,1,0,1,0,1,0,1,0,1,0,1,0,1,0,1,0,1,0,1,0,1,0,1,0,1,0,1,0,1,0,1,0,1,0,1,0,1,0,1,0,1,0,1,0,1,0,1,0,1,0,1,0,1,0,1,0,1,0,1,0,1,0,1,0,1,0,1,0,1,0,1],"trees":[{"base_weights":[-1.4943035E-1,1.22501485E-1,-3.100304E-1,-1.44623E-1,2.4818155E-1,-4.5988098E-1,-1.1159381E-1,7.482993E-4,-3.2655366E-3,1.0261855E-3,3.4945705E-3,-3.7420983E-3,-6.1776736E-3,-2.5867505E-3,4.542905E-4],"categories":[],"categories_nodes":[],"categories_segments":[],"categories_sizes":[],"default_left":[0,0,0,0,0,0,0,0,0,0,0,0,0,0,0],"id":0,"left_children":[1,3,5,7,9,11,13,-1,-1,-1,-1,-1,-1,-1,-1],"loss_changes":[2.971186E2,8.485611E1,1.27128876E2,3.2323936E1,2.529821E1,3.2725647E1,4.254142E1,0E0,0E0,0E0,0E0,0E0,0E0,0E0,0E0],"parents":[2147483647,0,0,1,1,2,2,3,3,4,4,5,5,6,6],"right_children":[2,4,6,8,10,12,14,-1,-1,-1,-1,-1,-1,-1,-1],"split_conditions":[4.6E-1,-2E0,1.5E0,-4.8E0,2.4E1,2.3E1,1E1,7.482993E-4,-3.2655366E-3,1.0261855E-3,3.4945705E-3,-3.7420983E-3,-6.1776736E-3,-2.5867505E-3,4.542905E-4],"split_indices":[3,77,77,25,51,80,51,0,0,0,0,0,0,0,0],"split_type":[0,0,0,0,0,0,0,0,0,0,0,0,0,0,0],"sum_hessian":[6.8015E3,2.5255E3,4.276E3,8.08E2,1.7175E3,2.4355E3,1.8405E3,3.665E2,4.415E2,7.055E2,1.012E3,1.581E3,8.545E2,9.5E2,8.905E2],"tree_param":{"num_deleted":"0","num_feature":"106","num_nodes":"15","size_leaf_vector":"1"}},{"base_weights":[1.4943035E-1,-1.22501485E-1,3.100304E-1,1.44623E-1,-2.4818155E-1,4.5988098E-1,1.1159381E-1,-7.482993E-4,3.2655366E-3,-1.0261855E-3,-3.4945705E-3,3.7420983E-3,6.1776736E-3,2.5867505E-3,-4.542905E-4],"categories":[],"categories_nodes":[],"categories_segments":[],"categories_sizes":[],"default_left":[0,0,0,0,0,0,0,0,0,0,0,0,0,0,0],"id":1,"left_children":[1,3,5,7,9,11,13,-1,-1,-1,-1,-1,-1,-1,-1],"loss_changes":[2.971186E2,8.485611E1,1.27128876E2,3.2323936E1,2.529821E1,3.2725647E1,4.254142E1,0E0,0E0,0E0,0E0,0E0,0E0,0E0,0E0],"parents":[2147483647,0,0,1,1,2,2,3,3,4,4,5,5,6,6],"right_children":[2,4,6,8,10,12,14,-1,-1,-1,-1,-1,-1,-1,-1],"split_conditions":[4.6E-1,-2E0,1.5E0,-4.8E0,2.4E1,2.3E1,1E1,-7.482993E-4,3.2655366E-3,-1.0261855E-3,-3.4945705E-3,3.7420983E-3,6.1776736E-3,2.5867505E-3,-4.542905E-4],"split_indices":[3,77,77,25,51,80,51,0,0,0,0,0,0,0,0],"split_type":[0,0,0,0,0,0,0,0,0,0,0,0,0,0,0],"sum_hessian":[6.8015E3,2.5255E3,4.276E3,8.08E2,1.7175E3,2.4355E3,1.8405E3,3.665E2,4.415E2,7.055E2,1.012E3,1.581E3,8.545E2,9.5E2,8.905E2],"tree_param":{"num_deleted":"0","num_feature":"106","num_nodes":"15","size_leaf_vector":"1"}},{"base_weights":[-1.4793928E-1,1.2127816E-1,-3.0693737E-1,-1.4318076E-1,2.457043E-1,-5.544131E-1,-1.8892525E-1,7.408373E-4,-3.23299E-3,1.0159395E-3,3.4597022E-3,-3.084893E-3,-5.9827124E-3,-3.6662302E-3,-6.618849E-4],"categories":[],"categories_nodes":[],"categories_segments":[],"categories_sizes":[],"default_left":[0,0,0,0,0,0,0,0,0,0,0,0,0,0,0],"id":2,"left_children":[1,3,5,7,9,11,13,-1,-1,-1,-1,-1,-1,-1,-1],"loss_changes":[2.9121527E2,8.317058E1,1.2480377E2,3.1682598E1,2.479589E1,1.4704773E1,6.316986E1,0E0,0E0,0E0,0E0,0E0,0E0,0E0,0E0],"parents":[2147483647,0,0,1,1,2,2,3,3,4,4,5,5,6,6],"right_children":[2,4,6,8,10,12,14,-1,-1,-1,-1,-1,-1,-1,-1],"split_conditions":[4.6E-1,-2E0,-1.4E0,-4.8E0,2.4E1,8E0,8E0,7.408373E-4,-3.23299E-3,1.0159395E-3,3.4597022E-3,-3.084893E-3,-5.9827124E-3,-3.6662302E-3,-6.618849E-4],"split_indices":[3,77,77,25,51,54,51,0,0,0,0,0,0,0,0],"split_type":[0,0,0,0,0,0,0,0,0,0,0,0,0,0,0],"sum_hessian":[6.801421E3,2.525482E3,4.2759385E3,8.079951E2,1.7174869E3,1.3794609E3,2.8964778E3,3.6649982E2,4.414953E2,7.0549927E2,1.0119876E3,2.0999582E2,1.1694651E3,1.1824885E3,1.7139893E3],"tree_param":{"num_deleted":"0","num_feature":"106","num_nodes":"15","size_leaf_vector":"1"}},{"base_weights":[1.4793928E-1,-1.21278144E-1,3.0693734E-1,1.4318076E-1,-2.4570428E-1,5.544131E-1,1.8892522E-1,-7.408373E-4,3.23299E-3,-1.0159393E-3,-3.459702E-3,3.0848929E-3,5.9827124E-3,3.66623E-3,6.618846E-4],"categories":[],"categories_nodes":[],"categories_segments":[],"categories_sizes":[],"default_left":[0,0,0,0,0,0,0,0,0,0,0,0,0,0,0],"id":3,"left_children":[1,3,5,7,9,11,13,-1,-1,-1,-1,-1,-1,-1,-1],"loss_changes":[2.9121515E2,8.317056E1,1.2480386E2,3.1682598E1,2.479589E1,1.4704773E1,6.316986E1,0E0,0E0,0E0,0E0,0E0,0E0,0E0,0E0],"parents":[2147483647,0,0,1,1,2,2,3,3,4,4,5,5,6,6],"right_children":[2,4,6,8,10,12,14,-1,-1,-1,-1,-1,-1,-1,-1],"split_conditions":[4.6E-1,-2E0,-1.4E0,-4.8E0,2.4E1,8E0,8E0,-7.408373E-4,3.23299E-3,-1.0159393E-3,-3.459702E-3,3.0848929E-3,5.9827124E-3,3.66623E-3,6.618846E-4],"split_indices":[3,77,77,25,51,54,51,0,0,0,0,0,0,0,0],"split_type":[0,0,0,0,0,0,0,0,0,0,0,0,0,0,0],"sum_hessian":[6.8014204E3,2.525482E3,4.275939E3,8.079951E2,1.7174868E3,1.3794609E3,2.8964778E3,3.6649982E2,4.414953E2,7.054992E2,1.01198755E3,2.0999583E2,1.1694651E3,1.1824885E3,1.7139893E3],"tree_param":{"num_deleted":"0","num_feature":"106","num_nodes":"15","size_leaf_vector":"1"}},{"base_weights":[-1.4646642E-1,1.20068654E-1,-3.0388328E-1,-1.417546E-1,2.4325529E-1,-4.513518E-1,-1.0861452E-1,7.334498E-4,-3.200834E-3,1.0057967E-3,3.4252624E-3,-3.6741358E-3,-6.060575E-3,-2.5310516E-3,4.563645E-4],"categories":[],"categories_nodes":[],"categories_segments":[],"categories_sizes":[],"default_left":[0,0,0,0,0,0,0,0,0,0,0,0,0,0,0],"id":4,"left_children":[1,3,5,7,9,11,13,-1,-1,-1,-1,-1,-1,-1,-1],"loss_changes":[2.8543704E2,8.15197E1,1.2310474E2,3.105471E1,2.430487E1,3.1414429E1,4.1053886E1,0E0,0E0,0E0,0E0,0E0,0E0,0E0,0E0],"parents":[2147483647,0,0,1,1,2,2,3,3,4,4,5,5,6,6],"right_children":[2,4,6,8,10,12,14,-1,-1,-1,-1,-1,-1,-1,-1],"split_conditions":[4.6E-1,-2E0,1.5E0,-4.8E0,2.4E1,2.3E1,1E1,7.334498E-4,-3.200834E-3,1.0057967E-3,3.4252624E-3,-3.6741358E-3,-6.060575E-3,-2.5310516E-3,4.563645E-4],"split_indices":[3,77,77,25,51,80,51,0,0,0,0,0,0,0,0],"split_type":[0,0,0,0,0,0,0,0,0,0,0,0,0,0,0],"sum_hessian":[6.801197E3,2.5254287E3,4.275768E3,8.079805E2,1.7174481E3,2.4352993E3,1.8404689E3,3.664992E2,4.4148135E2,7.054971E2,1.0119511E3,1.5809196E3,8.543798E2,9.4996893E2,8.905E2],"tree_param":{"num_deleted":"0","num_feature":"106","num_nodes":"15","size_leaf_vector":"1"}},{"base_weights":[1.4646643E-1,-1.200687E-1,3.0388334E-1,1.4175458E-1,-2.4325535E-1,4.5135185E-1,1.0861457E-1,-7.334501E-4,3.200834E-3,-1.0057976E-3,-3.4252629E-3,3.6741362E-3,6.0605756E-3,2.5310519E-3,-4.5636366E-4],"categories":[],"categories_nodes":[],"categories_segments":[],"categories_sizes":[],"default_left":[0,0,0,0,0,0,0,0,0,0,0,0,0,0,0],"id":5,"left_children":[1,3,5,7,9,11,13,-1,-1,-1,-1,-1,-1,-1,-1],"loss_changes":[2.854372E2,8.1519714E1,1.2310477E2,3.1054718E1,2.4304863E1,3.141446E1,4.105387E1,0E0,0E0,0E0,0E0,0E0,0E0,0E0,0E0],"parents":[2147483647,0,0,1,1,2,2,3,3,4,4,5,5,6,6],"right_children":[2,4,6,8,10,12,14,-1,-1,-1,-1,-1,-1,-1,-1],"split_conditions":[4.6E-1,-2E0,1.5E0,-4.8E0,2.4E1,2.3E1,1E1,-7.334501E-4,3.200834E-3,-1.0057976E-3,-3.4252629E-3,3.6741362E-3,6.0605756E-3,2.5310519E-3,-4.5636366E-4],"split_indices":[3,77,77,25,51,80,51,0,0,0,0,0,0,0,0],"split_type":[0,0,0,0,0,0,0,0,0,0,0,0,0,0,0],"sum_hessian":[6.801197E3,2.5254287E3,4.275768E3,8.079805E2,1.7174481E3,2.4352993E3,1.8404689E3,3.664992E2,4.4148135E2,7.05497E2,1.0119511E3,1.5809194E3,8.543798E2,9.499689E2,8.9049994E2],"tree_param":{"num_deleted":"0","num_feature":"106","num_nodes":"15","size_leaf_vector":"1"}},{"base_weights":[-1.4501126E-1,1.1887296E-1,-3.008676E-1,-1.4034423E-1,2.4083439E-1,-4.4688916E-1,-1.07531466E-1,7.2613795E-4,-3.169062E-3,9.957583E-4,3.391247E-3,-3.6376503E-3,-6.001123E-3,-2.505855E-3,4.5180542E-4],"categories":[],"categories_nodes":[],"categories_segments":[],"categories_sizes":[],"default_left":[0,0,0,0,0,0,0,0,0,0,0,0,0,0,0],"id":6,"left_children":[1,3,5,7,9,11,13,-1,-1,-1,-1,-1,-1,-1,-1],"loss_changes":[2.7978125E2,7.99028E1,1.2068231E2,3.0440022E1,2.3824883E1,3.0808533E1,4.0239456E1,0E0,0E0,0E0,0E0,0E0,0E0,0E0,0E0],"parents":[2147483647,0,0,1,1,2,2,3,3,4,4,5,5,6,6],"right_children":[2,4,6,8,10,12,14,-1,-1,-1,-1,-1,-1,-1,-1],"split_conditions":[4.6E-1,-2E0,1.5E0,-4.8E0,2.4E1,2.3E1,1E1,7.2613795E-4,-3.169062E-3,9.957583E-4,3.391247E-3,-3.6376503E-3,-6.001123E-3,-2.505855E-3,4.5180542E-4],"split_indices":[3,77,77,25,51,80,51,0,0,0,0,0,0,0,0],"split_type":[0,0,0,0,0,0,0,0,0,0,0,0,0,0,0],"sum_hessian":[6.8008223E3,2.525341E3,4.275481E3,8.0795667E2,1.7173844E3,2.4350452E3,1.8404359E3,3.664982E2,4.4145847E2,7.0549347E2,1.011891E3,1.5808188E3,8.542262E2,9.49936E2,8.9049994E2],"tree_param":{"num_deleted":"0","num_feature":"106","num_nodes":"15","size_leaf_vector":"1"}},{"base_weights":[1.4501126E-1,-1.18872955E-1,3.0086756E-1,1.4034423E-1,-2.4083437E-1,4.4688913E-1,1.07531466E-1,-7.2613795E-4,3.169062E-3,-9.957586E-4,-3.391247E-3,3.6376498E-3,6.001123E-3,2.505855E-3,-4.5180542E-4],"categories":[],"categories_nodes":[],"categories_segments":[],"categories_sizes":[],"default_left":[0,0,0,0,0,0,0,0,0,0,0,0,0,0,0],"id":7,"left_children":[1,3,5,7,9,11,13,-1,-1,-1,-1,-1,-1,-1,-1],"loss_changes":[2.797812E2,7.99028E1,1.2068231E2,3.0440022E1,2.3824875E1,3.0808472E1,4.0239456E1,0E0,0E0,0E0,0E0,0E0,0E0,0E0,0E0],"parents":[2147483647,0,0,1,1,2,2,3,3,4,4,5,5,6,6],"right_children":[2,4,6,8,10,12,14,-1,-1,-1,-1,-1,-1,-1,-1],"split_conditions":[4.6E-1,-2E0,1.5E0,-4.8E0,2.4E1,2.3E1,1E1,-7.2613795E-4,3.169062E-3,-9.957586E-4,-3.391247E-3,3.6376498E-3,6.001123E-3,2.505855E-3,-4.5180542E-4],"split_indices":[3,77,77,25,51,80,51,0,0,0,0,0,0,0,0],"split_type":[0,0,0,0,0,0,0,0,0,0,0,0,0,0,0],"sum_hessian":[6.8008223E3,2.525341E3,4.275481E3,8.0795667E2,1.7173844E3,2.4350452E3,1.8404359E3,3.664982E2,4.4145847E2,7.0549347E2,1.0118909E3,1.580819E3,8.5422614E2,9.49936E2,8.9049994E2],"tree_param":{"num_deleted":"0","num_feature":"106","num_nodes":"15","size_leaf_vector":"1"}},{"base_weights":[-1.4357373E-1,1.1769063E-1,-2.9788977E-1,-1.389496E-1,2.3844083E-1,-5.389848E-1,-1.829583E-1,7.1889814E-4,-3.1376686E-3,9.858217E-4,3.3576437E-3,-2.970665E-3,-5.8214315E-3,-3.570733E-3,-6.270945E-4],"categories":[],"categories_nodes":[],"categories_segments":[],"categories_sizes":[],"default_left":[0,0,0,0,0,0,0,0,0,0,0,0,0,0,0],"id":8,"left_children":[1,3,5,7,9,11,13,-1,-1,-1,-1,-1,-1,-1,-1],"loss_changes":[2.7424493E2,7.831908E1,1.1838904E2,2.9838165E1,2.335556E1,1.4234131E1,6.063669E1,0E0,0E0,0E0,0E0,0E0,0E0,0E0,0E0],"parents":[2147483647,0,0,1,1,2,2,3,3,4,4,5,5,6,6],"right_children":[2,4,6,8,10,12,14,-1,-1,-1,-1,-1,-1,-1,-1],"split_conditions":[4.6E-1,-2E0,-1.4E0,-4.8E0,2.4E1,8E0,8E0,7.1889814E-4,-3.1376686E-3,9.858217E-4,3.3576437E-3,-2.970665E-3,-5.8214315E-3,-3.570733E-3,-6.270945E-4],"split_indices":[3,77,77,25,51,54,51,0,0,0,0,0,0,0,0],"split_type":[0,0,0,0,0,0,0,0,0,0,0,0,0,0,0],"sum_hessian":[6.800301E3,2.5252202E3,4.2750806E3,8.079237E2,1.7172966E3,1.3788784E3,2.8962021E3,3.664968E2,4.4142688E2,7.0548846E2,1.0118081E3,2.0994504E2,1.1689333E3,1.182306E3,1.713896E3],"tree_param":{"num_deleted":"0","num_feature":"106","num_nodes":"15","size_leaf_vector":"1"}},{"base_weights":[1.4357372E-1,-1.1769065E-1,2.9788974E-1,1.3894956E-1,-2.3844086E-1,5.389848E-1,1.8295825E-1,-7.1889936E-4,3.1376688E-3,-9.858226E-4,-3.3576437E-3,2.970665E-3,5.8214315E-3,3.5707327E-3,6.2709366E-4],"categories":[],"categories_nodes":[],"categories_segments":[],"categories_sizes":[],"default_left":[0,0,0,0,0,0,0,0,0,0,0,0,0,0,0],"id":9,"left_children":[1,3,5,7,9,11,13,-1,-1,-1,-1,-1,-1,-1,-1],"loss_changes":[2.7424493E2,7.831908E1,1.1838913E2,2.9838188E1,2.3355545E1,1.42341E1,6.0636726E1,0E0,0E0,0E0,0E0,0E0,0E0,0E0,0E0],"parents":[2147483647,0,0,1,1,2,2,3,3,4,4,5,5,6,6],"right_children":[2,4,6,8,10,12,14,-1,-1,-1,-1,-1,-1,-1,-1],"split_conditions":[4.6E-1,-2E0,-1.4E0,-4.8E0,2.4E1,8E0,8E0,-7.1889936E-4,3.1376688E-3,-9.858226E-4,-3.3576437E-3,2.970665E-3,5.8214315E-3,3.5707327E-3,6.2709366E-4],"split_indices":[3,77,77,25,51,54,51,0,0,0,0,0,0,0,0],"split_type":[0,0,0,0,0,0,0,0,0,0,0,0,0,0,0],"sum_hessian":[6.800301E3,2.5252202E3,4.2750806E3,8.079237E2,1.7172965E3,1.3788784E3,2.8962021E3,3.664968E2,4.414269E2,7.0548846E2,1.01180804E3,2.0994504E2,1.1689333E3,1.182306E3,1.713896E3],"tree_param":{"num_deleted":"0","num_feature":"106","num_nodes":"15","size_leaf_vector":"1"}},{"base_weights":[-1.421532E-1,1.1652162E-1,-2.9494798E-1,-1.3757022E-1,2.3607437E-1,-8.166205E-2,-4.2327186E-1,7.117327E-4,-3.1066446E-3,9.759868E-4,3.324447E-3,-1.7081996E-3,1.4176924E-3,-5.444493E-3,-3.152591E-3],"categories":[],"categories_nodes":[],"categories_segments":[],"categories_sizes":[],"default_left":[0,0,0,0,0,0,0,0,0,0,0,0,0,0,0],"id":10,"left_children":[1,3,5,7,9,11,13,-1,-1,-1,-1,-1,-1,-1,-1],"loss_changes":[2.6882468E2,7.676778E1,1.1698697E2,2.9248875E1,2.2896645E1,3.2043533E1,3.476535E1,0E0,0E0,0E0,0E0,0E0,0E0,0E0,0E0],"parents":[2147483647,0,0,1,1,2,2,3,3,4,4,5,5,6,6],"right_children":[2,4,6,8,10,12,14,-1,-1,-1,-1,-1,-1,-1,-1],"split_conditions":[4.6E-1,-2E0,1.1E1,-4.8E0,2.4E1,1.4E1,-1.9E0,7.117327E-4,-3.1066446E-3,9.759868E-4,3.324447E-3,-1.7081996E-3,1.4176924E-3,-5.444493E-3,-3.152591E-3],"split_indices":[3,77,103,25,51,51,77,0,0,0,0,0,0,0,0],"split_type":[0,0,0,0,0,0,0,0,0,0,0,0,0,0,0],"sum_hessian":[6.799657E3,2.5250674E3,4.27459E3,8.0788196E2,1.7171853E3,1.6063414E3,2.6682485E3,3.6649506E2,4.4138693E2,7.054822E2,1.0117032E3,1.1483428E3,4.5799872E2,1.2555881E3,1.4126605E3],"tree_param":{"num_deleted":"0","num_feature":"106","num_nodes":"15","size_leaf_vector":"1"}},{"base_weights":[1.4215323E-1,-1.16521575E-1,2.94948E-1,1.3757026E-1,-2.3607431E-1,8.166205E-2,4.232719E-1,-7.117327E-4,3.1066453E-3,-9.759868E-4,-3.324446E-3,1.7081996E-3,-1.4176922E-3,5.4444927E-3,3.1525919E-3],"categories":[],"categories_nodes":[],"categories_segments":[],"categories_sizes":[],"default_left":[0,0,0,0,0,0,0,0,0,0,0,0,0,0,0],"id":11,"left_children":[1,3,5,7,9,11,13,-1,-1,-1,-1,-1,-1,-1,-1],"loss_changes":[2.6882462E2,7.676778E1,1.1698703E2,2.9248886E1,2.289663E1,3.2043526E1,3.476526E1,0E0,0E0,0E0,0E0,0E0,0E0,0E0,0E0],"parents":[2147483647,0,0,1,1,2,2,3,3,4,4,5,5,6,6],"right_children":[2,4,6,8,10,12,14,-1,-1,-1,-1,-1,-1,-1,-1],"split_conditions":[4.6E-1,-2E0,1.1E1,-4.8E0,2.4E1,1.4E1,-1.9E0,-7.117327E-4,3.1066453E-3,-9.759868E-4,-3.324446E-3,1.7081996E-3,-1.4176922E-3,5.4444927E-3,3.1525919E-3],"split_indices":[3,77,103,25,51,51,77,0,0,0,0,0,0,0,0],"split_type":[0,0,0,0,0,0,0,0,0,0,0,0,0,0,0],"sum_hessian":[6.799657E3,2.5250674E3,4.27459E3,8.0788196E2,1.7171854E3,1.6063414E3,2.6682485E3,3.6649506E2,4.4138693E2,7.054822E2,1.01170325E3,1.1483428E3,4.579987E2,1.2555881E3,1.4126605E3],"tree_param":{"num_deleted":"0","num_feature":"106","num_nodes":"15","size_leaf_vector":"1"}},{"base_weights":[-1.407488E-1,1.153656E-1,-2.9204082E-1,-1.3620603E-1,2.3373444E-1,-4.3449453E-1,-1.035127E-1,7.0463924E-4,-3.0759852E-3,9.662511E-4,3.2916476E-3,-3.5350034E-3,-5.838731E-3,-2.432903E-3,4.5673928E-4],"categories":[],"categories_nodes":[],"categories_segments":[],"categories_sizes":[],"default_left":[0,0,0,0,0,0,0,0,0,0,0,0,0,0,0],"id":12,"left_children":[1,3,5,7,9,11,13,-1,-1,-1,-1,-1,-1,-1,-1],"loss_changes":[2.6351624E2,7.52482E1,1.14766846E2,2.8671852E1,2.2447853E1,2.9251038E1,3.84069E1,0E0,0E0,0E0,0E0,0E0,0E0,0E0,0E0],"parents":[2147483647,0,0,1,1,2,2,3,3,4,4,5,5,6,6],"right_children":[2,4,6,8,10,12,14,-1,-1,-1,-1,-1,-1,-1,-1],"split_conditions":[4.6E-1,-2E0,1.5E0,-4.8E0,2.4E1,2.3E1,1E1,7.0463924E-4,-3.0759852E-3,9.662511E-4,3.2916476E-3,-3.5350034E-3,-5.838731E-3,-2.432903E-3,4.5673928E-4],"split_indices":[3,77,77,25,51,80,51,0,0,0,0,0,0,0,0],"split_type":[0,0,0,0,0,0,0,0,0,0,0,0,0,0,0],"sum_hessian":[6.7988887E3,2.524883E3,4.274006E3,8.078318E2,1.7170514E3,2.433742E3,1.8402639E3,3.6649298E2,4.413388E2,7.0547455E2,1.0115768E3,1.5802726E3,8.5346924E2,9.4976685E2,8.904971E2],"tree_param":{"num_deleted":"0","num_feature":"106","num_nodes":"15","size_leaf_vector":"1"}},{"base_weights":[1.4074881E-1,-1.1536557E-1,2.9204082E-1,1.3620603E-1,-2.337344E-1,4.3449453E-1,1.03512704E-1,-7.0463895E-4,3.075985E-3,-9.662511E-4,-3.2916465E-3,3.5350036E-3,5.838731E-3,2.432903E-3,-4.5673916E-4],"categories":[],"categories_nodes":[],"categories_segments":[],"categories_sizes":[],"default_left":[0,0,0,0,0,0,0,0,0,0,0,0,0,0,0],"id":13,"left_children":[1,3,5,7,9,11,13,-1,-1,-1,-1,-1,-1,-1,-1],"loss_changes":[2.635162E2,7.524817E1,1.1476688E2,2.867184E1,2.244783E1,2.9250977E1,3.840689E1,0E0,0E0,0E0,0E0,0E0,0E0,0E0,0E0],"parents":[2147483647,0,0,1,1,2,2,3,3,4,4,5,5,6,6],"right_children":[2,4,6,8,10,12,14,-1,-1,-1,-1,-1,-1,-1,-1],"split_conditions":[4.6E-1,-2E0,1.5E0,-4.8E0,2.4E1,2.3E1,1E1,-7.0463895E-4,3.075985E-3,-9.662511E-4,-3.2916465E-3,3.5350036E-3,5.838731E-3,2.432903E-3,-4.5673916E-4],"split_indices":[3,77,77,25,51,80,51,0,0,0,0,0,0,0,0],"split_type":[0,0,0,0,0,0,0,0,0,0,0,0,0,0,0],"sum_hessian":[6.7988887E3,2.524883E3,4.274006E3,8.078317E2,1.7170514E3,2.4337417E3,1.8402639E3,3.6649295E2,4.4133878E2,7.0547455E2,1.01157684E3,1.5802726E3,8.5346924E2,9.497669E2,8.90497E2],"tree_param":{"num_deleted":"0","num_feature":"106","num_nodes":"15","size_leaf_vector":"1"}},{"base_weights":[-1.3936175E-1,-3.382573E-1,5.1928744E-2,-1.761193E-1,-4.8392627E-1,-1.953006E-1,1.8691346E-1,-2.6098024E-3,-2.9245156E-4,-3.9640726E-3,-6.316131E-3,7.206976E-4,-3.392457E-3,7.3476654E-4,3.3382166E-3],"categories":[],"categories_nodes":[],"categories_segments":[],"categories_sizes":[],"default_left":[0,0,0,0,0,0,0,0,0,0,0,0,0,0,0],"id":14,"left_children":[1,3,5,7,9,11,13,-1,-1,-1,-1,-1,-1,-1,-1],"loss_changes":[2.5869684E2,7.864365E1,1.1572486E2,1.9673786E1,2.2437347E1,4.716197E1,3.7351868E1,0E0,0E0,0E0,0E0,0E0,0E0,0E0,0E0],"parents":[2147483647,0,0,1,1,2,2,3,3,4,4,5,5,6,6],"right_children":[2,4,6,8,10,12,14,-1,-1,-1,-1,-1,-1,-1,-1],"split_conditions":[1.5E1,1.2E1,-1.4E0,5.3E0,2.3E1,-4.8E0,2.4E1,-2.6098024E-3,-2.9245156E-4,-3.9640726E-3,-6.316131E-3,7.206976E-4,-3.392457E-3,7.3476654E-4,3.3382166E-3],"split_indices":[51,80,77,77,80,25,51,0,0,0,0,0,0,0,0],"split_type":[0,0,0,0,0,0,0,0,0,0,0,0,0,0,0],"sum_hessian":[6.7979697E3,3.332359E3,3.465611E3,1.5780768E3,1.7542822E3,1.2237755E3,2.2418354E3,9.996956E2,5.783811E2,1.1038352E3,6.504471E2,4.2845065E2,7.953248E2,1.2658757E3,9.759598E2],"tree_param":{"num_deleted":"0","num_feature":"106","num_nodes":"15","size_leaf_vector":"1"}},{"base_weights":[1.3936172E-1,3.3825728E-1,-5.192875E-2,1.7611922E-1,4.8392624E-1,1.953006E-1,-1.8691348E-1,2.6098015E-3,2.924507E-4,3.9640716E-3,6.316131E-3,-7.206976E-4,3.3924573E-3,-7.3476654E-4,-3.3382168E-3],"categories":[],"categories_nodes":[],"categories_segments":[],"categories_sizes":[],"default_left":[0,0,0,0,0,0,0,0,0,0,0,0,0,0,0],"id":15,"left_children":[1,3,5,7,9,11,13,-1,-1,-1,-1,-1,-1,-1,-1],"loss_changes":[2.5869678E2,7.864368E1,1.15724884E2,1.9673786E1,2.2437378E1,4.7161972E1,3.7351875E1,0E0,0E0,0E0,0E0,0E0,0E0,0E0,0E0],"parents":[2147483647,0,0,1,1,2,2,3,3,4,4,5,5,6,6],"right_children":[2,4,6,8,10,12,14,-1,-1,-1,-1,-1,-1,-1,-1],"split_conditions":[1.5E1,1.2E1,-1.4E0,5.3E0,2.3E1,-4.8E0,2.4E1,2.6098015E-3,2.924507E-4,3.9640716E-3,6.316131E-3,-7.206976E-4,3.3924573E-3,-7.3476654E-4,-3.3382168E-3],"split_indices":[51,80,77,77,80,25,51,0,0,0,0,0,0,0,0],"split_type":[0,0,0,0,0,0,0,0,0,0,0,0,0,0,0],"sum_hessian":[6.79797E3,3.3323591E3,3.465611E3,1.5780768E3,1.7542822E3,1.2237755E3,2.2418354E3,9.996957E2,5.783811E2,1.1038352E3,6.504471E2,4.2845068E2,7.953248E2,1.2658756E3,9.7595984E2],"tree_param":{"num_deleted":"0","num_feature":"106","num_nodes":"15","size_leaf_vector":"1"}},{"base_weights":[-1.3798991E-1,1.1344431E-1,-2.8654057E-1,-1.33278E-1,2.295334E-1,-7.874985E-2,-4.116327E-1,6.904339E-4,-3.0111142E-3,9.548607E-4,3.2285827E-3,-1.6586855E-3,1.3953961E-3,-5.193798E-3,-2.9623362E-3],"categories":[],"categories_nodes":[],"categories_segments":[],"categories_sizes":[],"default_left":[0,0,0,0,0,0,0,0,0,0,0,0,0,0,0],"id":16,"left_children":[1,3,5,7,9,11,13,-1,-1,-1,-1,-1,-1,-1,-1],"loss_changes":[2.5394244E2,7.236331E1,1.1105026E2,2.7481106E1,2.1457901E1,3.0586943E1,3.3012268E1,0E0,0E0,0E0,0E0,0E0,0E0,0E0,0E0],"parents":[2147483647,0,0,1,1,2,2,3,3,4,4,5,5,6,6],"right_children":[2,4,6,8,10,12,14,-1,-1,-1,-1,-1,-1,-1,-1],"split_conditions":[4.6E-1,-2E0,1.1E1,-4.8E0,2.4E1,1.4E1,-1.4E0,6.904339E-4,-3.0111142E-3,9.548607E-4,3.2285827E-3,-1.6586855E-3,1.3953961E-3,-5.193798E-3,-2.9623362E-3],"split_indices":[3,77,103,25,51,51,77,0,0,0,0,0,0,0,0],"split_type":[0,0,0,0,0,0,0,0,0,0,0,0,0,0,0],"sum_hessian":[6.796993E3,2.5244275E3,4.2725654E3,8.076959E2,1.7167316E3,1.6061752E3,2.6663904E3,3.6648767E2,4.4120828E2,7.054626E2,1.01126904E3,1.1481799E3,4.5799518E2,1.3771016E3,1.2892887E3],"tree_param":{"num_deleted":"0","num_feature":"106","num_nodes":"15","size_leaf_vector":"1"}},{"base_weights":[1.3798992E-1,-1.13444306E-1,2.8654057E-1,1.3327797E-1,-2.2953337E-1,7.874986E-2,4.1163272E-1,-6.9043477E-4,3.0111142E-3,-9.548599E-4,-3.2285827E-3,1.6586856E-3,-1.3953964E-3,5.1937983E-3,2.9623364E-3],"categories":[],"categories_nodes":[],"categories_segments":[],"categories_sizes":[],"default_left":[0,0,0,0,0,0,0,0,0,0,0,0,0,0,0],"id":17,"left_children":[1,3,5,7,9,11,13,-1,-1,-1,-1,-1,-1,-1,-1],"loss_changes":[2.5394247E2,7.2363266E1,1.1105029E2,2.7481123E1,2.1457916E1,3.0586956E1,3.3012238E1,0E0,0E0,0E0,0E0,0E0,0E0,0E0,0E0],"parents":[2147483647,0,0,1,1,2,2,3,3,4,4,5,5,6,6],"right_children":[2,4,6,8,10,12,14,-1,-1,-1,-1,-1,-1,-1,-1],"split_conditions":[4.6E-1,-2E0,1.1E1,-4.8E0,2.4E1,1.4E1,-1.4E0,-6.9043477E-4,3.0111142E-3,-9.548599E-4,-3.2285827E-3,1.6586856E-3,-1.3953964E-3,5.1937983E-3,2.9623364E-3],"split_indices":[3,77,103,25,51,51,77,0,0,0,0,0,0,0,0],"split_type":[0,0,0,0,0,0,0,0,0,0,0,0,0,0,0],"sum_hessian":[6.796993E3,2.5244275E3,4.2725654E3,8.076959E2,1.7167317E3,1.6061752E3,2.6663904E3,3.6648764E2,4.4120828E2,7.0546265E2,1.01126904E3,1.1481799E3,4.5799518E2,1.3771016E3,1.2892888E3],"tree_param":{"num_deleted":"0","num_feature":"106","num_nodes":"15","size_leaf_vector":"1"}},{"base_weights":[-1.3663417E-1,-3.3199862E-1,5.1225718E-2,-1.7255881E-1,-4.7531858E-1,-1.9131657E-1,1.8363175E-1,-2.5634149E-3,-2.7571578E-4,-3.8908478E-3,-6.209283E-3,7.0585636E-4,-3.3237652E-3,7.2589837E-4,3.2748252E-3],"categories":[],"categories_nodes":[],"categories_segments":[],"categories_sizes":[],"default_left":[0,0,0,0,0,0,0,0,0,0,0,0,0,0,0],"id":18,"left_children":[1,3,5,7,9,11,13,-1,-1,-1,-1,-1,-1,-1,-1],"loss_changes":[2.4946927E2,7.60574E1,1.1133741E2,1.9172153E1,2.178421E1,4.5257137E1,3.5796005E1,0E0,0E0,0E0,0E0,0E0,0E0,0E0,0E0],"parents":[2147483647,0,0,1,1,2,2,3,3,4,4,5,5,6,6],"right_children":[2,4,6,8,10,12,14,-1,-1,-1,-1,-1,-1,-1,-1],"split_conditions":[1.5E1,1.2E1,-1.4E0,5.3E0,2.3E1,-4.8E0,2.4E1,-2.5634149E-3,-2.7571578E-4,-3.8908478E-3,-6.209283E-3,7.0585636E-4,-3.3237652E-3,7.2589837E-4,3.2748252E-3],"split_indices":[51,80,77,77,80,25,51,0,0,0,0,0,0,0,0],"split_type":[0,0,0,0,0,0,0,0,0,0,0,0,0,0,0],"sum_hessian":[6.795852E3,3.3310095E3,3.4648425E3,1.5778715E3,1.753138E3,1.2233876E3,2.241455E3,9.995189E2,5.783525E2,1.1033678E3,6.4977026E2,4.2843097E2,7.949566E2,1.2658326E3,9.756223E2],"tree_param":{"num_deleted":"0","num_feature":"106","num_nodes":"15","size_leaf_vector":"1"}},{"base_weights":[1.3663417E-1,3.3199862E-1,-5.1225718E-2,1.725588E-1,4.7531858E-1,1.9131655E-1,-1.8363172E-1,2.5634149E-3,2.7571584E-4,3.8908478E-3,6.209283E-3,-7.058574E-4,3.3237652E-3,-7.2589796E-4,-3.2748252E-3],"categories":[],"categories_nodes":[],"categories_segments":[],"categories_sizes":[],"default_left":[0,0,0,0,0,0,0,0,0,0,0,0,0,0,0],"id":19,"left_children":[1,3,5,7,9,11,13,-1,-1,-1,-1,-1,-1,-1,-1],"loss_changes":[2.4946928E2,7.60574E1,1.1133738E2,1.917215E1,2.178421E1,4.5257145E1,3.5796013E1,0E0,0E0,0E0,0E0,0E0,0E0,0E0,0E0],"parents":[2147483647,0,0,1,1,2,2,3,3,4,4,5,5,6,6],"right_children":[2,4,6,8,10,12,14,-1,-1,-1,-1,-1,-1,-1,-1],"split_conditions":[1.5E1,1.2E1,-1.4E0,5.3E0,2.3E1,-4.8E0,2.4E1,2.5634149E-3,2.7571584E-4,3.8908478E-3,6.209283E-3,-7.058574E-4,3.3237652E-3,-7.2589796E-4,-3.2748252E-3],"split_indices":[51,80,77,77,80,25,51,0,0,0,0,0,0,0,0],"split_type":[0,0,0,0,0,0,0,0,0,0,0,0,0,0,0],"sum_hessian":[6.795852E3,3.3310093E3,3.4648425E3,1.5778715E3,1.753138E3,1.2233876E3,2.241455E3,9.995189E2,5.783525E2,1.1033677E3,6.497702E2,4.2843097E2,7.949566E2,1.2658326E3,9.756223E2],"tree_param":{"num_deleted":"0","num_feature":"106","num_nodes":"15","size_leaf_vector":"1"}},{"base_weights":[-1.3529408E-1,1.1156047E-1,-2.8116697E-1,-1.3041651E-1,2.2541893E-1,-7.694494E-2,-4.0417668E-1,6.7652186E-4,-2.9478073E-3,9.435769E-4,3.166964E-3,-1.6262527E-3,1.3771848E-3,-5.2027E-3,-3.0083307E-3],"categories":[],"categories_nodes":[],"categories_segments":[],"categories_sizes":[],"default_left":[0,0,0,0,0,0,0,0,0,0,0,0,0,0,0],"id":20,"left_children":[1,3,5,7,9,11,13,-1,-1,-1,-1,-1,-1,-1,-1],"loss_changes":[2.4473792E2,6.9591995E1,1.07281525E2,2.6341774E1,2.051445E1,2.9579765E1,3.1825684E1,0E0,0E0,0E0,0E0,0E0,0E0,0E0,0E0],"parents":[2147483647,0,0,1,1,2,2,3,3,4,4,5,5,6,6],"right_children":[2,4,6,8,10,12,14,-1,-1,-1,-1,-1,-1,-1,-1],"split_conditions":[4.6E-1,-2E0,1.1E1,-4.8E0,2.4E1,1.4E1,-1.9E0,6.7652186E-4,-2.9478073E-3,9.435769E-4,3.166964E-3,-1.6262527E-3,1.3771848E-3,-5.2027E-3,-3.0083307E-3],"split_indices":[3,77,103,25,51,51,77,0,0,0,0,0,0,0,0],"split_type":[0,0,0,0,0,0,0,0,0,0,0,0,0,0,0],"sum_hessian":[6.794634E3,2.523855E3,4.270779E3,8.0752405E2,1.716331E3,1.6060399E3,2.6647388E3,3.66481E2,4.4104306E2,7.054462E2,1.01088477E3,1.1480514E3,4.579885E2,1.253056E3,1.4116827E3],"tree_param":{"num_deleted":"0","num_feature":"106","num_nodes":"15","size_leaf_vector":"1"}},{"base_weights":[1.3529408E-1,-1.11560464E-1,2.8116694E-1,1.3041651E-1,-2.2541893E-1,7.6944895E-2,4.0417668E-1,-6.76521E-4,2.9478064E-3,-9.435768E-4,-3.166964E-3,1.6262522E-3,-1.3771855E-3,5.2027E-3,3.0083307E-3],"categories":[],"categories_nodes":[],"categories_segments":[],"categories_sizes":[],"default_left":[0,0,0,0,0,0,0,0,0,0,0,0,0,0,0],"id":21,"left_children":[1,3,5,7,9,11,13,-1,-1,-1,-1,-1,-1,-1,-1],"loss_changes":[2.4473792E2,6.9591995E1,1.07281525E2,2.6341747E1,2.0514442E1,2.957977E1,3.1825745E1,0E0,0E0,0E0,0E0,0E0,0E0,0E0,0E0],"parents":[2147483647,0,0,1,1,2,2,3,3,4,4,5,5,6,6],"right_children":[2,4,6,8,10,12,14,-1,-1,-1,-1,-1,-1,-1,-1],"split_conditions":[4.6E-1,-2E0,1.1E1,-4.8E0,2.4E1,1.4E1,-1.9E0,-6.76521E-4,2.9478064E-3,-9.435768E-4,-3.166964E-3,1.6262522E-3,-1.3771855E-3,5.2027E-3,3.0083307E-3],"split_indices":[3,77,103,25,51,51,77,0,0,0,0,0,0,0,0],"split_type":[0,0,0,0,0,0,0,0,0,0,0,0,0,0,0],"sum_hessian":[6.794634E3,2.5238552E3,4.270779E3,8.075241E2,1.716331E3,1.6060399E3,2.6647388E3,3.6648102E2,4.410431E2,7.054462E2,1.01088477E3,1.1480514E3,4.5798846E2,1.253056E3,1.4116827E3],"tree_param":{"num_deleted":"0","num_feature":"106","num_nodes":"15","size_leaf_vector":"1"}},{"base_weights":[-1.3396938E-1,-3.2588392E-1,5.0530262E-2,-1.6905832E-1,-4.6694517E-1,-1.8745777E-1,1.8042791E-1,-2.517744E-3,-2.5942695E-4,-3.8198414E-3,-6.105162E-3,6.9130724E-4,-3.2572458E-3,7.173385E-4,3.212898E-3],"categories":[],"categories_nodes":[],"categories_segments":[],"categories_sizes":[],"default_left":[0,0,0,0,0,0,0,0,0,0,0,0,0,0,0],"id":22,"left_children":[1,3,5,7,9,11,13,-1,-1,-1,-1,-1,-1,-1,-1],"loss_changes":[2.4058893E2,7.359506E1,1.07148575E2,1.8681103E1,2.1146454E1,4.3444595E1,3.430374E1,0E0,0E0,0E0,0E0,0E0,0E0,0E0,0E0],"parents":[2147483647,0,0,1,1,2,2,3,3,4,4,5,5,6,6],"right_children":[2,4,6,8,10,12,14,-1,-1,-1,-1,-1,-1,-1,-1],"split_conditions":[1.5E1,1.2E1,-1.4E0,5.3E0,2.3E1,-4.8E0,2.4E1,-2.517744E-3,-2.5942695E-4,-3.8198414E-3,-6.105162E-3,6.9130724E-4,-3.2572458E-3,7.173385E-4,3.212898E-3],"split_indices":[51,80,77,77,80,25,51,0,0,0,0,0,0,0,0],"split_type":[0,0,0,0,0,0,0,0,0,0,0,0,0,0,0],"sum_hessian":[6.793265E3,3.3293474E3,3.4639175E3,1.5776193E3,1.7517281E3,1.2229266E3,2.240991E3,9.9929865E2,5.783206E2,1.1027906E3,6.4893756E2,4.2840833E2,7.9451825E2,1.2657797E3,9.7521136E2],"tree_param":{"num_deleted":"0","num_feature":"106","num_nodes":"15","size_leaf_vector":"1"}},{"base_weights":[1.3396938E-1,3.2588392E-1,-5.0530285E-2,1.6905832E-1,4.6694517E-1,1.8745777E-1,-1.8042795E-1,2.5177437E-3,2.5942724E-4,3.8198417E-3,6.105162E-3,-6.9130724E-4,3.2572458E-3,-7.173385E-4,-3.212899E-3],"categories":[],"categories_nodes":[],"categories_segments":[],"categories_sizes":[],"default_left":[0,0,0,0,0,0,0,0,0,0,0,0,0,0,0],"id":23,"left_children":[1,3,5,7,9,11,13,-1,-1,-1,-1,-1,-1,-1,-1],"loss_changes":[2.4058896E2,7.359506E1,1.071486E2,1.8681099E1,2.1146454E1,4.344459E1,3.4303772E1,0E0,0E0,0E0,0E0,0E0,0E0,0E0,0E0],"parents":[2147483647,0,0,1,1,2,2,3,3,4,4,5,5,6,6],"right_children":[2,4,6,8,10,12,14,-1,-1,-1,-1,-1,-1,-1,-1],"split_conditions":[1.5E1,1.2E1,-1.4E0,5.3E0,2.3E1,-4.8E0,2.4E1,2.5177437E-3,2.5942724E-4,3.8198417E-3,6.105162E-3,-6.9130724E-4,3.2572458E-3,-7.173385E-4,-3.212899E-3],"split_indices":[51,80,77,77,80,25,51,0,0,0,0,0,0,0,0],"split_type":[0,0,0,0,0,0,0,0,0,0,0,0,0,0,0],"sum_hessian":[6.7932646E3,3.3293474E3,3.4639175E3,1.5776193E3,1.7517281E3,1.2229266E3,2.240991E3,9.9929865E2,5.783206E2,1.1027906E3,6.4893756E2,4.2840833E2,7.9451825E2,1.2657795E3,9.752113E2],"tree_param":{"num_deleted":"0","num_feature":"106","num_nodes":"15","size_leaf_vector":"1"}},{"base_weights":[-1.3265993E-1,1.0971302E-1,-2.7591732E-1,-1.7477857E-1,2.029239E-1,-7.518262E-2,-3.9690363E-1,1.858848E-4,-3.279106E-3,1.0507375E-3,3.2824902E-3,-2.2110294E-3,4.7921078E-4,-5.0093406E-3,-2.8563808E-3],"categories":[],"categories_nodes":[],"categories_segments":[],"categories_sizes":[],"default_left":[0,0,0,0,0,0,0,0,0,0,0,0,0,0,0],"id":24,"left_children":[1,3,5,7,9,11,13,-1,-1,-1,-1,-1,-1,-1,-1],"loss_changes":[2.3588867E2,6.6970764E1,1.0366342E2,1.8467247E1,2.3286339E1,2.8875444E1,3.0690063E1,0E0,0E0,0E0,0E0,0E0,0E0,0E0,0E0],"parents":[2147483647,0,0,1,1,2,2,3,3,4,4,5,5,6,6],"right_children":[2,4,6,8,10,12,14,-1,-1,-1,-1,-1,-1,-1,-1],"split_conditions":[4.6E-1,-3.2E0,1.1E1,-4.8E0,2.6E1,9E0,-1.4E0,1.858848E-4,-3.279106E-3,1.0507375E-3,3.2824902E-3,-2.2110294E-3,4.7921078E-4,-5.0093406E-3,-2.8563808E-3],"split_indices":[3,77,103,25,51,51,77,0,0,0,0,0,0,0,0],"split_type":[0,0,0,0,0,0,0,0,0,0,0,0,0,0,0],"sum_hessian":[6.79182E3,2.5231729E3,4.268647E3,6.2246246E2,1.9007103E3,1.605876E3,2.6627712E3,2.7547977E2,3.469827E2,1.0683851E3,8.323252E2,7.344744E2,8.7140155E2,1.3743177E3,1.2884535E3],"tree_param":{"num_deleted":"0","num_feature":"106","num_nodes":"15","size_leaf_vector":"1"}},{"base_weights":[1.326599E-1,-1.09713085E-1,2.7591732E-1,1.7477846E-1,-2.0292395E-1,7.518261E-2,3.9690363E-1,-1.8588599E-4,3.279105E-3,-1.0507377E-3,-3.2824911E-3,2.2110294E-3,-4.792109E-4,5.0093406E-3,2.8563803E-3],"categories":[],"categories_nodes":[],"categories_segments":[],"categories_sizes":[],"default_left":[0,0,0,0,0,0,0,0,0,0,0,0,0,0,0],"id":25,"left_children":[1,3,5,7,9,11,13,-1,-1,-1,-1,-1,-1,-1,-1],"loss_changes":[2.3588873E2,6.697073E1,1.0366342E2,1.8467253E1,2.3286354E1,2.8875446E1,3.0690094E1,0E0,0E0,0E0,0E0,0E0,0E0,0E0,0E0],"parents":[2147483647,0,0,1,1,2,2,3,3,4,4,5,5,6,6],"right_children":[2,4,6,8,10,12,14,-1,-1,-1,-1,-1,-1,-1,-1],"split_conditions":[4.6E-1,-3.2E0,1.1E1,-4.8E0,2.6E1,9E0,-1.4E0,-1.8588599E-4,3.279105E-3,-1.0507377E-3,-3.2824911E-3,2.2110294E-3,-4.792109E-4,5.0093406E-3,2.8563803E-3],"split_indices":[3,77,103,25,51,51,77,0,0,0,0,0,0,0,0],"split_type":[0,0,0,0,0,0,0,0,0,0,0,0,0,0,0],"sum_hessian":[6.79182E3,2.5231729E3,4.268647E3,6.2246246E2,1.9007103E3,1.605876E3,2.6627712E3,2.7547977E2,3.469827E2,1.0683851E3,8.3232513E2,7.3447437E2,8.7140155E2,1.3743177E3,1.2884535E3],"tree_param":{"num_deleted":"0","num_feature":"106","num_nodes":"15","size_leaf_vector":"1"}},{"base_weights":[-1.3136461E-1,-3.2001945E-1,4.994804E-2,-1.6584414E-1,-4.5880222E-1,-1.8390156E-1,1.7756139E-1,-2.4747474E-3,-2.4635828E-4,-3.750405E-3,-6.0047153E-3,6.7496515E-4,-3.1944592E-3,7.1061694E-4,3.156357E-3],"categories":[],"categories_nodes":[],"categories_segments":[],"categories_sizes":[],"default_left":[0,0,0,0,0,0,0,0,0,0,0,0,0,0,0],"id":26,"left_children":[1,3,5,7,9,11,13,-1,-1,-1,-1,-1,-1,-1,-1],"loss_changes":[2.323153E2,7.114099E1,1.0340334E2,1.8187084E1,2.0553802E1,4.1709934E1,3.2938347E1,0E0,0E0,0E0,0E0,0E0,0E0,0E0,0E0],"parents":[2147483647,0,0,1,1,2,2,3,3,4,4,5,5,6,6],"right_children":[2,4,6,8,10,12,14,-1,-1,-1,-1,-1,-1,-1,-1],"split_conditions":[1.5E1,1.2E1,-1.4E0,5.3E0,2.3E1,-4.8E0,2.4E1,-2.4747474E-3,-2.4635828E-4,-3.750405E-3,-6.0047153E-3,6.7496515E-4,-3.1944592E-3,7.1061694E-4,3.156357E-3],"split_indices":[51,80,77,77,80,25,51,0,0,0,0,0,0,0,0],"split_type":[0,0,0,0,0,0,0,0,0,0,0,0,0,0,0],"sum_hessian":[6.790283E3,3.3273887E3,3.4628948E3,1.5773206E3,1.750068E3,1.2224083E3,2.2404866E3,9.990378E2,5.782828E2,1.1021006E3,6.479674E2,4.2838058E2,7.940277E2,1.2657223E3,9.7476416E2],"tree_param":{"num_deleted":"0","num_feature":"106","num_nodes":"15","size_leaf_vector":"1"}},{"base_weights":[1.3136461E-1,3.2001945E-1,-4.9948048E-2,1.6584413E-1,4.5880225E-1,1.8390156E-1,-1.775614E-1,2.4747471E-3,2.463587E-4,3.7504055E-3,6.0047153E-3,-6.7496515E-4,3.1944592E-3,-7.1061694E-4,-3.1563577E-3],"categories":[],"categories_nodes":[],"categories_segments":[],"categories_sizes":[],"default_left":[0,0,0,0,0,0,0,0,0,0,0,0,0,0,0],"id":27,"left_children":[1,3,5,7,9,11,13,-1,-1,-1,-1,-1,-1,-1,-1],"loss_changes":[2.323153E2,7.114105E1,1.0340335E2,1.8187069E1,2.0553772E1,4.170993E1,3.2938362E1,0E0,0E0,0E0,0E0,0E0,0E0,0E0,0E0],"parents":[2147483647,0,0,1,1,2,2,3,3,4,4,5,5,6,6],"right_children":[2,4,6,8,10,12,14,-1,-1,-1,-1,-1,-1,-1,-1],"split_conditions":[1.5E1,1.2E1,-1.4E0,5.3E0,2.3E1,-4.8E0,2.4E1,2.4747471E-3,2.463587E-4,3.7504055E-3,6.0047153E-3,-6.7496515E-4,3.1944592E-3,-7.1061694E-4,-3.1563577E-3],"split_indices":[51,80,77,77,80,25,51,0,0,0,0,0,0,0,0],"split_type":[0,0,0,0,0,0,0,0,0,0,0,0,0,0,0],"sum_hessian":[6.790283E3,3.3273887E3,3.4628948E3,1.5773206E3,1.750068E3,1.2224083E3,2.2404866E3,9.990378E2,5.782828E2,1.1021006E3,6.479674E2,4.2838058E2,7.940278E2,1.2657224E3,9.7476416E2],"tree_param":{"num_deleted":"0","num_feature":"106","num_nodes":"15","size_leaf_vector":"1"}},{"base_weights":[-1.3008465E-1,-3.1693175E-1,4.9456406E-2,-1.642033E-1,-4.5447606E-1,-2.0075707E-1,1.6643931E-1,-2.4503868E-3,-2.4390065E-4,-3.7142478E-3,-5.9502344E-3,5.1944767E-4,-3.3694785E-3,6.2531594E-4,2.999293E-3],"categories":[],"categories_nodes":[],"categories_segments":[],"categories_sizes":[],"default_left":[0,0,0,0,0,0,0,0,0,0,0,0,0,0,0],"id":28,"left_children":[1,3,5,7,9,11,13,-1,-1,-1,-1,-1,-1,-1,-1],"loss_changes":[2.2778549E2,6.98208E1,1.014088E2,1.7830261E1,2.0207092E1,3.8006535E1,3.2723526E1,0E0,0E0,0E0,0E0,0E0,0E0,0E0,0E0],"parents":[2147483647,0,0,1,1,2,2,3,3,4,4,5,5,6,6],"right_children":[2,4,6,8,10,12,14,-1,-1,-1,-1,-1,-1,-1,-1],"split_conditions":[1.5E1,1.2E1,-1.9E0,5.3E0,2.3E1,-4.8E0,2.4E1,-2.4503868E-3,-2.4390065E-4,-3.7142478E-3,-5.9502344E-3,5.1944767E-4,-3.3694785E-3,6.2531594E-4,2.999293E-3],"split_indices":[51,80,77,77,80,25,51,0,0,0,0,0,0,0,0],"split_type":[0,0,0,0,0,0,0,0,0,0,0,0,0,0,0],"sum_hessian":[6.78863E3,3.326255E3,3.4623748E3,1.577169E3,1.7490859E3,1.1028292E3,2.3595457E3,9.9889075E2,5.782782E2,1.1017126E3,6.4737335E2,3.864291E2,7.164E2,1.3276108E3,1.0319348E3],"tree_param":{"num_deleted":"0","num_feature":"106","num_nodes":"15","size_leaf_vector":"1"}},{"base_weights":[1.300847E-1,3.1693178E-1,-4.9456373E-2,1.6420333E-1,4.5447612E-1,2.0075712E-1,-1.6643928E-1,2.4503868E-3,2.4390132E-4,3.714248E-3,5.9502358E-3,-5.1944697E-4,3.3694792E-3,-6.2531553E-4,-2.999293E-3],"categories":[],"categories_nodes":[],"categories_segments":[],"categories_sizes":[],"default_left":[0,0,0,0,0,0,0,0,0,0,0,0,0,0,0],"id":29,"left_children":[1,3,5,7,9,11,13,-1,-1,-1,-1,-1,-1,-1,-1],"loss_changes":[2.2778555E2,6.98208E1,1.0140883E2,1.7830254E1,2.0207123E1,3.8006508E1,3.2723534E1,0E0,0E0,0E0,0E0,0E0,0E0,0E0,0E0],"parents":[2147483647,0,0,1,1,2,2,3,3,4,4,5,5,6,6],"right_children":[2,4,6,8,10,12,14,-1,-1,-1,-1,-1,-1,-1,-1],"split_conditions":[1.5E1,1.2E1,-1.9E0,5.3E0,2.3E1,-4.8E0,2.4E1,2.4503868E-3,2.4390132E-4,3.714248E-3,5.9502358E-3,-5.1944697E-4,3.3694792E-3,-6.2531553E-4,-2.999293E-3],"split_indices":[51,80,77,77,80,25,51,0,0,0,0,0,0,0,0],"split_type":[0,0,0,0,0,0,0,0,0,0,0,0,0,0,0],"sum_hessian":[6.78863E3,3.326255E3,3.4623748E3,1.577169E3,1.7490859E3,1.1028292E3,2.3595457E3,9.9889075E2,5.782782E2,1.1017126E3,6.4737335E2,3.8642914E2,7.164001E2,1.3276107E3,1.0319348E3],"tree_param":{"num_deleted":"0","num_feature":"106","num_nodes":"15","size_leaf_vector":"1"}},{"base_weights":[-1.2881932E-1,-2.4804138E-1,1.4762308E-1,-1.0506745E-1,-4.1100127E-1,-9.059235E-2,2.5518727E-1,-2.4947785E-3,2.7374038E-4,-5.674722E-3,-3.4245192E-3,5.2116055E-4,-2.7471578E-3,3.841122E-3,1.648139E-3],"categories":[],"categories_nodes":[],"categories_segments":[],"categories_sizes":[],"default_left":[0,0,0,0,0,0,0,0,0,0,0,0,0,0,0],"id":30,"left_children":[1,3,5,7,9,11,13,-1,-1,-1,-1,-1,-1,-1,-1],"loss_changes":[2.237515E2,1.1046207E2,5.2447563E1,4.8351875E1,2.3576508E1,1.6757055E1,1.6362434E1,0E0,0E0,0E0,0E0,0E0,0E0,0E0,0E0],"parents":[2147483647,0,0,1,1,2,2,3,3,4,4,5,5,6,6],"right_children":[2,4,6,8,10,12,14,-1,-1,-1,-1,-1,-1,-1,-1],"split_conditions":[2E1,1.4E1,4.23E-1,1E1,7E0,-4.3E0,-6E0,-2.4947785E-3,2.7374038E-4,-5.674722E-3,-3.4245192E-3,5.2116055E-4,-2.7471578E-3,3.841122E-3,1.648139E-3],"split_indices":[28,80,55,51,51,25,25,0,0,0,0,0,0,0,0],"split_type":[0,0,0,0,0,0,0,0,0,0,0,0,0,0,0],"sum_hessian":[6.786871E3,4.741915E3,2.0449559E3,2.5267227E3,2.2151924E3,6.361885E2,1.4087675E3,1.2083207E3,1.3184021E3,6.7261053E2,1.5425818E3,3.5880597E2,2.773825E2,5.7921704E2,8.295504E2],"tree_param":{"num_deleted":"0","num_feature":"106","num_nodes":"15","size_leaf_vector":"1"}},{"base_weights":[1.2881933E-1,2.4804139E-1,-1.4762303E-1,1.0506746E-1,4.1100127E-1,9.059236E-2,-2.551872E-1,2.4947787E-3,-2.7374004E-4,5.674722E-3,3.4245192E-3,-5.2116025E-4,2.7471578E-3,-3.8411212E-3,-1.6481387E-3],"categories":[],"categories_nodes":[],"categories_segments":[],"categories_sizes":[],"default_left":[0,0,0,0,0,0,0,0,0,0,0,0,0,0,0],"id":31,"left_children":[1,3,5,7,9,11,13,-1,-1,-1,-1,-1,-1,-1,-1],"loss_changes":[2.2375143E2,1.10462036E2,5.2447548E1,4.8351864E1,2.3576538E1,1.6757053E1,1.6362427E1,0E0,0E0,0E0,0E0,0E0,0E0,0E0,0E0],"parents":[2147483647,0,0,1,1,2,2,3,3,4,4,5,5,6,6],"right_children":[2,4,6,8,10,12,14,-1,-1,-1,-1,-1,-1,-1,-1],"split_conditions":[2E1,1.4E1,4.23E-1,1E1,7E0,-4.3E0,-6E0,2.4947787E-3,-2.7374004E-4,5.674722E-3,3.4245192E-3,-5.2116025E-4,2.7471578E-3,-3.8411212E-3,-1.6481387E-3],"split_indices":[28,80,55,51,51,25,25,0,0,0,0,0,0,0,0],"split_type":[0,0,0,0,0,0,0,0,0,0,0,0,0,0,0],"sum_hessian":[6.786871E3,4.741915E3,2.0449559E3,2.5267227E3,2.2151924E3,6.361885E2,1.4087676E3,1.2083207E3,1.3184021E3,6.7261053E2,1.5425818E3,3.5880597E2,2.773825E2,5.792171E2,8.295505E2],"tree_param":{"num_deleted":"0","num_feature":"106","num_nodes":"15","size_leaf_vector":"1"}},{"base_weights":[-1.2756506E-1,-3.1112474E-1,4.874773E-2,-1.61032E-1,-4.4642305E-1,-1.7910266E-1,1.7305352E-1,-2.4106044E-3,-2.2645098E-4,-3.6418163E-3,-5.8573484E-3,6.531929E-4,-3.1099876E-3,6.9676345E-4,3.0718194E-3],"categories":[],"categories_nodes":[],"categories_segments":[],"categories_sizes":[],"default_left":[0,0,0,0,0,0,0,0,0,0,0,0,0,0,0],"id":32,"left_children":[1,3,5,7,9,11,13,-1,-1,-1,-1,-1,-1,-1,-1],"loss_changes":[2.1964157E2,6.744745E1,9.80932E1,1.7468788E1,1.9814514E1,3.943548E1,3.1047012E1,0E0,0E0,0E0,0E0,0E0,0E0,0E0,0E0],"parents":[2147483647,0,0,1,1,2,2,3,3,4,4,5,5,6,6],"right_children":[2,4,6,8,10,12,14,-1,-1,-1,-1,-1,-1,-1,-1],"split_conditions":[1.5E1,1.2E1,-1.4E0,5.3E0,2.3E1,-4.8E0,2.4E1,-2.4106044E-3,-2.2645098E-4,-3.6418163E-3,-5.8573484E-3,6.531929E-4,-3.1099876E-3,6.9676345E-4,3.0718194E-3],"split_indices":[51,80,77,77,80,25,51,0,0,0,0,0,0,0,0],"split_type":[0,0,0,0,0,0,0,0,0,0,0,0,0,0,0],"sum_hessian":[6.7851494E3,3.323882E3,3.461267E3,1.5768257E3,1.7470564E3,1.2216191E3,2.239648E3,9.98599E2,5.782267E2,1.1008148E3,6.4624164E2,4.2834348E2,7.932757E2,1.2656724E3,9.739756E2],"tree_param":{"num_deleted":"0","num_feature":"106","num_nodes":"15","size_leaf_vector":"1"}},{"base_weights":[1.2756503E-1,3.111247E-1,-4.874775E-2,1.6103195E-1,4.4642305E-1,1.7910264E-1,-1.7305355E-1,2.410604E-3,2.264503E-4,3.6418163E-3,5.8573484E-3,-6.531929E-4,3.1099876E-3,-6.967639E-4,-3.0718194E-3],"categories":[],"categories_nodes":[],"categories_segments":[],"categories_sizes":[],"default_left":[0,0,0,0,0,0,0,0,0,0,0,0,0,0,0],"id":33,"left_children":[1,3,5,7,9,11,13,-1,-1,-1,-1,-1,-1,-1,-1],"loss_changes":[2.1964156E2,6.744748E1,9.8093216E1,1.7468792E1,1.9814514E1,3.9435486E1,3.1046997E1,0E0,0E0,0E0,0E0,0E0,0E0,0E0,0E0],"parents":[2147483647,0,0,1,1,2,2,3,3,4,4,5,5,6,6],"right_children":[2,4,6,8,10,12,14,-1,-1,-1,-1,-1,-1,-1,-1],"split_conditions":[1.5E1,1.2E1,-1.4E0,5.3E0,2.3E1,-4.8E0,2.4E1,2.410604E-3,2.264503E-4,3.6418163E-3,5.8573484E-3,-6.531929E-4,3.1099876E-3,-6.967639E-4,-3.0718194E-3],"split_indices":[51,80,77,77,80,25,51,0,0,0,0,0,0,0,0],"split_type":[0,0,0,0,0,0,0,0,0,0,0,0,0,0,0],"sum_hessian":[6.7851494E3,3.323882E3,3.461267E3,1.5768257E3,1.7470564E3,1.2216191E3,2.239648E3,9.98599E2,5.782267E2,1.1008148E3,6.4624164E2,4.283435E2,7.9327563E2,1.2656724E3,9.739756E2],"tree_param":{"num_deleted":"0","num_feature":"106","num_nodes":"15","size_leaf_vector":"1"}},{"base_weights":[-1.2632771E-1,1.05598405E-1,-2.6351124E-1,-4.391658E-2,2.7133128E-1,-7.0320204E-2,-3.801747E-1,1.2798215E-3,-1.9138149E-3,1.3680796E-3,3.407044E-3,-2.1191884E-3,4.907447E-4,-3.0916296E-3,-5.312765E-3],"categories":[],"categories_nodes":[],"categories_segments":[],"categories_sizes":[],"default_left":[0,0,0,0,0,0,0,0,0,0,0,0,0,0,0],"id":34,"left_children":[1,3,5,7,9,11,13,-1,-1,-1,-1,-1,-1,-1,-1],"loss_changes":[2.158769E2,6.2509262E1,9.6055695E1,3.3657673E1,1.1117897E1,2.7166983E1,2.8353394E1,0E0,0E0,0E0,0E0,0E0,0E0,0E0,0E0],"parents":[2147483647,0,0,1,1,2,2,3,3,4,4,5,5,6,6],"right_children":[2,4,6,8,10,12,14,-1,-1,-1,-1,-1,-1,-1,-1],"split_conditions":[4.6E-1,5.14E-1,1.1E1,-4.8E0,2.2E1,9E0,2.3E1,1.2798215E-3,-1.9138149E-3,1.3680796E-3,3.407044E-3,-2.1191884E-3,4.907447E-4,-3.0916296E-3,-5.312765E-3],"split_indices":[3,55,103,25,28,51,80,0,0,0,0,0,0,0,0],"split_type":[0,0,0,0,0,0,0,0,0,0,0,0,0,0,0],"sum_hessian":[6.7831997E3,2.521134E3,4.262066E3,1.3258031E3,1.1953308E3,1.605316E3,2.65675E3,6.122454E2,7.135577E2,4.07707E2,7.876238E2,7.3401746E2,8.712985E2,1.8094349E3,8.4731506E2],"tree_param":{"num_deleted":"0","num_feature":"106","num_nodes":"15","size_leaf_vector":"1"}},{"base_weights":[1.2632772E-1,-1.0559838E-1,2.6351124E-1,4.3916617E-2,-2.7133128E-1,7.032023E-2,3.801747E-1,-1.2798209E-3,1.9138152E-3,-1.3680796E-3,-3.4070436E-3,2.119189E-3,-4.907447E-4,3.0916296E-3,5.312765E-3],"categories":[],"categories_nodes":[],"categories_segments":[],"categories_sizes":[],"default_left":[0,0,0,0,0,0,0,0,0,0,0,0,0,0,0],"id":35,"left_children":[1,3,5,7,9,11,13,-1,-1,-1,-1,-1,-1,-1,-1],"loss_changes":[2.158769E2,6.250927E1,9.605563E1,3.3657665E1,1.1117905E1,2.7166986E1,2.8353424E1,0E0,0E0,0E0,0E0,0E0,0E0,0E0,0E0],"parents":[2147483647,0,0,1,1,2,2,3,3,4,4,5,5,6,6],"right_children":[2,4,6,8,10,12,14,-1,-1,-1,-1,-1,-1,-1,-1],"split_conditions":[4.6E-1,5.14E-1,1.1E1,-4.8E0,2.2E1,9E0,2.3E1,-1.2798209E-3,1.9138152E-3,-1.3680796E-3,-3.4070436E-3,2.119189E-3,-4.907447E-4,3.0916296E-3,5.312765E-3],"split_indices":[3,55,103,25,28,51,80,0,0,0,0,0,0,0,0],"split_type":[0,0,0,0,0,0,0,0,0,0,0,0,0,0,0],"sum_hessian":[6.7831997E3,2.521134E3,4.262066E3,1.3258031E3,1.1953308E3,1.605316E3,2.65675E3,6.122454E2,7.135577E2,4.07707E2,7.8762384E2,7.340175E2,8.712985E2,1.8094348E3,8.47315E2],"tree_param":{"num_deleted":"0","num_feature":"106","num_nodes":"15","size_leaf_vector":"1"}},{"base_weights":[-1.2510173E-1,-3.0558038E-1,4.8178583E-2,-1.5795869E-1,-4.387883E-1,-1.9406547E-1,1.6138436E-1,-2.369305E-3,-2.1437723E-4,-3.579502E-3,-5.7590334E-3,4.904984E-4,-3.2527016E-3,6.1651354E-4,2.8963285E-3],"categories":[],"categories_nodes":[],"categories_segments":[],"categories_sizes":[],"default_left":[0,0,0,0,0,0,0,0,0,0,0,0,0,0,0],"id":36,"left_children":[1,3,5,7,9,11,13,-1,-1,-1,-1,-1,-1,-1,-1],"loss_changes":[2.1211864E2,6.526083E1,9.494354E1,1.7001705E1,1.9144775E1,3.5190735E1,3.0158516E1,0E0,0E0,0E0,0E0,0E0,0E0,0E0,0E0],"parents":[2147483647,0,0,1,1,2,2,3,3,4,4,5,5,6,6],"right_children":[2,4,6,8,10,12,14,-1,-1,-1,-1,-1,-1,-1,-1],"split_conditions":[1.5E1,1.2E1,-1.9E0,5.3E0,2.3E1,-4.8E0,2.4E1,-2.369305E-3,-2.1437723E-4,-3.579502E-3,-5.7590334E-3,4.904984E-4,-3.2527016E-3,6.1651354E-4,2.8963285E-3],"split_indices":[51,80,77,77,80,25,51,0,0,0,0,0,0,0,0],"split_type":[0,0,0,0,0,0,0,0,0,0,0,0,0,0,0],"sum_hessian":[6.781248E3,3.3212573E3,3.459991E3,1.5764325E3,1.7448247E3,1.1017311E3,2.35826E3,9.9825006E2,5.7818243E2,1.0999464E3,6.4487823E2,3.8639252E2,7.153385E2,1.3274463E3,1.0308137E3],"tree_param":{"num_deleted":"0","num_feature":"106","num_nodes":"15","size_leaf_vector":"1"}},{"base_weights":[1.2510172E-1,3.0558038E-1,-4.81786E-2,1.5795867E-1,4.387883E-1,1.9406544E-1,-1.6138437E-1,2.3693047E-3,2.1437745E-4,3.579502E-3,5.759033E-3,-4.904983E-4,3.2527011E-3,-6.1651395E-4,-2.8963282E-3],"categories":[],"categories_nodes":[],"categories_segments":[],"categories_sizes":[],"default_left":[0,0,0,0,0,0,0,0,0,0,0,0,0,0,0],"id":37,"left_children":[1,3,5,7,9,11,13,-1,-1,-1,-1,-1,-1,-1,-1],"loss_changes":[2.1211865E2,6.526083E1,9.4943535E1,1.7001694E1,1.9144745E1,3.5190716E1,3.01585E1,0E0,0E0,0E0,0E0,0E0,0E0,0E0,0E0],"parents":[2147483647,0,0,1,1,2,2,3,3,4,4,5,5,6,6],"right_children":[2,4,6,8,10,12,14,-1,-1,-1,-1,-1,-1,-1,-1],"split_conditions":[1.5E1,1.2E1,-1.9E0,5.3E0,2.3E1,-4.8E0,2.4E1,2.3693047E-3,2.1437745E-4,3.579502E-3,5.759033E-3,-4.904983E-4,3.2527011E-3,-6.1651395E-4,-2.8963282E-3],"split_indices":[51,80,77,77,80,25,51,0,0,0,0,0,0,0,0],"split_type":[0,0,0,0,0,0,0,0,0,0,0,0,0,0,0],"sum_hessian":[6.781248E3,3.3212573E3,3.459991E3,1.5764325E3,1.7448247E3,1.1017311E3,2.35826E3,9.982501E2,5.7818243E2,1.0999464E3,6.4487823E2,3.8639252E2,7.153385E2,1.3274462E3,1.0308137E3],"tree_param":{"num_deleted":"0","num_feature":"106","num_nodes":"15","size_leaf_vector":"1"}},{"base_weights":[-1.2389162E-1,-2.3903823E-1,1.429571E-1,-1.00779854E-1,-3.969135E-1,-5.2352007E-3,3.0678177E-1,-2.4117937E-3,2.7909706E-4,-5.504826E-3,-3.297115E-3,1.3266323E-3,-1.5713046E-3,2.2568589E-3,4.345469E-3],"categories":[],"categories_nodes":[],"categories_segments":[],"categories_sizes":[],"default_left":[0,0,0,0,0,0,0,0,0,0,0,0,0,0,0],"id":38,"left_children":[1,3,5,7,9,11,13,-1,-1,-1,-1,-1,-1,-1,-1],"loss_changes":[2.0836523E2,1.0335147E2,4.9634403E1,4.565716E1,2.2637817E1,2.2525173E1,9.962677E0,0E0,0E0,0E0,0E0,0E0,0E0,0E0,0E0],"parents":[2147483647,0,0,1,1,2,2,3,3,4,4,5,5,6,6],"right_children":[2,4,6,8,10,12,14,-1,-1,-1,-1,-1,-1,-1,-1],"split_conditions":[2E1,1.4E1,4E-1,1E1,7E0,-4.8E0,3.5E1,-2.4117937E-3,2.7909706E-4,-5.504826E-3,-3.297115E-3,1.3266323E-3,-1.5713046E-3,2.2568589E-3,4.345469E-3],"split_indices":[28,80,77,51,51,25,2,0,0,0,0,0,0,0,0],"split_type":[0,0,0,0,0,0,0,0,0,0,0,0,0,0,0],"sum_hessian":[6.7791255E3,4.7357354E3,2.0433901E3,2.525597E3,2.2101387E3,1.0733912E3,9.699989E2,1.2074271E3,1.3181698E3,6.7056976E2,1.5395688E3,5.62684E2,5.1070724E2,5.9506323E2,3.7493564E2],"tree_param":{"num_deleted":"0","num_feature":"106","num_nodes":"15","size_leaf_vector":"1"}},{"base_weights":[1.2389161E-1,2.3903821E-1,-1.429571E-1,1.0077985E-1,3.969135E-1,5.235187E-3,-3.0678177E-1,2.4117935E-3,-2.790969E-4,5.504826E-3,3.297115E-3,-1.3266323E-3,1.5713045E-3,-2.2568589E-3,-4.345469E-3],"categories":[],"categories_nodes":[],"categories_segments":[],"categories_sizes":[],"default_left":[0,0,0,0,0,0,0,0,0,0,0,0,0,0,0],"id":39,"left_children":[1,3,5,7,9,11,13,-1,-1,-1,-1,-1,-1,-1,-1],"loss_changes":[2.0836523E2,1.0335144E2,4.96344E1,4.565715E1,2.2637817E1,2.2525173E1,9.962677E0,0E0,0E0,0E0,0E0,0E0,0E0,0E0,0E0],"parents":[2147483647,0,0,1,1,2,2,3,3,4,4,5,5,6,6],"right_children":[2,4,6,8,10,12,14,-1,-1,-1,-1,-1,-1,-1,-1],"split_conditions":[2E1,1.4E1,4E-1,1E1,7E0,-4.8E0,3.5E1,2.4117935E-3,-2.790969E-4,5.504826E-3,3.297115E-3,-1.3266323E-3,1.5713045E-3,-2.2568589E-3,-4.345469E-3],"split_indices":[28,80,77,51,51,25,2,0,0,0,0,0,0,0,0],"split_type":[0,0,0,0,0,0,0,0,0,0,0,0,0,0,0],"sum_hessian":[6.7791255E3,4.7357354E3,2.0433901E3,2.525597E3,2.2101387E3,1.0733914E3,9.699989E2,1.2074271E3,1.3181698E3,6.7056976E2,1.5395688E3,5.62684E2,5.1070728E2,5.9506323E2,3.7493564E2],"tree_param":{"num_deleted":"0","num_feature":"106","num_nodes":"15","size_leaf_vector":"1"}},{"base_weights":[-1.22690395E-1,-3.0002236E-1,4.748458E-2,-1.549181E-1,-4.3110922E-1,-1.909222E-1,1.5887026E-1,-2.3310648E-3,-1.9787782E-4,-3.510009E-3,-5.671431E-3,4.7675177E-4,-3.1978353E-3,6.1004626E-4,2.8478417E-3],"categories":[],"categories_nodes":[],"categories_segments":[],"categories_sizes":[],"default_left":[0,0,0,0,0,0,0,0,0,0,0,0,0,0,0],"id":40,"left_children":[1,3,5,7,9,11,13,-1,-1,-1,-1,-1,-1,-1,-1],"loss_changes":[2.0456021E2,6.3072174E1,9.190337E1,1.66576E1,1.8799164E1,3.390172E1,2.9046432E1,0E0,0E0,0E0,0E0,0E0,0E0,0E0,0E0],"parents":[2147483647,0,0,1,1,2,2,3,3,4,4,5,5,6,6],"right_children":[2,4,6,8,10,12,14,-1,-1,-1,-1,-1,-1,-1,-1],"split_conditions":[1.5E1,1.2E1,-1.9E0,5.3E0,2.3E1,-4.8E0,2.4E1,-2.3310648E-3,-1.9787782E-4,-3.510009E-3,-5.671431E-3,4.7675177E-4,-3.1978353E-3,6.1004626E-4,2.8478417E-3],"split_indices":[51,80,77,77,80,25,51,0,0,0,0,0,0,0,0],"split_type":[0,0,0,0,0,0,0,0,0,0,0,0,0,0,0],"sum_hessian":[6.777103E3,3.3183896E3,3.4587134E3,1.576022E3,1.7423678E3,1.1011432E3,2.35757E3,9.978984E2,5.781236E2,1.0988511E3,6.435168E2,3.8637256E2,7.147706E2,1.3273679E3,1.0302023E3],"tree_param":{"num_deleted":"0","num_feature":"106","num_nodes":"15","size_leaf_vector":"1"}},{"base_weights":[1.2269039E-1,3.0002236E-1,-4.7484577E-2,1.5491807E-1,4.311092E-1,1.9092223E-1,-1.5887026E-1,2.3310643E-3,1.9787782E-4,3.510009E-3,5.67143E-3,-4.7675113E-4,3.1978353E-3,-6.100465E-4,-2.8478417E-3],"categories":[],"categories_nodes":[],"categories_segments":[],"categories_sizes":[],"default_left":[0,0,0,0,0,0,0,0,0,0,0,0,0,0,0],"id":41,"left_children":[1,3,5,7,9,11,13,-1,-1,-1,-1,-1,-1,-1,-1],"loss_changes":[2.0456015E2,6.3072205E1,9.19034E1,1.6657597E1,1.8799164E1,3.3901703E1,2.9046432E1,0E0,0E0,0E0,0E0,0E0,0E0,0E0,0E0],"parents":[2147483647,0,0,1,1,2,2,3,3,4,4,5,5,6,6],"right_children":[2,4,6,8,10,12,14,-1,-1,-1,-1,-1,-1,-1,-1],"split_conditions":[1.5E1,1.2E1,-1.9E0,5.3E0,2.3E1,-4.8E0,2.4E1,2.3310643E-3,1.9787782E-4,3.510009E-3,5.67143E-3,-4.7675113E-4,3.1978353E-3,-6.100465E-4,-2.8478417E-3],"split_indices":[51,80,77,77,80,25,51,0,0,0,0,0,0,0,0],"split_type":[0,0,0,0,0,0,0,0,0,0,0,0,0,0,0],"sum_hessian":[6.777103E3,3.31839E3,3.4587134E3,1.576022E3,1.7423678E3,1.1011432E3,2.35757E3,9.978984E2,5.781236E2,1.0988511E3,6.435168E2,3.863726E2,7.147706E2,1.3273679E3,1.0302023E3],"tree_param":{"num_deleted":"0","num_feature":"106","num_nodes":"15","size_leaf_vector":"1"}},{"base_weights":[-1.2150662E-1,1.02353215E-1,-2.5402004E-1,-4.2617775E-2,2.6308727E-1,-6.6608645E-2,-3.6740693E-1,1.2265708E-3,-1.8445038E-3,2.0805474E-3,4.2580664E-3,-2.045694E-3,4.965512E-4,-4.6497555E-3,-2.6348338E-3],"categories":[],"categories_nodes":[],"categories_segments":[],"categories_sizes":[],"default_left":[0,0,0,0,0,0,0,0,0,0,0,0,0,0,0],"id":42,"left_children":[1,3,5,7,9,11,13,-1,-1,-1,-1,-1,-1,-1,-1],"loss_changes":[2.0102676E2,5.873693E1,9.04281E1,3.1104658E1,1.0614929E1,2.5766253E1,2.6766266E1,0E0,0E0,0E0,0E0,0E0,0E0,0E0,0E0],"parents":[2147483647,0,0,1,1,2,2,3,3,4,4,5,5,6,6],"right_children":[2,4,6,8,10,12,14,-1,-1,-1,-1,-1,-1,-1,-1],"split_conditions":[4.6E-1,5.14E-1,1.1E1,-4.8E0,2.8E1,9E0,-1.4E0,1.2265708E-3,-1.8445038E-3,2.0805474E-3,4.2580664E-3,-2.045694E-3,4.965512E-4,-4.6497555E-3,-2.6348338E-3],"split_indices":[3,55,103,25,51,51,77,0,0,0,0,0,0,0,0],"split_type":[0,0,0,0,0,0,0,0,0,0,0,0,0,0,0],"sum_hessian":[6.7748164E3,2.5192246E3,4.2555923E3,1.324948E3,1.1942765E3,1.6047578E3,2.6508342E3,6.1196826E2,7.129798E2,8.9414935E2,3.001272E2,7.3355194E2,8.7120593E2,1.365428E3,1.2854061E3],"tree_param":{"num_deleted":"0","num_feature":"106","num_nodes":"15","size_leaf_vector":"1"}},{"base_weights":[1.2150661E-1,-1.0235322E-1,2.5402004E-1,4.2617798E-2,-2.630873E-1,6.660863E-2,3.6740693E-1,-1.2265707E-3,1.8445041E-3,-2.0805479E-3,-4.258067E-3,2.0456936E-3,-4.965511E-4,4.6497555E-3,2.6348338E-3],"categories":[],"categories_nodes":[],"categories_segments":[],"categories_sizes":[],"default_left":[0,0,0,0,0,0,0,0,0,0,0,0,0,0,0],"id":43,"left_children":[1,3,5,7,9,11,13,-1,-1,-1,-1,-1,-1,-1,-1],"loss_changes":[2.0102678E2,5.873694E1,9.042807E1,3.1104658E1,1.0614937E1,2.576624E1,2.6766266E1,0E0,0E0,0E0,0E0,0E0,0E0,0E0,0E0],"parents":[2147483647,0,0,1,1,2,2,3,3,4,4,5,5,6,6],"right_children":[2,4,6,8,10,12,14,-1,-1,-1,-1,-1,-1,-1,-1],"split_conditions":[4.6E-1,5.14E-1,1.1E1,-4.8E0,2.8E1,9E0,-1.4E0,-1.2265707E-3,1.8445041E-3,-2.0805479E-3,-4.258067E-3,2.0456936E-3,-4.965511E-4,4.6497555E-3,2.6348338E-3],"split_indices":[3,55,103,25,51,51,77,0,0,0,0,0,0,0,0],"split_type":[0,0,0,0,0,0,0,0,0,0,0,0,0,0,0],"sum_hessian":[6.7748164E3,2.5192246E3,4.255592E3,1.324948E3,1.1942765E3,1.6047578E3,2.6508342E3,6.1196826E2,7.129798E2,8.9414935E2,3.001272E2,7.3355194E2,8.712059E2,1.365428E3,1.2854061E3],"tree_param":{"num_deleted":"0","num_feature":"106","num_nodes":"15","size_leaf_vector":"1"}},{"base_weights":[-1.2033274E-1,-2.9472026E-1,4.6932936E-2,-1.5201347E-1,-4.2379844E-1,-1.7014112E-1,1.652755E-1,-2.291942E-3,-1.8668544E-4,-3.4468933E-3,-5.583184E-3,6.009918E-4,-2.9464408E-3,6.764703E-4,2.9215552E-3],"categories":[],"categories_nodes":[],"categories_segments":[],"categories_sizes":[],"default_left":[0,0,0,0,0,0,0,0,0,0,0,0,0,0,0],"id":44,"left_children":[1,3,5,7,9,11,13,-1,-1,-1,-1,-1,-1,-1,-1],"loss_changes":[1.975918E2,6.1023193E1,8.886709E1,1.622123E1,1.8332153E1,3.5007996E1,2.7709995E1,0E0,0E0,0E0,0E0,0E0,0E0,0E0,0E0],"parents":[2147483647,0,0,1,1,2,2,3,3,4,4,5,5,6,6],"right_children":[2,4,6,8,10,12,14,-1,-1,-1,-1,-1,-1,-1,-1],"split_conditions":[1.5E1,1.2E1,-1.4E0,5.3E0,2.3E1,-4.8E0,2.4E1,-2.291942E-3,-1.8668544E-4,-3.4468933E-3,-5.583184E-3,6.009918E-4,-2.9464408E-3,6.764703E-4,2.9215552E-3],"split_indices":[51,80,77,77,80,25,51,0,0,0,0,0,0,0,0],"split_type":[0,0,0,0,0,0,0,0,0,0,0,0,0,0,0],"sum_hessian":[6.7725493E3,3.315314E3,3.4572356E3,1.5755682E3,1.7397457E3,1.2196365E3,2.237599E3,9.974944E2,5.780738E2,1.0977424E3,6.420032E2,4.2823297E2,7.9140344E2,1.2654362E3,9.72163E2],"tree_param":{"num_deleted":"0","num_feature":"106","num_nodes":"15","size_leaf_vector":"1"}},{"base_weights":[1.2033275E-1,2.947203E-1,-4.693293E-2,1.5201351E-1,4.2379844E-1,1.7014115E-1,-1.652755E-1,2.2919425E-3,1.8668566E-4,3.4468933E-3,5.583183E-3,-6.009912E-4,2.9464408E-3,-6.764703E-4,-2.9215552E-3],"categories":[],"categories_nodes":[],"categories_segments":[],"categories_sizes":[],"default_left":[0,0,0,0,0,0,0,0,0,0,0,0,0,0,0],"id":45,"left_children":[1,3,5,7,9,11,13,-1,-1,-1,-1,-1,-1,-1,-1],"loss_changes":[1.9759183E2,6.1023132E1,8.886709E1,1.6221233E1,1.8332153E1,3.5007973E1,2.7709995E1,0E0,0E0,0E0,0E0,0E0,0E0,0E0,0E0],"parents":[2147483647,0,0,1,1,2,2,3,3,4,4,5,5,6,6],"right_children":[2,4,6,8,10,12,14,-1,-1,-1,-1,-1,-1,-1,-1],"split_conditions":[1.5E1,1.2E1,-1.4E0,5.3E0,2.3E1,-4.8E0,2.4E1,2.2919425E-3,1.8668566E-4,3.4468933E-3,5.583183E-3,-6.009912E-4,2.9464408E-3,-6.764703E-4,-2.9215552E-3],"split_indices":[51,80,77,77,80,25,51,0,0,0,0,0,0,0,0],"split_type":[0,0,0,0,0,0,0,0,0,0,0,0,0,0,0],"sum_hessian":[6.7725493E3,3.315314E3,3.4572356E3,1.5755682E3,1.7397457E3,1.2196365E3,2.237599E3,9.974944E2,5.780738E2,1.0977424E3,6.4200323E2,4.2823297E2,7.914035E2,1.2654362E3,9.72163E2],"tree_param":{"num_deleted":"0","num_feature":"106","num_nodes":"15","size_leaf_vector":"1"}},{"base_weights":[-1.1917451E-1,-2.3045933E-1,1.385538E-1,-9.67933E-2,-3.834216E-1,-5.206145E-3,2.975545E-1,-2.3325174E-3,2.820194E-4,-5.3432942E-3,-3.1747525E-3,1.2720749E-3,-1.5110737E-3,2.1751283E-3,4.2372383E-3],"categories":[],"categories_nodes":[],"categories_segments":[],"categories_sizes":[],"default_left":[0,0,0,0,0,0,0,0,0,0,0,0,0,0,0],"id":46,"left_children":[1,3,5,7,9,11,13,-1,-1,-1,-1,-1,-1,-1,-1],"loss_changes":[1.9423563E2,9.666138E1,4.6691483E1,4.307942E1,2.1776154E1,2.0762398E1,9.702782E0,0E0,0E0,0E0,0E0,0E0,0E0,0E0,0E0],"parents":[2147483647,0,0,1,1,2,2,3,3,4,4,5,5,6,6],"right_children":[2,4,6,8,10,12,14,-1,-1,-1,-1,-1,-1,-1,-1],"split_conditions":[2E1,1.4E1,4E-1,1E1,7E0,-4.8E0,3.5E1,-2.3325174E-3,2.820194E-4,-5.3432942E-3,-3.1747525E-3,1.2720749E-3,-1.5110737E-3,2.1751283E-3,4.2372383E-3],"split_indices":[28,80,77,51,51,25,2,0,0,0,0,0,0,0,0],"split_type":[0,0,0,0,0,0,0,0,0,0,0,0,0,0,0],"sum_hessian":[6.770103E3,4.728489E3,2.0416141E3,2.52428E3,2.2042087E3,1.0727018E3,9.689124E2,1.2063885E3,1.3178915E3,6.6815E2,1.5360588E3,5.6241046E2,5.1029126E2,5.9449164E2,3.744208E2],"tree_param":{"num_deleted":"0","num_feature":"106","num_nodes":"15","size_leaf_vector":"1"}},{"base_weights":[1.1917451E-1,2.3045933E-1,-1.3855378E-1,9.67933E-2,3.8342157E-1,5.206173E-3,-2.975545E-1,2.3325176E-3,-2.8201952E-4,5.3432933E-3,3.1747525E-3,-1.2720746E-3,1.5110741E-3,-2.175128E-3,-4.237239E-3],"categories":[],"categories_nodes":[],"categories_segments":[],"categories_sizes":[],"default_left":[0,0,0,0,0,0,0,0,0,0,0,0,0,0,0],"id":47,"left_children":[1,3,5,7,9,11,13,-1,-1,-1,-1,-1,-1,-1,-1],"loss_changes":[1.9423563E2,9.666133E1,4.669149E1,4.3079422E1,2.1776184E1,2.0762405E1,9.702797E0,0E0,0E0,0E0,0E0,0E0,0E0,0E0,0E0],"parents":[2147483647,0,0,1,1,2,2,3,3,4,4,5,5,6,6],"right_children":[2,4,6,8,10,12,14,-1,-1,-1,-1,-1,-1,-1,-1],"split_conditions":[2E1,1.4E1,4E-1,1E1,7E0,-4.8E0,3.5E1,2.3325176E-3,-2.8201952E-4,5.3432933E-3,3.1747525E-3,-1.2720746E-3,1.5110741E-3,-2.175128E-3,-4.237239E-3],"split_indices":[28,80,77,51,51,25,2,0,0,0,0,0,0,0,0],"split_type":[0,0,0,0,0,0,0,0,0,0,0,0,0,0,0],"sum_hessian":[6.770103E3,4.728489E3,2.0416141E3,2.52428E3,2.2042087E3,1.0727018E3,9.689124E2,1.2063885E3,1.3178915E3,6.6815E2,1.5360587E3,5.6241046E2,5.1029126E2,5.9449164E2,3.7442078E2],"tree_param":{"num_deleted":"0","num_feature":"106","num_nodes":"15","size_leaf_vector":"1"}},{"base_weights":[-1.18024364E-1,-2.893951E-1,4.6253666E-2,-1.4909E-1,-4.164701E-1,-1.8473189E-1,1.5411282E-1,-2.2551154E-3,-1.7097738E-4,-3.3803897E-3,-5.5001113E-3,4.469703E-4,-3.08848E-3,3.2067853E-3,8.5491437E-4],"categories":[],"categories_nodes":[],"categories_segments":[],"categories_sizes":[],"default_left":[0,0,0,0,0,0,0,0,0,0,0,0,0,0,0],"id":48,"left_children":[1,3,5,7,9,11,13,-1,-1,-1,-1,-1,-1,-1,-1],"loss_changes":[1.905711E2,5.90065E1,8.6150085E1,1.5894337E1,1.801654E1,3.1359829E1,2.6912727E1,0E0,0E0,0E0,0E0,0E0,0E0,0E0,0E0],"parents":[2147483647,0,0,1,1,2,2,3,3,4,4,5,5,6,6],"right_children":[2,4,6,8,10,12,14,-1,-1,-1,-1,-1,-1,-1,-1],"split_conditions":[1.5E1,1.2E1,-1.9E0,5.3E0,2.3E1,-4.8E0,-5.6E0,-2.2551154E-3,-1.7097738E-4,-3.3803897E-3,-5.5001113E-3,4.469703E-4,-3.08848E-3,3.2067853E-3,8.5491437E-4],"split_indices":[51,80,77,77,80,25,25,0,0,0,0,0,0,0,0],"split_type":[0,0,0,0,0,0,0,0,0,0,0,0,0,0,0],"sum_hessian":[6.7677803E3,3.3120115E3,3.455769E3,1.5750989E3,1.7369126E3,1.0997942E3,2.3559749E3,9.9709015E2,5.780087E2,1.096468E3,6.404446E2,3.8632028E2,7.134739E2,6.8633936E2,1.6696355E3],"tree_param":{"num_deleted":"0","num_feature":"106","num_nodes":"15","size_leaf_vector":"1"}},{"base_weights":[1.1802436E-1,2.8939506E-1,-4.6253663E-2,1.4908998E-1,4.164701E-1,1.8473187E-1,-1.541128E-1,2.2551152E-3,1.709767E-4,3.3803897E-3,5.5001113E-3,-4.4697078E-4,3.08848E-3,-3.2067848E-3,-8.5491437E-4],"categories":[],"categories_nodes":[],"categories_segments":[],"categories_sizes":[],"default_left":[0,0,0,0,0,0,0,0,0,0,0,0,0,0,0],"id":49,"left_children":[1,3,5,7,9,11,13,-1,-1,-1,-1,-1,-1,-1,-1],"loss_changes":[1.9057108E2,5.90065E1,8.615007E1,1.5894344E1,1.801654E1,3.135984E1,2.691272E1,0E0,0E0,0E0,0E0,0E0,0E0,0E0,0E0],"parents":[2147483647,0,0,1,1,2,2,3,3,4,4,5,5,6,6],"right_children":[2,4,6,8,10,12,14,-1,-1,-1,-1,-1,-1,-1,-1],"split_conditions":[1.5E1,1.2E1,-1.9E0,5.3E0,2.3E1,-4.8E0,-5.6E0,2.2551152E-3,1.709767E-4,3.3803897E-3,5.5001113E-3,-4.4697078E-4,3.08848E-3,-3.2067848E-3,-8.5491437E-4],"split_indices":[51,80,77,77,80,25,25,0,0,0,0,0,0,0,0],"split_type":[0,0,0,0,0,0,0,0,0,0,0,0,0,0,0],"sum_hessian":[6.7677803E3,3.3120115E3,3.455769E3,1.5750989E3,1.7369126E3,1.0997942E3,2.3559749E3,9.9709015E2,5.780087E2,1.096468E3,6.4044464E2,3.8632025E2,7.134739E2,6.8633936E2,1.6696355E3],"tree_param":{"num_deleted":"0","num_feature":"106","num_nodes":"15","size_leaf_vector":"1"}},{"base_weights":[-1.1689017E-1,-2.2629339E-1,1.3638763E-1,-1.3187782E-1,-4.3580934E-1,-6.1754067E-3,2.9179737E-1,-7.7952565E-5,-2.7425229E-3,-4.8572086E-3,-2.9169493E-3,1.2932818E-3,-1.5913798E-3,4.0689E-3,2.1412894E-3],"categories":[],"categories_nodes":[],"categories_segments":[],"categories_sizes":[],"default_left":[0,0,0,0,0,0,0,0,0,0,0,0,0,0,0],"id":50,"left_children":[1,3,5,7,9,11,13,-1,-1,-1,-1,-1,-1,-1,-1],"loss_changes":[1.8751907E2,9.3421616E1,4.5236324E1,5.7572224E1,1.0414398E1,2.21119E1,8.644928E0,0E0,0E0,0E0,0E0,0E0,0E0,0E0,0E0],"parents":[2147483647,0,0,1,1,2,2,3,3,4,4,5,5,6,6],"right_children":[2,4,6,8,10,12,14,-1,-1,-1,-1,-1,-1,-1,-1],"split_conditions":[2E1,1.9E1,5.14E-1,2.8E0,-2.3E0,-4.8E0,-6E0,-7.7952565E-5,-2.7425229E-3,-4.8572086E-3,-2.9169493E-3,1.2932818E-3,-1.5913798E-3,4.0689E-3,2.1412894E-3],"split_indices":[28,80,55,25,77,25,25,0,0,0,0,0,0,0,0],"split_type":[0,0,0,0,0,0,0,0,0,0,0,0,0,0,0],"sum_hessian":[6.7652314E3,4.724565E3,2.0406666E3,3.258014E3,1.4665509E3,1.0648245E3,9.7584216E2,1.7413997E3,1.5166141E3,1.0875325E3,3.7901843E2,5.647176E2,5.001068E2,3.914841E2,5.8435803E2],"tree_param":{"num_deleted":"0","num_feature":"106","num_nodes":"15","size_leaf_vector":"1"}},{"base_weights":[1.1689018E-1,2.2629339E-1,-1.3638765E-1,1.3187781E-1,4.3580937E-1,6.1753835E-3,-2.9179737E-1,7.795241E-5,2.7425229E-3,4.857209E-3,2.9169496E-3,-1.2932818E-3,1.5913792E-3,-4.0689004E-3,-2.1412894E-3],"categories":[],"categories_nodes":[],"categories_segments":[],"categories_sizes":[],"default_left":[0,0,0,0,0,0,0,0,0,0,0,0,0,0,0],"id":51,"left_children":[1,3,5,7,9,11,13,-1,-1,-1,-1,-1,-1,-1,-1],"loss_changes":[1.8751913E2,9.3421646E1,4.5236317E1,5.757224E1,1.0414398E1,2.211189E1,8.644928E0,0E0,0E0,0E0,0E0,0E0,0E0,0E0,0E0],"parents":[2147483647,0,0,1,1,2,2,3,3,4,4,5,5,6,6],"right_children":[2,4,6,8,10,12,14,-1,-1,-1,-1,-1,-1,-1,-1],"split_conditions":[2E1,1.9E1,5.14E-1,2.8E0,-2.3E0,-4.8E0,-6E0,7.795241E-5,2.7425229E-3,4.857209E-3,2.9169496E-3,-1.2932818E-3,1.5913792E-3,-4.0689004E-3,-2.1412894E-3],"split_indices":[28,80,55,25,77,25,25,0,0,0,0,0,0,0,0],"split_type":[0,0,0,0,0,0,0,0,0,0,0,0,0,0,0],"sum_hessian":[6.7652314E3,4.724565E3,2.0406665E3,3.258014E3,1.4665509E3,1.0648245E3,9.758421E2,1.7413997E3,1.5166141E3,1.0875325E3,3.7901843E2,5.647176E2,5.001068E2,3.914841E2,5.8435803E2],"tree_param":{"num_deleted":"0","num_feature":"106","num_nodes":"15","size_leaf_vector":"1"}},{"base_weights":[-1.1576498E-1,9.847641E-2,-2.4272546E-1,-1.5776142E-1,1.8242675E-1,-6.173328E-2,-3.5252154E-1,8.8929344E-5,-2.902865E-3,3.0154858E-3,1.0204931E-3,-1.9490791E-3,5.0397695E-4,-2.8630416E-3,-4.9427734E-3],"categories":[],"categories_nodes":[],"categories_segments":[],"categories_sizes":[],"default_left":[0,0,0,0,0,0,0,0,0,0,0,0,0,0,0],"id":52,"left_children":[1,3,5,7,9,11,13,-1,-1,-1,-1,-1,-1,-1,-1],"loss_changes":[1.8399908E2,5.4183075E1,8.438077E1,1.3735408E1,1.8129532E1,2.397574E1,2.4670898E1,0E0,0E0,0E0,0E0,0E0,0E0,0E0,0E0],"parents":[2147483647,0,0,1,1,2,2,3,3,4,4,5,5,6,6],"right_children":[2,4,6,8,10,12,14,-1,-1,-1,-1,-1,-1,-1,-1],"split_conditions":[4.6E-1,-3.2E0,1.1E1,-4.8E0,-5.6E0,9E0,2.3E1,8.8929344E-5,-2.902865E-3,3.0154858E-3,1.0204931E-3,-1.9490791E-3,5.0397695E-4,-2.8630416E-3,-4.9427734E-3],"split_indices":[3,77,103,25,25,51,80,0,0,0,0,0,0,0,0],"split_type":[0,0,0,0,0,0,0,0,0,0,0,0,0,0,0],"sum_hessian":[6.7627466E3,2.5164868E3,4.24626E3,6.207921E2,1.8956947E3,1.6038962E3,2.6423635E3,2.7540048E2,3.4539163E2,7.6265894E2,1.1330358E3,7.328152E2,8.7108105E2,1.80311E3,8.392536E2],"tree_param":{"num_deleted":"0","num_feature":"106","num_nodes":"15","size_leaf_vector":"1"}},{"base_weights":[1.15764976E-1,-9.847642E-2,2.4272545E-1,1.5776144E-1,-1.8242677E-1,6.1733246E-2,3.5252154E-1,-8.892907E-5,2.902865E-3,-3.0154865E-3,-1.0204931E-3,1.9490785E-3,-5.0397706E-4,2.863042E-3,4.9427734E-3],"categories":[],"categories_nodes":[],"categories_segments":[],"categories_sizes":[],"default_left":[0,0,0,0,0,0,0,0,0,0,0,0,0,0,0],"id":53,"left_children":[1,3,5,7,9,11,13,-1,-1,-1,-1,-1,-1,-1,-1],"loss_changes":[1.839991E2,5.418309E1,8.438077E1,1.3735403E1,1.812954E1,2.3975735E1,2.4670898E1,0E0,0E0,0E0,0E0,0E0,0E0,0E0,0E0],"parents":[2147483647,0,0,1,1,2,2,3,3,4,4,5,5,6,6],"right_children":[2,4,6,8,10,12,14,-1,-1,-1,-1,-1,-1,-1,-1],"split_conditions":[4.6E-1,-3.2E0,1.1E1,-4.8E0,-5.6E0,9E0,2.3E1,-8.892907E-5,2.902865E-3,-3.0154865E-3,-1.0204931E-3,1.9490785E-3,-5.0397706E-4,2.863042E-3,4.9427734E-3],"split_indices":[3,77,103,25,25,51,80,0,0,0,0,0,0,0,0],"split_type":[0,0,0,0,0,0,0,0,0,0,0,0,0,0,0],"sum_hessian":[6.7627466E3,2.5164868E3,4.24626E3,6.2079205E2,1.8956947E3,1.6038962E3,2.6423635E3,2.7540045E2,3.4539163E2,7.6265894E2,1.1330358E3,7.328152E2,8.710811E2,1.80311E3,8.392536E2],"tree_param":{"num_deleted":"0","num_feature":"106","num_nodes":"15","size_leaf_vector":"1"}},{"base_weights":[-1.1465359E-1,-2.8191295E-1,4.5549598E-2,-1.4449945E-1,-4.066158E-1,-1.7979665E-1,1.5071462E-1,-2.0635526E-3,1.4557915E-4,-3.3008324E-3,-5.3726123E-3,4.268397E-4,-3.0033668E-3,5.9092324E-4,2.6884165E-3],"categories":[],"categories_nodes":[],"categories_segments":[],"categories_sizes":[],"default_left":[0,0,0,0,0,0,0,0,0,0,0,0,0,0,0],"id":54,"left_children":[1,3,5,7,9,11,13,-1,-1,-1,-1,-1,-1,-1,-1],"loss_changes":[1.811803E2,5.6624176E1,8.188816E1,1.5501545E1,1.7156067E1,2.9500755E1,2.5480019E1,0E0,0E0,0E0,0E0,0E0,0E0,0E0,0E0],"parents":[2147483647,0,0,1,1,2,2,3,3,4,4,5,5,6,6],"right_children":[2,4,6,8,10,12,14,-1,-1,-1,-1,-1,-1,-1,-1],"split_conditions":[1.5E1,1.2E1,-1.9E0,6.2E0,2.3E1,-4.8E0,2.4E1,-2.0635526E-3,1.4557915E-4,-3.3008324E-3,-5.3726123E-3,4.268397E-4,-3.0033668E-3,5.9092324E-4,2.6884165E-3],"split_indices":[51,80,77,77,80,25,51,0,0,0,0,0,0,0,0],"split_type":[0,0,0,0,0,0,0,0,0,0,0,0,0,0,0],"sum_hessian":[6.76012E3,3.3068545E3,3.4532656E3,1.5742754E3,1.7325791E3,1.0985651E3,2.3547004E3,1.1332633E3,4.410121E2,1.09478E3,6.3779913E2,3.8627094E2,7.1229407E2,1.3269697E3,1.0277308E3],"tree_param":{"num_deleted":"0","num_feature":"106","num_nodes":"15","size_leaf_vector":"1"}},{"base_weights":[1.1465359E-1,2.8191295E-1,-4.5549594E-2,1.4449944E-1,4.066158E-1,1.7979667E-1,-1.5071462E-1,2.0635524E-3,-1.4557931E-4,3.3008324E-3,5.3726123E-3,-4.2683972E-4,3.0033668E-3,-5.909231E-4,-2.6884167E-3],"categories":[],"categories_nodes":[],"categories_segments":[],"categories_sizes":[],"default_left":[0,0,0,0,0,0,0,0,0,0,0,0,0,0,0],"id":55,"left_children":[1,3,5,7,9,11,13,-1,-1,-1,-1,-1,-1,-1,-1],"loss_changes":[1.811803E2,5.6624176E1,8.188817E1,1.5501541E1,1.7156067E1,2.9500755E1,2.5480026E1,0E0,0E0,0E0,0E0,0E0,0E0,0E0,0E0],"parents":[2147483647,0,0,1,1,2,2,3,3,4,4,5,5,6,6],"right_children":[2,4,6,8,10,12,14,-1,-1,-1,-1,-1,-1,-1,-1],"split_conditions":[1.5E1,1.2E1,-1.9E0,6.2E0,2.3E1,-4.8E0,2.4E1,2.0635524E-3,-1.4557931E-4,3.3008324E-3,5.3726123E-3,-4.2683972E-4,3.0033668E-3,-5.909231E-4,-2.6884167E-3],"split_indices":[51,80,77,77,80,25,51,0,0,0,0,0,0,0,0],"split_type":[0,0,0,0,0,0,0,0,0,0,0,0,0,0,0],"sum_hessian":[6.76012E3,3.3068545E3,3.4532656E3,1.5742754E3,1.7325791E3,1.0985651E3,2.3547004E3,1.1332634E3,4.4101205E2,1.09478E3,6.3779913E2,3.8627097E2,7.122941E2,1.3269697E3,1.0277308E3],"tree_param":{"num_deleted":"0","num_feature":"106","num_nodes":"15","size_leaf_vector":"1"}},{"base_weights":[-1.13555625E-1,-2.2016129E-1,1.3310447E-1,-9.165307E-2,-3.676753E-1,-5.7568685E-3,2.8678787E-1,-2.2319395E-3,2.8711554E-4,-5.157999E-3,-3.0306897E-3,1.2019998E-3,-1.4458942E-3,2.0779008E-3,4.1140094E-3],"categories":[],"categories_nodes":[],"categories_segments":[],"categories_sizes":[],"default_left":[0,0,0,0,0,0,0,0,0,0,0,0,0,0,0],"id":56,"left_children":[1,3,5,7,9,11,13,-1,-1,-1,-1,-1,-1,-1,-1],"loss_changes":[1.7774258E2,8.942795E1,4.353884E1,3.995955E1,2.086679E1,1.8775831E1,9.4474945E0,0E0,0E0,0E0,0E0,0E0,0E0,0E0,0E0],"parents":[2147483647,0,0,1,1,2,2,3,3,4,4,5,5,6,6],"right_children":[2,4,6,8,10,12,14,-1,-1,-1,-1,-1,-1,-1,-1],"split_conditions":[2E1,1.4E1,4E-1,1E1,7E0,-4.8E0,3.5E1,-2.2319395E-3,2.8711554E-4,-5.157999E-3,-3.0306897E-3,1.2019998E-3,-1.4458942E-3,2.0779008E-3,4.1140094E-3],"split_indices":[28,80,77,51,51,25,2,0,0,0,0,0,0,0,0],"split_type":[0,0,0,0,0,0,0,0,0,0,0,0,0,0,0],"sum_hessian":[6.7573506E3,4.7182476E3,2.0391033E3,2.5224302E3,2.1958174E3,1.0717139E3,9.6738947E2,1.2048507E3,1.3175795E3,6.6474835E2,1.531069E3,5.61984E2,5.097299E2,5.9369025E2,3.736992E2],"tree_param":{"num_deleted":"0","num_feature":"106","num_nodes":"15","size_leaf_vector":"1"}},{"base_weights":[1.1355562E-1,2.2016129E-1,-1.3310447E-1,9.165307E-2,3.676753E-1,5.756834E-3,-2.8678784E-1,2.2319397E-3,-2.871157E-4,5.1579988E-3,3.0306897E-3,-1.2020003E-3,1.4458939E-3,-2.0779008E-3,-4.114009E-3],"categories":[],"categories_nodes":[],"categories_segments":[],"categories_sizes":[],"default_left":[0,0,0,0,0,0,0,0,0,0,0,0,0,0,0],"id":57,"left_children":[1,3,5,7,9,11,13,-1,-1,-1,-1,-1,-1,-1,-1],"loss_changes":[1.7774261E2,8.942795E1,4.353883E1,3.9959557E1,2.086676E1,1.8775835E1,9.4474945E0,0E0,0E0,0E0,0E0,0E0,0E0,0E0,0E0],"parents":[2147483647,0,0,1,1,2,2,3,3,4,4,5,5,6,6],"right_children":[2,4,6,8,10,12,14,-1,-1,-1,-1,-1,-1,-1,-1],"split_conditions":[2E1,1.4E1,4E-1,1E1,7E0,-4.8E0,3.5E1,2.2319397E-3,-2.871157E-4,5.1579988E-3,3.0306897E-3,-1.2020003E-3,1.4458939E-3,-2.0779008E-3,-4.114009E-3],"split_indices":[28,80,77,51,51,25,2,0,0,0,0,0,0,0,0],"split_type":[0,0,0,0,0,0,0,0,0,0,0,0,0,0,0],"sum_hessian":[6.7573506E3,4.7182476E3,2.0391033E3,2.5224302E3,2.1958174E3,1.0717139E3,9.6738947E2,1.2048507E3,1.3175795E3,6.6474835E2,1.531069E3,5.61984E2,5.097299E2,5.9369025E2,3.736992E2],"tree_param":{"num_deleted":"0","num_feature":"106","num_nodes":"15","size_leaf_vector":"1"}},{"base_weights":[-1.1246515E-1,-2.7685556E-1,4.488698E-2,-1.4172225E-1,-3.9967698E-1,-9.653521E-2,2.0761551E-1,-2.1657958E-3,-1.2539343E-4,-3.2376053E-3,-5.294645E-3,1.074852E-3,-2.0905815E-3,1.1754966E-3,3.1096002E-3],"categories":[],"categories_nodes":[],"categories_segments":[],"categories_sizes":[],"default_left":[0,0,0,0,0,0,0,0,0,0,0,0,0,0,0],"id":58,"left_children":[1,3,5,7,9,11,13,-1,-1,-1,-1,-1,-1,-1,-1],"loss_changes":[1.7476361E2,5.4782394E1,7.9476364E1,1.5225567E1,1.6877747E1,4.244506E1,1.4908905E1,0E0,0E0,0E0,0E0,0E0,0E0,0E0,0E0],"parents":[2147483647,0,0,1,1,2,2,3,3,4,4,5,5,6,6],"right_children":[2,4,6,8,10,12,14,-1,-1,-1,-1,-1,-1,-1,-1],"split_conditions":[1.5E1,1.2E1,5.23E-1,5.3E0,2.3E1,-4.7E0,2.2E1,-2.1657958E-3,-1.2539343E-4,-3.2376053E-3,-5.294645E-3,1.074852E-3,-2.0905815E-3,1.1754966E-3,3.1096002E-3],"split_indices":[51,80,55,77,80,25,28,0,0,0,0,0,0,0,0],"split_type":[0,0,0,0,0,0,0,0,0,0,0,0,0,0,0],"sum_hessian":[6.754709E3,3.3031016E3,3.4516072E3,1.5737496E3,1.729352E3,1.8469171E3,1.6046902E3,9.9595135E2,5.777983E2,1.0933278E3,6.3602423E2,6.5654694E2,1.1903701E3,8.585725E2,7.461177E2],"tree_param":{"num_deleted":"0","num_feature":"106","num_nodes":"15","size_leaf_vector":"1"}},{"base_weights":[1.12465136E-1,2.7685556E-1,-4.488699E-2,1.4172223E-1,3.9967698E-1,9.653519E-2,-2.0761552E-1,2.1657958E-3,1.2539348E-4,3.2376053E-3,5.2946447E-3,-1.0748525E-3,2.0905815E-3,-1.1754967E-3,-3.1096002E-3],"categories":[],"categories_nodes":[],"categories_segments":[],"categories_sizes":[],"default_left":[0,0,0,0,0,0,0,0,0,0,0,0,0,0,0],"id":59,"left_children":[1,3,5,7,9,11,13,-1,-1,-1,-1,-1,-1,-1,-1],"loss_changes":[1.7476358E2,5.4782425E1,7.947635E1,1.5225563E1,1.6877716E1,4.2445076E1,1.4908905E1,0E0,0E0,0E0,0E0,0E0,0E0,0E0,0E0],"parents":[2147483647,0,0,1,1,2,2,3,3,4,4,5,5,6,6],"right_children":[2,4,6,8,10,12,14,-1,-1,-1,-1,-1,-1,-1,-1],"split_conditions":[1.5E1,1.2E1,5.23E-1,5.3E0,2.3E1,-4.7E0,2.2E1,2.1657958E-3,1.2539348E-4,3.2376053E-3,5.2946447E-3,-1.0748525E-3,2.0905815E-3,-1.1754967E-3,-3.1096002E-3],"split_indices":[51,80,55,77,80,25,28,0,0,0,0,0,0,0,0],"split_type":[0,0,0,0,0,0,0,0,0,0,0,0,0,0,0],"sum_hessian":[6.754709E3,3.3031016E3,3.4516072E3,1.5737496E3,1.7293519E3,1.8469171E3,1.6046902E3,9.9595135E2,5.777983E2,1.0933278E3,6.360242E2,6.5654694E2,1.1903701E3,8.5857245E2,7.461177E2],"tree_param":{"num_deleted":"0","num_feature":"106","num_nodes":"15","size_leaf_vector":"1"}},{"base_weights":[-1.1138827E-1,8.8715576E-2,-2.3822446E-1,-1.6073164E-1,1.6921507E-1,-6.3241474E-2,-3.4434912E-1,6.722113E-5,-2.8806522E-3,2.9278083E-3,9.1783446E-4,-1.3479398E-3,1.3040017E-3,-2.7918806E-3,-4.840912E-3],"categories":[],"categories_nodes":[],"categories_segments":[],"categories_sizes":[],"default_left":[0,0,0,0,0,0,0,0,0,0,0,0,0,0,0],"id":60,"left_children":[1,3,5,7,9,11,13,-1,-1,-1,-1,-1,-1,-1,-1],"loss_changes":[1.7141284E2,5.264818E1,7.673544E1,1.3645332E1,1.893343E1,2.165548E1,2.3291351E1,0E0,0E0,0E0,0E0,0E0,0E0,0E0,0E0],"parents":[2147483647,0,0,1,1,2,2,3,3,4,4,5,5,6,6],"right_children":[2,4,6,8,10,12,14,-1,-1,-1,-1,-1,-1,-1,-1],"split_conditions":[4.68E-1,-3.2E0,1.1E1,-4.8E0,-5.6E0,1.4E1,2.3E1,6.722113E-5,-2.8806522E-3,2.9278083E-3,9.1783446E-4,-1.3479398E-3,1.3040017E-3,-2.7918806E-3,-4.840912E-3],"split_indices":[3,77,103,25,25,51,80,0,0,0,0,0,0,0,0],"split_type":[0,0,0,0,0,0,0,0,0,0,0,0,0,0,0],"sum_hessian":[6.7519146E3,2.6195178E3,4.132397E3,6.3885956E2,1.9806582E3,1.5606781E3,2.5717188E3,2.7636496E2,3.6249463E2,7.619513E2,1.2187069E3,1.1398105E3,4.2086746E2,1.7559336E3,8.1578516E2],"tree_param":{"num_deleted":"0","num_feature":"106","num_nodes":"15","size_leaf_vector":"1"}},{"base_weights":[1.1138826E-1,-8.8715576E-2,2.3822445E-1,1.6073163E-1,-1.6921507E-1,6.324147E-2,3.443491E-1,-6.7221394E-5,2.8806522E-3,-2.9278088E-3,-9.178344E-4,1.3479398E-3,-1.3040017E-3,2.7918806E-3,4.8409114E-3],"categories":[],"categories_nodes":[],"categories_segments":[],"categories_sizes":[],"default_left":[0,0,0,0,0,0,0,0,0,0,0,0,0,0,0],"id":61,"left_children":[1,3,5,7,9,11,13,-1,-1,-1,-1,-1,-1,-1,-1],"loss_changes":[1.7141284E2,5.264817E1,7.673544E1,1.3645338E1,1.8933437E1,2.165548E1,2.3291351E1,0E0,0E0,0E0,0E0,0E0,0E0,0E0,0E0],"parents":[2147483647,0,0,1,1,2,2,3,3,4,4,5,5,6,6],"right_children":[2,4,6,8,10,12,14,-1,-1,-1,-1,-1,-1,-1,-1],"split_conditions":[4.68E-1,-3.2E0,1.1E1,-4.8E0,-5.6E0,1.4E1,2.3E1,-6.7221394E-5,2.8806522E-3,-2.9278088E-3,-9.178344E-4,1.3479398E-3,-1.3040017E-3,2.7918806E-3,4.8409114E-3],"split_indices":[3,77,103,25,25,51,80,0,0,0,0,0,0,0,0],"split_type":[0,0,0,0,0,0,0,0,0,0,0,0,0,0,0],"sum_hessian":[6.7519146E3,2.6195178E3,4.132397E3,6.388596E2,1.9806582E3,1.5606781E3,2.5717188E3,2.7636496E2,3.6249463E2,7.6195123E2,1.2187069E3,1.1398105E3,4.2086746E2,1.7559336E3,8.1578516E2],"tree_param":{"num_deleted":"0","num_feature":"106","num_nodes":"15","size_leaf_vector":"1"}},{"base_weights":[-1.10322535E-1,-2.7194008E-1,4.427101E-2,-1.3885644E-1,-3.9308944E-1,-1.7451014E-1,1.4631402E-1,-1.995134E-3,1.7006305E-4,-3.1835577E-3,-5.211098E-3,3.9750864E-4,-2.908094E-3,5.790994E-4,2.6043677E-3],"categories":[],"categories_nodes":[],"categories_segments":[],"categories_sizes":[],"default_left":[0,0,0,0,0,0,0,0,0,0,0,0,0,0,0],"id":62,"left_children":[1,3,5,7,9,11,13,-1,-1,-1,-1,-1,-1,-1,-1],"loss_changes":[1.6866257E2,5.3154556E1,7.7066315E1,1.4886015E1,1.6357178E1,2.7373337E1,2.3732273E1,0E0,0E0,0E0,0E0,0E0,0E0,0E0,0E0],"parents":[2147483647,0,0,1,1,2,2,3,3,4,4,5,5,6,6],"right_children":[2,4,6,8,10,12,14,-1,-1,-1,-1,-1,-1,-1,-1],"split_conditions":[1.5E1,1.2E1,-1.9E0,6.2E0,2.3E1,-4.8E0,2.4E1,-1.995134E-3,1.7006305E-4,-3.1835577E-3,-5.211098E-3,3.9750864E-4,-2.908094E-3,5.790994E-4,2.6043677E-3],"split_indices":[51,80,77,77,80,25,51,0,0,0,0,0,0,0,0],"split_type":[0,0,0,0,0,0,0,0,0,0,0,0,0,0,0],"sum_hessian":[6.7490625E3,3.2992014E3,3.449861E3,1.5731874E3,1.7260142E3,1.097055E3,2.3528062E3,1.1322649E3,4.4092255E2,1.0920193E3,6.339948E2,3.8620267E2,7.1085236E2,1.3266426E3,1.0261635E3],"tree_param":{"num_deleted":"0","num_feature":"106","num_nodes":"15","size_leaf_vector":"1"}},{"base_weights":[1.10322535E-1,2.719401E-1,-4.4271007E-2,1.3885643E-1,3.930895E-1,1.7451015E-1,-1.4631402E-1,1.995134E-3,-1.7006346E-4,3.1835577E-3,5.211099E-3,-3.9750803E-4,2.908094E-3,-5.7909946E-4,-2.6043677E-3],"categories":[],"categories_nodes":[],"categories_segments":[],"categories_sizes":[],"default_left":[0,0,0,0,0,0,0,0,0,0,0,0,0,0,0],"id":63,"left_children":[1,3,5,7,9,11,13,-1,-1,-1,-1,-1,-1,-1,-1],"loss_changes":[1.6866257E2,5.315457E1,7.706632E1,1.4886019E1,1.6357208E1,2.737333E1,2.373227E1,0E0,0E0,0E0,0E0,0E0,0E0,0E0,0E0],"parents":[2147483647,0,0,1,1,2,2,3,3,4,4,5,5,6,6],"right_children":[2,4,6,8,10,12,14,-1,-1,-1,-1,-1,-1,-1,-1],"split_conditions":[1.5E1,1.2E1,-1.9E0,6.2E0,2.3E1,-4.8E0,2.4E1,1.995134E-3,-1.7006346E-4,3.1835577E-3,5.211099E-3,-3.9750803E-4,2.908094E-3,-5.7909946E-4,-2.6043677E-3],"split_indices":[51,80,77,77,80,25,51,0,0,0,0,0,0,0,0],"split_type":[0,0,0,0,0,0,0,0,0,0,0,0,0,0,0],"sum_hessian":[6.7490625E3,3.2992014E3,3.449861E3,1.5731874E3,1.7260142E3,1.097055E3,2.352806E3,1.1322649E3,4.4092255E2,1.0920193E3,6.339948E2,3.862027E2,7.1085236E2,1.3266426E3,1.0261635E3],"tree_param":{"num_deleted":"0","num_feature":"106","num_nodes":"15","size_leaf_vector":"1"}},{"base_weights":[-1.0926995E-1,-2.1233495E-1,1.289949E-1,-1.22856125E-1,-4.11982E-1,-5.9035574E-3,2.7838954E-1,-4.0452196E-5,-2.5940905E-3,-4.6043517E-3,-2.7262922E-3,1.1504703E-3,-1.392597E-3,2.003606E-3,4.015621E-3],"categories":[],"categories_nodes":[],"categories_segments":[],"categories_sizes":[],"default_left":[0,0,0,0,0,0,0,0,0,0,0,0,0,0,0],"id":64,"left_children":[1,3,5,7,9,11,13,-1,-1,-1,-1,-1,-1,-1,-1],"loss_changes":[1.6571338E2,8.409244E1,4.1071785E1,5.278981E1,9.714142E0,1.730506E1,9.21357E0,0E0,0E0,0E0,0E0,0E0,0E0,0E0,0E0],"parents":[2147483647,0,0,1,1,2,2,3,3,4,4,5,5,6,6],"right_children":[2,4,6,8,10,12,14,-1,-1,-1,-1,-1,-1,-1,-1],"split_conditions":[2E1,1.9E1,4E-1,2.8E0,-2.3E0,-4.8E0,3.5E1,-4.0452196E-5,-2.5940905E-3,-4.6043517E-3,-2.7262922E-3,1.1504703E-3,-1.392597E-3,2.003606E-3,4.015621E-3],"split_indices":[28,80,77,25,77,25,2,0,0,0,0,0,0,0,0],"split_type":[0,0,0,0,0,0,0,0,0,0,0,0,0,0,0],"sum_hessian":[6.746061E3,4.7091553E3,2.036906E3,3.252879E3,1.4562761E3,1.070889E3,9.66017E2,1.7399911E3,1.512888E3,1.0788531E3,3.7742294E2,5.616365E2,5.0925256E2,5.929892E2,3.7302786E2],"tree_param":{"num_deleted":"0","num_feature":"106","num_nodes":"15","size_leaf_vector":"1"}},{"base_weights":[1.0926995E-1,2.1233493E-1,-1.2899488E-1,1.2285612E-1,4.11982E-1,5.90357E-3,-2.7838954E-1,4.0452105E-5,2.5940905E-3,4.6043512E-3,2.7262925E-3,-1.1504705E-3,1.3925973E-3,-2.0036057E-3,-4.0156213E-3],"categories":[],"categories_nodes":[],"categories_segments":[],"categories_sizes":[],"default_left":[0,0,0,0,0,0,0,0,0,0,0,0,0,0,0],"id":65,"left_children":[1,3,5,7,9,11,13,-1,-1,-1,-1,-1,-1,-1,-1],"loss_changes":[1.6571336E2,8.409245E1,4.107179E1,5.2789818E1,9.714111E0,1.7305067E1,9.213562E0,0E0,0E0,0E0,0E0,0E0,0E0,0E0,0E0],"parents":[2147483647,0,0,1,1,2,2,3,3,4,4,5,5,6,6],"right_children":[2,4,6,8,10,12,14,-1,-1,-1,-1,-1,-1,-1,-1],"split_conditions":[2E1,1.9E1,4E-1,2.8E0,-2.3E0,-4.8E0,3.5E1,4.0452105E-5,2.5940905E-3,4.6043512E-3,2.7262925E-3,-1.1504705E-3,1.3925973E-3,-2.0036057E-3,-4.0156213E-3],"split_indices":[28,80,77,25,77,25,2,0,0,0,0,0,0,0,0],"split_type":[0,0,0,0,0,0,0,0,0,0,0,0,0,0,0],"sum_hessian":[6.746061E3,4.7091553E3,2.036906E3,3.252879E3,1.456276E3,1.070889E3,9.66017E2,1.7399911E3,1.512888E3,1.0788531E3,3.7742294E2,5.616364E2,5.0925253E2,5.929892E2,3.7302786E2],"tree_param":{"num_deleted":"0","num_feature":"106","num_nodes":"15","size_leaf_vector":"1"}},{"base_weights":[-1.082244E-1,-2.671325E-1,4.3675207E-2,-1.3583738E-1,-3.8684154E-1,-9.3662515E-2,2.0166577E-1,-1.9596298E-3,1.8601837E-4,-3.132354E-3,-5.1318537E-3,1.0277714E-3,-2.0209046E-3,1.1462268E-3,3.016873E-3],"categories":[],"categories_nodes":[],"categories_segments":[],"categories_sizes":[],"default_left":[0,0,0,0,0,0,0,0,0,0,0,0,0,0,0],"id":66,"left_children":[1,3,5,7,9,11,13,-1,-1,-1,-1,-1,-1,-1,-1],"loss_changes":[1.6280357E2,5.175453E1,7.485541E1,1.4615398E1,1.58685E1,3.9335003E1,1.3932037E1,0E0,0E0,0E0,0E0,0E0,0E0,0E0,0E0],"parents":[2147483647,0,0,1,1,2,2,3,3,4,4,5,5,6,6],"right_children":[2,4,6,8,10,12,14,-1,-1,-1,-1,-1,-1,-1,-1],"split_conditions":[1.5E1,1.2E1,5.23E-1,6.2E0,2.3E1,-4.7E0,2.2E1,-1.9596298E-3,1.8601837E-4,-3.132354E-3,-5.1318537E-3,1.0277714E-3,-2.0209046E-3,1.1462268E-3,3.016873E-3],"split_indices":[51,80,55,77,80,25,28,0,0,0,0,0,0,0,0],"split_type":[0,0,0,0,0,0,0,0,0,0,0,0,0,0,0],"sum_hessian":[6.743195E3,3.2951995E3,3.447995E3,1.5725664E3,1.722633E3,1.8447777E3,1.6032174E3,1.1317063E3,4.4086005E2,1.090691E3,6.31942E2,6.561245E2,1.1886532E3,8.583713E2,7.448462E2],"tree_param":{"num_deleted":"0","num_feature":"106","num_nodes":"15","size_leaf_vector":"1"}},{"base_weights":[1.08224414E-1,2.6713252E-1,-4.3675188E-2,1.3583739E-1,3.8684154E-1,9.366254E-2,-2.0166576E-1,1.9596298E-3,-1.8601774E-4,3.132354E-3,5.1318537E-3,-1.0277712E-3,2.0209048E-3,-1.1462264E-3,-3.016873E-3],"categories":[],"categories_nodes":[],"categories_segments":[],"categories_sizes":[],"default_left":[0,0,0,0,0,0,0,0,0,0,0,0,0,0,0],"id":67,"left_children":[1,3,5,7,9,11,13,-1,-1,-1,-1,-1,-1,-1,-1],"loss_changes":[1.6280356E2,5.1754517E1,7.4855415E1,1.4615395E1,1.58685E1,3.9335003E1,1.3932037E1,0E0,0E0,0E0,0E0,0E0,0E0,0E0,0E0],"parents":[2147483647,0,0,1,1,2,2,3,3,4,4,5,5,6,6],"right_children":[2,4,6,8,10,12,14,-1,-1,-1,-1,-1,-1,-1,-1],"split_conditions":[1.5E1,1.2E1,5.23E-1,6.2E0,2.3E1,-4.7E0,2.2E1,1.9596298E-3,-1.8601774E-4,3.132354E-3,5.1318537E-3,-1.0277712E-3,2.0209048E-3,-1.1462264E-3,-3.016873E-3],"split_indices":[51,80,55,77,80,25,28,0,0,0,0,0,0,0,0],"split_type":[0,0,0,0,0,0,0,0,0,0,0,0,0,0,0],"sum_hessian":[6.743195E3,3.2951995E3,3.447995E3,1.5725664E3,1.722633E3,1.8447777E3,1.6032174E3,1.1317063E3,4.4086008E2,1.090691E3,6.31942E2,6.561245E2,1.1886532E3,8.583713E2,7.448462E2],"tree_param":{"num_deleted":"0","num_feature":"106","num_nodes":"15","size_leaf_vector":"1"}},{"base_weights":[-1.0719157E-1,-2.0846723E-1,1.2683181E-1,-1.2044668E-1,-4.052161E-1,-8.101151E-2,2.208345E-1,-3.347194E-5,-2.551175E-3,-4.5325425E-3,-2.6724774E-3,3.742478E-4,-2.3448141E-3,3.3551904E-3,1.4080942E-3],"categories":[],"categories_nodes":[],"categories_segments":[],"categories_sizes":[],"default_left":[0,0,0,0,0,0,0,0,0,0,0,0,0,0,0],"id":68,"left_children":[1,3,5,7,9,11,13,-1,-1,-1,-1,-1,-1,-1,-1],"loss_changes":[1.597985E2,8.143936E1,3.9811947E1,5.1289516E1,9.515564E0,1.1551418E1,1.2826546E1,0E0,0E0,0E0,0E0,0E0,0E0,0E0,0E0],"parents":[2147483647,0,0,1,1,2,2,3,3,4,4,5,5,6,6],"right_children":[2,4,6,8,10,12,14,-1,-1,-1,-1,-1,-1,-1,-1],"split_conditions":[2E1,1.9E1,4.23E-1,2.8E0,-2.3E0,-4.3E0,-6E0,-3.347194E-5,-2.551175E-3,-4.5325425E-3,-2.6724774E-3,3.742478E-4,-2.3448141E-3,3.3551904E-3,1.4080942E-3],"split_indices":[28,80,55,25,77,25,25,0,0,0,0,0,0,0,0],"split_type":[0,0,0,0,0,0,0,0,0,0,0,0,0,0,0],"sum_hessian":[6.740189E3,4.7044194E3,2.0357693E3,3.251425E3,1.4529944E3,6.3403436E2,1.4017349E3,1.739721E3,1.511704E3,1.076048E3,3.769465E2,3.582899E2,2.7574448E2,5.747967E2,8.269382E2],"tree_param":{"num_deleted":"0","num_feature":"106","num_nodes":"15","size_leaf_vector":"1"}},{"base_weights":[1.07191555E-1,2.0846722E-1,-1.2683183E-1,1.20446675E-1,4.0521607E-1,8.101149E-2,-2.2083451E-1,3.3471886E-5,2.551175E-3,4.5325425E-3,2.6724774E-3,-3.7424758E-4,2.3448132E-3,-3.3551902E-3,-1.4080945E-3],"categories":[],"categories_nodes":[],"categories_segments":[],"categories_sizes":[],"default_left":[0,0,0,0,0,0,0,0,0,0,0,0,0,0,0],"id":69,"left_children":[1,3,5,7,9,11,13,-1,-1,-1,-1,-1,-1,-1,-1],"loss_changes":[1.5979852E2,8.143938E1,3.981194E1,5.1289513E1,9.515579E0,1.1551411E1,1.282653E1,0E0,0E0,0E0,0E0,0E0,0E0,0E0,0E0],"parents":[2147483647,0,0,1,1,2,2,3,3,4,4,5,5,6,6],"right_children":[2,4,6,8,10,12,14,-1,-1,-1,-1,-1,-1,-1,-1],"split_conditions":[2E1,1.9E1,4.23E-1,2.8E0,-2.3E0,-4.3E0,-6E0,3.3471886E-5,2.551175E-3,4.5325425E-3,2.6724774E-3,-3.7424758E-4,2.3448132E-3,-3.3551902E-3,-1.4080945E-3],"split_indices":[28,80,55,25,77,25,25,0,0,0,0,0,0,0,0],"split_type":[0,0,0,0,0,0,0,0,0,0,0,0,0,0,0],"sum_hessian":[6.7401885E3,4.7044194E3,2.0357693E3,3.251425E3,1.4529944E3,6.3403436E2,1.4017349E3,1.739721E3,1.511704E3,1.0760479E3,3.7694653E2,3.582899E2,2.757445E2,5.7479675E2,8.269382E2],"tree_param":{"num_deleted":"0","num_feature":"106","num_nodes":"15","size_leaf_vector":"1"}},{"base_weights":[-1.0616856E-1,-2.6242223E-1,4.308675E-2,-1.3287412E-1,-3.8073078E-1,-9.203148E-2,1.9851276E-1,-2.0376635E-3,-2.7890079E-5,-3.0823324E-3,-5.0543444E-3,1.0060441E-3,-1.9840442E-3,1.1321392E-3,2.9661786E-3],"categories":[],"categories_nodes":[],"categories_segments":[],"categories_sizes":[],"default_left":[0,0,0,0,0,0,0,0,0,0,0,0,0,0,0],"id":70,"left_children":[1,3,5,7,9,11,13,-1,-1,-1,-1,-1,-1,-1,-1],"loss_changes":[1.571572E2,5.040561E1,7.2411026E1,1.4504955E1,1.53954315E1,3.7820522E1,1.3384159E1,0E0,0E0,0E0,0E0,0E0,0E0,0E0,0E0],"parents":[2147483647,0,0,1,1,2,2,3,3,4,4,5,5,6,6],"right_children":[2,4,6,8,10,12,14,-1,-1,-1,-1,-1,-1,-1,-1],"split_conditions":[1.5E1,1.2E1,5.23E-1,1.2E1,2.3E1,-4.7E0,2.2E1,-2.0376635E-3,-2.7890079E-5,-3.0823324E-3,-5.0543444E-3,1.0060441E-3,-1.9840442E-3,1.1321392E-3,2.9661786E-3],"split_indices":[51,80,55,60,80,25,28,0,0,0,0,0,0,0,0],"split_type":[0,0,0,0,0,0,0,0,0,0,0,0,0,0,0],"sum_hessian":[6.7371855E3,3.2910574E3,3.4461284E3,1.571922E3,1.7191353E3,1.8437172E3,1.6024113E3,1.0170796E3,5.5484247E2,1.0893212E3,6.298141E2,6.559251E2,1.187792E3,8.583025E2,7.441088E2],"tree_param":{"num_deleted":"0","num_feature":"106","num_nodes":"15","size_leaf_vector":"1"}},{"base_weights":[1.0616857E-1,2.6242223E-1,-4.3086756E-2,1.328741E-1,3.807308E-1,9.203146E-2,-1.9851275E-1,2.0376635E-3,2.7890002E-5,3.0823324E-3,5.054345E-3,-1.0060441E-3,1.9840442E-3,-1.1321391E-3,-2.9661786E-3],"categories":[],"categories_nodes":[],"categories_segments":[],"categories_sizes":[],"default_left":[0,0,0,0,0,0,0,0,0,0,0,0,0,0,0],"id":71,"left_children":[1,3,5,7,9,11,13,-1,-1,-1,-1,-1,-1,-1,-1],"loss_changes":[1.5715723E2,5.0405655E1,7.241101E1,1.4504955E1,1.5395447E1,3.782051E1,1.3384167E1,0E0,0E0,0E0,0E0,0E0,0E0,0E0,0E0],"parents":[2147483647,0,0,1,1,2,2,3,3,4,4,5,5,6,6],"right_children":[2,4,6,8,10,12,14,-1,-1,-1,-1,-1,-1,-1,-1],"split_conditions":[1.5E1,1.2E1,5.23E-1,1.2E1,2.3E1,-4.7E0,2.2E1,2.0376635E-3,2.7890002E-5,3.0823324E-3,5.054345E-3,-1.0060441E-3,1.9840442E-3,-1.1321391E-3,-2.9661786E-3],"split_indices":[51,80,55,60,80,25,28,0,0,0,0,0,0,0,0],"split_type":[0,0,0,0,0,0,0,0,0,0,0,0,0,0,0],"sum_hessian":[6.7371855E3,3.2910574E3,3.4461284E3,1.5719221E3,1.7191353E3,1.843717E3,1.6024113E3,1.01707965E3,5.5484247E2,1.0893212E3,6.298141E2,6.559252E2,1.187792E3,8.583025E2,7.441088E2],"tree_param":{"num_deleted":"0","num_feature":"106","num_nodes":"15","size_leaf_vector":"1"}},{"base_weights":[-1.0515639E-1,8.4770314E-2,-2.257448E-1,-1.5406434E-1,1.6182552E-1,-3.181573E-1,-3.7808675E-2,1.9330413E-4,-2.6306966E-3,2.7953442E-3,8.81966E-4,-4.4956487E-3,-2.4760328E-3,7.652474E-4,-1.5168801E-3],"categories":[],"categories_nodes":[],"categories_segments":[],"categories_sizes":[],"default_left":[0,0,0,0,0,0,0,0,0,0,0,0,0,0,0],"id":72,"left_children":[1,3,5,7,9,11,13,-1,-1,-1,-1,-1,-1,-1,-1],"loss_changes":[1.542733E2,4.817402E1,7.153946E1,1.2077308E1,1.7123425E1,2.5492798E1,1.7708239E1,0E0,0E0,0E0,0E0,0E0,0E0,0E0,0E0],"parents":[2147483647,0,0,1,1,2,2,3,3,4,4,5,5,6,6],"right_children":[2,4,6,8,10,12,14,-1,-1,-1,-1,-1,-1,-1,-1],"split_conditions":[4.68E-1,-3.2E0,2.9E0,3.21E-1,-5.6E0,7E0,3.2E0,1.9330413E-4,-2.6306966E-3,2.7953442E-3,8.81966E-4,-4.4956487E-3,-2.4760328E-3,7.652474E-4,-1.5168801E-3],"split_indices":[3,77,77,3,25,51,25,0,0,0,0,0,0,0,0],"split_type":[0,0,0,0,0,0,0,0,0,0,0,0,0,0,0],"sum_hessian":[6.7341196E3,2.6153076E3,4.118812E3,6.377097E2,1.9775979E3,2.760646E3,1.3581659E3,2.4647098E2,3.9123874E2,7.5992535E2,1.2176725E3,9.625378E2,1.7981083E3,6.7789545E2,6.8027045E2],"tree_param":{"num_deleted":"0","num_feature":"106","num_nodes":"15","size_leaf_vector":"1"}},{"base_weights":[1.05156384E-1,-8.477033E-2,2.2574478E-1,1.5406433E-1,-1.6182552E-1,3.181573E-1,3.780864E-2,-1.9330435E-4,2.6306962E-3,-2.7953442E-3,-8.819661E-4,4.4956487E-3,2.4760328E-3,-7.6524756E-4,1.5168797E-3],"categories":[],"categories_nodes":[],"categories_segments":[],"categories_sizes":[],"default_left":[0,0,0,0,0,0,0,0,0,0,0,0,0,0,0],"id":73,"left_children":[1,3,5,7,9,11,13,-1,-1,-1,-1,-1,-1,-1,-1],"loss_changes":[1.542733E2,4.8174023E1,7.1539474E1,1.2077307E1,1.7123417E1,2.5492798E1,1.7708235E1,0E0,0E0,0E0,0E0,0E0,0E0,0E0,0E0],"parents":[2147483647,0,0,1,1,2,2,3,3,4,4,5,5,6,6],"right_children":[2,4,6,8,10,12,14,-1,-1,-1,-1,-1,-1,-1,-1],"split_conditions":[4.68E-1,-3.2E0,2.9E0,3.21E-1,-5.6E0,7E0,3.2E0,-1.9330435E-4,2.6306962E-3,-2.7953442E-3,-8.819661E-4,4.4956487E-3,2.4760328E-3,-7.6524756E-4,1.5168797E-3],"split_indices":[3,77,77,3,25,51,25,0,0,0,0,0,0,0,0],"split_type":[0,0,0,0,0,0,0,0,0,0,0,0,0,0,0],"sum_hessian":[6.7341196E3,2.6153076E3,4.118812E3,6.377098E2,1.9775979E3,2.760646E3,1.3581659E3,2.46471E2,3.9123877E2,7.5992535E2,1.2176725E3,9.625378E2,1.7981083E3,6.778955E2,6.8027045E2],"tree_param":{"num_deleted":"0","num_feature":"106","num_nodes":"15","size_leaf_vector":"1"}},{"base_weights":[-1.041522E-1,-2.577485E-1,4.244901E-2,-1.3013537E-1,-3.7448853E-1,-1.5140893E-1,1.479225E-1,-2.0029526E-3,-1.4330402E-5,-3.0243443E-3,-4.9863453E-3,4.8299722E-4,-2.6007947E-3,6.221776E-4,2.5988542E-3],"categories":[],"categories_nodes":[],"categories_segments":[],"categories_sizes":[],"default_left":[0,0,0,0,0,0,0,0,0,0,0,0,0,0,0],"id":74,"left_children":[1,3,5,7,9,11,13,-1,-1,-1,-1,-1,-1,-1,-1],"loss_changes":[1.5160156E2,4.8931213E1,7.046945E1,1.4196951E1,1.5203751E1,2.6370558E1,2.1400146E1,0E0,0E0,0E0,0E0,0E0,0E0,0E0,0E0],"parents":[2147483647,0,0,1,1,2,2,3,3,4,4,5,5,6,6],"right_children":[2,4,6,8,10,12,14,-1,-1,-1,-1,-1,-1,-1,-1],"split_conditions":[1.5E1,1.2E1,-1.4E0,1.2E1,2.3E1,-4.8E0,2.4E1,-2.0029526E-3,-1.4330402E-5,-3.0243443E-3,-4.9863453E-3,4.8299722E-4,-2.6007947E-3,6.221776E-4,2.5988542E-3],"split_indices":[51,80,77,60,80,25,51,0,0,0,0,0,0,0,0],"split_type":[0,0,0,0,0,0,0,0,0,0,0,0,0,0,0],"sum_hessian":[6.731153E3,3.2867827E3,3.44437E3,1.5712747E3,1.7155079E3,1.2135172E3,2.230853E3,1.01655865E3,5.5471606E2,1.0876654E3,6.278425E2,4.2783026E2,7.8568695E2,1.264481E3,9.66372E2],"tree_param":{"num_deleted":"0","num_feature":"106","num_nodes":"15","size_leaf_vector":"1"}},{"base_weights":[1.0415221E-1,2.577485E-1,-4.2448997E-2,1.3013537E-1,3.7448853E-1,1.5140894E-1,-1.479225E-1,2.0029529E-3,1.4330314E-5,3.0243446E-3,4.9863453E-3,-4.8299745E-4,2.600795E-3,-6.221773E-4,-2.5988542E-3],"categories":[],"categories_nodes":[],"categories_segments":[],"categories_sizes":[],"default_left":[0,0,0,0,0,0,0,0,0,0,0,0,0,0,0],"id":75,"left_children":[1,3,5,7,9,11,13,-1,-1,-1,-1,-1,-1,-1,-1],"loss_changes":[1.5160153E2,4.8931213E1,7.0469444E1,1.4196951E1,1.5203766E1,2.6370567E1,2.1400154E1,0E0,0E0,0E0,0E0,0E0,0E0,0E0,0E0],"parents":[2147483647,0,0,1,1,2,2,3,3,4,4,5,5,6,6],"right_children":[2,4,6,8,10,12,14,-1,-1,-1,-1,-1,-1,-1,-1],"split_conditions":[1.5E1,1.2E1,-1.4E0,1.2E1,2.3E1,-4.8E0,2.4E1,2.0029529E-3,1.4330314E-5,3.0243446E-3,4.9863453E-3,-4.8299745E-4,2.600795E-3,-6.221773E-4,-2.5988542E-3],"split_indices":[51,80,77,60,80,25,51,0,0,0,0,0,0,0,0],"split_type":[0,0,0,0,0,0,0,0,0,0,0,0,0,0,0],"sum_hessian":[6.731153E3,3.2867827E3,3.44437E3,1.5712747E3,1.715508E3,1.2135172E3,2.230853E3,1.01655865E3,5.5471606E2,1.0876654E3,6.278425E2,4.2783026E2,7.8568695E2,1.264481E3,9.66372E2],"tree_param":{"num_deleted":"0","num_feature":"106","num_nodes":"15","size_leaf_vector":"1"}},{"base_weights":[-1.0316255E-1,-2.0108297E-1,1.2290579E-1,-1.1552513E-1,-3.929887E-1,-6.2782383E-3,2.661452E-1,-1.668459E-5,-2.4663336E-3,-4.404237E-3,-2.5708647E-3,1.0780139E-3,-1.321072E-3,1.892008E-3,3.8773906E-3],"categories":[],"categories_nodes":[],"categories_segments":[],"categories_sizes":[],"default_left":[0,0,0,0,0,0,0,0,0,0,0,0,0,0,0],"id":76,"left_children":[1,3,5,7,9,11,13,-1,-1,-1,-1,-1,-1,-1,-1],"loss_changes":[1.4898035E2,7.705142E1,3.764527E1,4.8500362E1,9.218109E0,1.53824415E1,8.952377E0,0E0,0E0,0E0,0E0,0E0,0E0,0E0,0E0],"parents":[2147483647,0,0,1,1,2,2,3,3,4,4,5,5,6,6],"right_children":[2,4,6,8,10,12,14,-1,-1,-1,-1,-1,-1,-1,-1],"split_conditions":[2E1,1.9E1,4E-1,2.8E0,-2.3E0,-4.8E0,3.5E1,-1.668459E-5,-2.4663336E-3,-4.404237E-3,-2.5708647E-3,1.0780139E-3,-1.321072E-3,1.892008E-3,3.8773906E-3],"split_indices":[28,80,77,25,77,25,2,0,0,0,0,0,0,0,0],"split_type":[0,0,0,0,0,0,0,0,0,0,0,0,0,0,0],"sum_hessian":[6.7278975E3,4.694575E3,2.0333224E3,3.248078E3,1.4464972E3,1.0696174E3,9.637049E2,1.7389535E3,1.5091245E3,1.0705828E3,3.7591437E2,5.610757E2,5.0854175E2,5.9178217E2,3.7192276E2],"tree_param":{"num_deleted":"0","num_feature":"106","num_nodes":"15","size_leaf_vector":"1"}},{"base_weights":[1.0316254E-1,2.0108296E-1,-1.22905776E-1,1.1552512E-1,3.929887E-1,6.2782536E-3,-2.661452E-1,1.6684497E-5,2.4663336E-3,4.404237E-3,2.5708647E-3,-1.0780138E-3,1.3210721E-3,-1.8920081E-3,-3.8773902E-3],"categories":[],"categories_nodes":[],"categories_segments":[],"categories_sizes":[],"default_left":[0,0,0,0,0,0,0,0,0,0,0,0,0,0,0],"id":77,"left_children":[1,3,5,7,9,11,13,-1,-1,-1,-1,-1,-1,-1,-1],"loss_changes":[1.4898033E2,7.705144E1,3.7645275E1,4.8500362E1,9.218094E0,1.5382443E1,8.952377E0,0E0,0E0,0E0,0E0,0E0,0E0,0E0,0E0],"parents":[2147483647,0,0,1,1,2,2,3,3,4,4,5,5,6,6],"right_children":[2,4,6,8,10,12,14,-1,-1,