{"learner":{"attributes":{},"feature_names":[],"feature_types":[],"gradient_booster":{"model":{"gbtree_model_param":{"num_parallel_tree":"1","num_trees":"1500"},"iteration_indptr":[0,2,4,6,8,10,12,14,16,18,20,22,24,26,28,30,32,34,36,38,40,42,44,46,48,50,52,54,56,58,60,62,64,66,68,70,72,74,76,78,80,82,84,86,88,90,92,94,96,98,100,102,104,106,108,110,112,114,116,118,120,122,124,126,128,130,132,134,136,138,140,142,144,146,148,150,152,154,156,158,160,162,164,166,168,170,172,174,176,178,180,182,184,186,188,190,192,194,196,198,200,202,204,206,208,210,212,214,216,218,220,222,224,226,228,230,232,234,236,238,240,242,244,246,248,250,252,254,256,258,260,262,264,266,268,270,272,274,276,278,280,282,284,286,288,290,292,294,296,298,300,302,304,306,308,310,312,314,316,318,320,322,324,326,328,330,332,334,336,338,340,342,344,346,348,350,352,354,356,358,360,362,364,366,368,370,372,374,376,378,380,382,384,386,388,390,392,394,396,398,400,402,404,406,408,410,412,414,416,418,420,422,424,426,428,430,432,434,436,438,440,442,444,446,448,450,452,454,456,458,460,462,464,466,468,470,472,474,476,478,480,482,484,486,488,490,492,494,496,498,500,502,504,506,508,510,512,514,516,518,520,522,524,526,528,530,532,534,536,538,540,542,544,546,548,550,552,554,556,558,560,562,564,566,568,570,572,574,576,578,580,582,584,586,588,590,592,594,596,598,600,602,604,606,608,610,612,614,616,618,620,622,624,626,628,630,632,634,636,638,640,642,644,646,648,650,652,654,656,658,660,662,664,666,668,670,672,674,676,678,680,682,684,686,688,690,692,694,696,698,700,702,704,706,708,710,712,714,716,718,720,722,724,726,728,730,732,734,736,738,740,742,744,746,748,750,752,754,756,758,760,762,764,766,768,770,772,774,776,778,780,782,784,786,788,790,792,794,796,798,800,802,804,806,808,810,812,814,816,818,820,822,824,826,828,830,832,834,836,838,840,842,844,846,848,850,852,854,856,858,860,862,864,866,868,870,872,874,876,878,880,882,884,886,888,890,892,894,896,898,900,902,904,906,908,910,912,914,916,918,920,922,924,926,928,930,932,934,936,938,940,942,944,946,948,950,952,954,956,958,960,962,964,966,968,970,972,974,976,978,980,982,984,986,988,990,992,994,996,998,1000,1002,1004,1006,1008,1010,1012,1014,1016,1018,1020,1022,1024,1026,1028,1030,1032,1034,1036,1038,1040,1042,1044,1046,1048,1050,1052,1054,1056,1058,1060,1062,1064,1066,1068,1070,1072,1074,1076,1078,1080,1082,1084,1086,1088,1090,1092,1094,1096,1098,1100,1102,1104,1106,1108,1110,1112,1114,1116,1118,1120,1122,1124,1126,1128,1130,1132,1134,1136,1138,1140,1142,1144,1146,1148,1150,1152,1154,1156,1158,1160,1162,1164,1166,1168,1170,1172,1174,1176,1178,1180,1182,1184,1186,1188,1190,1192,1194,1196,1198,1200,1202,1204,1206,1208,1210,1212,1214,1216,1218,1220,1222,1224,1226,1228,1230,1232,1234,1236,1238,1240,1242,1244,1246,1248,1250,1252,1254,1256,1258,1260,1262,1264,1266,1268,1270,1272,1274,1276,1278,1280,1282,1284,1286,1288,1290,1292,1294,1296,1298,1300,1302,1304,1306,1308,1310,1312,1314,1316,1318,1320,1322,1324,1326,1328,1330,1332,1334,1336,1338,1340,1342,1344,1346,1348,1350,1352,1354,1356,1358,1360,1362,1364,1366,1368,1370,1372,1374,1376,1378,1380,1382,1384,1386,1388,1390,1392,1394,1396,1398,1400,1402,1404,1406,1408,1410,1412,1414,1416,1418,1420,1422,1424,1426,1428,1430,1432,1434,1436,1438,1440,1442,1444,1446,1448,1450,1452,1454,1456,1458,1460,1462,1464,1466,1468,1470,1472,1474,1476,1478,1480,1482,1484,1486,1488,1490,1492,1494,1496,1498,1500],"tree_info":[0,1,0,1,0,1,0,1,0,1,0,1,0,1,0,1,0,1,0,1,0,1,0,1,0,1,0,1,0,1,0,1,0,1,0,1,0,1,0,1,0,1,0,1,0,1,0,1,0,1,0,1,0,1,0,1,0,1,0,1,0,1,0,1,0,1,0,1,0,1,0,1,0,1,0,1,0,1,0,1,0,1,0,1,0,1,0,1,0,1,0,1,0,1,0,1,0,1,0,1,0,1,0,1,0,1,0,1,0,1,0,1,0,1,0,1,0,1,0,1,0,1,0,1,0,1,0,1,0,1,0,1,0,1,0,1,0,1,0,1,0,1,0,1,0,1,0,1,0,1,0,1,0,1,0,1,0,1,0,1,0,1,0,1,0,1,0,1,0,1,0,1,0,1,0,1,0,1,0,1,0,1,0,1,0,1,0,1,0,1,0,1,0,1,0,1,0,1,0,1,0,1,0,1,0,1,0,1,0,1,0,1,0,1,0,1,0,1,0,1,0,1,0,1,0,1,0,1,0,1,0,1,0,1,0,1,0,1,0,1,0,1,0,1,0,1,0,1,0,1,0,1,0,1,0,1,0,1,0,1,0,1,0,1,0,1,0,1,0,1,0,1,0,1,0,1,0,1,0,1,0,1,0,1,0,1,0,1,0,1,0,1,0,1,0,1,0,1,0,1,0,1,0,1,0,1,0,1,0,1,0,1,0,1,0,1,0,1,0,1,0,1,0,1,0,1,0,1,0,1,0,1,0,1,0,1,0,1,0,1,0,1,0,1,0,1,0,1,0,1,0,1,0,1,0,1,0,1,0,1,0,1,0,1,0,1,0,1,0,1,0,1,0,1,0,1,0,1,0,1,0,1,0,1,0,1,0,1,0,1,0,1,0,1,0,1,0,1,0,1,0,1,0,1,0,1,0,1,0,1,0,1,0,1,0,1,0,1,0,1,0,1,0,1,0,1,0,1,0,1,0,1,0,1,0,1,0,1,0,1,0,1,0,1,0,1,0,1,0,1,0,1,0,1,0,1,0,1,0,1,0,1,0,1,0,1,0,1,0,1,0,1,0,1,0,1,0,1,0,1,0,1,0,1,0,1,0,1,0,1,0,1,0,1,0,1,0,1,0,1,0,1,0,1,0,1,0,1,0,1,0,1,0,1,0,1,0,1,0,1,0,1,0,1,0,1,0,1,0,1,0,1,0,1,0,1,0,1,0,1,0,1,0,1,0,1,0,1,0,1,0,1,0,1,0,1,0,1,0,1,0,1,0,1,0,1,0,1,0,1,0,1,0,1,0,1,0,1,0,1,0,1,0,1,0,1,0,1,0,1,0,1,0,1,0,1,0,1,0,1,0,1,0,1,0,1,0,1,0,1,0,1,0,1,0,1,0,1,0,1,0,1,0,1,0,1,0,1,0,1,0,1,0,1,0,1,0,1,0,1,0,1,0,1,0,1,0,1,0,1,0,1,0,1,0,1,0,1,0,1,0,1,0,1,0,1,0,1,0,1,0,1,0,1,0,1,0,1,0,1,0,1,0,1,0,1,0,1,0,1,0,1,0,1,0,1,0,1,0,1,0,1,0,1,0,1,0,1,0,1,0,1,0,1,0,1,0,1,0,1,0,1,0,1,0,1,0,1,0,1,0,1,0,1,0,1,0,1,0,1,0,1,0,1,0,1,0,1,0,1,0,1,0,1,0,1,0,1,0,1,0,1,0,1,0,1,0,1,0,1,0,1,0,1,0,1,0,1,0,1,0,1,0,1,0,1,0,1,0,1,0,1,0,1,0,1,0,1,0,1,0,1,0,1,0,1,0,1,0,1,0,1,0,1,0,1,0,1,0,1,0,1,0,1,0,1,0,1,0,1,0,1,0,1,0,1,0,1,0,1,0,1,0,1,0,1,0,1,0,1,0,1,0,1,0,1,0,1,0,1,0,1,0,1,0,1,0,1,0,1,0,1,0,1,0,1,0,1,0,1,0,1,0,1,0,1,0,1,0,1,0,1,0,1,0,1,0,1,0,1,0,1,0,1,0,1,0,1,0,1,0,1,0,1,0,1,0,1,0,1,0,1,0,1,0,1,0,1,0,1,0,1,0,1,0,1,0,1,0,1,0,1,0,1,0,1,0,1,0,1,0,1,0,1,0,1,0,1,0,1,0,1,0,1,0,1,0,1,0,1,0,1,0,1,0,1,0,1,0,1,0,1,0,1,0,1,0,1,0,1,0,1,0,1,0,1,0,1,0,1,0,1,0,1,0,1,0,1,0,1,0,1,0,1,0,1,0,1,0,1,0,1,0,1,0,1,0,1,0,1,0,1,0,1,0,1,0,1,0,1,0,1,0,1,0,1,0,1,0,1,0,1,0,1,0,1,0,1,0,1,0,1,0,1,0,1,0,1,0,1,0,1,0,1,0,1,0,1,0,1,0,1,0,1,0,1,0,1,0,1,0,1,0,1,0,1,0,1,0,1,0,1,0,1,0,1,0,1,0,1,0,1,0,1,0,1,0,1,0,1,0,1,0,1,0,1,0,1,0,1,0,1,0,1,0,1,0,1,0,1,0,1,0,1,0,1,0,1,0,1,0,1,0,1,0,1,0,1,0,1,0,1,0,1,0,1,0,1,0,1,0,1,0,1,0,1,0,1,0,1,0,1,0,1,0,1,0,1,0,1,0,1,0,1,0,1,0,1,0,1,0,1,0,1,0,1,0,1,0,1,0,1,0,1,0,1,0,1,0,1,0,1,0,1,0,1,0,1,0,1,0,1,0,1,0,1,0,1,0,1,0,1,0,1,0,1,0,1,0,1,0,1,0,1,0,1,0,1,0,1,0,1,0,1,0,1,0,1,0,1,0,1,0,1,0,1,0,1,0,1,0,1,0,1,0,1,0,1,0,1,0,1,0,1,0,1,0,1,0,1,0,1,0,1,0,1,0,1,0,1,0,1,0,1,0,1,0,1,0,1,0,1,0,1,0,1,0,1,0,1,0,1,0,1,0,1,0,1,0,1,0,1,0,1,0,1,0,1,0,1,0,1,0,1,0,1,0,1,0,1,0,1,0,1,0,1,0,1,0,1,0,1,0,1,0,1,0,1,0,1,0,1,0,1,0,1,0,1,0,1,0,1,0,1,0,1,0,1,0,1,0,1,0,1,0,1,0,1,0,1,0,1,0,1,0,1,0,1,0,1,0,1,0,1,0,1,0,1,0,1,0,1,0,1,0,1,0,1,0,1,0,1,0,1,0,1,0,1,0,1,0,1,0,1,0,1,0,1,0,1,0,1,0,1,0,1,0,1,0,1,0,1,0,1,0,1,0,1,0,1,0,1,0,1,0,1,0,1,0,1,0,1,0,1,0,1,0,1,0,1],"trees":[{"base_weights":[-1.4678428E-1,1.2252181E-1,-3.0538362E-1,-1.492817E-1,2.4876633E-1,-1.4637363E-1,-4.8542964E-1,5.898876E-4,-3.1537598E-3,9.735744E-4,3.5689399E-3,-3.1820636E-3,-2.850796E-4,-5.777027E-3,-3.5233472E-3],"categories":[],"categories_nodes":[],"categories_segments":[],"categories_sizes":[],"default_left":[0,0,0,0,0,0,0,0,0,0,0,0,0,0,0],"id":0,"left_children":[1,3,5,7,9,11,13,-1,-1,-1,-1,-1,-1,-1,-1],"loss_changes":[2.9058423E2,8.65763E1,1.22504486E2,2.7709929E1,2.816513E1,4.6066917E1,2.4450714E1,0E0,0E0,0E0,0E0,0E0,0E0,0E0,0E0],"parents":[2147483647,0,0,1,1,2,2,3,3,4,4,5,5,6,6],"right_children":[2,4,6,8,10,12,14,-1,-1,-1,-1,-1,-1,-1,-1],"split_conditions":[4.62E-1,-2E0,1.4E1,-4.9E0,2.4E1,8E0,-1.9E0,5.898876E-4,-3.1537598E-3,9.735744E-4,3.5689399E-3,-3.1820636E-3,-2.850796E-4,-5.777027E-3,-3.5233472E-3],"split_indices":[3,77,80,25,51,51,77,0,0,0,0,0,0,0,0],"split_type":[0,0,0,0,0,0,0,0,0,0,0,0,0,0,0],"sum_hessian":[6.8015E3,2.521E3,4.2805E3,7.995E2,1.7215E3,2.274E3,2.0065E3,3.55E2,4.445E2,7.18E2,1.0035E3,9.245E2,1.3495E3,1.183E3,8.235E2],"tree_param":{"num_deleted":"0","num_feature":"106","num_nodes":"15","size_leaf_vector":"1"}},{"base_weights":[1.4678428E-1,-1.2252181E-1,3.0538362E-1,1.492817E-1,-2.4876633E-1,1.4637363E-1,4.8542964E-1,-5.898876E-4,3.1537598E-3,-9.735744E-4,-3.5689399E-3,3.1820636E-3,2.850796E-4,5.777027E-3,3.5233472E-3],"categories":[],"categories_nodes":[],"categories_segments":[],"categories_sizes":[],"default_left":[0,0,0,0,0,0,0,0,0,0,0,0,0,0,0],"id":1,"left_children":[1,3,5,7,9,11,13,-1,-1,-1,-1,-1,-1,-1,-1],"loss_changes":[2.9058423E2,8.65763E1,1.22504486E2,2.7709929E1,2.816513E1,4.6066917E1,2.4450714E1,0E0,0E0,0E0,0E0,0E0,0E0,0E0,0E0],"parents":[2147483647,0,0,1,1,2,2,3,3,4,4,5,5,6,6],"right_children":[2,4,6,8,10,12,14,-1,-1,-1,-1,-1,-1,-1,-1],"split_conditions":[4.62E-1,-2E0,1.4E1,-4.9E0,2.4E1,8E0,-1.9E0,-5.898876E-4,3.1537598E-3,-9.735744E-4,-3.5689399E-3,3.1820636E-3,2.850796E-4,5.777027E-3,3.5233472E-3],"split_indices":[3,77,80,25,51,51,77,0,0,0,0,0,0,0,0],"split_type":[0,0,0,0,0,0,0,0,0,0,0,0,0,0,0],"sum_hessian":[6.8015E3,2.521E3,4.2805E3,7.995E2,1.7215E3,2.274E3,2.0065E3,3.55E2,4.445E2,7.18E2,1.0035E3,9.245E2,1.3495E3,1.183E3,8.235E2],"tree_param":{"num_deleted":"0","num_feature":"106","num_nodes":"15","size_leaf_vector":"1"}},{"base_weights":[-1.4531967E-1,-2.7943984E-1,1.6716094E-1,-1.7290802E-1,-5.510699E-1,-1.07902564E-1,2.939565E-1,-3.6515763E-3,-6.223262E-4,-4.874878E-3,-6.9243205E-3,9.321758E-4,-2.636967E-3,4.603393E-3,1.9348643E-3],"categories":[],"categories_nodes":[],"categories_segments":[],"categories_sizes":[],"default_left":[0,0,0,0,0,0,0,0,0,0,0,0,0,0,0],"id":2,"left_children":[1,3,5,7,9,11,13,-1,-1,-1,-1,-1,-1,-1,-1],"loss_changes":[2.851359E2,1.3764426E2,7.130194E1,7.275577E1,1.1710663E1,2.0250137E1,2.3297089E1,0E0,0E0,0E0,0E0,0E0,0E0,0E0,0E0],"parents":[2147483647,0,0,1,1,2,2,3,3,4,4,5,5,6,6],"right_children":[2,4,6,8,10,12,14,-1,-1,-1,-1,-1,-1,-1,-1],"split_conditions":[2E1,2E1,-2E0,8E0,3.7E1,-5.7E0,-6.4E0,-3.6515763E-3,-6.223262E-4,-4.874878E-3,-6.9243205E-3,9.321758E-4,-2.636967E-3,4.603393E-3,1.9348643E-3],"split_indices":[28,80,77,51,54,25,25,0,0,0,0,0,0,0,0],"split_type":[0,0,0,0,0,0,0,0,0,0,0,0,0,0,0],"sum_hessian":[6.801423E3,4.758939E3,2.0424839E3,3.419476E3,1.3394629E3,6.4449646E2,1.3979874E3,1.2484851E3,2.170991E3,9.26975E2,4.1248795E2,2.814999E2,3.6299655E2,5.2499335E2,8.7299414E2],"tree_param":{"num_deleted":"0","num_feature":"106","num_nodes":"15","size_leaf_vector":"1"}},{"base_weights":[1.4531969E-1,2.7943984E-1,-1.6716091E-1,1.7290798E-1,5.5107003E-1,1.0790263E-1,-2.9395646E-1,3.6515766E-3,6.223256E-4,4.874879E-3,6.924321E-3,-9.3217555E-4,2.636968E-3,-4.603393E-3,-1.9348642E-3],"categories":[],"categories_nodes":[],"categories_segments":[],"categories_sizes":[],"default_left":[0,0,0,0,0,0,0,0,0,0,0,0,0,0,0],"id":3,"left_children":[1,3,5,7,9,11,13,-1,-1,-1,-1,-1,-1,-1,-1],"loss_changes":[2.8513586E2,1.3764432E2,7.1301956E1,7.275581E1,1.1710663E1,2.0250145E1,2.3297096E1,0E0,0E0,0E0,0E0,0E0,0E0,0E0,0E0],"parents":[2147483647,0,0,1,1,2,2,3,3,4,4,5,5,6,6],"right_children":[2,4,6,8,10,12,14,-1,-1,-1,-1,-1,-1,-1,-1],"split_conditions":[2E1,2E1,-2E0,8E0,3.7E1,-5.7E0,-6.4E0,3.6515766E-3,6.223256E-4,4.874879E-3,6.924321E-3,-9.3217555E-4,2.636968E-3,-4.603393E-3,-1.9348642E-3],"split_indices":[28,80,77,51,54,25,25,0,0,0,0,0,0,0,0],"split_type":[0,0,0,0,0,0,0,0,0,0,0,0,0,0,0],"sum_hessian":[6.801423E3,4.758939E3,2.0424838E3,3.419476E3,1.3394629E3,6.444964E2,1.3979874E3,1.2484851E3,2.170991E3,9.26975E2,4.1248795E2,2.8149988E2,3.6299652E2,5.249933E2,8.729941E2],"tree_param":{"num_deleted":"0","num_feature":"106","num_nodes":"15","size_leaf_vector":"1"}},{"base_weights":[-1.4387274E-1,1.2032188E-1,-2.994655E-1,-1.4617287E-1,2.4410129E-1,-1.430786E-1,-4.7655398E-1,5.819072E-4,-3.0915833E-3,4.2066113E-3,1.5457097E-3,-2.7521246E-3,5.0615537E-5,-5.6699E-3,-3.461177E-3],"categories":[],"categories_nodes":[],"categories_segments":[],"categories_sizes":[],"default_left":[0,0,0,0,0,0,0,0,0,0,0,0,0,0,0],"id":4,"left_children":[1,3,5,7,9,11,13,-1,-1,-1,-1,-1,-1,-1,-1],"loss_changes":[2.7965283E2,8.3225426E1,1.1849893E2,2.6680632E1,2.7162498E1,4.4532135E1,2.3482422E1,0E0,0E0,0E0,0E0,0E0,0E0,0E0,0E0],"parents":[2147483647,0,0,1,1,2,2,3,3,4,4,5,5,6,6],"right_children":[2,4,6,8,10,12,14,-1,-1,-1,-1,-1,-1,-1,-1],"split_conditions":[4.62E-1,-2E0,1.4E1,-4.9E0,-6.3E0,1E1,-1.9E0,5.819072E-4,-3.0915833E-3,4.2066113E-3,1.5457097E-3,-2.7521246E-3,5.0615537E-5,-5.6699E-3,-3.461177E-3],"split_indices":[3,77,80,25,25,51,77,0,0,0,0,0,0,0,0],"split_type":[0,0,0,0,0,0,0,0,0,0,0,0,0,0,0],"sum_hessian":[6.8012075E3,2.5209285E3,4.2802793E3,7.9948065E2,1.7214479E3,2.2739558E3,2.0063235E3,3.5499893E2,4.4448175E2,5.779644E2,1.1434834E3,1.2014567E3,1.072499E3,1.182859E3,8.234645E2],"tree_param":{"num_deleted":"0","num_feature":"106","num_nodes":"15","size_leaf_vector":"1"}},{"base_weights":[1.4387272E-1,-1.2032189E-1,2.9946548E-1,1.4617285E-1,-2.441013E-1,1.430786E-1,4.7655392E-1,-5.819072E-4,3.0915833E-3,-4.2066113E-3,-1.5457099E-3,2.7521243E-3,-5.0615523E-5,5.6699E-3,3.461176E-3],"categories":[],"categories_nodes":[],"categories_segments":[],"categories_sizes":[],"default_left":[0,0,0,0,0,0,0,0,0,0,0,0,0,0,0],"id":5,"left_children":[1,3,5,7,9,11,13,-1,-1,-1,-1,-1,-1,-1,-1],"loss_changes":[2.7965277E2,8.322543E1,1.1849893E2,2.6680634E1,2.7162498E1,4.453212E1,2.3482422E1,0E0,0E0,0E0,0E0,0E0,0E0,0E0,0E0],"parents":[2147483647,0,0,1,1,2,2,3,3,4,4,5,5,6,6],"right_children":[2,4,6,8,10,12,14,-1,-1,-1,-1,-1,-1,-1,-1],"split_conditions":[4.62E-1,-2E0,1.4E1,-4.9E0,-6.3E0,1E1,-1.9E0,-5.819072E-4,3.0915833E-3,-4.2066113E-3,-1.5457099E-3,2.7521243E-3,-5.0615523E-5,5.6699E-3,3.461176E-3],"split_indices":[3,77,80,25,25,51,77,0,0,0,0,0,0,0,0],"split_type":[0,0,0,0,0,0,0,0,0,0,0,0,0,0,0],"sum_hessian":[6.8012075E3,2.5209285E3,4.2802793E3,7.9948065E2,1.7214478E3,2.2739558E3,2.0063235E3,3.5499893E2,4.4448172E2,5.779644E2,1.1434834E3,1.2014567E3,1.072499E3,1.182859E3,8.234645E2],"tree_param":{"num_deleted":"0","num_feature":"106","num_nodes":"15","size_leaf_vector":"1"}},{"base_weights":[-1.4244281E-1,-2.7405256E-1,1.6417828E-1,-1.694897E-1,-5.407104E-1,-1.05542324E-1,2.885147E-1,-3.5848531E-3,-6.0696056E-4,-4.778333E-3,-6.8052607E-3,9.1709115E-4,-2.5834956E-3,4.516097E-3,1.9004059E-3],"categories":[],"categories_nodes":[],"categories_segments":[],"categories_sizes":[],"default_left":[0,0,0,0,0,0,0,0,0,0,0,0,0,0,0],"id":6,"left_children":[1,3,5,7,9,11,13,-1,-1,-1,-1,-1,-1,-1,-1],"loss_changes":[2.745291E2,1.326148E2,6.855682E1,7.030535E1,1.1456482E1,1.9479153E1,2.2381226E1,0E0,0E0,0E0,0E0,0E0,0E0,0E0,0E0],"parents":[2147483647,0,0,1,1,2,2,3,3,4,4,5,5,6,6],"right_children":[2,4,6,8,10,12,14,-1,-1,-1,-1,-1,-1,-1,-1],"split_conditions":[2E1,2E1,-2E0,8E0,3.7E1,-5.7E0,-6.4E0,-3.5848531E-3,-6.0696056E-4,-4.778333E-3,-6.8052607E-3,9.1709115E-4,-2.5834956E-3,4.516097E-3,1.9004059E-3],"split_indices":[28,80,77,51,54,25,25,0,0,0,0,0,0,0,0],"split_type":[0,0,0,0,0,0,0,0,0,0,0,0,0,0,0],"sum_hessian":[6.800851E3,4.7584893E3,2.0423615E3,3.4193262E3,1.3391635E3,6.44472E2,1.3978894E3,1.2483702E3,2.1709558E3,9.267905E2,4.123729E2,2.8149875E2,3.629732E2,5.2491974E2,8.729697E2],"tree_param":{"num_deleted":"0","num_feature":"106","num_nodes":"15","size_leaf_vector":"1"}},{"base_weights":[1.4244284E-1,2.7405262E-1,-1.6417831E-1,1.6948976E-1,5.4071045E-1,1.05542324E-1,-2.8851476E-1,3.5848536E-3,6.0696097E-4,4.7783335E-3,6.8052616E-3,-9.1709144E-4,2.5834958E-3,-4.5160977E-3,-1.9004063E-3],"categories":[],"categories_nodes":[],"categories_segments":[],"categories_sizes":[],"default_left":[0,0,0,0,0,0,0,0,0,0,0,0,0,0,0],"id":7,"left_children":[1,3,5,7,9,11,13,-1,-1,-1,-1,-1,-1,-1,-1],"loss_changes":[2.7452924E2,1.3261484E2,6.855684E1,7.030536E1,1.1456482E1,1.947916E1,2.238124E1,0E0,0E0,0E0,0E0,0E0,0E0,0E0,0E0],"parents":[2147483647,0,0,1,1,2,2,3,3,4,4,5,5,6,6],"right_children":[2,4,6,8,10,12,14,-1,-1,-1,-1,-1,-1,-1,-1],"split_conditions":[2E1,2E1,-2E0,8E0,3.7E1,-5.7E0,-6.4E0,3.5848536E-3,6.0696097E-4,4.7783335E-3,6.8052616E-3,-9.1709144E-4,2.5834958E-3,-4.5160977E-3,-1.9004063E-3],"split_indices":[28,80,77,51,54,25,25,0,0,0,0,0,0,0,0],"split_type":[0,0,0,0,0,0,0,0,0,0,0,0,0,0,0],"sum_hessian":[6.800851E3,4.7584893E3,2.0423615E3,3.419326E3,1.3391635E3,6.44472E2,1.3978894E3,1.2483702E3,2.1709558E3,9.2679047E2,4.123729E2,2.8149878E2,3.6297324E2,5.2491974E2,8.7296967E2],"tree_param":{"num_deleted":"0","num_feature":"106","num_nodes":"15","size_leaf_vector":"1"}},{"base_weights":[-1.4103034E-1,1.1816747E-1,-2.9369053E-1,-1.4313525E-1,2.3953739E-1,-1.3985705E-1,-4.6792334E-1,5.7402195E-4,-3.0308769E-3,9.317273E-4,3.4408008E-3,-2.6959442E-3,5.5811906E-5,-5.5660605E-3,-3.4004338E-3],"categories":[],"categories_nodes":[],"categories_segments":[],"categories_sizes":[],"default_left":[0,0,0,0,0,0,0,0,0,0,0,0,0,0,0],"id":8,"left_children":[1,3,5,7,9,11,13,-1,-1,-1,-1,-1,-1,-1,-1],"loss_changes":[2.6915887E2,8.0008835E1,1.1466788E2,2.5692167E1,2.6321396E1,4.2924797E1,2.2569427E1,0E0,0E0,0E0,0E0,0E0,0E0,0E0,0E0],"parents":[2147483647,0,0,1,1,2,2,3,3,4,4,5,5,6,6],"right_children":[2,4,6,8,10,12,14,-1,-1,-1,-1,-1,-1,-1,-1],"split_conditions":[4.62E-1,-2E0,1.4E1,-4.9E0,2.4E1,1E1,-1.9E0,5.7402195E-4,-3.0308769E-3,9.317273E-4,3.4408008E-3,-2.6959442E-3,5.5811906E-5,-5.5660605E-3,-3.4004338E-3],"split_indices":[3,77,80,25,51,51,77,0,0,0,0,0,0,0,0],"split_type":[0,0,0,0,0,0,0,0,0,0,0,0,0,0,0],"sum_hessian":[6.8003584E3,2.5207195E3,4.279639E3,7.994242E2,1.7212953E3,2.273832E3,2.0058069E3,3.549958E2,4.444284E2,7.179804E2,1.0033149E3,1.2013346E3,1.0724976E3,1.1824465E3,8.233604E2],"tree_param":{"num_deleted":"0","num_feature":"106","num_nodes":"15","size_leaf_vector":"1"}},{"base_weights":[1.4103033E-1,-1.18167475E-1,2.936905E-1,1.4313526E-1,-2.395374E-1,1.3985701E-1,4.6792334E-1,-5.740216E-4,3.0308769E-3,-9.317277E-4,-3.4408008E-3,2.6959435E-3,-5.581189E-5,5.5660605E-3,3.4004338E-3],"categories":[],"categories_nodes":[],"categories_segments":[],"categories_sizes":[],"default_left":[0,0,0,0,0,0,0,0,0,0,0,0,0,0,0],"id":9,"left_children":[1,3,5,7,9,11,13,-1,-1,-1,-1,-1,-1,-1,-1],"loss_changes":[2.6915887E2,8.000885E1,1.1466791E2,2.5692162E1,2.632138E1,4.292478E1,2.2569397E1,0E0,0E0,0E0,0E0,0E0,0E0,0E0,0E0],"parents":[2147483647,0,0,1,1,2,2,3,3,4,4,5,5,6,6],"right_children":[2,4,6,8,10,12,14,-1,-1,-1,-1,-1,-1,-1,-1],"split_conditions":[4.62E-1,-2E0,1.4E1,-4.9E0,2.4E1,1E1,-1.9E0,-5.740216E-4,3.0308769E-3,-9.317277E-4,-3.4408008E-3,2.6959435E-3,-5.581189E-5,5.5660605E-3,3.4004338E-3],"split_indices":[3,77,80,25,51,51,77,0,0,0,0,0,0,0,0],"split_type":[0,0,0,0,0,0,0,0,0,0,0,0,0,0,0],"sum_hessian":[6.8003584E3,2.5207195E3,4.279639E3,7.9942413E2,1.7212953E3,2.273832E3,2.0058069E3,3.549958E2,4.4442838E2,7.179804E2,1.0033149E3,1.2013346E3,1.0724976E3,1.1824465E3,8.233604E2],"tree_param":{"num_deleted":"0","num_feature":"106","num_nodes":"15","size_leaf_vector":"1"}},{"base_weights":[-1.3963439E-1,-2.6876113E-1,1.6118222E-1,-1.1520586E-1,-4.4395182E-1,-1.0323613E-1,2.8308237E-1,-2.6663279E-3,2.2229935E-4,-6.1031803E-3,-3.7135377E-3,9.0224086E-4,-2.5312414E-3,4.438005E-3,1.860633E-3],"categories":[],"categories_nodes":[],"categories_segments":[],"categories_sizes":[],"default_left":[0,0,0,0,0,0,0,0,0,0,0,0,0,0,0],"id":10,"left_children":[1,3,5,7,9,11,13,-1,-1,-1,-1,-1,-1,-1,-1],"loss_changes":[2.642075E2,1.27962555E2,6.588435E1,5.280977E1,2.6614899E1,1.8738468E1,2.172689E1,0E0,0E0,0E0,0E0,0E0,0E0,0E0,0E0],"parents":[2147483647,0,0,1,1,2,2,3,3,4,4,5,5,6,6],"right_children":[2,4,6,8,10,12,14,-1,-1,-1,-1,-1,-1,-1,-1],"split_conditions":[2E1,1.4E1,-2E0,1E1,7E0,-5.7E0,-6.4E0,-2.6663279E-3,2.2229935E-4,-6.1031803E-3,-3.7135377E-3,9.0224086E-4,-2.5312414E-3,4.438005E-3,1.860633E-3],"split_indices":[28,80,77,51,51,25,25,0,0,0,0,0,0,0,0],"split_type":[0,0,0,0,0,0,0,0,0,0,0,0,0,0,0],"sum_hessian":[6.799736E3,4.757616E3,2.0421198E3,2.5362454E3,2.2213708E3,6.444252E2,1.3976946E3,1.2062537E3,1.3299918E3,6.726089E2,1.5487618E3,2.8149637E2,3.6292883E2,5.2478357E2,8.7291095E2],"tree_param":{"num_deleted":"0","num_feature":"106","num_nodes":"15","size_leaf_vector":"1"}},{"base_weights":[1.3963439E-1,2.6876116E-1,-1.6118222E-1,1.1520588E-1,4.4395185E-1,1.0323613E-1,-2.830824E-1,2.6663279E-3,-2.2229918E-4,6.1031803E-3,3.7135377E-3,-9.022411E-4,2.5312416E-3,-4.438005E-3,-1.8606331E-3],"categories":[],"categories_nodes":[],"categories_segments":[],"categories_sizes":[],"default_left":[0,0,0,0,0,0,0,0,0,0,0,0,0,0,0],"id":11,"left_children":[1,3,5,7,9,11,13,-1,-1,-1,-1,-1,-1,-1,-1],"loss_changes":[2.6420752E2,1.27962524E2,6.588437E1,5.280976E1,2.6614899E1,1.8738476E1,2.1726883E1,0E0,0E0,0E0,0E0,0E0,0E0,0E0,0E0],"parents":[2147483647,0,0,1,1,2,2,3,3,4,4,5,5,6,6],"right_children":[2,4,6,8,10,12,14,-1,-1,-1,-1,-1,-1,-1,-1],"split_conditions":[2E1,1.4E1,-2E0,1E1,7E0,-5.7E0,-6.4E0,2.6663279E-3,-2.2229918E-4,6.1031803E-3,3.7135377E-3,-9.022411E-4,2.5312416E-3,-4.438005E-3,-1.8606331E-3],"split_indices":[28,80,77,51,51,25,25,0,0,0,0,0,0,0,0],"split_type":[0,0,0,0,0,0,0,0,0,0,0,0,0,0,0],"sum_hessian":[6.799736E3,4.757616E3,2.0421199E3,2.5362456E3,2.2213708E3,6.4442523E2,1.3976946E3,1.2062537E3,1.3299918E3,6.726089E2,1.5487618E3,2.8149637E2,3.6292883E2,5.247836E2,8.72911E2],"tree_param":{"num_deleted":"0","num_feature":"106","num_nodes":"15","size_leaf_vector":"1"}},{"base_weights":[-1.3825421E-1,1.1602958E-1,-2.8803626E-1,-1.4021002E-1,2.3505199E-1,-3.9665112E-1,-4.9673315E-2,5.667465E-4,-2.9727607E-3,9.1442285E-4,3.37647E-3,-5.353506E-3,-2.9426173E-3,8.890472E-4,-1.9283403E-3],"categories":[],"categories_nodes":[],"categories_segments":[],"categories_sizes":[],"default_left":[0,0,0,0,0,0,0,0,0,0,0,0,0,0,0],"id":12,"left_children":[1,3,5,7,9,11,13,-1,-1,-1,-1,-1,-1,-1,-1],"loss_changes":[2.5902606E2,7.693083E1,1.1077841E2,2.476642E1,2.5341156E1,4.159192E1,2.6617096E1,0E0,0E0,0E0,0E0,0E0,0E0,0E0,0E0],"parents":[2147483647,0,0,1,1,2,2,3,3,4,4,5,5,6,6],"right_children":[2,4,6,8,10,12,14,-1,-1,-1,-1,-1,-1,-1,-1],"split_conditions":[4.62E-1,-2E0,3.1E0,-4.9E0,2.4E1,-1.9E0,3.1E0,5.667465E-4,-2.9727607E-3,9.1442285E-4,3.37647E-3,-5.353506E-3,-2.9426173E-3,8.890472E-4,-1.9283403E-3],"split_indices":[3,77,77,25,51,77,25,0,0,0,0,0,0,0,0],"split_type":[0,0,0,0,0,0,0,0,0,0,0,0,0,0,0],"sum_hessian":[6.7990005E3,2.5203862E3,4.2786143E3,7.993382E2,1.7210481E3,2.9388188E3,1.3397957E3,3.5499088E2,4.443473E2,7.1795935E2,1.0030887E3,1.2463075E3,1.6925112E3,6.8098676E2,6.588089E2],"tree_param":{"num_deleted":"0","num_feature":"106","num_nodes":"15","size_leaf_vector":"1"}},{"base_weights":[1.3825426E-1,-1.1602957E-1,2.8803632E-1,1.4020999E-1,-2.3505196E-1,3.9665115E-1,4.9673375E-2,-5.6674646E-4,2.9727598E-3,-9.144228E-4,-3.3764695E-3,5.353506E-3,2.9426177E-3,-8.8904676E-4,1.9283412E-3],"categories":[],"categories_nodes":[],"categories_segments":[],"categories_sizes":[],"default_left":[0,0,0,0,0,0,0,0,0,0,0,0,0,0,0],"id":13,"left_children":[1,3,5,7,9,11,13,-1,-1,-1,-1,-1,-1,-1,-1],"loss_changes":[2.5902612E2,7.69308E1,1.1077844E2,2.4766413E1,2.5341156E1,4.159192E1,2.6617107E1,0E0,0E0,0E0,0E0,0E0,0E0,0E0,0E0],"parents":[2147483647,0,0,1,1,2,2,3,3,4,4,5,5,6,6],"right_children":[2,4,6,8,10,12,14,-1,-1,-1,-1,-1,-1,-1,-1],"split_conditions":[4.62E-1,-2E0,3.1E0,-4.9E0,2.4E1,-1.9E0,3.1E0,-5.6674646E-4,2.9727598E-3,-9.144228E-4,-3.3764695E-3,5.353506E-3,2.9426177E-3,-8.8904676E-4,1.9283412E-3],"split_indices":[3,77,77,25,51,77,25,0,0,0,0,0,0,0,0],"split_type":[0,0,0,0,0,0,0,0,0,0,0,0,0,0,0],"sum_hessian":[6.7990005E3,2.5203862E3,4.2786143E3,7.993382E2,1.7210481E3,2.9388188E3,1.3397957E3,3.5499088E2,4.4434732E2,7.1795935E2,1.00308875E3,1.2463075E3,1.6925112E3,6.809868E2,6.5880884E2],"tree_param":{"num_deleted":"0","num_feature":"106","num_nodes":"15","size_leaf_vector":"1"}},{"base_weights":[-1.3689E-1,-2.6359317E-1,1.5825544E-1,-1.623961E-1,-5.218718E-1,-1.00984246E-1,2.7777985E-1,-3.4592946E-3,-5.678296E-4,-4.59717E-3,-6.601503E-3,8.876149E-4,-2.4801916E-3,4.3618293E-3,1.8218601E-3],"categories":[],"categories_nodes":[],"categories_segments":[],"categories_sizes":[],"default_left":[0,0,0,0,0,0,0,0,0,0,0,0,0,0,0],"id":14,"left_children":[1,3,5,7,9,11,13,-1,-1,-1,-1,-1,-1,-1,-1],"loss_changes":[2.54302E2,1.2425934E2,6.3324127E1,6.62638E1,1.1203217E1,1.8027004E1,2.1095764E1,0E0,0E0,0E0,0E0,0E0,0E0,0E0,0E0],"parents":[2147483647,0,0,1,1,2,2,3,3,4,4,5,5,6,6],"right_children":[2,4,6,8,10,12,14,-1,-1,-1,-1,-1,-1,-1,-1],"split_conditions":[2E1,2E1,-2E0,8E0,3.7E1,-5.7E0,-6.4E0,-3.4592946E-3,-5.678296E-4,-4.59717E-3,-6.601503E-3,8.876149E-4,-2.4801916E-3,4.3618293E-3,1.8218601E-3],"split_indices":[28,80,77,51,54,25,25,0,0,0,0,0,0,0,0],"split_type":[0,0,0,0,0,0,0,0,0,0,0,0,0,0,0],"sum_hessian":[6.798156E3,4.756389E3,2.0417664E3,3.4185742E3,1.337815E3,6.443575E2,1.3974089E3,1.2478312E3,2.1707432E3,9.259389E2,4.11876E2,2.814928E2,3.628647E2,5.2458545E2,8.728234E2],"tree_param":{"num_deleted":"0","num_feature":"106","num_nodes":"15","size_leaf_vector":"1"}},{"base_weights":[1.3689E-1,2.6359317E-1,-1.5825546E-1,1.623961E-1,5.218718E-1,1.00984216E-1,-2.7777988E-1,3.4592946E-3,5.678297E-4,4.597169E-3,6.6015027E-3,-8.8761514E-4,2.4801916E-3,-4.3618297E-3,-1.8218602E-3],"categories":[],"categories_nodes":[],"categories_segments":[],"categories_sizes":[],"default_left":[0,0,0,0,0,0,0,0,0,0,0,0,0,0,0],"id":15,"left_children":[1,3,5,7,9,11,13,-1,-1,-1,-1,-1,-1,-1,-1],"loss_changes":[2.5430206E2,1.2425931E2,6.3324123E1,6.626378E1,1.1203186E1,1.8027004E1,2.1095741E1,0E0,0E0,0E0,0E0,0E0,0E0,0E0,0E0],"parents":[2147483647,0,0,1,1,2,2,3,3,4,4,5,5,6,6],"right_children":[2,4,6,8,10,12,14,-1,-1,-1,-1,-1,-1,-1,-1],"split_conditions":[2E1,2E1,-2E0,8E0,3.7E1,-5.7E0,-6.4E0,3.4592946E-3,5.678297E-4,4.597169E-3,6.6015027E-3,-8.8761514E-4,2.4801916E-3,-4.3618297E-3,-1.8218602E-3],"split_indices":[28,80,77,51,54,25,25,0,0,0,0,0,0,0,0],"split_type":[0,0,0,0,0,0,0,0,0,0,0,0,0,0,0],"sum_hessian":[6.798156E3,4.756389E3,2.0417664E3,3.4185742E3,1.337815E3,6.443575E2,1.3974089E3,1.2478312E3,2.1707432E3,9.2593896E2,4.11876E2,2.814928E2,3.6286465E2,5.245855E2,8.728234E2],"tree_param":{"num_deleted":"0","num_feature":"106","num_nodes":"15","size_leaf_vector":"1"}},{"base_weights":[-1.3554244E-1,1.1396083E-1,-2.8252888E-1,-1.3730694E-1,2.3067866E-1,-3.896708E-1,-4.7476664E-2,5.590411E-4,-2.9148E-3,8.974888E-4,3.3138618E-3,-5.258027E-3,-2.892285E-3,8.8600535E-4,-1.880826E-3],"categories":[],"categories_nodes":[],"categories_segments":[],"categories_sizes":[],"default_left":[0,0,0,0,0,0,0,0,0,0,0,0,0,0,0],"id":16,"left_children":[1,3,5,7,9,11,13,-1,-1,-1,-1,-1,-1,-1,-1],"loss_changes":[2.4934567E2,7.3964E1,1.0772458E2,2.3853071E1,2.440599E1,4.002832E1,2.5668037E1,0E0,0E0,0E0,0E0,0E0,0E0,0E0,0E0],"parents":[2147483647,0,0,1,1,2,2,3,3,4,4,5,5,6,6],"right_children":[2,4,6,8,10,12,14,-1,-1,-1,-1,-1,-1,-1,-1],"split_conditions":[4.62E-1,-2E0,3.1E0,-4.9E0,2.4E1,-1.9E0,3.1E0,5.590411E-4,-2.9148E-3,8.974888E-4,3.3138618E-3,-5.258027E-3,-2.892285E-3,8.8600535E-4,-1.880826E-3],"split_indices":[3,77,77,25,51,77,25,0,0,0,0,0,0,0,0],"split_type":[0,0,0,0,0,0,0,0,0,0,0,0,0,0,0],"sum_hessian":[6.797174E3,2.5199277E3,4.277246E3,7.9921576E2,1.720712E3,2.937577E3,1.3396691E3,3.5498404E2,4.4423175E2,7.179318E2,1.0027802E3,1.2454087E3,1.6921681E3,6.809863E2,6.5868274E2],"tree_param":{"num_deleted":"0","num_feature":"106","num_nodes":"15","size_leaf_vector":"1"}},{"base_weights":[1.3554245E-1,-1.13960825E-1,2.8252894E-1,1.3730702E-1,-2.3067866E-1,3.8967082E-1,4.7476757E-2,-5.590402E-4,2.9148008E-3,-8.9748856E-4,-3.313862E-3,5.258027E-3,2.892285E-3,-8.8600424E-4,1.8808268E-3],"categories":[],"categories_nodes":[],"categories_segments":[],"categories_sizes":[],"default_left":[0,0,0,0,0,0,0,0,0,0,0,0,0,0,0],"id":17,"left_children":[1,3,5,7,9,11,13,-1,-1,-1,-1,-1,-1,-1,-1],"loss_changes":[2.4934578E2,7.3964035E1,1.0772452E2,2.3853075E1,2.4405983E1,4.002823E1,2.5668032E1,0E0,0E0,0E0,0E0,0E0,0E0,0E0,0E0],"parents":[2147483647,0,0,1,1,2,2,3,3,4,4,5,5,6,6],"right_children":[2,4,6,8,10,12,14,-1,-1,-1,-1,-1,-1,-1,-1],"split_conditions":[4.62E-1,-2E0,3.1E0,-4.9E0,2.4E1,-1.9E0,3.1E0,-5.590402E-4,2.9148008E-3,-8.9748856E-4,-3.313862E-3,5.258027E-3,2.892285E-3,-8.8600424E-4,1.8808268E-3],"split_indices":[3,77,77,25,51,77,25,0,0,0,0,0,0,0,0],"split_type":[0,0,0,0,0,0,0,0,0,0,0,0,0,0,0],"sum_hessian":[6.797174E3,2.5199277E3,4.2772456E3,7.9921576E2,1.720712E3,2.9375767E3,1.3396691E3,3.5498404E2,4.4423172E2,7.179318E2,1.0027803E3,1.2454087E3,1.6921681E3,6.809863E2,6.5868274E2],"tree_param":{"num_deleted":"0","num_feature":"106","num_nodes":"15","size_leaf_vector":"1"}},{"base_weights":[-1.3420966E-1,-2.5854594E-1,1.5538973E-1,-1.5205589E-1,-4.957426E-1,-9.878348E-2,2.7259326E-1,-2.0676908E-4,-3.047774E-3,-5.518414E-3,-3.5013377E-3,8.732143E-4,-2.4302823E-3,4.2874906E-3,1.7839051E-3],"categories":[],"categories_nodes":[],"categories_segments":[],"categories_sizes":[],"default_left":[0,0,0,0,0,0,0,0,0,0,0,0,0,0,0],"id":18,"left_children":[1,3,5,7,9,11,13,-1,-1,-1,-1,-1,-1,-1,-1],"loss_changes":[2.4478793E2,1.2005139E2,6.0867268E1,6.587848E1,1.1839966E1,1.7343271E1,2.0489075E1,0E0,0E0,0E0,0E0,0E0,0E0,0E0,0E0],"parents":[2147483647,0,0,1,1,2,2,3,3,4,4,5,5,6,6],"right_children":[2,4,6,8,10,12,14,-1,-1,-1,-1,-1,-1,-1,-1],"split_conditions":[2E1,1.9E1,-2E0,2.8E0,-2.5E0,-5.7E0,-6.4E0,-2.0676908E-4,-3.047774E-3,-5.518414E-3,-3.5013377E-3,8.732143E-4,-2.4302823E-3,4.2874906E-3,1.7839051E-3],"split_indices":[28,80,77,25,77,25,25,0,0,0,0,0,0,0,0],"split_type":[0,0,0,0,0,0,0,0,0,0,0,0,0,0,0],"sum_hessian":[6.7960933E3,4.754786E3,2.0413074E3,3.2826658E3,1.4721202E3,6.4426996E2,1.3970374E3,1.7652455E3,1.5174203E3,1.0606807E3,4.114395E2,2.8148807E2,3.6278192E2,5.243289E2,8.727085E2],"tree_param":{"num_deleted":"0","num_feature":"106","num_nodes":"15","size_leaf_vector":"1"}},{"base_weights":[1.3420963E-1,2.585459E-1,-1.5538973E-1,1.5205586E-1,4.9574256E-1,9.878349E-2,-2.725933E-1,2.0676892E-4,3.0477738E-3,5.518414E-3,3.5013375E-3,-8.732143E-4,2.4302825E-3,-4.287491E-3,-1.7839051E-3],"categories":[],"categories_nodes":[],"categories_segments":[],"categories_sizes":[],"default_left":[0,0,0,0,0,0,0,0,0,0,0,0,0,0,0],"id":19,"left_children":[1,3,5,7,9,11,13,-1,-1,-1,-1,-1,-1,-1,-1],"loss_changes":[2.447879E2,1.2005145E2,6.086728E1,6.587847E1,1.1839966E1,1.7343275E1,2.0489075E1,0E0,0E0,0E0,0E0,0E0,0E0,0E0,0E0],"parents":[2147483647,0,0,1,1,2,2,3,3,4,4,5,5,6,6],"right_children":[2,4,6,8,10,12,14,-1,-1,-1,-1,-1,-1,-1,-1],"split_conditions":[2E1,1.9E1,-2E0,2.8E0,-2.5E0,-5.7E0,-6.4E0,2.0676892E-4,3.0477738E-3,5.518414E-3,3.5013375E-3,-8.732143E-4,2.4302825E-3,-4.287491E-3,-1.7839051E-3],"split_indices":[28,80,77,25,77,25,25,0,0,0,0,0,0,0,0],"split_type":[0,0,0,0,0,0,0,0,0,0,0,0,0,0,0],"sum_hessian":[6.7960938E3,4.754786E3,2.0413074E3,3.2826658E3,1.4721202E3,6.4427E2,1.3970375E3,1.7652455E3,1.5174203E3,1.0606807E3,4.114395E2,2.8148807E2,3.6278192E2,5.243289E2,8.727085E2],"tree_param":{"num_deleted":"0","num_feature":"106","num_nodes":"15","size_leaf_vector":"1"}},{"base_weights":[-1.328926E-1,1.1192659E-1,-2.771442E-1,-1.3436913E-1,2.263401E-1,-3.8285565E-1,-4.5327388E-2,5.519261E-4,-2.8567745E-3,3.910305E-3,1.4292412E-3,-5.1626256E-3,-2.8449069E-3,8.807638E-4,-1.8320463E-3],"categories":[],"categories_nodes":[],"categories_segments":[],"categories_sizes":[],"default_left":[0,0,0,0,0,0,0,0,0,0,0,0,0,0,0],"id":20,"left_children":[1,3,5,7,9,11,13,-1,-1,-1,-1,-1,-1,-1,-1],"loss_changes":[2.4003143E2,7.105274E1,1.04782135E2,2.2963251E1,2.3590897E1,3.839441E1,2.4672691E1,0E0,0E0,0E0,0E0,0E0,0E0,0E0,0E0],"parents":[2147483647,0,0,1,1,2,2,3,3,4,4,5,5,6,6],"right_children":[2,4,6,8,10,12,14,-1,-1,-1,-1,-1,-1,-1,-1],"split_conditions":[4.62E-1,-2E0,3.1E0,-4.9E0,-6.3E0,-1.9E0,3.1E0,5.519261E-4,-2.8567745E-3,3.910305E-3,1.4292412E-3,-5.1626256E-3,-2.8449069E-3,8.807638E-4,-1.8320463E-3],"split_indices":[3,77,77,25,25,77,25,0,0,0,0,0,0,0,0],"split_type":[0,0,0,0,0,0,0,0,0,0,0,0,0,0,0],"sum_hessian":[6.794885E3,2.5193496E3,4.275535E3,7.990582E2,1.7202913E3,2.93602E3,1.3395151E3,3.549748E2,4.4408344E2,5.7714026E2,1.143151E3,1.2442562E3,1.6917638E3,6.8098553E2,6.5852954E2],"tree_param":{"num_deleted":"0","num_feature":"106","num_nodes":"15","size_leaf_vector":"1"}},{"base_weights":[1.3289258E-1,-1.11926585E-1,2.7714416E-1,1.3436912E-1,-2.263401E-1,3.8285565E-1,4.532736E-2,-5.519255E-4,2.856774E-3,-3.910305E-3,-1.4292409E-3,5.162625E-3,2.8449069E-3,-8.807638E-4,1.8320457E-3],"categories":[],"categories_nodes":[],"categories_segments":[],"categories_sizes":[],"default_left":[0,0,0,0,0,0,0,0,0,0,0,0,0,0,0],"id":21,"left_children":[1,3,5,7,9,11,13,-1,-1,-1,-1,-1,-1,-1,-1],"loss_changes":[2.4003142E2,7.1052734E1,1.04782166E2,2.2963238E1,2.3590904E1,3.8394318E1,2.467268E1,0E0,0E0,0E0,0E0,0E0,0E0,0E0,0E0],"parents":[2147483647,0,0,1,1,2,2,3,3,4,4,5,5,6,6],"right_children":[2,4,6,8,10,12,14,-1,-1,-1,-1,-1,-1,-1,-1],"split_conditions":[4.62E-1,-2E0,3.1E0,-4.9E0,-6.3E0,-1.9E0,3.1E0,-5.519255E-4,2.856774E-3,-3.910305E-3,-1.4292409E-3,5.162625E-3,2.8449069E-3,-8.807638E-4,1.8320457E-3],"split_indices":[3,77,77,25,25,77,25,0,0,0,0,0,0,0,0],"split_type":[0,0,0,0,0,0,0,0,0,0,0,0,0,0,0],"sum_hessian":[6.794885E3,2.5193496E3,4.275535E3,7.990582E2,1.7202914E3,2.93602E3,1.3395151E3,3.549748E2,4.4408344E2,5.7714026E2,1.1431511E3,1.2442563E3,1.6917638E3,6.8098553E2,6.585296E2],"tree_param":{"num_deleted":"0","num_feature":"106","num_nodes":"15","size_leaf_vector":"1"}},{"base_weights":[-1.3159005E-1,-2.5364444E-1,1.5265499E-1,-1.0723766E-1,-4.2091653E-1,-9.663328E-2,2.6762402E-1,-2.5195E-3,2.4022128E-4,-5.840362E-3,-3.4978262E-3,8.590315E-4,-2.3814894E-3,4.2084376E-3,1.7524087E-3],"categories":[],"categories_nodes":[],"categories_segments":[],"categories_sizes":[],"default_left":[0,0,0,0,0,0,0,0,0,0,0,0,0,0,0],"id":22,"left_children":[1,3,5,7,9,11,13,-1,-1,-1,-1,-1,-1,-1,-1],"loss_changes":[2.357656E2,1.1637506E2,5.854332E1,4.818408E1,2.5537354E1,1.6686184E1,1.9708984E1,0E0,0E0,0E0,0E0,0E0,0E0,0E0,0E0],"parents":[2147483647,0,0,1,1,2,2,3,3,4,4,5,5,6,6],"right_children":[2,4,6,8,10,12,14,-1,-1,-1,-1,-1,-1,-1,-1],"split_conditions":[2E1,1.4E1,-2E0,1E1,7E0,-5.7E0,-6.4E0,-2.5195E-3,2.4022128E-4,-5.840362E-3,-3.4978262E-3,8.590315E-4,-2.3814894E-3,4.2084376E-3,1.7524087E-3],"split_indices":[28,80,77,51,51,25,25,0,0,0,0,0,0,0,0],"split_type":[0,0,0,0,0,0,0,0,0,0,0,0,0,0,0],"sum_hessian":[6.793582E3,4.752831E3,2.0407506E3,2.5353652E3,2.2174658E3,6.4416406E2,1.3965867E3,1.2054509E3,1.3299144E3,6.711704E2,1.5462955E3,2.8148227E2,3.6268176E2,5.239865E2,8.726001E2],"tree_param":{"num_deleted":"0","num_feature":"106","num_nodes":"15","size_leaf_vector":"1"}},{"base_weights":[1.3159002E-1,2.536444E-1,-1.5265502E-1,1.07237615E-1,4.209165E-1,9.663329E-2,-2.6762405E-1,2.519499E-3,-2.4022163E-4,5.840362E-3,3.4978257E-3,-8.590315E-4,2.3814896E-3,-4.2084376E-3,-1.7524093E-3],"categories":[],"categories_nodes":[],"categories_segments":[],"categories_sizes":[],"default_left":[0,0,0,0,0,0,0,0,0,0,0,0,0,0,0],"id":23,"left_children":[1,3,5,7,9,11,13,-1,-1,-1,-1,-1,-1,-1,-1],"loss_changes":[2.3576553E2,1.1637509E2,5.854332E1,4.8184067E1,2.5537323E1,1.6686184E1,1.9708984E1,0E0,0E0,0E0,0E0,0E0,0E0,0E0,0E0],"parents":[2147483647,0,0,1,1,2,2,3,3,4,4,5,5,6,6],"right_children":[2,4,6,8,10,12,14,-1,-1,-1,-1,-1,-1,-1,-1],"split_conditions":[2E1,1.4E1,-2E0,1E1,7E0,-5.7E0,-6.4E0,2.519499E-3,-2.4022163E-4,5.840362E-3,3.4978257E-3,-8.590315E-4,2.3814896E-3,-4.2084376E-3,-1.7524093E-3],"split_indices":[28,80,77,51,51,25,25,0,0,0,0,0,0,0,0],"split_type":[0,0,0,0,0,0,0,0,0,0,0,0,0,0,0],"sum_hessian":[6.793582E3,4.752831E3,2.0407506E3,2.5353652E3,2.2174658E3,6.4416406E2,1.3965867E3,1.2054509E3,1.3299144E3,6.711704E2,1.5462955E3,2.8148227E2,3.626818E2,5.239865E2,8.726001E2],"tree_param":{"num_deleted":"0","num_feature":"106","num_nodes":"15","size_leaf_vector":"1"}},{"base_weights":[-1.3030235E-1,-2.5116786E-1,1.5115482E-1,-1.5403484E-1,-4.995155E-1,-9.567763E-2,2.650033E-1,-3.3285406E-3,-5.2726775E-4,-4.380002E-3,-6.364867E-3,8.504833E-4,-2.3580748E-3,4.1680527E-3,1.7350356E-3],"categories":[],"categories_nodes":[],"categories_segments":[],"categories_sizes":[],"default_left":[0,0,0,0,0,0,0,0,0,0,0,0,0,0,0],"id":24,"left_children":[1,3,5,7,9,11,13,-1,-1,-1,-1,-1,-1,-1,-1],"loss_changes":[2.3113147E2,1.1457257E2,5.7392513E1,6.1901398E1,1.0976471E1,1.6357496E1,1.9336205E1,0E0,0E0,0E0,0E0,0E0,0E0,0E0,0E0],"parents":[2147483647,0,0,1,1,2,2,3,3,4,4,5,5,6,6],"right_children":[2,4,6,8,10,12,14,-1,-1,-1,-1,-1,-1,-1,-1],"split_conditions":[2E1,2E1,-2E0,7E0,3.7E1,-5.7E0,-6.4E0,-3.3285406E-3,-5.2726775E-4,-4.380002E-3,-6.364867E-3,8.504833E-4,-2.3580748E-3,4.1680527E-3,1.7350356E-3],"split_indices":[28,80,77,27,54,25,25,0,0,0,0,0,0,0,0],"split_type":[0,0,0,0,0,0,0,0,0,0,0,0,0,0,0],"sum_hessian":[6.7921797E3,4.751753E3,2.0404268E3,3.416947E3,1.3348062E3,6.441086E2,1.3963182E3,1.2349126E3,2.1820344E3,9.2401733E2,4.1078882E2,2.814782E2,3.6263034E2,5.2378357E2,8.7253467E2],"tree_param":{"num_deleted":"0","num_feature":"106","num_nodes":"15","size_leaf_vector":"1"}},{"base_weights":[1.3030234E-1,2.5116786E-1,-1.5115485E-1,1.5403485E-1,4.995155E-1,9.567757E-2,-2.650033E-1,3.3285404E-3,5.272681E-4,4.380002E-3,6.364867E-3,-8.504842E-4,2.3580745E-3,-4.1680527E-3,-1.7350356E-3],"categories":[],"categories_nodes":[],"categories_segments":[],"categories_sizes":[],"default_left":[0,0,0,0,0,0,0,0,0,0,0,0,0,0,0],"id":25,"left_children":[1,3,5,7,9,11,13,-1,-1,-1,-1,-1,-1,-1,-1],"loss_changes":[2.3113155E2,1.1457254E2,5.73925E1,6.1901375E1,1.0976471E1,1.6357504E1,1.9336197E1,0E0,0E0,0E0,0E0,0E0,0E0,0E0,0E0],"parents":[2147483647,0,0,1,1,2,2,3,3,4,4,5,5,6,6],"right_children":[2,4,6,8,10,12,14,-1,-1,-1,-1,-1,-1,-1,-1],"split_conditions":[2E1,2E1,-2E0,7E0,3.7E1,-5.7E0,-6.4E0,3.3285404E-3,5.272681E-4,4.380002E-3,6.364867E-3,-8.504842E-4,2.3580745E-3,-4.1680527E-3,-1.7350356E-3],"split_indices":[28,80,77,27,54,25,25,0,0,0,0,0,0,0,0],"split_type":[0,0,0,0,0,0,0,0,0,0,0,0,0,0,0],"sum_hessian":[6.7921797E3,4.751753E3,2.0404268E3,3.416947E3,1.3348062E3,6.441085E2,1.3963182E3,1.2349126E3,2.1820342E3,9.2401733E2,4.1078882E2,2.814782E2,3.626303E2,5.237836E2,8.7253467E2],"tree_param":{"num_deleted":"0","num_feature":"106","num_nodes":"15","size_leaf_vector":"1"}},{"base_weights":[-1.2902953E-1,1.0903776E-1,-2.693455E-1,-1.0504272E-1,2.3417822E-1,-3.6271736E-1,-1.6138485E-2,1.2522733E-3,-2.2305462E-3,1.0251548E-3,3.2890008E-3,-5.0342814E-3,-2.694608E-3,-1.8955664E-3,7.9903676E-4],"categories":[],"categories_nodes":[],"categories_segments":[],"categories_sizes":[],"default_left":[0,0,0,0,0,0,0,0,0,0,0,0,0,0,0],"id":26,"left_children":[1,3,5,7,9,11,13,-1,-1,-1,-1,-1,-1,-1,-1],"loss_changes":[2.269032E2,6.751629E1,1.0102792E2,2.5302067E1,1.979834E1,4.0832703E1,1.9208008E1,0E0,0E0,0E0,0E0,0E0,0E0,0E0,0E0],"parents":[2147483647,0,0,1,1,2,2,3,3,4,4,5,5,6,6],"right_children":[2,4,6,8,10,12,14,-1,-1,-1,-1,-1,-1,-1,-1],"split_conditions":[4.62E-1,4.48E-1,3.8E0,-6.3E0,2.4E1,-1.9E0,6E0,1.2522733E-3,-2.2305462E-3,1.0251548E-3,3.2890008E-3,-5.0342814E-3,-2.694608E-3,-1.8955664E-3,7.9903676E-4],"split_indices":[3,55,77,25,51,77,27,0,0,0,0,0,0,0,0],"split_type":[0,0,0,0,0,0,0,0,0,0,0,0,0,0,0],"sum_hessian":[6.7906855E3,2.5182744E3,4.272411E3,9.2906445E2,1.58921E3,3.121064E3,1.1513469E3,3.147836E2,6.142809E2,6.658146E2,9.233953E2,1.2422654E3,1.8787987E3,4.1002078E2,7.413261E2],"tree_param":{"num_deleted":"0","num_feature":"106","num_nodes":"15","size_leaf_vector":"1"}},{"base_weights":[1.2902953E-1,-1.0903774E-1,2.693455E-1,1.05042696E-1,-2.3417819E-1,3.6271736E-1,1.613846E-2,-1.2522739E-3,2.2305462E-3,-1.0251544E-3,-3.2890004E-3,5.034282E-3,2.6946077E-3,1.8955655E-3,-7.9903676E-4],"categories":[],"categories_nodes":[],"categories_segments":[],"categories_sizes":[],"default_left":[0,0,0,0,0,0,0,0,0,0,0,0,0,0,0],"id":27,"left_children":[1,3,5,7,9,11,13,-1,-1,-1,-1,-1,-1,-1,-1],"loss_changes":[2.2690315E2,6.7516266E1,1.0102792E2,2.5302074E1,1.9798332E1,4.0832733E1,1.9207996E1,0E0,0E0,0E0,0E0,0E0,0E0,0E0,0E0],"parents":[2147483647,0,0,1,1,2,2,3,3,4,4,5,5,6,6],"right_children":[2,4,6,8,10,12,14,-1,-1,-1,-1,-1,-1,-1,-1],"split_conditions":[4.62E-1,4.48E-1,3.8E0,-6.3E0,2.4E1,-1.9E0,6E0,-1.2522739E-3,2.2305462E-3,-1.0251544E-3,-3.2890004E-3,5.034282E-3,2.6946077E-3,1.8955655E-3,-7.9903676E-4],"split_indices":[3,55,77,25,51,77,27,0,0,0,0,0,0,0,0],"split_type":[0,0,0,0,0,0,0,0,0,0,0,0,0,0,0],"sum_hessian":[6.790685E3,2.5182744E3,4.272411E3,9.2906445E2,1.58921E3,3.121064E3,1.1513469E3,3.1478357E2,6.142809E2,6.658146E2,9.233953E2,1.2422654E3,1.8787987E3,4.100208E2,7.413261E2],"tree_param":{"num_deleted":"0","num_feature":"106","num_nodes":"15","size_leaf_vector":"1"}},{"base_weights":[-1.2776938E-1,-3.134871E-1,4.9054883E-2,-4.0241137E-1,-7.664908E-2,-1.862484E-1,1.7526624E-1,-3.3386438E-3,-5.903648E-3,-2.8698696E-4,-3.2205347E-3,5.3365336E-4,-3.0982245E-3,6.671244E-4,3.1946804E-3],"categories":[],"categories_nodes":[],"categories_segments":[],"categories_sizes":[],"default_left":[0,0,0,0,0,0,0,0,0,0,0,0,0,0,0],"id":28,"left_children":[1,3,5,7,9,11,13,-1,-1,-1,-1,-1,-1,-1,-1],"loss_changes":[2.2299963E2,6.972046E1,1.0335835E2,3.0821838E1,1.06436405E1,3.599701E1,3.543541E1,0E0,0E0,0E0,0E0,0E0,0E0,0E0,0E0],"parents":[2147483647,0,0,1,1,2,2,3,3,4,4,5,5,6,6],"right_children":[2,4,6,8,10,12,14,-1,-1,-1,-1,-1,-1,-1,-1],"split_conditions":[1.5E1,3.8E0,-1.4E0,2.3E1,1.17E1,-4.9E0,2.4E1,-3.3386438E-3,-5.903648E-3,-2.8698696E-4,-3.2205347E-3,5.3365336E-4,-3.0982245E-3,6.671244E-4,3.1946804E-3],"split_indices":[51,77,77,80,66,25,51,0,0,0,0,0,0,0,0],"split_type":[0,0,0,0,0,0,0,0,0,0,0,0,0,0,0],"sum_hessian":[6.789144E3,3.3109233E3,3.4782207E3,2.4066228E3,9.043005E2,1.2141442E3,2.2640767E3,1.7655131E3,6.411098E2,7.5742224E2,1.4687828E2,4.1330392E2,8.008402E2,1.2925327E3,9.715439E2],"tree_param":{"num_deleted":"0","num_feature":"106","num_nodes":"15","size_leaf_vector":"1"}},{"base_weights":[1.2776935E-1,3.1348708E-1,-4.9054917E-2,4.0241137E-1,7.664903E-2,1.8624839E-1,-1.7526628E-1,3.3386438E-3,5.9036473E-3,2.8698656E-4,3.2205342E-3,-5.3365313E-4,3.0982243E-3,-6.671248E-4,-3.1946811E-3],"categories":[],"categories_nodes":[],"categories_segments":[],"categories_sizes":[],"default_left":[0,0,0,0,0,0,0,0,0,0,0,0,0,0,0],"id":29,"left_children":[1,3,5,7,9,11,13,-1,-1,-1,-1,-1,-1,-1,-1],"loss_changes":[2.2299966E2,6.972043E1,1.0335836E2,3.0821808E1,1.06436405E1,3.5997E1,3.5435417E1,0E0,0E0,0E0,0E0,0E0,0E0,0E0,0E0],"parents":[2147483647,0,0,1,1,2,2,3,3,4,4,5,5,6,6],"right_children":[2,4,6,8,10,12,14,-1,-1,-1,-1,-1,-1,-1,-1],"split_conditions":[1.5E1,3.8E0,-1.4E0,2.3E1,1.17E1,-4.9E0,2.4E1,3.3386438E-3,5.9036473E-3,2.8698656E-4,3.2205342E-3,-5.3365313E-4,3.0982243E-3,-6.671248E-4,-3.1946811E-3],"split_indices":[51,77,77,80,66,25,51,0,0,0,0,0,0,0,0],"split_type":[0,0,0,0,0,0,0,0,0,0,0,0,0,0,0],"sum_hessian":[6.789144E3,3.3109233E3,3.4782207E3,2.4066228E3,9.043005E2,1.2141442E3,2.2640767E3,1.7655131E3,6.411098E2,7.574222E2,1.4687828E2,4.1330392E2,8.008402E2,1.2925327E3,9.715439E2],"tree_param":{"num_deleted":"0","num_feature":"106","num_nodes":"15","size_leaf_vector":"1"}},{"base_weights":[-1.2652366E-1,-2.4420524E-1,1.4744647E-1,-1.0231667E-1,-4.065459E-1,-9.2747815E-2,2.5826272E-1,-2.4317806E-3,2.5376942E-4,-5.67025E-3,-3.3662142E-3,8.261851E-4,-2.2878575E-3,4.07076E-3,1.6863794E-3],"categories":[],"categories_nodes":[],"categories_segments":[],"categories_sizes":[],"default_left":[0,0,0,0,0,0,0,0,0,0,0,0,0,0,0],"id":30,"left_children":[1,3,5,7,9,11,13,-1,-1,-1,-1,-1,-1,-1,-1],"loss_changes":[2.1890685E2,1.09351135E2,5.4334427E1,4.5613045E1,2.4660034E1,1.5404085E1,1.8557022E1,0E0,0E0,0E0,0E0,0E0,0E0,0E0,0E0],"parents":[2147483647,0,0,1,1,2,2,3,3,4,4,5,5,6,6],"right_children":[2,4,6,8,10,12,14,-1,-1,-1,-1,-1,-1,-1,-1],"split_conditions":[2E1,1.4E1,-2E0,1E1,7E0,-5.7E0,-6.4E0,-2.4317806E-3,2.5376942E-4,-5.67025E-3,-3.3662142E-3,8.261851E-4,-2.2878575E-3,4.07076E-3,1.6863794E-3],"split_indices":[28,80,77,51,51,25,25,0,0,0,0,0,0,0,0],"split_type":[0,0,0,0,0,0,0,0,0,0,0,0,0,0,0],"sum_hessian":[6.787537E3,4.7481274E3,2.0394097E3,2.5345325E3,2.213595E3,6.4390607E2,1.3955035E3,1.2046997E3,1.3298328E3,6.696395E2,1.5439554E3,2.8146396E2,3.6244214E2,5.2321454E2,8.72289E2],"tree_param":{"num_deleted":"0","num_feature":"106","num_nodes":"15","size_leaf_vector":"1"}},{"base_weights":[1.2652367E-1,2.4420525E-1,-1.474465E-1,1.0231668E-1,4.0654594E-1,9.274776E-2,-2.5826275E-1,2.4317806E-3,-2.537693E-4,5.6702504E-3,3.366215E-3,-8.26186E-4,2.2878572E-3,-4.0707598E-3,-1.6863798E-3],"categories":[],"categories_nodes":[],"categories_segments":[],"categories_sizes":[],"default_left":[0,0,0,0,0,0,0,0,0,0,0,0,0,0,0],"id":31,"left_children":[1,3,5,7,9,11,13,-1,-1,-1,-1,-1,-1,-1,-1],"loss_changes":[2.1890686E2,1.093512E2,5.4334408E1,4.5613045E1,2.4660004E1,1.5404093E1,1.8557014E1,0E0,0E0,0E0,0E0,0E0,0E0,0E0,0E0],"parents":[2147483647,0,0,1,1,2,2,3,3,4,4,5,5,6,6],"right_children":[2,4,6,8,10,12,14,-1,-1,-1,-1,-1,-1,-1,-1],"split_conditions":[2E1,1.4E1,-2E0,1E1,7E0,-5.7E0,-6.4E0,2.4317806E-3,-2.537693E-4,5.6702504E-3,3.366215E-3,-8.26186E-4,2.2878572E-3,-4.0707598E-3,-1.6863798E-3],"split_indices":[28,80,77,51,51,25,25,0,0,0,0,0,0,0,0],"split_type":[0,0,0,0,0,0,0,0,0,0,0,0,0,0,0],"sum_hessian":[6.787537E3,4.7481274E3,2.0394097E3,2.5345325E3,2.213595E3,6.4390607E2,1.3955035E3,1.2046997E3,1.3298328E3,6.696395E2,1.5439554E3,2.8146396E2,3.624421E2,5.2321454E2,8.72289E2],"tree_param":{"num_deleted":"0","num_feature":"106","num_nodes":"15","size_leaf_vector":"1"}},{"base_weights":[-1.2529263E-1,-3.0772692E-1,4.8346788E-2,-3.9541093E-1,-7.436087E-2,-1.8286604E-1,1.7234509E-1,-3.2776396E-3,-5.8108037E-3,-2.690509E-4,-3.1728495E-3,5.2408874E-4,-3.0426655E-3,6.5951963E-4,3.1374942E-3],"categories":[],"categories_nodes":[],"categories_segments":[],"categories_sizes":[],"default_left":[0,0,0,0,0,0,0,0,0,0,0,0,0,0,0],"id":32,"left_children":[1,3,5,7,9,11,13,-1,-1,-1,-1,-1,-1,-1,-1],"loss_changes":[2.1500432E2,6.769516E1,9.974742E1,3.002304E1,1.0426338E1,3.470846E1,3.4046562E1,0E0,0E0,0E0,0E0,0E0,0E0,0E0,0E0],"parents":[2147483647,0,0,1,1,2,2,3,3,4,4,5,5,6,6],"right_children":[2,4,6,8,10,12,14,-1,-1,-1,-1,-1,-1,-1,-1],"split_conditions":[1.5E1,3.8E0,-1.4E0,2.3E1,1.17E1,-4.9E0,2.4E1,-3.2776396E-3,-5.8108037E-3,-2.690509E-4,-3.1728495E-3,5.2408874E-4,-3.0426655E-3,6.5951963E-4,3.1374942E-3],"split_indices":[51,77,77,80,66,25,51,0,0,0,0,0,0,0,0],"split_type":[0,0,0,0,0,0,0,0,0,0,0,0,0,0,0],"sum_hessian":[6.7857573E3,3.3086995E3,3.4770579E3,2.4045352E3,9.0416437E2,1.2136174E3,2.2634404E3,1.7644423E3,6.4009283E2,7.573291E2,1.4683524E2,4.1326868E2,8.003487E2,1.2924575E3,9.7098303E2],"tree_param":{"num_deleted":"0","num_feature":"106","num_nodes":"15","size_leaf_vector":"1"}},{"base_weights":[1.2529263E-1,3.0772692E-1,-4.8346795E-2,3.954109E-1,7.43609E-2,1.8286605E-1,-1.723451E-1,3.2776394E-3,5.810804E-3,2.6905118E-4,3.17285E-3,-5.240888E-4,3.0426655E-3,-6.595201E-4,-3.1374942E-3],"categories":[],"categories_nodes":[],"categories_segments":[],"categories_sizes":[],"default_left":[0,0,0,0,0,0,0,0,0,0,0,0,0,0,0],"id":33,"left_children":[1,3,5,7,9,11,13,-1,-1,-1,-1,-1,-1,-1,-1],"loss_changes":[2.1500435E2,6.769519E1,9.974745E1,3.002304E1,1.0426336E1,3.470847E1,3.4046555E1,0E0,0E0,0E0,0E0,0E0,0E0,0E0,0E0],"parents":[2147483647,0,0,1,1,2,2,3,3,4,4,5,5,6,6],"right_children":[2,4,6,8,10,12,14,-1,-1,-1,-1,-1,-1,-1,-1],"split_conditions":[1.5E1,3.8E0,-1.4E0,2.3E1,1.17E1,-4.9E0,2.4E1,3.2776394E-3,5.810804E-3,2.6905118E-4,3.17285E-3,-5.240888E-4,3.0426655E-3,-6.595201E-4,-3.1374942E-3],"split_indices":[51,77,77,80,66,25,51,0,0,0,0,0,0,0,0],"split_type":[0,0,0,0,0,0,0,0,0,0,0,0,0,0,0],"sum_hessian":[6.7857573E3,3.3086995E3,3.4770579E3,2.4045352E3,9.0416437E2,1.2136174E3,2.2634404E3,1.7644423E3,6.4009283E2,7.5732916E2,1.4683524E2,4.1326868E2,8.003487E2,1.2924575E3,9.7098303E2],"tree_param":{"num_deleted":"0","num_feature":"106","num_nodes":"15","size_leaf_vector":"1"}},{"base_weights":[-1.2407457E-1,1.0563689E-1,-2.5953698E-1,-1.0120375E-1,2.2656189E-1,-3.501949E-1,-1.4025653E-2,1.2085094E-3,-2.1505116E-3,3.6633678E-3,1.4379133E-3,-4.8692278E-3,-2.597434E-3,-1.8390777E-3,8.002081E-4],"categories":[],"categories_nodes":[],"categories_segments":[],"categories_sizes":[],"default_left":[0,0,0,0,0,0,0,0,0,0,0,0,0,0,0],"id":34,"left_children":[1,3,5,7,9,11,13,-1,-1,-1,-1,-1,-1,-1,-1],"loss_changes":[2.111569E2,6.299401E1,9.499805E1,2.3524916E1,1.8331787E1,3.8424957E1,1.8422033E1,0E0,0E0,0E0,0E0,0E0,0E0,0E0,0E0],"parents":[2147483647,0,0,1,1,2,2,3,3,4,4,5,5,6,6],"right_children":[2,4,6,8,10,12,14,-1,-1,-1,-1,-1,-1,-1,-1],"split_conditions":[4.62E-1,4.48E-1,3.8E0,-6.3E0,-5.9E0,-1.9E0,6E0,1.2085094E-3,-2.1505116E-3,3.6633678E-3,1.4379133E-3,-4.8692278E-3,-2.597434E-3,-1.8390777E-3,8.002081E-4],"split_indices":[3,55,77,25,25,77,27,0,0,0,0,0,0,0,0],"split_type":[0,0,0,0,0,0,0,0,0,0,0,0,0,0,0],"sum_hessian":[6.783962E3,2.516614E3,4.267348E3,9.2853326E2,1.5880808E3,3.116221E3,1.1511271E3,3.1468723E2,6.13846E2,5.893752E2,9.987056E2,1.2389783E3,1.8772427E3,4.098441E2,7.41283E2],"tree_param":{"num_deleted":"0","num_feature":"106","num_nodes":"15","size_leaf_vector":"1"}},{"base_weights":[1.24074586E-1,-1.05636865E-1,2.59537E-1,1.0120373E-1,-2.2656184E-1,3.501949E-1,1.4025699E-2,-1.2085097E-3,2.1505114E-3,-3.663367E-3,-1.4379132E-3,4.8692278E-3,2.5974342E-3,1.8390781E-3,-8.0020755E-4],"categories":[],"categories_nodes":[],"categories_segments":[],"categories_sizes":[],"default_left":[0,0,0,0,0,0,0,0,0,0,0,0,0,0,0],"id":35,"left_children":[1,3,5,7,9,11,13,-1,-1,-1,-1,-1,-1,-1,-1],"loss_changes":[2.1115689E2,6.299398E1,9.499802E1,2.3524918E1,1.8331787E1,3.8424927E1,1.8422035E1,0E0,0E0,0E0,0E0,0E0,0E0,0E0,0E0],"parents":[2147483647,0,0,1,1,2,2,3,3,4,4,5,5,6,6],"right_children":[2,4,6,8,10,12,14,-1,-1,-1,-1,-1,-1,-1,-1],"split_conditions":[4.62E-1,4.48E-1,3.8E0,-6.3E0,-5.9E0,-1.9E0,6E0,-1.2085097E-3,2.1505114E-3,-3.663367E-3,-1.4379132E-3,4.8692278E-3,2.5974342E-3,1.8390781E-3,-8.0020755E-4],"split_indices":[3,55,77,25,25,77,27,0,0,0,0,0,0,0,0],"split_type":[0,0,0,0,0,0,0,0,0,0,0,0,0,0,0],"sum_hessian":[6.783962E3,2.516614E3,4.267348E3,9.2853326E2,1.5880808E3,3.116221E3,1.1511271E3,3.1468726E2,6.13846E2,5.893752E2,9.987056E2,1.2389783E3,1.8772427E3,4.0984406E2,7.41283E2],"tree_param":{"num_deleted":"0","num_feature":"106","num_nodes":"15","size_leaf_vector":"1"}},{"base_weights":[-1.2286921E-1,-3.023058E-1,4.7855712E-2,-3.8843694E-1,-7.327124E-2,-1.793813E-1,1.6969623E-1,-3.2175493E-3,-5.716775E-3,-2.6313818E-4,-3.1369154E-3,5.1326375E-4,-2.985024E-3,6.5429584E-4,3.083487E-3],"categories":[],"categories_nodes":[],"categories_segments":[],"categories_sizes":[],"default_left":[0,0,0,0,0,0,0,0,0,0,0,0,0,0,0],"id":36,"left_children":[1,3,5,7,9,11,13,-1,-1,-1,-1,-1,-1,-1,-1],"loss_changes":[2.078089E2,6.521451E1,9.6290726E1,2.9180542E1,1.0209633E1,3.3378765E1,3.270675E1,0E0,0E0,0E0,0E0,0E0,0E0,0E0,0E0],"parents":[2147483647,0,0,1,1,2,2,3,3,4,4,5,5,6,6],"right_children":[2,4,6,8,10,12,14,-1,-1,-1,-1,-1,-1,-1,-1],"split_conditions":[1.5E1,3.8E0,-1.4E0,2.3E1,1.17E1,-4.9E0,2.4E1,-3.2175493E-3,-5.716775E-3,-2.6313818E-4,-3.1369154E-3,5.1326375E-4,-2.985024E-3,6.5429584E-4,3.083487E-3],"split_indices":[51,77,77,80,66,25,51,0,0,0,0,0,0,0,0],"split_type":[0,0,0,0,0,0,0,0,0,0,0,0,0,0,0],"sum_hessian":[6.782065E3,3.3062913E3,3.4757737E3,2.402214E3,9.040772E2,1.2130042E3,2.2627693E3,1.7632983E3,6.3891583E2,7.572795E2,1.4679773E2,4.1323697E2,7.997672E2,1.2923754E3,9.7039404E2],"tree_param":{"num_deleted":"0","num_feature":"106","num_nodes":"15","size_leaf_vector":"1"}},{"base_weights":[1.228692E-1,3.0230576E-1,-4.785571E-2,3.8843694E-1,7.327123E-2,1.793813E-1,-1.6969623E-1,3.2175493E-3,5.716774E-3,2.631381E-4,3.1369154E-3,-5.132634E-4,2.985024E-3,-6.542959E-4,-3.083487E-3],"categories":[],"categories_nodes":[],"categories_segments":[],"categories_sizes":[],"default_left":[0,0,0,0,0,0,0,0,0,0,0,0,0,0,0],"id":37,"left_children":[1,3,5,7,9,11,13,-1,-1,-1,-1,-1,-1,-1,-1],"loss_changes":[2.0780887E2,6.521454E1,9.629074E1,2.9180542E1,1.0209632E1,3.337876E1,3.270675E1,0E0,0E0,0E0,0E0,0E0,0E0,0E0,0E0],"parents":[2147483647,0,0,1,1,2,2,3,3,4,4,5,5,6,6],"right_children":[2,4,6,8,10,12,14,-1,-1,-1,-1,-1,-1,-1,-1],"split_conditions":[1.5E1,3.8E0,-1.4E0,2.3E1,1.17E1,-4.9E0,2.4E1,3.2175493E-3,5.716774E-3,2.631381E-4,3.1369154E-3,-5.132634E-4,2.985024E-3,-6.542959E-4,-3.083487E-3],"split_indices":[51,77,77,80,66,25,51,0,0,0,0,0,0,0,0],"split_type":[0,0,0,0,0,0,0,0,0,0,0,0,0,0,0],"sum_hessian":[6.782065E3,3.3062913E3,3.4757737E3,2.402214E3,9.040772E2,1.2130042E3,2.2627693E3,1.7632983E3,6.3891583E2,7.572795E2,1.4679773E2,4.1323697E2,7.997672E2,1.2923754E3,9.7039404E2],"tree_param":{"num_deleted":"0","num_feature":"106","num_nodes":"15","size_leaf_vector":"1"}},{"base_weights":[-1.2167799E-1,-2.3539005E-1,1.4293648E-1,-1.433538E-1,-4.715624E-1,-2.5617143E-2,2.915697E-1,-3.155681E-3,-4.5895737E-4,-4.1081063E-3,-6.070355E-3,1.5566827E-3,-1.4173673E-3,4.268452E-3,2.086288E-3],"categories":[],"categories_nodes":[],"categories_segments":[],"categories_sizes":[],"default_left":[0,0,0,0,0,0,0,0,0,0,0,0,0,0,0],"id":38,"left_children":[1,3,5,7,9,11,13,-1,-1,-1,-1,-1,-1,-1,-1],"loss_changes":[2.0407571E2,1.0303485E2,5.108452E1,5.7295433E1,1.0694183E1,2.0152754E1,1.2067635E1,0E0,0E0,0E0,0E0,0E0,0E0,0E0,0E0],"parents":[2147483647,0,0,1,1,2,2,3,3,4,4,5,5,6,6],"right_children":[2,4,6,8,10,12,14,-1,-1,-1,-1,-1,-1,-1,-1],"split_conditions":[2E1,2E1,-2E-1,7E0,3.7E1,-6.3E0,-6.3E0,-3.155681E-3,-4.5895737E-4,-4.1081063E-3,-6.070355E-3,1.5566827E-3,-1.4173673E-3,4.268452E-3,2.086288E-3],"split_indices":[28,80,77,27,54,25,25,0,0,0,0,0,0,0,0],"split_type":[0,0,0,0,0,0,0,0,0,0,0,0,0,0,0],"sum_hessian":[6.780091E3,4.7423037E3,2.037787E3,3.4136233E3,1.3286805E3,9.552914E2,1.0824957E3,1.2328552E3,2.180768E3,9.201017E2,4.085789E2,3.728535E2,5.8243787E2,4.0986484E2,6.726308E2],"tree_param":{"num_deleted":"0","num_feature":"106","num_nodes":"15","size_leaf_vector":"1"}},{"base_weights":[1.21677995E-1,2.3539005E-1,-1.4293645E-1,1.4335379E-1,4.715624E-1,2.5617149E-2,-2.9156965E-1,3.1556808E-3,4.5895722E-4,4.1081067E-3,6.070355E-3,-1.5566827E-3,1.4173674E-3,-4.2684525E-3,-2.0862871E-3],"categories":[],"categories_nodes":[],"categories_segments":[],"categories_sizes":[],"default_left":[0,0,0,0,0,0,0,0,0,0,0,0,0,0,0],"id":39,"left_children":[1,3,5,7,9,11,13,-1,-1,-1,-1,-1,-1,-1,-1],"loss_changes":[2.0407565E2,1.0303488E2,5.1084507E1,5.7295433E1,1.0694153E1,2.0152752E1,1.2067642E1,0E0,0E0,0E0,0E0,0E0,0E0,0E0,0E0],"parents":[2147483647,0,0,1,1,2,2,3,3,4,4,5,5,6,6],"right_children":[2,4,6,8,10,12,14,-1,-1,-1,-1,-1,-1,-1,-1],"split_conditions":[2E1,2E1,-2E-1,7E0,3.7E1,-6.3E0,-6.3E0,3.1556808E-3,4.5895722E-4,4.1081067E-3,6.070355E-3,-1.5566827E-3,1.4173674E-3,-4.2684525E-3,-2.0862871E-3],"split_indices":[28,80,77,27,54,25,25,0,0,0,0,0,0,0,0],"split_type":[0,0,0,0,0,0,0,0,0,0,0,0,0,0,0],"sum_hessian":[6.780091E3,4.7423037E3,2.037787E3,3.413623E3,1.3286805E3,9.552914E2,1.0824957E3,1.2328552E3,2.180768E3,9.201017E2,4.0857892E2,3.728535E2,5.8243787E2,4.0986484E2,6.7263086E2],"tree_param":{"num_deleted":"0","num_feature":"106","num_nodes":"15","size_leaf_vector":"1"}},{"base_weights":[-1.204989E-1,-2.9693556E-1,4.7304563E-2,-3.8206285E-1,-7.076255E-2,-1.760446E-1,1.6703464E-1,-3.1653359E-3,-5.6238812E-3,-2.4296557E-4,-3.0873672E-3,5.028897E-4,-2.929888E-3,6.484898E-4,3.030041E-3],"categories":[],"categories_nodes":[],"categories_segments":[],"categories_sizes":[],"default_left":[0,0,0,0,0,0,0,0,0,0,0,0,0,0,0],"id":40,"left_children":[1,3,5,7,9,11,13,-1,-1,-1,-1,-1,-1,-1,-1],"loss_changes":[2.0071933E2,6.3599213E1,9.296708E1,2.8190613E1,9.998726E0,3.2130253E1,3.1423344E1,0E0,0E0,0E0,0E0,0E0,0E0,0E0,0E0],"parents":[2147483647,0,0,1,1,2,2,3,3,4,4,5,5,6,6],"right_children":[2,4,6,8,10,12,14,-1,-1,-1,-1,-1,-1,-1,-1],"split_conditions":[1.5E1,3.8E0,-1.4E0,2.3E1,1.17E1,-4.9E0,2.4E1,-3.1653359E-3,-5.6238812E-3,-2.4296557E-4,-3.0873672E-3,5.028897E-4,-2.929888E-3,6.484898E-4,3.030041E-3],"split_indices":[51,77,77,80,66,25,51,0,0,0,0,0,0,0,0],"split_type":[0,0,0,0,0,0,0,0,0,0,0,0,0,0,0],"sum_hessian":[6.7780537E3,3.3036584E3,3.4743953E3,2.3997485E3,9.039097E2,1.2123535E3,2.2620417E3,1.7621483E3,6.376003E2,7.5716956E2,1.4674014E2,4.1320584E2,7.991477E2,1.2923065E3,9.697353E2],"tree_param":{"num_deleted":"0","num_feature":"106","num_nodes":"15","size_leaf_vector":"1"}},{"base_weights":[1.20498896E-1,2.969356E-1,-4.7304586E-2,3.8206288E-1,7.076254E-2,1.7604457E-1,-1.6703467E-1,3.1653359E-3,5.6238812E-3,2.429654E-4,3.0873676E-3,-5.028897E-4,2.9298877E-3,-6.4849015E-4,-3.030041E-3],"categories":[],"categories_nodes":[],"categories_segments":[],"categories_sizes":[],"default_left":[0,0,0,0,0,0,0,0,0,0,0,0,0,0,0],"id":41,"left_children":[1,3,5,7,9,11,13,-1,-1,-1,-1,-1,-1,-1,-1],"loss_changes":[2.0071938E2,6.3599243E1,9.296709E1,2.8190613E1,9.998728E0,3.213025E1,3.1423336E1,0E0,0E0,0E0,0E0,0E0,0E0,0E0,0E0],"parents":[2147483647,0,0,1,1,2,2,3,3,4,4,5,5,6,6],"right_children":[2,4,6,8,10,12,14,-1,-1,-1,-1,-1,-1,-1,-1],"split_conditions":[1.5E1,3.8E0,-1.4E0,2.3E1,1.17E1,-4.9E0,2.4E1,3.1653359E-3,5.6238812E-3,2.429654E-4,3.0873676E-3,-5.028897E-4,2.9298877E-3,-6.4849015E-4,-3.030041E-3],"split_indices":[51,77,77,80,66,25,51,0,0,0,0,0,0,0,0],"split_type":[0,0,0,0,0,0,0,0,0,0,0,0,0,0,0],"sum_hessian":[6.7780537E3,3.3036584E3,3.4743955E3,2.3997485E3,9.039097E2,1.2123535E3,2.2620417E3,1.7621483E3,6.376003E2,7.571696E2,1.4674014E2,4.1320584E2,7.991477E2,1.2923065E3,9.697353E2],"tree_param":{"num_deleted":"0","num_feature":"106","num_nodes":"15","size_leaf_vector":"1"}},{"base_weights":[-1.1933361E-1,-2.3106219E-1,1.4059977E-1,-9.5508166E-2,-3.8657665E-1,-2.4974383E-2,2.8665647E-1,-2.3094872E-3,2.7144264E-4,-5.4339743E-3,-3.1835905E-3,1.5302766E-3,-1.3899539E-3,4.2004664E-3,2.0493744E-3],"categories":[],"categories_nodes":[],"categories_segments":[],"categories_sizes":[],"default_left":[0,0,0,0,0,0,0,0,0,0,0,0,0,0,0],"id":42,"left_children":[1,3,5,7,9,11,13,-1,-1,-1,-1,-1,-1,-1,-1],"loss_changes":[1.9684756E2,9.988573E1,4.92899E1,4.2099167E1,2.3438995E1,1.9425203E1,1.1717453E1,0E0,0E0,0E0,0E0,0E0,0E0,0E0,0E0],"parents":[2147483647,0,0,1,1,2,2,3,3,4,4,5,5,6,6],"right_children":[2,4,6,8,10,12,14,-1,-1,-1,-1,-1,-1,-1,-1],"split_conditions":[2E1,1.4E1,-2E-1,1E1,7E0,-6.3E0,-6.3E0,-2.3094872E-3,2.7144264E-4,-5.4339743E-3,-3.1835905E-3,1.5302766E-3,-1.3899539E-3,4.2004664E-3,2.0493744E-3],"split_indices":[28,80,77,51,51,25,25,0,0,0,0,0,0,0,0],"split_type":[0,0,0,0,0,0,0,0,0,0,0,0,0,0,0],"sum_hessian":[6.775916E3,4.739026E3,2.0368901E3,2.532868E3,2.2061577E3,9.550484E2,1.0818417E3,1.2032645E3,1.3296035E3,6.6665796E2,1.5394999E3,3.7276703E2,5.822813E2,4.0941403E2,6.724277E2],"tree_param":{"num_deleted":"0","num_feature":"106","num_nodes":"15","size_leaf_vector":"1"}},{"base_weights":[1.193336E-1,2.3106217E-1,-1.4059977E-1,9.5508166E-2,3.8657662E-1,2.4974361E-2,-2.8665647E-1,2.3094872E-3,-2.714426E-4,5.4339743E-3,3.18359E-3,-1.5302766E-3,1.3899537E-3,-4.200467E-3,-2.0493742E-3],"categories":[],"categories_nodes":[],"categories_segments":[],"categories_sizes":[],"default_left":[0,0,0,0,0,0,0,0,0,0,0,0,0,0,0],"id":43,"left_children":[1,3,5,7,9,11,13,-1,-1,-1,-1,-1,-1,-1,-1],"loss_changes":[1.9684758E2,9.98857E1,4.9289886E1,4.2099167E1,2.3439056E1,1.9425198E1,1.1717461E1,0E0,0E0,0E0,0E0,0E0,0E0,0E0,0E0],"parents":[2147483647,0,0,1,1,2,2,3,3,4,4,5,5,6,6],"right_children":[2,4,6,8,10,12,14,-1,-1,-1,-1,-1,-1,-1,-1],"split_conditions":[2E1,1.4E1,-2E-1,1E1,7E0,-6.3E0,-6.3E0,2.3094872E-3,-2.714426E-4,5.4339743E-3,3.18359E-3,-1.5302766E-3,1.3899537E-3,-4.200467E-3,-2.0493742E-3],"split_indices":[28,80,77,51,51,25,25,0,0,0,0,0,0,0,0],"split_type":[0,0,0,0,0,0,0,0,0,0,0,0,0,0,0],"sum_hessian":[6.775916E3,4.739026E3,2.0368901E3,2.532868E3,2.2061577E3,9.550484E2,1.0818418E3,1.2032645E3,1.3296035E3,6.666579E2,1.5394999E3,3.7276706E2,5.822813E2,4.0941403E2,6.7242773E2],"tree_param":{"num_deleted":"0","num_feature":"106","num_nodes":"15","size_leaf_vector":"1"}},{"base_weights":[-1.1817974E-1,-2.9153553E-1,4.6615675E-2,-3.7551516E-1,-6.862807E-2,-1.7300585E-1,1.643289E-1,-3.1079755E-3,-5.538426E-3,-2.2639011E-4,-3.0423366E-3,4.929626E-4,-2.8794238E-3,6.413496E-4,2.977365E-3],"categories":[],"categories_nodes":[],"categories_segments":[],"categories_sizes":[],"default_left":[0,0,0,0,0,0,0,0,0,0,0,0,0,0,0],"id":44,"left_children":[1,3,5,7,9,11,13,-1,-1,-1,-1,-1,-1,-1,-1],"loss_changes":[1.9355516E2,6.178177E1,8.983872E1,2.750296E1,9.796279E0,3.1000256E1,3.0219402E1,0E0,0E0,0E0,0E0,0E0,0E0,0E0,0E0],"parents":[2147483647,0,0,1,1,2,2,3,3,4,4,5,5,6,6],"right_children":[2,4,6,8,10,12,14,-1,-1,-1,-1,-1,-1,-1,-1],"split_conditions":[1.5E1,3.8E0,-1.4E0,2.3E1,1.17E1,-4.9E0,2.4E1,-3.1079755E-3,-5.538426E-3,-2.2639011E-4,-3.0423366E-3,4.929626E-4,-2.8794238E-3,6.413496E-4,2.977365E-3],"split_indices":[51,77,77,80,66,25,51,0,0,0,0,0,0,0,0],"split_type":[0,0,0,0,0,0,0,0,0,0,0,0,0,0,0],"sum_hessian":[6.773711E3,3.3007417E3,3.4729692E3,2.3969968E3,9.0374506E2,1.2117314E3,2.2612378E3,1.7607412E3,6.3625555E2,7.570656E2,1.4667941E2,4.1317282E2,7.985586E2,1.2922169E3,9.690209E2],"tree_param":{"num_deleted":"0","num_feature":"106","num_nodes":"15","size_leaf_vector":"1"}},{"base_weights":[1.18179746E-1,2.9153553E-1,-4.6615664E-2,3.7551516E-1,6.862805E-2,1.7300583E-1,-1.6432887E-1,3.1079757E-3,5.538426E-3,2.2638979E-4,3.042337E-3,-4.929626E-4,2.8794233E-3,-6.413493E-4,-2.9773647E-3],"categories":[],"categories_nodes":[],"categories_segments":[],"categories_sizes":[],"default_left":[0,0,0,0,0,0,0,0,0,0,0,0,0,0,0],"id":45,"left_children":[1,3,5,7,9,11,13,-1,-1,-1,-1,-1,-1,-1,-1],"loss_changes":[1.9355515E2,6.17818E1,8.98387E1,2.750296E1,9.796281E0,3.1000248E1,3.0219402E1,0E0,0E0,0E0,0E0,0E0,0E0,0E0,0E0],"parents":[2147483647,0,0,1,1,2,2,3,3,4,4,5,5,6,6],"right_children":[2,4,6,8,10,12,14,-1,-1,-1,-1,-1,-1,-1,-1],"split_conditions":[1.5E1,3.8E0,-1.4E0,2.3E1,1.17E1,-4.9E0,2.4E1,3.1079757E-3,5.538426E-3,2.2638979E-4,3.042337E-3,-4.929626E-4,2.8794233E-3,-6.413493E-4,-2.9773647E-3],"split_indices":[51,77,77,80,66,25,51,0,0,0,0,0,0,0,0],"split_type":[0,0,0,0,0,0,0,0,0,0,0,0,0,0,0],"sum_hessian":[6.773711E3,3.3007417E3,3.4729692E3,2.3969968E3,9.0374506E2,1.2117314E3,2.2612378E3,1.7607412E3,6.362555E2,7.570656E2,1.4667941E2,4.1317282E2,7.985586E2,1.2922169E3,9.690209E2],"tree_param":{"num_deleted":"0","num_feature":"106","num_nodes":"15","size_leaf_vector":"1"}},{"base_weights":[-1.1703962E-1,-2.2682646E-1,1.3830683E-1,-1.3754469E-1,-4.5653325E-1,-9.491875E-3,2.9674146E-1,-3.0573853E-3,-4.2447975E-4,-3.9633163E-3,-5.9093433E-3,1.2990148E-3,-1.5858138E-3,4.4636778E-3,2.269492E-3],"categories":[],"categories_nodes":[],"categories_segments":[],"categories_sizes":[],"default_left":[0,0,0,0,0,0,0,0,0,0,0,0,0,0,0],"id":46,"left_children":[1,3,5,7,9,11,13,-1,-1,-1,-1,-1,-1,-1,-1],"loss_changes":[1.8988716E2,9.707619E1,4.7700336E1,5.456449E1,1.048877E1,2.1941637E1,1.0165192E1,0E0,0E0,0E0,0E0,0E0,0E0,0E0,0E0],"parents":[2147483647,0,0,1,1,2,2,3,3,4,4,5,5,6,6],"right_children":[2,4,6,8,10,12,14,-1,-1,-1,-1,-1,-1,-1,-1],"split_conditions":[2E1,2E1,5.14E-1,7E0,3.7E1,-4.9E0,-7E0,-3.0573853E-3,-4.2447975E-4,-3.9633163E-3,-5.9093433E-3,1.2990148E-3,-1.5858138E-3,4.4636778E-3,2.269492E-3],"split_indices":[28,80,55,27,54,25,25,0,0,0,0,0,0,0,0],"split_type":[0,0,0,0,0,0,0,0,0,0,0,0,0,0,0],"sum_hessian":[6.7714185E3,4.735493E3,2.0359254E3,3.411226E3,1.3242668E3,1.0538044E3,9.8212103E2,1.2312852E3,2.1799412E3,9.173235E2,4.0694333E2,5.4467834E2,5.0912607E2,3.1067493E2,6.714461E2],"tree_param":{"num_deleted":"0","num_feature":"106","num_nodes":"15","size_leaf_vector":"1"}},{"base_weights":[1.1703961E-1,2.2682646E-1,-1.3830684E-1,1.3754469E-1,4.5653325E-1,9.491873E-3,-2.967415E-1,3.0573856E-3,4.2447966E-4,3.9633163E-3,5.9093433E-3,-1.299015E-3,1.5858138E-3,-4.4636787E-3,-2.269492E-3],"categories":[],"categories_nodes":[],"categories_segments":[],"categories_sizes":[],"default_left":[0,0,0,0,0,0,0,0,0,0,0,0,0,0,0],"id":47,"left_children":[1,3,5,7,9,11,13,-1,-1,-1,-1,-1,-1,-1,-1],"loss_changes":[1.898872E2,9.707619E1,4.7700344E1,5.45645E1,1.048877E1,2.194164E1,1.0165207E1,0E0,0E0,0E0,0E0,0E0,0E0,0E0,0E0],"parents":[2147483647,0,0,1,1,2,2,3,3,4,4,5,5,6,6],"right_children":[2,4,6,8,10,12,14,-1,-1,-1,-1,-1,-1,-1,-1],"split_conditions":[2E1,2E1,5.14E-1,7E0,3.7E1,-4.9E0,-7E0,3.0573856E-3,4.2447966E-4,3.9633163E-3,5.9093433E-3,-1.299015E-3,1.5858138E-3,-4.4636787E-3,-2.269492E-3],"split_indices":[28,80,55,27,54,25,25,0,0,0,0,0,0,0,0],"split_type":[0,0,0,0,0,0,0,0,0,0,0,0,0,0,0],"sum_hessian":[6.7714185E3,4.735493E3,2.0359254E3,3.411226E3,1.3242668E3,1.0538044E3,9.8212103E2,1.2312852E3,2.179941E3,9.173235E2,4.0694333E2,5.4467834E2,5.0912607E2,3.106749E2,6.714461E2],"tree_param":{"num_deleted":"0","num_feature":"106","num_nodes":"15","size_leaf_vector":"1"}},{"base_weights":[-1.1591024E-1,-2.8638822E-1,4.6072353E-2,-3.6941186E-1,-6.623597E-2,-1.8706372E-1,1.5350616E-1,-3.0578268E-3,-5.4502753E-3,-2.0726584E-4,-2.9946994E-3,4.8499694E-4,-2.9589343E-3,5.643172E-4,2.8196138E-3],"categories":[],"categories_nodes":[],"categories_segments":[],"categories_sizes":[],"default_left":[0,0,0,0,0,0,0,0,0,0,0,0,0,0,0],"id":48,"left_children":[1,3,5,7,9,11,13,-1,-1,-1,-1,-1,-1,-1,-1],"loss_changes":[1.8696614E2,6.0268524E1,8.700123E1,2.659732E1,9.595032E0,2.8107487E1,2.963184E1,0E0,0E0,0E0,0E0,0E0,0E0,0E0,0E0],"parents":[2147483647,0,0,1,1,2,2,3,3,4,4,5,5,6,6],"right_children":[2,4,6,8,10,12,14,-1,-1,-1,-1,-1,-1,-1,-1],"split_conditions":[1.5E1,3.8E0,-1.9E0,2.3E1,1.17E1,3.33E-1,2.4E1,-3.0578268E-3,-5.4502753E-3,-2.0726584E-4,-2.9946994E-3,4.8499694E-4,-2.9589343E-3,5.643172E-4,2.8196138E-3],"split_indices":[51,77,77,80,66,3,51,0,0,0,0,0,0,0,0],"split_type":[0,0,0,0,0,0,0,0,0,0,0,0,0,0,0],"sum_hessian":[6.769109E3,3.2976946E3,3.4714143E3,2.3941404E3,9.035541E2,1.0948344E3,2.3765798E3,1.759411E3,6.3472943E2,7.569453E2,1.466088E2,3.4614752E2,7.486868E2,1.3544515E3,1.0221284E3],"tree_param":{"num_deleted":"0","num_feature":"106","num_nodes":"15","size_leaf_vector":"1"}},{"base_weights":[1.1591025E-1,2.8638822E-1,-4.6072353E-2,3.6941183E-1,6.623598E-2,1.8706371E-1,-1.5350614E-1,3.0578268E-3,5.450275E-3,2.072661E-4,2.9946992E-3,-4.8499714E-4,2.958934E-3,-5.6431704E-4,-2.8196138E-3],"categories":[],"categories_nodes":[],"categories_segments":[],"categories_sizes":[],"default_left":[0,0,0,0,0,0,0,0,0,0,0,0,0,0,0],"id":49,"left_children":[1,3,5,7,9,11,13,-1,-1,-1,-1,-1,-1,-1,-1],"loss_changes":[1.8696614E2,6.0268524E1,8.7001205E1,2.659729E1,9.595028E0,2.8107483E1,2.963184E1,0E0,0E0,0E0,0E0,0E0,0E0,0E0,0E0],"parents":[2147483647,0,0,1,1,2,2,3,3,4,4,5,5,6,6],"right_children":[2,4,6,8,10,12,14,-1,-1,-1,-1,-1,-1,-1,-1],"split_conditions":[1.5E1,3.8E0,-1.9E0,2.3E1,1.17E1,3.33E-1,2.4E1,3.0578268E-3,5.450275E-3,2.072661E-4,2.9946992E-3,-4.8499714E-4,2.958934E-3,-5.6431704E-4,-2.8196138E-3],"split_indices":[51,77,77,80,66,3,51,0,0,0,0,0,0,0,0],"split_type":[0,0,0,0,0,0,0,0,0,0,0,0,0,0,0],"sum_hessian":[6.769109E3,3.2976946E3,3.4714143E3,2.3941404E3,9.035541E2,1.0948344E3,2.3765798E3,1.759411E3,6.3472943E2,7.569453E2,1.466088E2,3.461475E2,7.486868E2,1.3544515E3,1.0221284E3],"tree_param":{"num_deleted":"0","num_feature":"106","num_nodes":"15","size_leaf_vector":"1"}},{"base_weights":[-1.14794105E-1,-2.8367335E-1,4.5621496E-2,-3.6597145E-1,-6.5580934E-2,-1.8525127E-1,1.5199845E-1,-3.0285825E-3,-5.403255E-3,-2.051987E-4,-2.9658E-3,3.4871756E-4,-2.995294E-3,5.586787E-4,2.7925435E-3],"categories":[],"categories_nodes":[],"categories_segments":[],"categories_sizes":[],"default_left":[0,0,0,0,0,0,0,0,0,0,0,0,0,0,0],"id":50,"left_children":[1,3,5,7,9,11,13,-1,-1,-1,-1,-1,-1,-1,-1],"loss_changes":[1.8335577E2,5.915277E1,8.529112E1,2.6174652E1,9.408945E0,2.7568172E1,2.9064861E1,0E0,0E0,0E0,0E0,0E0,0E0,0E0,0E0],"parents":[2147483647,0,0,1,1,2,2,3,3,4,4,5,5,6,6],"right_children":[2,4,6,8,10,12,14,-1,-1,-1,-1,-1,-1,-1,-1],"split_conditions":[1.5E1,3.8E0,-1.9E0,2.3E1,1.17E1,-4.9E0,2.4E1,-3.0285825E-3,-5.403255E-3,-2.051987E-4,-2.9658E-3,3.4871756E-4,-2.995294E-3,5.586787E-4,2.7925435E-3],"split_indices":[51,77,77,80,66,25,51,0,0,0,0,0,0,0,0],"split_type":[0,0,0,0,0,0,0,0,0,0,0,0,0,0,0],"sum_hessian":[6.7667E3,3.2960159E3,3.470684E3,2.392513E3,9.03503E2,1.0945062E3,2.376178E3,1.7586494E3,6.3386346E2,7.5693604E2,1.4656693E2,3.7427365E2,7.202326E2,1.35445E3,1.02172797E3],"tree_param":{"num_deleted":"0","num_feature":"106","num_nodes":"15","size_leaf_vector":"1"}},{"base_weights":[1.147941E-1,2.8367332E-1,-4.56215E-2,3.6597142E-1,6.5580934E-2,1.8525125E-1,-1.5199845E-1,3.0285825E-3,5.403255E-3,2.0519864E-4,2.9658005E-3,-3.4871756E-4,2.9952936E-3,-5.586786E-4,-2.7925437E-3],"categories":[],"categories_nodes":[],"categories_segments":[],"categories_sizes":[],"default_left":[0,0,0,0,0,0,0,0,0,0,0,0,0,0,0],"id":51,"left_children":[1,3,5,7,9,11,13,-1,-1,-1,-1,-1,-1,-1,-1],"loss_changes":[1.8335577E2,5.915274E1,8.529111E1,2.6174683E1,9.408947E0,2.7568165E1,2.9064861E1,0E0,0E0,0E0,0E0,0E0,0E0,0E0,0E0],"parents":[2147483647,0,0,1,1,2,2,3,3,4,4,5,5,6,6],"right_children":[2,4,6,8,10,12,14,-1,-1,-1,-1,-1,-1,-1,-1],"split_conditions":[1.5E1,3.8E0,-1.9E0,2.3E1,1.17E1,-4.9E0,2.4E1,3.0285825E-3,5.403255E-3,2.0519864E-4,2.9658005E-3,-3.4871756E-4,2.9952936E-3,-5.586786E-4,-2.7925437E-3],"split_indices":[51,77,77,80,66,25,51,0,0,0,0,0,0,0,0],"split_type":[0,0,0,0,0,0,0,0,0,0,0,0,0,0,0],"sum_hessian":[6.7667E3,3.2960159E3,3.470684E3,2.392513E3,9.03503E2,1.0945062E3,2.376178E3,1.7586494E3,6.3386346E2,7.5693604E2,1.4656694E2,3.7427365E2,7.202326E2,1.35445E3,1.02172797E3],"tree_param":{"num_deleted":"0","num_feature":"106","num_nodes":"15","size_leaf_vector":"1"}},{"base_weights":[-1.13690466E-1,9.872075E-2,-2.3914967E-1,-4.3933447E-2,2.5124314E-1,-3.3452326E-1,-3.1291958E-2,1.1576071E-3,-1.7586879E-3,1.205323E-3,3.2069641E-3,-4.5286696E-3,-2.4797856E-3,9.057352E-4,-1.5751506E-3],"categories":[],"categories_nodes":[],"categories_segments":[],"categories_sizes":[],"default_left":[0,0,0,0,0,0,0,0,0,0,0,0,0,0,0],"id":52,"left_children":[1,3,5,7,9,11,13,-1,-1,-1,-1,-1,-1,-1,-1],"loss_changes":[1.8030878E2,5.4684036E1,8.430968E1,2.739454E1,1.0987267E1,2.9748352E1,2.0609598E1,0E0,0E0,0E0,0E0,0E0,0E0,0E0,0E0],"parents":[2147483647,0,0,1,1,2,2,3,3,4,4,5,5,6,6],"right_children":[2,4,6,8,10,12,14,-1,-1,-1,-1,-1,-1,-1,-1],"split_conditions":[4.62E-1,5.14E-1,3.1E0,-4.9E0,2.2E1,-1.9E0,3.1E0,1.1576071E-3,-1.7586879E-3,1.205323E-3,3.2069641E-3,-4.5286696E-3,-2.4797856E-3,9.057352E-4,-1.5751506E-3],"split_indices":[3,55,77,25,28,77,25,0,0,0,0,0,0,0,0],"split_type":[0,0,0,0,0,0,0,0,0,0,0,0,0,0,0],"sum_hessian":[6.76419E3,2.5117812E3,4.2524087E3,1.2982449E3,1.2135365E3,2.9145054E3,1.3379033E3,5.8739105E2,7.108538E2,4.2202405E2,7.9151245E2,1.229297E3,1.6852084E3,6.8084534E2,6.570579E2],"tree_param":{"num_deleted":"0","num_feature":"106","num_nodes":"15","size_leaf_vector":"1"}},{"base_weights":[1.1369046E-1,-9.8720744E-2,2.3914966E-1,4.393344E-2,-2.512431E-1,3.3452326E-1,3.129192E-2,-1.1576071E-3,1.7586878E-3,-1.2053228E-3,-3.2069637E-3,4.528669E-3,2.4797856E-3,-9.057356E-4,1.5751504E-3],"categories":[],"categories_nodes":[],"categories_segments":[],"categories_sizes":[],"default_left":[0,0,0,0,0,0,0,0,0,0,0,0,0,0,0],"id":53,"left_children":[1,3,5,7,9,11,13,-1,-1,-1,-1,-1,-1,-1,-1],"loss_changes":[1.8030875E2,5.468403E1,8.430971E1,2.7394537E1,1.0987259E1,2.9748352E1,2.0609602E1,0E0,0E0,0E0,0E0,0E0,0E0,0E0,0E0],"parents":[2147483647,0,0,1,1,2,2,3,3,4,4,5,5,6,6],"right_children":[2,4,6,8,10,12,14,-1,-1,-1,-1,-1,-1,-1,-1],"split_conditions":[4.62E-1,5.14E-1,3.1E0,-4.9E0,2.2E1,-1.9E0,3.1E0,-1.1576071E-3,1.7586878E-3,-1.2053228E-3,-3.2069637E-3,4.528669E-3,2.4797856E-3,-9.057356E-4,1.5751504E-3],"split_indices":[3,55,77,25,28,77,25,0,0,0,0,0,0,0,0],"split_type":[0,0,0,0,0,0,0,0,0,0,0,0,0,0,0],"sum_hessian":[6.76419E3,2.5117812E3,4.2524087E3,1.2982449E3,1.2135365E3,2.9145054E3,1.3379033E3,5.8739105E2,7.108538E2,4.2202405E2,7.915125E2,1.229297E3,1.6852084E3,6.8084534E2,6.570579E2],"tree_param":{"num_deleted":"0","num_feature":"106","num_nodes":"15","size_leaf_vector":"1"}},{"base_weights":[-1.12596504E-1,4.3026246E-2,-2.8100744E-1,-1.8371718E-1,1.477887E-1,-3.6470366E-1,-6.1190356E-2,4.7587944E-4,-2.8837507E-3,5.407166E-4,2.7458458E-3,-2.8547263E-3,-4.909912E-3,-1.7550052E-3,3.2113455E-4],"categories":[],"categories_nodes":[],"categories_segments":[],"categories_sizes":[],"default_left":[0,0,0,0,0,0,0,0,0,0,0,0,0,0,0],"id":54,"left_children":[1,3,5,7,9,11,13,-1,-1,-1,-1,-1,-1,-1,-1],"loss_changes":[1.7725206E2,8.353859E1,5.9734375E1,2.6919884E1,2.8565853E1,2.3395203E1,9.571266E0,0E0,0E0,0E0,0E0,0E0,0E0,0E0,0E0],"parents":[2147483647,0,0,1,1,2,2,3,3,4,4,5,5,6,6],"right_children":[2,4,6,8,10,12,14,-1,-1,-1,-1,-1,-1,-1,-1],"split_conditions":[6E-1,-1.9E0,3.8E0,3.33E-1,2.4E1,2E1,6E0,4.7587944E-4,-2.8837507E-3,5.407166E-4,2.7458458E-3,-2.8547263E-3,-4.909912E-3,-1.7550052E-3,3.2113455E-4],"split_indices":[25,77,77,3,51,80,77,0,0,0,0,0,0,0,0],"split_type":[0,0,0,0,0,0,0,0,0,0,0,0,0,0,0],"sum_hessian":[6.7616724E3,3.51465E3,3.2470225E3,1.1104612E3,2.4041887E3,2.3511528E3,8.958697E2,3.4609647E2,7.643647E2,1.3832391E3,1.02094965E3,1.4467456E3,9.0440717E2,4.0221692E2,4.9365277E2],"tree_param":{"num_deleted":"0","num_feature":"106","num_nodes":"15","size_leaf_vector":"1"}},{"base_weights":[1.12596504E-1,-4.3026235E-2,2.8100744E-1,1.8371719E-1,-1.4778869E-1,3.6470366E-1,6.119034E-2,-4.758794E-4,2.883751E-3,-5.407166E-4,-2.7458456E-3,2.8547263E-3,4.9099117E-3,1.7550051E-3,-3.211347E-4],"categories":[],"categories_nodes":[],"categories_segments":[],"categories_sizes":[],"default_left":[0,0,0,0,0,0,0,0,0,0,0,0,0,0,0],"id":55,"left_children":[1,3,5,7,9,11,13,-1,-1,-1,-1,-1,-1,-1,-1],"loss_changes":[1.7725206E2,8.35386E1,5.9734344E1,2.691988E1,2.8565853E1,2.3395203E1,9.571267E0,0E0,0E0,0E0,0E0,0E0,0E0,0E0,0E0],"parents":[2147483647,0,0,1,1,2,2,3,3,4,4,5,5,6,6],"right_children":[2,4,6,8,10,12,14,-1,-1,-1,-1,-1,-1,-1,-1],"split_conditions":[6E-1,-1.9E0,3.8E0,3.33E-1,2.4E1,2E1,6E0,-4.758794E-4,2.883751E-3,-5.407166E-4,-2.7458456E-3,2.8547263E-3,4.9099117E-3,1.7550051E-3,-3.211347E-4],"split_indices":[25,77,77,3,51,80,77,0,0,0,0,0,0,0,0],"split_type":[0,0,0,0,0,0,0,0,0,0,0,0,0,0,0],"sum_hessian":[6.7616724E3,3.51465E3,3.2470225E3,1.1104612E3,2.4041887E3,2.3511528E3,8.958697E2,3.4609647E2,7.643647E2,1.3832391E3,1.0209496E3,1.4467456E3,9.0440717E2,4.0221692E2,4.9365274E2],"tree_param":{"num_deleted":"0","num_feature":"106","num_nodes":"15","size_leaf_vector":"1"}},{"base_weights":[-1.1151533E-1,-2.167673E-1,1.3308668E-1,-8.809845E-2,-3.6496654E-1,-2.368747E-2,2.7153757E-1,-2.175576E-3,2.8965969E-4,-5.179463E-3,-2.9858493E-3,1.446618E-3,-1.3155509E-3,4.1787857E-3,2.0263828E-3],"categories":[],"categories_nodes":[],"categories_segments":[],"categories_sizes":[],"default_left":[0,0,0,0,0,0,0,0,0,0,0,0,0,0,0],"id":56,"left_children":[1,3,5,7,9,11,13,-1,-1,-1,-1,-1,-1,-1,-1],"loss_changes":[1.7406564E2,9.009973E1,4.4163143E1,3.8369606E1,2.214914E1,1.736066E1,1.0808655E1,0E0,0E0,0E0,0E0,0E0,0E0,0E0,0E0],"parents":[2147483647,0,0,1,1,2,2,3,3,4,4,5,5,6,6],"right_children":[2,4,6,8,10,12,14,-1,-1,-1,-1,-1,-1,-1,-1],"split_conditions":[2E1,1.4E1,-2E-1,1E1,7E0,-6.3E0,-7E0,-2.175576E-3,2.8965969E-4,-5.179463E-3,-2.9858493E-3,1.446618E-3,-1.3155509E-3,4.1787857E-3,2.0263828E-3],"split_indices":[28,80,77,51,51,25,25,0,0,0,0,0,0,0,0],"split_type":[0,0,0,0,0,0,0,0,0,0,0,0,0,0,0],"sum_hessian":[6.759064E3,4.7257104E3,2.0333538E3,2.5303855E3,2.1953247E3,9.539652E2,1.0793887E3,1.2011736E3,1.3292119E3,6.6227545E2,1.5330492E3,3.724072E2,5.81558E2,3.438954E2,7.354932E2],"tree_param":{"num_deleted":"0","num_feature":"106","num_nodes":"15","size_leaf_vector":"1"}},{"base_weights":[1.1151532E-1,2.1676728E-1,-1.3308668E-1,8.809844E-2,3.6496654E-1,2.3687473E-2,-2.7153757E-1,2.1755758E-3,-2.8965969E-4,5.1794625E-3,2.9858493E-3,-1.4466181E-3,1.3155509E-3,-4.178785E-3,-2.026383E-3],"categories":[],"categories_nodes":[],"categories_segments":[],"categories_sizes":[],"default_left":[0,0,0,0,0,0,0,0,0,0,0,0,0,0,0],"id":57,"left_children":[1,3,5,7,9,11,13,-1,-1,-1,-1,-1,-1,-1,-1],"loss_changes":[1.7406563E2,9.009973E1,4.4163147E1,3.83696E1,2.2149109E1,1.7360662E1,1.080864E1,0E0,0E0,0E0,0E0,0E0,0E0,0E0,0E0],"parents":[2147483647,0,0,1,1,2,2,3,3,4,4,5,5,6,6],"right_children":[2,4,6,8,10,12,14,-1,-1,-1,-1,-1,-1,-1,-1],"split_conditions":[2E1,1.4E1,-2E-1,1E1,7E0,-6.3E0,-7E0,2.1755758E-3,-2.8965969E-4,5.1794625E-3,2.9858493E-3,-1.4466181E-3,1.3155509E-3,-4.178785E-3,-2.026383E-3],"split_indices":[28,80,77,51,51,25,25,0,0,0,0,0,0,0,0],"split_type":[0,0,0,0,0,0,0,0,0,0,0,0,0,0,0],"sum_hessian":[6.759064E3,4.72571E3,2.0333538E3,2.5303855E3,2.1953247E3,9.539652E2,1.0793887E3,1.2011736E3,1.3292119E3,6.6227545E2,1.5330492E3,3.724072E2,5.81558E2,3.438954E2,7.354932E2],"tree_param":{"num_deleted":"0","num_feature":"106","num_nodes":"15","size_leaf_vector":"1"}},{"base_weights":[-1.1044441E-1,-2.737623E-1,4.451412E-2,-3.537073E-1,-6.241631E-2,-1.6284554E-1,1.555633E-1,-2.9204395E-3,-5.245997E-3,-1.7893755E-4,-2.907784E-3,4.5866615E-4,-2.7104993E-3,6.2005565E-4,2.8045496E-3],"categories":[],"categories_nodes":[],"categories_segments":[],"categories_sizes":[],"default_left":[0,0,0,0,0,0,0,0,0,0,0,0,0,0,0],"id":58,"left_children":[1,3,5,7,9,11,13,-1,-1,-1,-1,-1,-1,-1,-1],"loss_changes":[1.7102551E2,5.5567825E1,7.9890495E1,2.4999695E1,9.187908E0,2.734095E1,2.6380444E1,0E0,0E0,0E0,0E0,0E0,0E0,0E0,0E0],"parents":[2147483647,0,0,1,1,2,2,3,3,4,4,5,5,6,6],"right_children":[2,4,6,8,10,12,14,-1,-1,-1,-1,-1,-1,-1,-1],"split_conditions":[1.5E1,3.8E0,-1.4E0,2.3E1,1.17E1,-4.9E0,2.4E1,-2.9204395E-3,-5.245997E-3,-1.7893755E-4,-2.907784E-3,4.5866615E-4,-2.7104993E-3,6.2005565E-4,2.8045496E-3],"split_indices":[51,77,77,80,66,25,51,0,0,0,0,0,0,0,0],"split_type":[0,0,0,0,0,0,0,0,0,0,0,0,0,0,0],"sum_hessian":[6.756418E3,3.2891094E3,3.4673088E3,2.3859219E3,9.031874E2,1.2091058E3,2.2582031E3,1.7552728E3,6.3064905E2,7.5673004E2,1.4645732E2,4.1302008E2,7.9608575E2,1.2919132E3,9.662898E2],"tree_param":{"num_deleted":"0","num_feature":"106","num_nodes":"15","size_leaf_vector":"1"}},{"base_weights":[1.1044442E-1,2.737623E-1,-4.451412E-2,3.5370734E-1,6.2416308E-2,1.6284554E-1,-1.5556328E-1,2.9204395E-3,5.245997E-3,1.789375E-4,2.907784E-3,-4.5866647E-4,2.7104993E-3,-6.2005577E-4,-2.8045496E-3],"categories":[],"categories_nodes":[],"categories_segments":[],"categories_sizes":[],"default_left":[0,0,0,0,0,0,0,0,0,0,0,0,0,0,0],"id":59,"left_children":[1,3,5,7,9,11,13,-1,-1,-1,-1,-1,-1,-1,-1],"loss_changes":[1.7102551E2,5.5567856E1,7.989049E1,2.4999664E1,9.187909E0,2.7340958E1,2.638044E1,0E0,0E0,0E0,0E0,0E0,0E0,0E0,0E0],"parents":[2147483647,0,0,1,1,2,2,3,3,4,4,5,5,6,6],"right_children":[2,4,6,8,10,12,14,-1,-1,-1,-1,-1,-1,-1,-1],"split_conditions":[1.5E1,3.8E0,-1.4E0,2.3E1,1.17E1,-4.9E0,2.4E1,2.9204395E-3,5.245997E-3,1.789375E-4,2.907784E-3,-4.5866647E-4,2.7104993E-3,-6.2005577E-4,-2.8045496E-3],"split_indices":[51,77,77,80,66,25,51,0,0,0,0,0,0,0,0],"split_type":[0,0,0,0,0,0,0,0,0,0,0,0,0,0,0],"sum_hessian":[6.756418E3,3.2891094E3,3.4673088E3,2.3859219E3,9.031874E2,1.2091058E3,2.2582031E3,1.7552728E3,6.3064905E2,7.5673004E2,1.4645732E2,4.1302008E2,7.960857E2,1.2919132E3,9.662898E2],"tree_param":{"num_deleted":"0","num_feature":"106","num_nodes":"15","size_leaf_vector":"1"}},{"base_weights":[-1.093867E-1,-2.1283004E-1,1.3093194E-1,-1.2815042E-1,-4.3188167E-1,-9.297049E-3,2.8143254E-1,-2.9056047E-3,-3.6473814E-4,-3.7217704E-3,-5.6544617E-3,1.2174229E-3,-1.494968E-3,4.257607E-3,2.143087E-3],"categories":[],"categories_nodes":[],"categories_segments":[],"categories_sizes":[],"default_left":[0,0,0,0,0,0,0,0,0,0,0,0,0,0,0],"id":60,"left_children":[1,3,5,7,9,11,13,-1,-1,-1,-1,-1,-1,-1,-1],"loss_changes":[1.6794437E2,8.754251E1,4.2912403E1,5.072091E1,1.0285385E1,1.9372503E1,9.40979E0,0E0,0E0,0E0,0E0,0E0,0E0,0E0,0E0],"parents":[2147483647,0,0,1,1,2,2,3,3,4,4,5,5,6,6],"right_children":[2,4,6,8,10,12,14,-1,-1,-1,-1,-1,-1,-1,-1],"split_conditions":[2E1,2E1,5.14E-1,7E0,3.7E1,-4.9E0,-7E0,-2.9056047E-3,-3.6473814E-4,-3.7217704E-3,-5.6544617E-3,1.2174229E-3,-1.494968E-3,4.257607E-3,2.143087E-3],"split_indices":[28,80,55,27,54,25,25,0,0,0,0,0,0,0,0],"split_type":[0,0,0,0,0,0,0,0,0,0,0,0,0,0,0],"sum_hessian":[6.7536587E3,4.7214575E3,2.0322012E3,3.4062686E3,1.315189E3,1.0524856E3,9.797156E2,1.2282275E3,2.178041E3,9.1151807E2,4.0367093E2,5.440834E2,5.0840225E2,3.093072E2,6.704084E2],"tree_param":{"num_deleted":"0","num_feature":"106","num_nodes":"15","size_leaf_vector":"1"}},{"base_weights":[1.093867E-1,2.1283002E-1,-1.3093194E-1,1.2815042E-1,4.3188167E-1,9.297024E-3,-2.8143254E-1,2.9056051E-3,3.6473805E-4,3.72177E-3,5.6544617E-3,-1.217423E-3,1.4949676E-3,-4.2576063E-3,-2.143087E-3],"categories":[],"categories_nodes":[],"categories_segments":[],"categories_sizes":[],"default_left":[0,0,0,0,0,0,0,0,0,0,0,0,0,0,0],"id":61,"left_children":[1,3,5,7,9,11,13,-1,-1,-1,-1,-1,-1,-1,-1],"loss_changes":[1.6794438E2,8.754248E1,4.291239E1,5.0720932E1,1.02854E1,1.9372501E1,9.409782E0,0E0,0E0,0E0,0E0,0E0,0E0,0E0,0E0],"parents":[2147483647,0,0,1,1,2,2,3,3,4,4,5,5,6,6],"right_children":[2,4,6,8,10,12,14,-1,-1,-1,-1,-1,-1,-1,-1],"split_conditions":[2E1,2E1,5.14E-1,7E0,3.7E1,-4.9E0,-7E0,2.9056051E-3,3.6473805E-4,3.72177E-3,5.6544617E-3,-1.217423E-3,1.4949676E-3,-4.2576063E-3,-2.143087E-3],"split_indices":[28,80,55,27,54,25,25,0,0,0,0,0,0,0,0],"split_type":[0,0,0,0,0,0,0,0,0,0,0,0,0,0,0],"sum_hessian":[6.7536587E3,4.7214575E3,2.0322012E3,3.4062686E3,1.315189E3,1.0524856E3,9.797156E2,1.2282275E3,2.178041E3,9.11518E2,4.0367093E2,5.440834E2,5.0840225E2,3.0930716E2,6.704084E2],"tree_param":{"num_deleted":"0","num_feature":"106","num_nodes":"15","size_leaf_vector":"1"}},{"base_weights":[-1.0833806E-1,4.198695E-2,-2.7120778E-1,-1.776804E-1,1.4342062E-1,-3.5295734E-1,-5.7028536E-2,4.6111195E-4,-2.791122E-3,3.179261E-3,8.017866E-4,-2.7611975E-3,-4.758307E-3,-1.7008944E-3,3.522778E-4],"categories":[],"categories_nodes":[],"categories_segments":[],"categories_sizes":[],"default_left":[0,0,0,0,0,0,0,0,0,0,0,0,0,0,0],"id":62,"left_children":[1,3,5,7,9,11,13,-1,-1,-1,-1,-1,-1,-1,-1],"loss_changes":[1.6532156E2,7.827987E1,5.6724594E1,2.5206707E1,2.6496082E1,2.2012238E1,9.3567705E0,0E0,0E0,0E0,0E0,0E0,0E0,0E0,0E0],"parents":[2147483647,0,0,1,1,2,2,3,3,4,4,5,5,6,6],"right_children":[2,4,6,8,10,12,14,-1,-1,-1,-1,-1,-1,-1,-1],"split_conditions":[6E-1,-1.9E0,3.8E0,3.33E-1,-5.9E0,2E1,6E0,4.6111195E-4,-2.791122E-3,3.179261E-3,8.017866E-4,-2.7611975E-3,-4.758307E-3,-1.7008944E-3,3.522778E-4],"split_indices":[25,77,77,3,25,80,77,0,0,0,0,0,0,0,0],"split_type":[0,0,0,0,0,0,0,0,0,0,0,0,0,0,0],"sum_hessian":[6.750932E3,3.5110527E3,3.2398792E3,1.1088807E3,2.402172E3,2.344402E3,8.954771E2,3.4601172E2,7.6286896E2,6.37918E2,1.7642542E3,1.4444056E3,8.999964E2,4.0199054E2,4.9348657E2],"tree_param":{"num_deleted":"0","num_feature":"106","num_nodes":"15","size_leaf_vector":"1"}},{"base_weights":[1.0833806E-1,-4.198696E-2,2.7120778E-1,1.776804E-1,-1.4342064E-1,3.5295734E-1,5.702852E-2,-4.6111277E-4,2.7911228E-3,-3.179261E-3,-8.0178684E-4,2.761198E-3,4.758307E-3,1.7008944E-3,-3.5227794E-4],"categories":[],"categories_nodes":[],"categories_segments":[],"categories_sizes":[],"default_left":[0,0,0,0,0,0,0,0,0,0,0,0,0,0,0],"id":63,"left_children":[1,3,5,7,9,11,13,-1,-1,-1,-1,-1,-1,-1,-1],"loss_changes":[1.653216E2,7.8279884E1,5.672461E1,2.5206722E1,2.6496078E1,2.2012238E1,9.356772E0,0E0,0E0,0E0,0E0,0E0,0E0,0E0,0E0],"parents":[2147483647,0,0,1,1,2,2,3,3,4,4,5,5,6,6],"right_children":[2,4,6,8,10,12,14,-1,-1,-1,-1,-1,-1,-1,-1],"split_conditions":[6E-1,-1.9E0,3.8E0,3.33E-1,-5.9E0,2E1,6E0,-4.6111277E-4,2.7911228E-3,-3.179261E-3,-8.0178684E-4,2.761198E-3,4.758307E-3,1.7008944E-3,-3.5227794E-4],"split_indices":[25,77,77,3,25,80,77,0,0,0,0,0,0,0,0],"split_type":[0,0,0,0,0,0,0,0,0,0,0,0,0,0,0],"sum_hessian":[6.750932E3,3.5110527E3,3.2398792E3,1.1088806E3,2.402172E3,2.344402E3,8.954771E2,3.460117E2,7.6286896E2,6.37918E2,1.7642542E3,1.4444056E3,8.9999646E2,4.0199054E2,4.934866E2],"tree_param":{"num_deleted":"0","num_feature":"106","num_nodes":"15","size_leaf_vector":"1"}},{"base_weights":[-1.07301086E-1,-2.665432E-1,4.365E-2,-3.4494275E-1,-5.968859E-2,-9.643713E-2,2.0057826E-1,-2.8461937E-3,-5.126098E-3,-1.5698322E-4,-2.8544648E-3,1.0440106E-3,-1.9980553E-3,1.0963619E-3,3.06894E-3],"categories":[],"categories_nodes":[],"categories_segments":[],"categories_sizes":[],"default_left":[0,0,0,0,0,0,0,0,0,0,0,0,0,0,0],"id":64,"left_children":[1,3,5,7,9,11,13,-1,-1,-1,-1,-1,-1,-1,-1],"loss_changes":[1.6224533E2,5.3245163E1,7.620612E1,2.3941956E1,8.972533E0,3.8048264E1,1.5773308E1,0E0,0E0,0E0,0E0,0E0,0E0,0E0,0E0],"parents":[2147483647,0,0,1,1,2,2,3,3,4,4,5,5,6,6],"right_children":[2,4,6,8,10,12,14,-1,-1,-1,-1,-1,-1,-1,-1],"split_conditions":[1.5E1,3.8E0,5.23E-1,2.3E1,1.17E1,-4.9E0,2.2E1,-2.8461937E-3,-5.126098E-3,-1.5698322E-4,-2.8544648E-3,1.0440106E-3,-1.9980553E-3,1.0963619E-3,3.06894E-3],"split_indices":[51,77,55,80,66,25,28,0,0,0,0,0,0,0,0],"split_type":[0,0,0,0,0,0,0,0,0,0,0,0,0,0,0],"sum_hessian":[6.748115E3,3.2835012E3,3.4646143E3,2.3805764E3,9.029248E2,1.8307347E3,1.6338796E3,1.7526901E3,6.278862E2,7.5657184E2,1.4635297E2,6.220743E2,1.2086604E3,8.8170447E2,7.521752E2],"tree_param":{"num_deleted":"0","num_feature":"106","num_nodes":"15","size_leaf_vector":"1"}},{"base_weights":[1.0730109E-1,2.665432E-1,-4.3649998E-2,3.4494278E-1,5.9688557E-2,9.6437134E-2,-2.0057826E-1,2.8461942E-3,5.126099E-3,1.5698282E-4,2.8544648E-3,-1.0440105E-3,1.9980553E-3,-1.0963617E-3,-3.0689402E-3],"categories":[],"categories_nodes":[],"categories_segments":[],"categories_sizes":[],"default_left":[0,0,0,0,0,0,0,0,0,0,0,0,0,0,0],"id":65,"left_children":[1,3,5,7,9,11,13,-1,-1,-1,-1,-1,-1,-1,-1],"loss_changes":[1.6224533E2,5.3245193E1,7.620612E1,2.3941956E1,8.972535E0,3.8048264E1,1.5773315E1,0E0,0E0,0E0,0E0,0E0,0E0,0E0,0E0],"parents":[2147483647,0,0,1,1,2,2,3,3,4,4,5,5,6,6],"right_children":[2,4,6,8,10,12,14,-1,-1,-1,-1,-1,-1,-1,-1],"split_conditions":[1.5E1,3.8E0,5.23E-1,2.3E1,1.17E1,-4.9E0,2.2E1,2.8461942E-3,5.126099E-3,1.5698282E-4,2.8544648E-3,-1.0440105E-3,1.9980553E-3,-1.0963617E-3,-3.0689402E-3],"split_indices":[51,77,55,80,66,25,28,0,0,0,0,0,0,0,0],"split_type":[0,0,0,0,0,0,0,0,0,0,0,0,0,0,0],"sum_hessian":[6.748115E3,3.2835012E3,3.4646143E3,2.3805764E3,9.029248E2,1.8307347E3,1.6338796E3,1.7526902E3,6.278862E2,7.5657184E2,1.4635297E2,6.220743E2,1.2086604E3,8.8170447E2,7.521751E2],"tree_param":{"num_deleted":"0","num_feature":"106","num_nodes":"15","size_leaf_vector":"1"}},{"base_weights":[-1.0627431E-1,9.361733E-2,-2.2453058E-1,-4.1232083E-2,2.3792136E-1,-3.0654183E-1,-4.195931E-3,1.0854267E-3,-1.6504575E-3,1.1450965E-3,3.0366345E-3,-4.3153544E-3,-2.2379674E-3,-1.6176549E-3,8.2848076E-4],"categories":[],"categories_nodes":[],"categories_segments":[],"categories_sizes":[],"default_left":[0,0,0,0,0,0,0,0,0,0,0,0,0,0,0],"id":66,"left_children":[1,3,5,7,9,11,13,-1,-1,-1,-1,-1,-1,-1,-1],"loss_changes":[1.594927E2,4.881991E1,7.659662E1,2.4078724E1,9.797218E0,3.185315E1,1.5797651E1,0E0,0E0,0E0,0E0,0E0,0E0,0E0,0E0],"parents":[2147483647,0,0,1,1,2,2,3,3,4,4,5,5,6,6],"right_children":[2,4,6,8,10,12,14,-1,-1,-1,-1,-1,-1,-1,-1],"split_conditions":[4.62E-1,5.14E-1,3.8E0,-4.9E0,2.2E1,8E0,6E0,1.0854267E-3,-1.6504575E-3,1.1450965E-3,3.0366345E-3,-4.3153544E-3,-2.2379674E-3,-1.6176549E-3,8.2848076E-4],"split_indices":[3,55,77,25,28,51,27,0,0,0,0,0,0,0,0],"split_type":[0,0,0,0,0,0,0,0,0,0,0,0,0,0,0],"sum_hessian":[6.745287E3,2.5073154E3,4.2379717E3,1.2964869E3,1.2108285E3,3.0881377E3,1.149834E3,5.867868E2,7.097002E2,4.217873E2,7.8904114E2,1.2283674E3,1.8597703E3,4.0885483E2,7.409792E2],"tree_param":{"num_deleted":"0","num_feature":"106","num_nodes":"15","size_leaf_vector":"1"}},{"base_weights":[1.0627431E-1,-9.361732E-2,2.2453058E-1,4.1232087E-2,-2.3792136E-1,3.0654183E-1,4.1959453E-3,-1.0854269E-3,1.6504576E-3,-1.1450964E-3,-3.0366348E-3,4.3153544E-3,2.2379672E-3,1.6176547E-3,-8.284804E-4],"categories":[],"categories_nodes":[],"categories_segments":[],"categories_sizes":[],"default_left":[0,0,0,0,0,0,0,0,0,0,0,0,0,0,0],"id":67,"left_children":[1,3,5,7,9,11,13,-1,-1,-1,-1,-1,-1,-1,-1],"loss_changes":[1.594927E2,4.8819912E1,7.659659E1,2.4078726E1,9.797211E0,3.185315E1,1.5797644E1,0E0,0E0,0E0,0E0,0E0,0E0,0E0,0E0],"parents":[2147483647,0,0,1,1,2,2,3,3,4,4,5,5,6,6],"right_children":[2,4,6,8,10,12,14,-1,-1,-1,-1,-1,-1,-1,-1],"split_conditions":[4.62E-1,5.14E-1,3.8E0,-4.9E0,2.2E1,8E0,6E0,-1.0854269E-3,1.6504576E-3,-1.1450964E-3,-3.0366348E-3,4.3153544E-3,2.2379672E-3,1.6176547E-3,-8.284804E-4],"split_indices":[3,55,77,25,28,51,27,0,0,0,0,0,0,0,0],"split_type":[0,0,0,0,0,0,0,0,0,0,0,0,0,0,0],"sum_hessian":[6.745287E3,2.5073154E3,4.2379717E3,1.2964869E3,1.2108285E3,3.0881377E3,1.149834E3,5.867868E2,7.097002E2,4.2178726E2,7.890412E2,1.2283674E3,1.8597703E3,4.0885483E2,7.409792E2],"tree_param":{"num_deleted":"0","num_feature":"106","num_nodes":"15","size_leaf_vector":"1"}},{"base_weights":[-1.0525605E-1,4.1055873E-2,-2.6394856E-1,-1.7418246E-1,1.4041466E-1,-3.4361765E-1,-5.568634E-2,4.4452172E-4,-2.7338641E-3,3.107831E-3,7.875413E-4,-2.6771205E-3,-4.652762E-3,-1.6747769E-3,3.551223E-4],"categories":[],"categories_nodes":[],"categories_segments":[],"categories_sizes":[],"default_left":[0,0,0,0,0,0,0,0,0,0,0,0,0,0,0],"id":68,"left_children":[1,3,5,7,9,11,13,-1,-1,-1,-1,-1,-1,-1,-1],"loss_changes":[1.5658551E2,7.507756E1,5.3656525E1,2.406226E1,2.5204762E1,2.148169E1,9.143986E0,0E0,0E0,0E0,0E0,0E0,0E0,0E0,0E0],"parents":[2147483647,0,0,1,1,2,2,3,3,4,4,5,5,6,6],"right_children":[2,4,6,8,10,12,14,-1,-1,-1,-1,-1,-1,-1,-1],"split_conditions":[6E-1,-1.9E0,3.8E0,3.33E-1,-5.9E0,2E1,6E0,4.4452172E-4,-2.7338641E-3,3.107831E-3,7.875413E-4,-2.6771205E-3,-4.652762E-3,-1.6747769E-3,3.551223E-4],"split_indices":[25,77,77,3,25,80,77,0,0,0,0,0,0,0,0],"split_type":[0,0,0,0,0,0,0,0,0,0,0,0,0,0,0],"sum_hessian":[6.742501E3,3.5084802E3,3.234021E3,1.1078406E3,2.4006394E3,2.338714E3,8.953069E2,3.4595206E2,7.6188855E2,6.36884E2,1.7637555E3,1.4421339E3,8.965801E2,4.018644E2,4.9344247E2],"tree_param":{"num_deleted":"0","num_feature":"106","num_nodes":"15","size_leaf_vector":"1"}},{"base_weights":[1.0525606E-1,-4.105587E-2,2.6394856E-1,1.7418247E-1,-1.4041464E-1,3.4361765E-1,5.5686373E-2,-4.4452163E-4,2.7338641E-3,-3.1078309E-3,-7.875414E-4,2.6771205E-3,4.652762E-3,1.6747772E-3,-3.5512197E-4],"categories":[],"categories_nodes":[],"categories_segments":[],"categories_sizes":[],"default_left":[0,0,0,0,0,0,0,0,0,0,0,0,0,0,0],"id":69,"left_children":[1,3,5,7,9,11,13,-1,-1,-1,-1,-1,-1,-1,-1],"loss_changes":[1.5658554E2,7.507756E1,5.3656494E1,2.4062256E1,2.5204754E1,2.1481659E1,9.143987E0,0E0,0E0,0E0,0E0,0E0,0E0,0E0,0E0],"parents":[2147483647,0,0,1,1,2,2,3,3,4,4,5,5,6,6],"right_children":[2,4,6,8,10,12,14,-1,-1,-1,-1,-1,-1,-1,-1],"split_conditions":[6E-1,-1.9E0,3.8E0,3.33E-1,-5.9E0,2E1,6E0,-4.4452163E-4,2.7338641E-3,-3.1078309E-3,-7.875414E-4,2.6771205E-3,4.652762E-3,1.6747772E-3,-3.5512197E-4],"split_indices":[25,77,77,3,25,80,77,0,0,0,0,0,0,0,0],"split_type":[0,0,0,0,0,0,0,0,0,0,0,0,0,0,0],"sum_hessian":[6.742501E3,3.5084802E3,3.2340208E3,1.1078406E3,2.4006394E3,2.338714E3,8.953069E2,3.4595206E2,7.618886E2,6.36884E2,1.7637555E3,1.4421339E3,8.965801E2,4.018644E2,4.9344244E2],"tree_param":{"num_deleted":"0","num_feature":"106","num_nodes":"15","size_leaf_vector":"1"}},{"base_weights":[-1.0425107E-1,-2.0350757E-1,1.2612092E-1,-1.1599731E-1,-4.016064E-1,-2.2389201E-2,2.5746483E-1,-3.9079434E-5,-2.470257E-3,-3.4604454E-3,-5.3202817E-3,1.398475E-3,-1.2209691E-3,1.7805682E-3,3.7986168E-3],"categories":[],"categories_nodes":[],"categories_segments":[],"categories_sizes":[],"default_left":[0,0,0,0,0,0,0,0,0,0,0,0,0,0,0],"id":70,"left_children":[1,3,5,7,9,11,13,-1,-1,-1,-1,-1,-1,-1,-1],"loss_changes":[1.5415405E2,8.162578E1,3.9608597E1,4.801225E1,1.0273361E1,1.5445996E1,1.0404892E1,0E0,0E0,0E0,0E0,0E0,0E0,0E0,0E0],"parents":[2147483647,0,0,1,1,2,2,3,3,4,4,5,5,6,6],"right_children":[2,4,6,8,10,12,14,-1,-1,-1,-1,-1,-1,-1,-1],"split_conditions":[2E1,1.9E1,-2E-1,2.8E0,3.7E1,-6.4E0,3.5E1,-3.9079434E-5,-2.470257E-3,-3.4604454E-3,-5.3202817E-3,1.398475E-3,-1.2209691E-3,1.7805682E-3,3.7986168E-3],"split_indices":[28,80,77,25,54,25,2,0,0,0,0,0,0,0,0],"split_type":[0,0,0,0,0,0,0,0,0,0,0,0,0,0,0],"sum_hessian":[6.739529E3,4.7102285E3,2.0293003E3,3.2681204E3,1.4421084E3,9.528009E2,1.0764994E3,1.7619097E3,1.5062107E3,1.01384607E3,4.2826227E2,3.625252E2,5.902757E2,6.543975E2,4.221019E2],"tree_param":{"num_deleted":"0","num_feature":"106","num_nodes":"15","size_leaf_vector":"1"}},{"base_weights":[1.0425108E-1,2.0350759E-1,-1.2612091E-1,1.15997314E-1,4.016064E-1,2.2389198E-2,-2.574648E-1,3.9079547E-5,2.470257E-3,3.4604454E-3,5.3202817E-3,-1.3984753E-3,1.2209691E-3,-1.780568E-3,-3.7986164E-3],"categories":[],"categories_nodes":[],"categories_segments":[],"categories_sizes":[],"default_left":[0,0,0,0,0,0,0,0,0,0,0,0,0,0,0],"id":71,"left_children":[1,3,5,7,9,11,13,-1,-1,-1,-1,-1,-1,-1,-1],"loss_changes":[1.5415405E2,8.162576E1,3.9608593E1,4.8012245E1,1.0273376E1,1.5446E1,1.0404884E1,0E0,0E0,0E0,0E0,0E0,0E0,0E0,0E0],"parents":[2147483647,0,0,1,1,2,2,3,3,4,4,5,5,6,6],"right_children":[2,4,6,8,10,12,14,-1,-1,-1,-1,-1,-1,-1,-1],"split_conditions":[2E1,1.9E1,-2E-1,2.8E0,3.7E1,-6.4E0,3.5E1,3.9079547E-5,2.470257E-3,3.4604454E-3,5.3202817E-3,-1.3984753E-3,1.2209691E-3,-1.780568E-3,-3.7986164E-3],"split_indices":[28,80,77,25,54,25,2,0,0,0,0,0,0,0,0],"split_type":[0,0,0,0,0,0,0,0,0,0,0,0,0,0,0],"sum_hessian":[6.739529E3,4.7102285E3,2.0293003E3,3.2681204E3,1.4421084E3,9.528009E2,1.0764994E3,1.7619097E3,1.5062107E3,1.01384607E3,4.2826227E2,3.6252524E2,5.902757E2,6.543975E2,4.221019E2],"tree_param":{"num_deleted":"0","num_feature":"106","num_nodes":"15","size_leaf_vector":"1"}},{"base_weights":[-1.03255264E-1,-2.5723046E-1,4.250079E-2,-3.3343112E-1,-5.6743596E-2,-1.8727395E-1,1.3274482E-1,-2.7424227E-3,-4.985239E-3,-1.3276612E-4,-2.7995573E-3,3.5237754E-4,-3.038397E-3,4.9229397E-4,2.434476E-3],"categories":[],"categories_nodes":[],"categories_segments":[],"categories_sizes":[],"default_left":[0,0,0,0,0,0,0,0,0,0,0,0,0,0,0],"id":72,"left_children":[1,3,5,7,9,11,13,-1,-1,-1,-1,-1,-1,-1,-1],"loss_changes":[1.51221E2,5.0037674E1,7.181264E1,2.3060883E1,8.763117E0,2.5343384E1,2.2975113E1,0E0,0E0,0E0,0E0,0E0,0E0,0E0,0E0],"parents":[2147483647,0,0,1,1,2,2,3,3,4,4,5,5,6,6],"right_children":[2,4,6,8,10,12,14,-1,-1,-1,-1,-1,-1,-1,-1],"split_conditions":[1.5E1,3.8E0,-2.4E0,2.3E1,1.17E1,-4.9E0,2.4E1,-2.7424227E-3,-4.985239E-3,-1.3276612E-4,-2.7995573E-3,3.5237754E-4,-3.038397E-3,4.9229397E-4,2.434476E-3],"split_indices":[51,77,77,80,66,25,51,0,0,0,0,0,0,0,0],"split_type":[0,0,0,0,0,0,0,0,0,0,0,0,0,0,0],"sum_hessian":[6.73657E3,3.2755488E3,3.461021E3,2.3729714E3,9.0257745E2,9.7569104E2,2.4853298E3,1.7486936E3,6.242779E2,7.563499E2,1.4622754E2,3.356563E2,6.400347E2,1.4174412E3,1.0678887E3],"tree_param":{"num_deleted":"0","num_feature":"106","num_nodes":"15","size_leaf_vector":"1"}},{"base_weights":[1.0325527E-1,2.5723046E-1,-4.2500794E-2,3.3343112E-1,5.674362E-2,1.8727393E-1,-1.3274482E-1,2.7424227E-3,4.985239E-3,1.327664E-4,2.7995573E-3,-3.5237765E-4,3.0383968E-3,-4.922939E-4,-2.434476E-3],"categories":[],"categories_nodes":[],"categories_segments":[],"categories_sizes":[],"default_left":[0,0,0,0,0,0,0,0,0,0,0,0,0,0,0],"id":73,"left_children":[1,3,5,7,9,11,13,-1,-1,-1,-1,-1,-1,-1,-1],"loss_changes":[1.5122098E2,5.003766E1,7.181262E1,2.3060883E1,8.763115E0,2.5343384E1,2.297511E1,0E0,0E0,0E0,0E0,0E0,0E0,0E0,0E0],"parents":[2147483647,0,0,1,1,2,2,3,3,4,4,5,5,6,6],"right_children":[2,4,6,8,10,12,14,-1,-1,-1,-1,-1,-1,-1,-1],"split_conditions":[1.5E1,3.8E0,-2.4E0,2.3E1,1.17E1,-4.9E0,2.4E1,2.7424227E-3,4.985239E-3,1.327664E-4,2.7995573E-3,-3.5237765E-4,3.0383968E-3,-4.922939E-4,-2.434476E-3],"split_indices":[51,77,77,80,66,25,51,0,0,0,0,0,0,0,0],"split_type":[0,0,0,0,0,0,0,0,0,0,0,0,0,0,0],"sum_hessian":[6.73657E3,3.275549E3,3.461021E3,2.3729714E3,9.0257745E2,9.7569104E2,2.4853298E3,1.7486936E3,6.242779E2,7.563499E2,1.4622754E2,3.356563E2,6.400347E2,1.4174412E3,1.0678887E3],"tree_param":{"num_deleted":"0","num_feature":"106","num_nodes":"15","size_leaf_vector":"1"}},{"base_weights":[-1.02271736E-1,-1.9984098E-1,1.2409058E-1,-7.907397E-2,-3.3975756E-1,-8.674178E-3,2.668026E-1,-2.0082965E-3,3.0759076E-4,-4.8767203E-3,-2.7584797E-3,1.508402E-3,-1.1147308E-3,4.0653646E-3,2.0203558E-3],"categories":[],"categories_nodes":[],"categories_segments":[],"categories_sizes":[],"default_left":[0,0,0,0,0,0,0,0,0,0,0,0,0,0,0],"id":74,"left_children":[1,3,5,7,9,11,13,-1,-1,-1,-1,-1,-1,-1,-1],"loss_changes":[1.4876262E2,7.949892E1,3.8447277E1,3.380429E1,2.047374E1,1.7269629E1,8.76828E0,0E0,0E0,0E0,0E0,0E0,0E0,0E0,0E0],"parents":[2147483647,0,0,1,1,2,2,3,3,4,4,5,5,6,6],"right_children":[2,4,6,8,10,12,14,-1,-1,-1,-1,-1,-1,-1,-1],"split_conditions":[2E1,1.4E1,5.14E-1,1E1,7E0,-6.3E0,-7E0,-2.0082965E-3,3.0759076E-4,-4.8767203E-3,-2.7584797E-3,1.508402E-3,-1.1147308E-3,4.0653646E-3,2.0203558E-3],"split_indices":[28,80,55,51,51,25,25,0,0,0,0,0,0,0,0],"split_type":[0,0,0,0,0,0,0,0,0,0,0,0,0,0,0],"sum_hessian":[6.733485E3,4.705419E3,2.0280656E3,2.5263774E3,2.1790415E3,1.0511353E3,9.769303E2,1.1977644E3,1.3286132E3,6.5543964E2,1.5236019E3,4.1175006E2,6.3938525E2,3.077301E2,6.692002E2],"tree_param":{"num_deleted":"0","num_feature":"106","num_nodes":"15","size_leaf_vector":"1"}},{"base_weights":[1.0227173E-1,1.9984098E-1,-1.240906E-1,7.907398E-2,3.3975756E-1,8.674137E-3,-2.6680258E-1,2.008297E-3,-3.075911E-4,4.87672E-3,2.7584797E-3,-1.5084026E-3,1.1147305E-3,-4.065364E-3,-2.0203558E-3],"categories":[],"categories_nodes":[],"categories_segments":[],"categories_sizes":[],"default_left":[0,0,0,0,0,0,0,0,0,0,0,0,0,0,0],"id":75,"left_children":[1,3,5,7,9,11,13,-1,-1,-1,-1,-1,-1,-1,-1],"loss_changes":[1.4876265E2,7.949893E1,3.844726E1,3.3804314E1,2.047374E1,1.7269634E1,8.768272E0,0E0,0E0,0E0,0E0,0E0,0E0,0E0,0E0],"parents":[2147483647,0,0,1,1,2,2,3,3,4,4,5,5,6,6],"right_children":[2,4,6,8,10,12,14,-1,-1,-1,-1,-1,-1,-1,-1],"split_conditions":[2E1,1.4E1,5.14E-1,1E1,7E0,-6.3E0,-7E0,2.008297E-3,-3.075911E-4,4.87672E-3,2.7584797E-3,-1.5084026E-3,1.1147305E-3,-4.065364E-3,-2.0203558E-3],"split_indices":[28,80,55,51,51,25,25,0,0,0,0,0,0,0,0],"split_type":[0,0,0,0,0,0,0,0,0,0,0,0,0,0,0],"sum_hessian":[6.733485E3,4.705419E3,2.0280657E3,2.5263774E3,2.1790415E3,1.0511353E3,9.769303E2,1.1977644E3,1.3286132E3,6.5543964E2,1.5236019E3,4.1175006E2,6.3938525E2,3.0773013E2,6.692002E2],"tree_param":{"num_deleted":"0","num_feature":"106","num_nodes":"15","size_leaf_vector":"1"}},{"base_weights":[-1.0129613E-1,9.0031125E-2,-2.1463051E-1,-1.5291846E-1,1.6428351E-1,-3.03236E-1,-2.2878524E-2,5.0507364E-4,-2.552156E-3,2.9623392E-3,9.994145E-4,-4.3448936E-3,-2.355142E-3,-9.579816E-4,1.6180077E-3],"categories":[],"categories_nodes":[],"categories_segments":[],"categories_sizes":[],"default_left":[0,0,0,0,0,0,0,0,0,0,0,0,0,0,0],"id":76,"left_children":[1,3,5,7,9,11,13,-1,-1,-1,-1,-1,-1,-1,-1],"loss_changes":[1.45983E2,4.5210606E1,7.182144E1,1.2225261E1,1.6262135E1,2.5598694E1,1.8023203E1,0E0,0E0,0E0,0E0,0E0,0E0,0E0,0E0],"parents":[2147483647,0,0,1,1,2,2,3,3,4,4,5,5,6,6],"right_children":[2,4,6,8,10,12,14,-1,-1,-1,-1,-1,-1,-1,-1],"split_conditions":[4.62E-1,3.71E-1,3.1E0,-6.3E0,-6.4E0,7E0,1.4E1,5.0507364E-4,-2.552156E-3,2.9623392E-3,9.994145E-4,-4.3448936E-3,-2.355142E-3,-9.579816E-4,1.6180077E-3],"split_indices":[3,55,77,25,25,51,51,0,0,0,0,0,0,0,0],"split_type":[0,0,0,0,0,0,0,0,0,0,0,0,0,0,0],"sum_hessian":[6.7304136E3,2.503796E3,4.2266177E3,5.858544E2,1.9179417E3,2.89042E3,1.3361975E3,1.9620059E2,3.896538E2,6.274943E2,1.2904473E3,9.819198E2,1.9085002E3,9.582993E2,3.7789816E2],"tree_param":{"num_deleted":"0","num_feature":"106","num_nodes":"15","size_leaf_vector":"1"}},{"base_weights":[1.01296134E-1,-9.003111E-2,2.1463051E-1,1.5291849E-1,-1.642835E-1,3.03236E-1,2.2878515E-2,-5.050727E-4,2.552156E-3,-2.9623392E-3,-9.994145E-4,4.3448936E-3,2.3551418E-3,9.5798157E-4,-1.6180077E-3],"categories":[],"categories_nodes":[],"categories_segments":[],"categories_sizes":[],"default_left":[0,0,0,0,0,0,0,0,0,0,0,0,0,0,0],"id":77,"left_children":[1,3,5,7,9,11,13,-1,-1,-1,-1,-1,-1,-1,-1],"loss_changes":[1.4598297E2,4.521061E1,7.182146E1,1.2225253E1,1.626213E1,2.5598663E1,1.8023201E1,0E0,0E0,0E0,0E0,0E0,0E0,0E0,0E0],"parents":[2147483647,0,0,1,1,2,2,3,3,4,4,5,5,6,6],"right_children":[2,4,6,8,10,12,14,-1,-1,-1,-1,-1,-1,-1,-1],"split_conditions":[4.62E-1,3.71E-1,3.1E0,-6.3E0,-6.4E0,7E0,1.4E1,-5.050727E-4,2.552156E-3,-2.9623392E-3,-9.994145E-4,